{"learner":{"attributes":{"scikit_learn":"{\"_estimator_type\": \"regressor\"}"},"feature_names":[],"feature_types":[],"gradient_booster":{"model":{"cats":{"enc":[],"feature_segments":[],"sorted_idx":[]},"gbtree_model_param":{"num_parallel_tree":"1","num_trees":"800"},"iteration_indptr":[0,1,2,3,4,5,6,7,8,9,10,11,12,13,14,15,16,17,18,19,20,21,22,23,24,25,26,27,28,29,30,31,32,33,34,35,36,37,38,39,40,41,42,43,44,45,46,47,48,49,50,51,52,53,54,55,56,57,58,59,60,61,62,63,64,65,66,67,68,69,70,71,72,73,74,75,76,77,78,79,80,81,82,83,84,85,86,87,88,89,90,91,92,93,94,95,96,97,98,99,100,101,102,103,104,105,106,107,108,109,110,111,112,113,114,115,116,117,118,119,120,121,122,123,124,125,126,127,128,129,130,131,132,133,134,135,136,137,138,139,140,141,142,143,144,145,146,147,148,149,150,151,152,153,154,155,156,157,158,159,160,161,162,163,164,165,166,167,168,169,170,171,172,173,174,175,176,177,178,179,180,181,182,183,184,185,186,187,188,189,190,191,192,193,194,195,196,197,198,199,200,201,202,203,204,205,206,207,208,209,210,211,212,213,214,215,216,217,218,219,220,221,222,223,224,225,226,227,228,229,230,231,232,233,234,235,236,237,238,239,240,241,242,243,244,245,246,247,248,249,250,251,252,253,254,255,256,257,258,259,260,261,262,263,264,265,266,267,268,269,270,271,272,273,274,275,276,277,278,279,280,281,282,283,284,285,286,287,288,289,290,291,292,293,294,295,296,297,298,299,300,301,302,303,304,305,306,307,308,309,310,311,312,313,314,315,316,317,318,319,320,321,322,323,324,325,326,327,328,329,330,331,332,333,334,335,336,337,338,339,340,341,342,343,344,345,346,347,348,349,350,351,352,353,354,355,356,357,358,359,360,361,362,363,364,365,366,367,368,369,370,371,372,373,374,375,376,377,378,379,380,381,382,383,384,385,386,387,388,389,390,391,392,393,394,395,396,397,398,399,400,401,402,403,404,405,406,407,408,409,410,411,412,413,414,415,416,417,418,419,420,421,422,423,424,425,426,427,428,429,430,431,432,433,434,435,436,437,438,439,440,441,442,443,444,445,446,447,448,449,450,451,452,453,454,455,456,457,458,459,460,461,462,463,464,465,466,467,468,469,470,471,472,473,474,475,476,477,478,479,480,481,482,483,484,485,486,487,488,489,490,491,492,493,494,495,496,497,498,499,500,501,502,503,504,505,506,507,508,509,510,511,512,513,514,515,516,517,518,519,520,521,522,523,524,525,526,527,528,529,530,531,532,533,534,535,536,537,538,539,540,541,542,543,544,545,546,547,548,549,550,551,552,553,554,555,556,557,558,559,560,561,562,563,564,565,566,567,568,569,570,571,572,573,574,575,576,577,578,579,580,581,582,583,584,585,586,587,588,589,590,591,592,593,594,595,596,597,598,599,600,601,602,603,604,605,606,607,608,609,610,611,612,613,614,615,616,617,618,619,620,621,622,623,624,625,626,627,628,629,630,631,632,633,634,635,636,637,638,639,640,641,642,643,644,645,646,647,648,649,650,651,652,653,654,655,656,657,658,659,660,661,662,663,664,665,666,667,668,669,670,671,672,673,674,675,676,677,678,679,680,681,682,683,684,685,686,687,688,689,690,691,692,693,694,695,696,697,698,699,700,701,702,703,704,705,706,707,708,709,710,711,712,713,714,715,716,717,718,719,720,721,722,723,724,725,726,727,728,729,730,731,732,733,734,735,736,737,738,739,740,741,742,743,744,745,746,747,748,749,750,751,752,753,754,755,756,757,758,759,760,761,762,763,764,765,766,767,768,769,770,771,772,773,774,775,776,777,778,779,780,781,782,783,784,785,786,787,788,789,790,791,792,793,794,795,796,797,798,799,800],"tree_info":[0,0,0,0,0,0,0,0,0,0,0,0,0,0,0,0,0,0,0,0,0,0,0,0,0,0,0,0,0,0,0,0,0,0,0,0,0,0,0,0,0,0,0,0,0,0,0,0,0,0,0,0,0,0,0,0,0,0,0,0,0,0,0,0,0,0,0,0,0,0,0,0,0,0,0,0,0,0,0,0,0,0,0,0,0,0,0,0,0,0,0,0,0,0,0,0,0,0,0,0,0,0,0,0,0,0,0,0,0,0,0,0,0,0,0,0,0,0,0,0,0,0,0,0,0,0,0,0,0,0,0,0,0,0,0,0,0,0,0,0,0,0,0,0,0,0,0,0,0,0,0,0,0,0,0,0,0,0,0,0,0,0,0,0,0,0,0,0,0,0,0,0,0,0,0,0,0,0,0,0,0,0,0,0,0,0,0,0,0,0,0,0,0,0,0,0,0,0,0,0,0,0,0,0,0,0,0,0,0,0,0,0,0,0,0,0,0,0,0,0,0,0,0,0,0,0,0,0,0,0,0,0,0,0,0,0,0,0,0,0,0,0,0,0,0,0,0,0,0,0,0,0,0,0,0,0,0,0,0,0,0,0,0,0,0,0,0,0,0,0,0,0,0,0,0,0,0,0,0,0,0,0,0,0,0,0,0,0,0,0,0,0,0,0,0,0,0,0,0,0,0,0,0,0,0,0,0,0,0,0,0,0,0,0,0,0,0,0,0,0,0,0,0,0,0,0,0,0,0,0,0,0,0,0,0,0,0,0,0,0,0,0,0,0,0,0,0,0,0,0,0,0,0,0,0,0,0,0,0,0,0,0,0,0,0,0,0,0,0,0,0,0,0,0,0,0,0,0,0,0,0,0,0,0,0,0,0,0,0,0,0,0,0,0,0,0,0,0,0,0,0,0,0,0,0,0,0,0,0,0,0,0,0,0,0,0,0,0,0,0,0,0,0,0,0,0,0,0,0,0,0,0,0,0,0,0,0,0,0,0,0,0,0,0,0,0,0,0,0,0,0,0,0,0,0,0,0,0,0,0,0,0,0,0,0,0,0,0,0,0,0,0,0,0,0,0,0,0,0,0,0,0,0,0,0,0,0,0,0,0,0,0,0,0,0,0,0,0,0,0,0,0,0,0,0,0,0,0,0,0,0,0,0,0,0,0,0,0,0,0,0,0,0,0,0,0,0,0,0,0,0,0,0,0,0,0,0,0,0,0,0,0,0,0,0,0,0,0,0,0,0,0,0,0,0,0,0,0,0,0,0,0,0,0,0,0,0,0,0,0,0,0,0,0,0,0,0,0,0,0,0,0,0,0,0,0,0,0,0,0,0,0,0,0,0,0,0,0,0,0,0,0,0,0,0,0,0,0,0,0,0,0,0,0,0,0,0,0,0,0,0,0,0,0,0,0,0,0,0,0,0,0,0,0,0,0,0,0,0,0,0,0,0,0,0,0,0,0,0,0,0,0,0,0,0,0,0,0,0,0,0,0,0,0,0,0,0,0,0,0,0,0,0,0,0,0,0,0,0,0,0,0,0,0,0,0,0,0,0,0,0,0,0,0,0,0,0,0,0,0,0,0,0,0,0,0,0,0,0,0,0,0,0,0,0,0,0,0,0,0,0,0,0,0,0,0,0,0,0,0,0,0,0,0,0,0,0,0,0,0,0,0,0,0,0,0,0,0,0,0,0,0,0,0,0,0,0,0,0,0,0,0,0,0,0,0,0,0,0,0,0,0,0,0,0,0,0,0,0,0,0,0,0,0,0,0,0,0,0,0,0,0,0,0,0,0,0,0,0,0],"trees":[{"base_weights":[-0E0,4.2368253E-4,-5.430773E-4,1.0145676E-3,1.71921E-4,-3.4627964E-4,-1.34669E-3,1.244704E-3,-0E0,4.37827E-4,6.9738817E-6,-1.6764319E-4,-8.841672E-4,-1.406341E-4,-2.054023E-3,1.5335812E-3,-0E0,5.1743456E-4,-0E0,1.1119034E-4,-5.7940164E-5,-0E0,-3.832012E-4,-0E0,-9.4009656E-4,-0E0,-5.1340694E-4,-2.1533389E-3,-0E0,1.617429E-5,-0E0,5.6030035E-6,-0E0,2.3046186E-6,-0E0,-0E0,-1.4782441E-6,6.600378E-7,-6.2130243E-7,-5.14309E-6,-0E0,-0E0,-9.903048E-6,-0E0,-6.166435E-6,-0E0,-2.2243741E-5],"categories":[],"categories_nodes":[],"categories_segments":[],"categories_sizes":[],"default_left":[0,0,0,0,0,0,0,0,0,0,0,0,0,0,0,0,0,0,0,0,0,0,0,0,0,0,0,0,0,0,0,0,0,0,0,0,0,0,0,0,0,0,0,0,0,0,0],"id":0,"left_children":[1,3,5,7,9,11,13,15,-1,17,19,21,23,25,27,29,-1,31,-1,33,35,37,39,-1,41,-1,43,45,-1,-1,-1,-1,-1,-1,-1,-1,-1,-1,-1,-1,-1,-1,-1,-1,-1,-1,-1],"loss_changes":[1.8407389E-3,5.4901605E-4,3.8284215E-4,3.2138196E-4,9.9191406E-5,1.7493818E-4,2.8070295E-4,3.4120504E-4,0E0,3.220352E-5,2.0639616E-5,7.593972E-5,3.7015212E-5,3.2253956E-5,1.0042044E-4,9.290001E-5,0E0,3.747703E-5,0E0,2.114675E-5,8.532881E-6,5.592512E-6,5.0068877E-5,0E0,2.0145555E-5,0E0,1.2119755E-5,3.7338352E-5,0E0,0E0,0E0,0E0,0E0,0E0,0E0,0E0,0E0,0E0,0E0,0E0,0E0,0E0,0E0,0E0,0E0,0E0,0E0],"parents":[2147483647,0,0,1,1,2,2,3,3,4,4,5,5,6,6,7,7,9,9,10,10,11,11,12,12,13,13,14,14,15,15,17,17,19,19,20,20,21,21,22,22,24,24,26,26,27,27],"right_children":[2,4,6,8,10,12,14,16,-1,18,20,22,24,26,28,30,-1,32,-1,34,36,38,40,-1,42,-1,44,46,-1,-1,-1,-1,-1,-1,-1,-1,-1,-1,-1,-1,-1,-1,-1,-1,-1,-1,-1],"split_conditions":[3.2067107E-4,-3.665753E-3,1E0,1E0,-3.737568E-4,1E0,2.4333925E-3,1E0,-0E0,1E0,7.428932E1,3.3479775E-3,5.2952504E-4,-8.2395703E-4,5.247044E-3,9.345801E1,-0E0,1.02577545E-2,-0E0,-8.434648E-4,-2.195345E-3,2.232763E-1,1E0,-0E0,-3.2662451E-3,-0E0,-7.9372304E-4,1.065265E0,-0E0,1.617429E-5,-0E0,5.6030035E-6,-0E0,2.3046186E-6,-0E0,-0E0,-1.4782441E-6,6.600378E-7,-6.2130243E-7,-5.14309E-6,-0E0,-0E0,-9.903048E-6,-0E0,-6.166435E-6,-0E0,-2.2243741E-5],"split_indices":[63,63,35,37,27,32,63,33,0,37,17,63,63,27,41,18,0,29,0,63,63,23,33,0,27,0,10,15,0,0,0,0,0,0,0,0,0,0,0,0,0,0,0,0,0,0,0],"split_type":[0,0,0,0,0,0,0,0,0,0,0,0,0,0,0,0,0,0,0,0,0,0,0,0,0,0,0,0,0,0,0,0,0,0,0,0,0,0,0,0,0,0,0,0,0,0,0],"sum_hessian":[7.99E3,4.489E3,3.501E3,1.218E3,3.271E3,2.918E3,5.83E2,1.015E3,2.03E2,1.017E3,2.254E3,2.335E3,5.83E2,2.7E2,3.13E2,8.12E2,2.03E2,8.47E2,1.7E2,1.455E3,7.99E2,1.375E3,9.6E2,2.6E1,5.57E2,1.32E2,1.38E2,3.06E2,7E0,7.65E2,4.7E1,8.41E2,6E0,7.33E2,7.22E2,2.9E2,5.09E2,4.91E2,8.84E2,7.2E2,2.4E2,3.5E1,5.22E2,1.2E1,1.26E2,1.2E1,2.94E2],"tree_param":{"num_deleted":"0","num_feature":"70","num_nodes":"47","size_leaf_vector":"1"}},{"base_weights":[-0E0,4.1967223E-4,-5.383956E-4,1.0044504E-3,1.7019662E-4,-3.4316725E-4,-1.3342467E-3,1.2325732E-3,-0E0,4.3321628E-4,6.5591444E-6,-1.659645E-4,-8.7537576E-4,-1.3780878E-4,-2.033458E-3,1.5184364E-3,-0E0,5.119039E-4,-0E0,1.10033274E-4,-5.7004316E-5,-0E0,-3.793639E-4,-0E0,-9.3089836E-4,-0E0,-5.079736E-4,-2.132311E-3,-0E0,1.6013597E-5,-0E0,5.547304E-6,-0E0,2.2817283E-6,-0E0,-0E0,-1.4636057E-6,6.535039E-7,-6.1512475E-7,-5.092015E-6,-0E0,-0E0,-1.0047184E-5,-0E0,-6.107125E-6,-0E0,-2.2025024E-5],"categories":[],"categories_nodes":[],"categories_segments":[],"categories_sizes":[],"default_left":[0,0,0,0,0,0,0,0,0,0,0,0,0,0,0,0,0,0,0,0,0,0,0,0,0,0,0,0,0,0,0,0,0,0,0,0,0,0,0,0,0,0,0,0,0,0,0],"id":1,"left_children":[1,3,5,7,9,11,13,15,-1,17,19,21,23,25,27,29,-1,31,-1,33,35,37,39,-1,41,-1,43,45,-1,-1,-1,-1,-1,-1,-1,-1,-1,-1,-1,-1,-1,-1,-1,-1,-1,-1,-1],"loss_changes":[1.8077884E-3,5.3730066E-4,3.74706E-4,3.1571172E-4,9.700689E-5,1.7080424E-4,2.7337123E-4,3.3409358E-4,0E0,3.1457603E-5,2.0192094E-5,7.442639E-5,3.6439043E-5,3.1676722E-5,9.91245E-5,9.083655E-5,0E0,3.707326E-5,0E0,2.0745687E-5,8.398017E-6,5.4820384E-6,4.9102586E-5,0E0,1.973525E-5,0E0,1.1959721E-5,3.641483E-5,0E0,0E0,0E0,0E0,0E0,0E0,0E0,0E0,0E0,0E0,0E0,0E0,0E0,0E0,0E0,0E0,0E0,0E0,0E0],"parents":[2147483647,0,0,1,1,2,2,3,3,4,4,5,5,6,6,7,7,9,9,10,10,11,11,12,12,13,13,14,14,15,15,17,17,19,19,20,20,21,21,22,22,24,24,26,26,27,27],"right_children":[2,4,6,8,10,12,14,16,-1,18,20,22,24,26,28,30,-1,32,-1,34,36,38,40,-1,42,-1,44,46,-1,-1,-1,-1,-1,-1,-1,-1,-1,-1,-1,-1,-1,-1,-1,-1,-1,-1,-1],"split_conditions":[3.2067107E-4,-3.665753E-3,1E0,1E0,-3.737568E-4,1E0,2.4333925E-3,1E0,-0E0,1E0,7.428932E1,3.3479775E-3,5.2952504E-4,-8.2395703E-4,5.247044E-3,9.345801E1,-0E0,1.02577545E-2,-0E0,-8.434648E-4,-2.195345E-3,2.232763E-1,1E0,-0E0,-2.607473E-3,-0E0,-7.9372304E-4,1.065265E0,-0E0,1.6013597E-5,-0E0,5.547304E-6,-0E0,2.2817283E-6,-0E0,-0E0,-1.4636057E-6,6.535039E-7,-6.1512475E-7,-5.092015E-6,-0E0,-0E0,-1.0047184E-5,-0E0,-6.107125E-6,-0E0,-2.2025024E-5],"split_indices":[63,63,35,37,27,32,63,33,0,37,17,63,63,27,41,18,0,29,0,63,63,23,33,0,30,0,10,15,0,0,0,0,0,0,0,0,0,0,0,0,0,0,0,0,0,0,0],"split_type":[0,0,0,0,0,0,0,0,0,0,0,0,0,0,0,0,0,0,0,0,0,0,0,0,0,0,0,0,0,0,0,0,0,0,0,0,0,0,0,0,0,0,0,0,0,0,0],"sum_hessian":[7.99E3,4.489E3,3.501E3,1.218E3,3.271E3,2.918E3,5.83E2,1.015E3,2.03E2,1.017E3,2.254E3,2.335E3,5.83E2,2.7E2,3.13E2,8.12E2,2.03E2,8.47E2,1.7E2,1.455E3,7.99E2,1.375E3,9.6E2,2.6E1,5.57E2,1.32E2,1.38E2,3.06E2,7E0,7.65E2,4.7E1,8.41E2,6E0,7.33E2,7.22E2,2.9E2,5.09E2,4.91E2,8.84E2,7.2E2,2.4E2,6E1,4.97E2,1.2E1,1.26E2,1.2E1,2.94E2],"tree_param":{"num_deleted":"0","num_feature":"70","num_nodes":"47","size_leaf_vector":"1"}},{"base_weights":[-0E0,4.1570177E-4,-5.337956E-4,9.944336E-4,1.6848942E-4,-3.401284E-4,-1.3219255E-3,1.2205631E-3,-0E0,3.1284432E-4,-0E0,-1.6430247E-4,-8.668835E-4,-1.350106E-4,-2.0130954E-3,1.503442E-3,-0E0,6.3983776E-4,1.05653235E-4,-0E0,-2.081956E-4,-0E0,-3.7556465E-4,-0E0,-9.2201325E-4,-0E0,-5.025925E-4,-2.11149E-3,-0E0,1.6853046E-5,-0E0,7.872095E-6,-0E0,1.8299721E-6,-0E0,1.0552736E-6,-0E0,-2.9765656E-6,-0E0,6.470346E-7,-6.09008E-7,-5.0414455E-6,-0E0,-0E0,-9.710204E-6,-0E0,-6.048385E-6,-0E0,-2.1808457E-5],"categories":[],"categories_nodes":[],"categories_segments":[],"categories_sizes":[],"default_left":[0,0,0,0,0,0,0,0,0,0,0,0,0,0,0,0,0,0,0,0,0,0,0,0,0,0,0,0,0,0,0,0,0,0,0,0,0,0,0,0,0,0,0,0,0,0,0,0,0],"id":2,"left_children":[1,3,5,7,9,11,13,15,-1,17,19,21,23,25,27,29,-1,31,33,35,37,39,41,-1,43,-1,45,47,-1,-1,-1,-1,-1,-1,-1,-1,-1,-1,-1,-1,-1,-1,-1,-1,-1,-1,-1,-1,-1],"loss_changes":[1.7755909E-3,5.25825E-4,3.6668463E-4,3.1014683E-4,9.579293E-5,1.6688931E-4,2.662019E-4,3.2712636E-4,0E0,5.5802884E-5,1.0012789E-5,7.294309E-5,3.5886536E-5,3.1109026E-5,9.784743E-5,9.035575E-5,0E0,2.915469E-5,1.1519938E-5,6.035726E-6,8.504492E-6,5.3737417E-6,4.815517E-5,0E0,1.9137224E-5,0E0,1.1801985E-5,3.5511097E-5,0E0,0E0,0E0,0E0,0E0,0E0,0E0,0E0,0E0,0E0,0E0,0E0,0E0,0E0,0E0,0E0,0E0,0E0,0E0,0E0,0E0],"parents":[2147483647,0,0,1,1,2,2,3,3,4,4,5,5,6,6,7,7,9,9,10,10,11,11,12,12,13,13,14,14,15,15,17,17,18,18,19,19,20,20,21,21,22,22,24,24,26,26,27,27],"right_children":[2,4,6,8,10,12,14,16,-1,18,20,22,24,26,28,30,-1,32,34,36,38,40,42,-1,44,-1,46,48,-1,-1,-1,-1,-1,-1,-1,-1,-1,-1,-1,-1,-1,-1,-1,-1,-1,-1,-1,-1,-1],"split_conditions":[3.2067107E-4,-3.665753E-3,1E0,1E0,6.235184E-1,1E0,2.4333925E-3,1E0,-0E0,-5.8853824E-4,3.9131725E-3,3.3479775E-3,5.2952504E-4,-8.2395703E-4,5.247044E-3,9.330855E1,-0E0,0E0,-4.1978082E-4,-1.3435798E-3,9.603796E-2,2.232763E-1,1E0,-0E0,-3.2662451E-3,-0E0,-7.9372304E-4,1.065265E0,-0E0,1.6853046E-5,-0E0,7.872095E-6,-0E0,1.8299721E-6,-0E0,1.0552736E-6,-0E0,-2.9765656E-6,-0E0,6.470346E-7,-6.09008E-7,-5.0414455E-6,-0E0,-0E0,-9.710204E-6,-0E0,-6.048385E-6,-0E0,-2.1808457E-5],"split_indices":[63,63,35,37,23,32,63,33,0,30,29,63,63,27,41,17,0,63,63,63,60,23,33,0,27,0,10,15,0,0,0,0,0,0,0,0,0,0,0,0,0,0,0,0,0,0,0,0,0],"split_type":[0,0,0,0,0,0,0,0,0,0,0,0,0,0,0,0,0,0,0,0,0,0,0,0,0,0,0,0,0,0,0,0,0,0,0,0,0,0,0,0,0,0,0,0,0,0,0,0,0],"sum_hessian":[7.99E3,4.489E3,3.501E3,1.218E3,3.271E3,2.918E3,5.83E2,1.015E3,2.03E2,1.924E3,1.347E3,2.335E3,5.83E2,2.7E2,3.13E2,8.12E2,2.03E2,5.55E2,1.369E3,1.121E3,2.26E2,1.375E3,9.6E2,2.6E1,5.57E2,1.32E2,1.38E2,3.06E2,7E0,6.77E2,1.35E2,4.12E2,1.43E2,7.97E2,5.72E2,5.37E2,5.84E2,2.04E2,2.2E1,4.91E2,8.84E2,7.2E2,2.4E2,3.5E1,5.22E2,1.2E1,1.26E2,1.2E1,2.94E2],"tree_param":{"num_deleted":"0","num_feature":"70","num_nodes":"49","size_leaf_vector":"1"}},{"base_weights":[-0E0,3.774142E-4,-5.779003E-4,9.7521144E-4,1.4025506E-4,-3.681768E-4,-1.4260381E-3,1.1979598E-3,-0E0,4.2601183E-4,-0E0,-4.898941E-4,-0E0,-8.5238804E-5,-1.978546E-3,1.4753423E-3,-0E0,5.0542474E-4,-0E0,9.6408556E-5,-6.0624385E-5,-6.534712E-4,-0E0,-0E0,-4.204449E-4,-2.0746184E-3,-0E0,1.6521964E-5,-0E0,5.439902E-6,-0E0,2.2203458E-6,-0E0,-0E0,-1.3625961E-6,-0E0,-7.72524E-6,-0E0,-4.537813E-6,-0E0,-2.141378E-5],"categories":[],"categories_nodes":[],"categories_segments":[],"categories_sizes":[],"default_left":[0,0,0,0,0,0,0,0,0,0,0,0,0,0,0,0,0,0,0,0,0,0,0,0,0,0,0,0,0,0,0,0,0,0,0,0,0,0,0,0,0],"id":3,"left_children":[1,3,5,7,9,11,13,15,-1,17,19,21,-1,23,25,27,-1,29,-1,31,33,35,-1,-1,37,39,-1,-1,-1,-1,-1,-1,-1,-1,-1,-1,-1,-1,-1,-1,-1],"loss_changes":[1.7455242E-3,5.733841E-4,3.8074818E-4,3.080375E-4,1.3613136E-4,1.4904022E-4,1.8614426E-4,3.2215624E-4,0E0,3.469152E-5,1.5016531E-5,1.6977487E-4,0E0,1.6836904E-5,9.5646945E-5,9.171362E-5,0E0,3.6469777E-5,0E0,2.37327E-5,1.3755251E-5,1.3165135E-4,0E0,0E0,2.619092E-6,3.3914926E-5,0E0,0E0,0E0,0E0,0E0,0E0,0E0,0E0,0E0,0E0,0E0,0E0,0E0,0E0,0E0],"parents":[2147483647,0,0,1,1,2,2,3,3,4,4,5,5,6,6,7,7,9,9,10,10,11,11,13,13,14,14,15,15,17,17,19,19,20,20,21,21,24,24,25,25],"right_children":[2,4,6,8,10,12,14,16,-1,18,20,22,-1,24,26,28,-1,30,-1,32,34,36,-1,-1,38,40,-1,-1,-1,-1,-1,-1,-1,-1,-1,-1,-1,-1,-1,-1,-1],"split_conditions":[8.230641E-4,-3.6360025E-3,1E0,1E0,-3.737568E-4,1E0,2.4045554E-3,1E0,-0E0,1E0,-1.2262696E-3,1E0,-0E0,-7.8556675E-4,5.247044E-3,9.330855E1,-0E0,1.02577545E-2,-0E0,5.7214436E1,3.2880634E-1,-2.6328387E-3,-0E0,-0E0,1.5842105E0,1.065265E0,-0E0,1.6521964E-5,-0E0,5.439902E-6,-0E0,2.2203458E-6,-0E0,-0E0,-1.3625961E-6,-0E0,-7.72524E-6,-0E0,-4.537813E-6,-0E0,-2.141378E-5],"split_indices":[63,63,35,37,27,33,63,33,0,37,63,37,0,27,41,17,0,29,0,16,23,27,0,0,52,15,0,0,0,0,0,0,0,0,0,0,0,0,0,0,0],"split_type":[0,0,0,0,0,0,0,0,0,0,0,0,0,0,0,0,0,0,0,0,0,0,0,0,0,0,0,0,0,0,0,0,0,0,0,0,0,0,0,0,0],"sum_hessian":[7.99E3,4.831E3,3.159E3,1.248E3,3.583E3,2.633E3,5.26E2,1.04E3,2.08E2,1.134E3,2.449E3,2.106E3,5.27E2,2.08E2,3.18E2,8.32E2,2.08E2,9.4E2,1.94E2,1.059E3,1.39E3,1.579E3,5.27E2,1.09E2,9.9E1,3.11E2,7E0,6.96E2,1.36E2,9.34E2,6E0,6.77E2,3.82E2,3.78E2,1.012E3,2.3E2,1.349E3,2E0,9.7E1,1.2E1,2.99E2],"tree_param":{"num_deleted":"0","num_feature":"70","num_nodes":"41","size_leaf_vector":"1"}},{"base_weights":[-0E0,4.084809E-4,-5.243739E-4,9.759587E-4,1.6548096E-4,-3.3357998E-4,-1.2983003E-3,1.1984112E-3,-0E0,3.082883E-4,-0E0,-1.5980643E-4,-8.5222314E-4,-1.3070412E-4,-1.9731352E-3,1.4757861E-3,-0E0,6.2947907E-4,1.0347876E-4,-0E0,-2.0661394E-4,-0E0,-3.6881713E-4,-0E0,-9.0659724E-4,-0E0,-4.9384707E-4,-2.0706302E-3,-0E0,1.5567995E-5,-0E0,7.747988E-6,-0E0,1.7944744E-6,-0E0,1.0288757E-6,-0E0,-2.9573473E-6,-0E0,6.6502986E-7,-5.7394817E-7,-4.951634E-6,-0E0,-0E0,-9.605783E-6,-0E0,-5.9552754E-6,-0E0,-2.3261926E-5],"categories":[],"categories_nodes":[],"categories_segments":[],"categories_sizes":[],"default_left":[0,0,0,0,0,0,0,0,0,0,0,0,0,0,0,0,0,0,0,0,0,0,0,0,0,0,0,0,0,0,0,0,0,0,0,0,0,0,0,0,0,0,0,0,0,0,0,0,0],"id":4,"left_children":[1,3,5,7,9,11,13,15,-1,17,19,21,23,25,27,29,-1,31,33,35,37,39,41,-1,43,-1,45,47,-1,-1,-1,-1,-1,-1,-1,-1,-1,-1,-1,-1,-1,-1,-1,-1,-1,-1,-1,-1,-1],"loss_changes":[1.7138915E-3,5.047579E-4,3.5234418E-4,3.0001125E-4,9.362555E-5,1.6155574E-4,2.5163207E-4,3.1446747E-4,0E0,5.3273805E-5,9.861234E-6,7.1506016E-5,3.486307E-5,3.0177562E-5,9.535812E-5,8.681044E-5,0E0,2.8434006E-5,1.1112924E-5,5.737531E-6,8.417702E-6,5.122146E-6,4.6495246E-5,0E0,1.8813967E-5,0E0,1.1584005E-5,3.561098E-5,0E0,0E0,0E0,0E0,0E0,0E0,0E0,0E0,0E0,0E0,0E0,0E0,0E0,0E0,0E0,0E0,0E0,0E0,0E0,0E0,0E0],"parents":[2147483647,0,0,1,1,2,2,3,3,4,4,5,5,6,6,7,7,9,9,10,10,11,11,12,12,13,13,14,14,15,15,17,17,18,18,19,19,20,20,21,21,22,22,24,24,26,26,27,27],"right_children":[2,4,6,8,10,12,14,16,-1,18,20,22,24,26,28,30,-1,32,34,36,38,40,42,-1,44,-1,46,48,-1,-1,-1,-1,-1,-1,-1,-1,-1,-1,-1,-1,-1,-1,-1,-1,-1,-1,-1,-1,-1],"split_conditions":[3.2067107E-4,-3.665753E-3,1E0,1E0,6.235184E-1,1E0,2.4333925E-3,1E0,-0E0,-5.8853824E-4,3.9131725E-3,3.3479775E-3,5.2952504E-4,-8.2395703E-4,5.247044E-3,9.345801E1,-0E0,0E0,-4.1978082E-4,-1.3435798E-3,9.603796E-2,2.232763E-1,1E0,-0E0,-7E-2,-0E0,-7.9372304E-4,7.021792E0,-0E0,1.5567995E-5,-0E0,7.747988E-6,-0E0,1.7944744E-6,-0E0,1.0288757E-6,-0E0,-2.9573473E-6,-0E0,6.6502986E-7,-5.7394817E-7,-4.951634E-6,-0E0,-0E0,-9.605783E-6,-0E0,-5.9552754E-6,-0E0,-2.3261926E-5],"split_indices":[63,63,35,37,23,32,63,33,0,30,29,63,63,27,41,18,0,63,63,63,60,23,33,0,51,0,10,17,0,0,0,0,0,0,0,0,0,0,0,0,0,0,0,0,0,0,0,0,0],"split_type":[0,0,0,0,0,0,0,0,0,0,0,0,0,0,0,0,0,0,0,0,0,0,0,0,0,0,0,0,0,0,0,0,0,0,0,0,0,0,0,0,0,0,0,0,0,0,0,0,0],"sum_hessian":[7.99E3,4.489E3,3.501E3,1.218E3,3.271E3,2.918E3,5.83E2,1.015E3,2.03E2,1.924E3,1.347E3,2.335E3,5.83E2,2.7E2,3.13E2,8.12E2,2.03E2,5.55E2,1.369E3,1.121E3,2.26E2,1.375E3,9.6E2,2.6E1,5.57E2,1.32E2,1.38E2,3.06E2,7E0,7.65E2,4.7E1,4.12E2,1.43E2,7.97E2,5.72E2,5.37E2,5.84E2,2.04E2,2.2E1,4.91E2,8.84E2,7.2E2,2.4E2,4.1E1,5.16E2,1.2E1,1.26E2,5.8E1,2.48E2],"tree_param":{"num_deleted":"0","num_feature":"70","num_nodes":"49","size_leaf_vector":"1"}},{"base_weights":[-0E0,4.0481353E-4,-5.200322E-4,9.6622074E-4,1.6408549E-4,-3.306027E-4,-1.2872131E-3,1.1867352E-3,-0E0,3.0589203E-4,-0E0,-1.5820557E-4,-8.4379356E-4,-1.11090805E-4,-1.940826E-3,1.4612089E-3,-0E0,6.237788E-4,1.0243785E-4,-0E0,-2.0400225E-4,-0E0,-3.6512266E-4,-0E0,-8.977777E-4,-0E0,-4.8547276E-4,-2.0360628E-3,-0E0,1.676369E-5,1.4569873E-7,7.671437E-6,-0E0,1.9801191E-6,-0E0,1.0186818E-6,-0E0,-2.9284813E-6,-0E0,6.5844665E-7,-5.682409E-7,-4.902459E-6,-0E0,-0E0,-9.692371E-6,-0E0,-5.8795063E-6,-0E0,-2.1020656E-5],"categories":[],"categories_nodes":[],"categories_segments":[],"categories_sizes":[],"default_left":[0,0,0,0,0,0,0,0,0,0,0,0,0,0,0,0,0,0,0,0,0,0,0,0,0,0,0,0,0,0,0,0,0,0,0,0,0,0,0,0,0,0,0,0,0,0,0,0,0],"id":5,"left_children":[1,3,5,7,9,11,13,15,-1,17,19,21,23,25,27,29,-1,31,33,35,37,39,41,-1,43,-1,45,47,-1,-1,-1,-1,-1,-1,-1,-1,-1,-1,-1,-1,-1,-1,-1,-1,-1,-1,-1,-1,-1],"loss_changes":[1.6845895E-3,4.9352495E-4,3.4560618E-4,2.9473577E-4,9.229323E-5,1.577381E-4,2.457428E-4,3.0789513E-4,0E0,5.1817668E-5,9.613509E-6,7.008067E-5,3.432596E-5,2.98993E-5,9.331608E-5,8.508272E-5,0E0,2.7512448E-5,1.091075E-5,5.6244016E-6,8.310336E-6,5.0209783E-6,4.5598717E-5,0E0,1.861449E-5,0E0,1.1362074E-5,3.328442E-5,0E0,0E0,0E0,0E0,0E0,0E0,0E0,0E0,0E0,0E0,0E0,0E0,0E0,0E0,0E0,0E0,0E0,0E0,0E0,0E0,0E0],"parents":[2147483647,0,0,1,1,2,2,3,3,4,4,5,5,6,6,7,7,9,9,10,10,11,11,12,12,13,13,14,14,15,15,17,17,18,18,19,19,20,20,21,21,22,22,24,24,26,26,27,27],"right_children":[2,4,6,8,10,12,14,16,-1,18,20,22,24,26,28,30,-1,32,34,36,38,40,42,-1,44,-1,46,48,-1,-1,-1,-1,-1,-1,-1,-1,-1,-1,-1,-1,-1,-1,-1,-1,-1,-1,-1,-1,-1],"split_conditions":[3.2067107E-4,-3.665753E-3,1E0,1E0,6.235184E-1,1E0,2.4045554E-3,1E0,-0E0,-5.8853824E-4,3.9131725E-3,3.3479775E-3,5.2952504E-4,-8.2395703E-4,5.247044E-3,1.6243242E2,-0E0,0E0,-9.2077284E-4,-1.3435798E-3,9.603796E-2,2.232763E-1,1E0,-0E0,-2.607473E-3,-0E0,-7.9372304E-4,1.065265E0,-0E0,1.676369E-5,1.4569873E-7,7.671437E-6,-0E0,1.9801191E-6,-0E0,1.0186818E-6,-0E0,-2.9284813E-6,-0E0,6.5844665E-7,-5.682409E-7,-4.902459E-6,-0E0,-0E0,-9.692371E-6,-0E0,-5.8795063E-6,-0E0,-2.1020656E-5],"split_indices":[63,63,35,37,23,32,63,33,0,30,29,63,63,27,41,20,0,63,63,63,60,23,33,0,30,0,10,15,0,0,0,0,0,0,0,0,0,0,0,0,0,0,0,0,0,0,0,0,0],"split_type":[0,0,0,0,0,0,0,0,0,0,0,0,0,0,0,0,0,0,0,0,0,0,0,0,0,0,0,0,0,0,0,0,0,0,0,0,0,0,0,0,0,0,0,0,0,0,0,0,0],"sum_hessian":[7.99E3,4.489E3,3.501E3,1.218E3,3.271E3,2.918E3,5.83E2,1.015E3,2.03E2,1.924E3,1.347E3,2.335E3,5.83E2,2.65E2,3.18E2,8.12E2,2.03E2,5.55E2,1.369E3,1.121E3,2.26E2,1.375E3,9.6E2,2.6E1,5.57E2,1.29E2,1.36E2,3.11E2,7E0,6.46E2,1.66E2,4.12E2,1.43E2,6.41E2,7.28E2,5.37E2,5.84E2,2.04E2,2.2E1,4.91E2,8.84E2,7.2E2,2.4E2,6E1,4.97E2,1.2E1,1.24E2,1.2E1,2.99E2],"tree_param":{"num_deleted":"0","num_feature":"70","num_nodes":"49","size_leaf_vector":"1"}},{"base_weights":[-0E0,3.676207E-4,-5.6305545E-4,9.477659E-4,1.3663963E-4,-3.579571E-4,-1.3883553E-3,1.1650568E-3,-0E0,4.160179E-4,-0E0,-4.7714057E-4,-0E0,-7.800498E-5,-1.9213671E-3,1.4342931E-3,-0E0,4.94447E-4,-0E0,5.8006677E-5,-1.0741898E-4,-6.3797215E-4,-0E0,-0E0,-4.0585708E-4,-2.016173E-3,-0E0,1.6070298E-5,-0E0,5.329854E-6,-0E0,2.0286943E-6,-0E0,-0E0,-2.1228022E-6,-0E0,-7.55552E-6,-0E0,-4.3913947E-6,-0E0,-2.0813906E-5],"categories":[],"categories_nodes":[],"categories_segments":[],"categories_sizes":[],"default_left":[0,0,0,0,0,0,0,0,0,0,0,0,0,0,0,0,0,0,0,0,0,0,0,0,0,0,0,0,0,0,0,0,0,0,0,0,0,0,0,0,0],"id":6,"left_children":[1,3,5,7,9,11,13,15,-1,17,19,21,-1,23,25,27,-1,29,-1,31,33,35,-1,-1,37,39,-1,-1,-1,-1,-1,-1,-1,-1,-1,-1,-1,-1,-1,-1,-1],"loss_changes":[1.6566486E-3,5.389482E-4,3.5844673E-4,2.9291853E-4,1.3013837E-4,1.4258127E-4,1.7018104E-4,3.0343526E-4,0E0,3.3903838E-5,1.451079E-5,1.6410451E-4,0E0,1.583482E-5,9.212154E-5,8.8490546E-5,0E0,3.5713383E-5,0E0,2.1538623E-5,1.2961249E-5,1.2824155E-4,0E0,0E0,2.5391582E-6,3.2459735E-5,0E0,0E0,0E0,0E0,0E0,0E0,0E0,0E0,0E0,0E0,0E0,0E0,0E0,0E0,0E0],"parents":[2147483647,0,0,1,1,2,2,3,3,4,4,5,5,6,6,7,7,9,9,10,10,11,11,13,13,14,14,15,15,17,17,19,19,20,20,21,21,24,24,25,25],"right_children":[2,4,6,8,10,12,14,16,-1,18,20,22,-1,24,26,28,-1,30,-1,32,34,36,-1,-1,38,40,-1,-1,-1,-1,-1,-1,-1,-1,-1,-1,-1,-1,-1,-1,-1],"split_conditions":[8.230641E-4,-3.6360025E-3,1E0,1E0,-3.737568E-4,1E0,2.4045554E-3,1E0,-0E0,1E0,7.5007963E-1,1E0,-0E0,-7.8556675E-4,5.247044E-3,9.330855E1,-0E0,1.02577545E-2,-0E0,-1.2262696E-3,-2.057582E-3,-2.6328387E-3,-0E0,-0E0,1.5842105E0,1.065265E0,-0E0,1.6070298E-5,-0E0,5.329854E-6,-0E0,2.0286943E-6,-0E0,-0E0,-2.1228022E-6,-0E0,-7.55552E-6,-0E0,-4.3913947E-6,-0E0,-2.0813906E-5],"split_indices":[63,63,35,37,27,33,63,33,0,37,23,37,0,27,41,17,0,29,0,63,63,27,0,0,52,15,0,0,0,0,0,0,0,0,0,0,0,0,0,0,0],"split_type":[0,0,0,0,0,0,0,0,0,0,0,0,0,0,0,0,0,0,0,0,0,0,0,0,0,0,0,0,0,0,0,0,0,0,0,0,0,0,0,0,0],"sum_hessian":[7.99E3,4.831E3,3.159E3,1.248E3,3.583E3,2.633E3,5.26E2,1.04E3,2.08E2,1.134E3,2.449E3,2.106E3,5.27E2,2.08E2,3.18E2,8.32E2,2.08E2,9.4E2,1.94E2,1.691E3,7.58E2,1.579E3,5.27E2,1.09E2,9.9E1,3.11E2,7E0,6.96E2,1.36E2,9.34E2,6E0,6.57E2,1.034E3,2.8E2,4.78E2,2.3E2,1.349E3,2E0,9.7E1,1.2E1,2.99E2],"tree_param":{"num_deleted":"0","num_feature":"70","num_nodes":"41","size_leaf_vector":"1"}},{"base_weights":[-0E0,3.9785102E-4,-5.109172E-4,9.484504E-4,1.6116841E-4,-3.243022E-4,-1.2641845E-3,1.1654282E-3,-0E0,3.0128963E-4,-0E0,-1.5387085E-4,-8.297238E-4,-1.2346108E-4,-1.9163166E-3,1.4346078E-3,-0E0,6.136514E-4,1.00104E-4,-0E0,-2.0202856E-4,-0E0,-3.5854444E-4,-0E0,-8.829677E-4,-0E0,-4.7990127E-4,-2.012533E-3,-0E0,1.5137959E-5,-0E0,7.5502603E-6,-0E0,1.7423065E-6,-0E0,9.971387E-7,-0E0,-2.905624E-6,-0E0,6.7579094E-7,-5.352263E-7,-0E0,-5.0605345E-6,-0E0,-9.362627E-6,-0E0,-5.8502064E-6,-0E0,-2.264036E-5],"categories":[],"categories_nodes":[],"categories_segments":[],"categories_sizes":[],"default_left":[0,0,0,0,0,0,0,0,0,0,0,0,0,0,0,0,0,0,0,0,0,0,0,0,0,0,0,0,0,0,0,0,0,0,0,0,0,0,0,0,0,0,0,0,0,0,0,0,0],"id":7,"left_children":[1,3,5,7,9,11,13,15,-1,17,19,21,23,25,27,29,-1,31,33,35,37,39,41,-1,43,-1,45,47,-1,-1,-1,-1,-1,-1,-1,-1,-1,-1,-1,-1,-1,-1,-1,-1,-1,-1,-1,-1,-1],"loss_changes":[1.6265283E-3,4.739198E-4,3.3194333E-4,2.8522767E-4,9.0010886E-5,1.5278847E-4,2.3225398E-4,2.9608002E-4,0E0,4.954089E-5,9.42839E-6,6.865233E-5,3.3349585E-5,2.874192E-5,9.1857975E-5,8.30479E-5,0E0,2.6838723E-5,1.0577174E-5,5.3890276E-6,8.216748E-6,4.8118936E-6,4.4708635E-5,0E0,1.8549035E-5,0E0,1.1216496E-5,3.7202844E-5,0E0,0E0,0E0,0E0,0E0,0E0,0E0,0E0,0E0,0E0,0E0,0E0,0E0,0E0,0E0,0E0,0E0,0E0,0E0,0E0,0E0],"parents":[2147483647,0,0,1,1,2,2,3,3,4,4,5,5,6,6,7,7,9,9,10,10,11,11,12,12,13,13,14,14,15,15,17,17,18,18,19,19,20,20,21,21,22,22,24,24,26,26,27,27],"right_children":[2,4,6,8,10,12,14,16,-1,18,20,22,24,26,28,30,-1,32,34,36,38,40,42,-1,44,-1,46,48,-1,-1,-1,-1,-1,-1,-1,-1,-1,-1,-1,-1,-1,-1,-1,-1,-1,-1,-1,-1,-1],"split_conditions":[3.2067107E-4,-3.665753E-3,1E0,1E0,6.235184E-1,1E0,2.4333925E-3,1E0,-0E0,-5.8853824E-4,3.9131725E-3,3.3479775E-3,5.2952504E-4,-8.2395703E-4,5.247044E-3,9.345801E1,-0E0,0E0,-4.1978082E-4,-1.3435798E-3,9.603796E-2,2.232763E-1,-1.4962437E2,-0E0,-7E-2,-0E0,-7.559082E-4,7.021792E0,-0E0,1.5137959E-5,-0E0,7.5502603E-6,-0E0,1.7423065E-6,-0E0,9.971387E-7,-0E0,-2.905624E-6,-0E0,6.7579094E-7,-5.352263E-7,-0E0,-5.0605345E-6,-0E0,-9.362627E-6,-0E0,-5.8502064E-6,-0E0,-2.264036E-5],"split_indices":[63,63,35,37,23,32,63,33,0,30,29,63,63,27,41,18,0,63,63,63,60,23,20,0,51,0,10,17,0,0,0,0,0,0,0,0,0,0,0,0,0,0,0,0,0,0,0,0,0],"split_type":[0,0,0,0,0,0,0,0,0,0,0,0,0,0,0,0,0,0,0,0,0,0,0,0,0,0,0,0,0,0,0,0,0,0,0,0,0,0,0,0,0,0,0,0,0,0,0,0,0],"sum_hessian":[7.99E3,4.489E3,3.501E3,1.218E3,3.271E3,2.918E3,5.83E2,1.015E3,2.03E2,1.924E3,1.347E3,2.335E3,5.83E2,2.7E2,3.13E2,8.12E2,2.03E2,5.55E2,1.369E3,1.121E3,2.26E2,1.375E3,9.6E2,2.6E1,5.57E2,1.32E2,1.38E2,3.06E2,7E0,7.65E2,4.7E1,4.12E2,1.43E2,7.97E2,5.72E2,5.37E2,5.84E2,2.04E2,2.2E1,4.91E2,8.84E2,3.06E2,6.54E2,4.1E1,5.16E2,1.4E1,1.24E2,5.8E1,2.48E2],"tree_param":{"num_deleted":"0","num_feature":"70","num_nodes":"49","size_leaf_vector":"1"}},{"base_weights":[-0E0,3.9428571E-4,-5.067466E-4,9.389815E-4,1.5981248E-4,-3.214688E-4,-1.2534017E-3,1.1540747E-3,-0E0,2.9895717E-4,-0E0,-4.3942372E-4,-0E0,-1.2082318E-4,-1.89866E-3,1.4204333E-3,-0E0,6.080966E-4,9.9093355E-5,-0E0,-1.9946253E-4,-5.8941566E-4,-0E0,-0E0,-4.7482835E-4,-1.9944787E-3,-0E0,1.6307175E-5,-0E0,6.9778707E-6,-0E0,1.7249919E-6,-0E0,9.872593E-7,-0E0,-2.8772624E-6,-0E0,-0E0,-6.9639927E-6,-0E0,-5.749941E-6,-0E0,-2.2418431E-5],"categories":[],"categories_nodes":[],"categories_segments":[],"categories_sizes":[],"default_left":[0,0,0,0,0,0,0,0,0,0,0,0,0,0,0,0,0,0,0,0,0,0,0,0,0,0,0,0,0,0,0,0,0,0,0,0,0,0,0,0,0,0,0],"id":8,"left_children":[1,3,5,7,9,11,13,15,-1,17,19,21,-1,23,25,27,-1,29,31,33,35,37,-1,-1,39,41,-1,-1,-1,-1,-1,-1,-1,-1,-1,-1,-1,-1,-1,-1,-1,-1,-1],"loss_changes":[1.5989558E-3,4.6332862E-4,3.2551342E-4,2.8022402E-4,8.8736E-5,1.4957576E-4,2.2661837E-4,2.8987823E-4,0E0,4.8164482E-5,9.190405E-6,1.5806092E-4,0E0,2.8226546E-5,9.077985E-5,8.2760234E-5,0E0,2.6637645E-5,1.0372304E-5,5.282771E-6,8.1119515E-6,1.2308673E-4,0E0,0E0,1.1069926E-5,3.4401775E-5,0E0,0E0,0E0,0E0,0E0,0E0,0E0,0E0,0E0,0E0,0E0,0E0,0E0,0E0,0E0,0E0,0E0],"parents":[2147483647,0,0,1,1,2,2,3,3,4,4,5,5,6,6,7,7,9,9,10,10,11,11,13,13,14,14,15,15,17,17,18,18,19,19,20,20,21,21,24,24,25,25],"right_children":[2,4,6,8,10,12,14,16,-1,18,20,22,-1,24,26,28,-1,30,32,34,36,38,-1,-1,40,42,-1,-1,-1,-1,-1,-1,-1,-1,-1,-1,-1,-1,-1,-1,-1,-1,-1],"split_conditions":[3.2067107E-4,-3.665753E-3,1E0,1E0,6.235184E-1,1E0,2.4333925E-3,1E0,-0E0,-5.8853824E-4,3.9131725E-3,1E0,-0E0,-8.2395703E-4,5.247044E-3,1.6243242E2,-0E0,1E0,-4.1978082E-4,-1.3435798E-3,9.603796E-2,-2.6328387E-3,-0E0,-0E0,-7.9372304E-4,7.021792E0,-0E0,1.6307175E-5,-0E0,6.9778707E-6,-0E0,1.7249919E-6,-0E0,9.872593E-7,-0E0,-2.8772624E-6,-0E0,-0E0,-6.9639927E-6,-0E0,-5.749941E-6,-0E0,-2.2418431E-5],"split_indices":[63,63,35,37,23,33,63,33,0,30,29,37,0,27,41,20,0,37,63,63,60,27,0,0,10,17,0,0,0,0,0,0,0,0,0,0,0,0,0,0,0,0,0],"split_type":[0,0,0,0,0,0,0,0,0,0,0,0,0,0,0,0,0,0,0,0,0,0,0,0,0,0,0,0,0,0,0,0,0,0,0,0,0,0,0,0,0,0,0],"sum_hessian":[7.99E3,4.489E3,3.501E3,1.218E3,3.271E3,2.918E3,5.83E2,1.015E3,2.03E2,1.924E3,1.347E3,2.334E3,5.84E2,2.7E2,3.13E2,8.12E2,2.03E2,5.55E2,1.369E3,1.121E3,2.26E2,1.75E3,5.84E2,1.32E2,1.38E2,3.06E2,7E0,6.46E2,1.66E2,4.75E2,8E1,7.97E2,5.72E2,5.37E2,5.84E2,2.04E2,2.2E1,2.44E2,1.506E3,1.2E1,1.26E2,5.8E1,2.48E2],"tree_param":{"num_deleted":"0","num_feature":"70","num_nodes":"43","size_leaf_vector":"1"}},{"base_weights":[-0E0,3.209897E-4,-6.1190076E-4,7.3854445E-4,2.543816E-5,-3.7797127E-4,-1.5503683E-3,4.4327896E-4,1.8953442E-3,5.371788E-4,-5.563508E-6,-4.92489E-4,-0E0,-0E0,-1.8129619E-3,5.774435E-4,-0E0,2.0935326E-3,-0E0,-0E0,7.1938237E-4,2.116214E-5,-2.3704296E-4,-6.66534E-4,-0E0,-0E0,-1.8783621E-3,7.228512E-6,-0E0,2.231793E-5,-0E0,8.2117685E-6,-0E0,1.4279376E-6,-0E0,-2.7239594E-6,-0E0,-0E0,-7.846283E-6,-0E0,-2.0717209E-5],"categories":[],"categories_nodes":[],"categories_segments":[],"categories_sizes":[],"default_left":[0,0,0,0,0,0,0,0,0,0,0,0,0,0,0,0,0,0,0,0,0,0,0,0,0,0,0,0,0,0,0,0,0,0,0,0,0,0,0,0,0],"id":9,"left_children":[1,3,5,7,9,11,13,15,17,19,21,23,-1,-1,25,27,-1,29,-1,-1,31,33,35,37,-1,-1,39,-1,-1,-1,-1,-1,-1,-1,-1,-1,-1,-1,-1,-1,-1],"loss_changes":[1.5722208E-3,5.7066436E-4,4.0927494E-4,4.5633456E-4,1.04197716E-4,1.1774353E-4,1.0652817E-4,1.1941834E-4,1.2214028E-4,2.2669767E-5,3.926307E-5,1.6704819E-4,0E0,0E0,4.0169107E-5,7.9962134E-5,0E0,5.0304458E-5,0E0,0E0,1.4098026E-5,1.7601302E-5,9.926567E-6,1.0536448E-4,0E0,0E0,5.8069127E-5,0E0,0E0,0E0,0E0,0E0,0E0,0E0,0E0,0E0,0E0,0E0,0E0,0E0,0E0],"parents":[2147483647,0,0,1,1,2,2,3,3,4,4,5,5,6,6,7,7,8,8,9,9,10,10,11,11,14,14,15,15,17,17,20,20,21,21,22,22,23,23,26,26],"right_children":[2,4,6,8,10,12,14,16,18,20,22,24,-1,-1,26,28,-1,30,-1,-1,32,34,36,38,-1,-1,40,-1,-1,-1,-1,-1,-1,-1,-1,-1,-1,-1,-1,-1,-1],"split_conditions":[1.3606579E-3,-2.195345E-3,1E0,1E0,1.5166084E-1,1E0,5.1364932E-2,1E0,3.6016415E1,1.6461123E-3,7.5007963E-1,1E0,-0E0,-0E0,-4.317535E-3,1E0,-0E0,1.714297E2,-0E0,-0E0,1E0,-3.946031E-4,1.681941E-3,-2.6328387E-3,-0E0,-0E0,1.2407513E1,7.228512E-6,-0E0,2.231793E-5,-0E0,8.2117685E-6,-0E0,1.4279376E-6,-0E0,-2.7239594E-6,-0E0,-0E0,-7.846283E-6,-0E0,-2.0717209E-5],"split_indices":[63,63,35,35,23,33,23,37,12,29,23,37,0,0,27,33,0,20,0,0,34,63,10,27,0,0,17,0,0,0,0,0,0,0,0,0,0,0,0,0,0],"split_type":[0,0,0,0,0,0,0,0,0,0,0,0,0,0,0,0,0,0,0,0,0,0,0,0,0,0,0,0,0,0,0,0,0,0,0,0,0,0,0,0,0],"sum_hessian":[7.99E3,5.239E3,2.751E3,2.028E3,3.211E3,2.293E3,4.58E2,1.69E3,3.38E2,3.63E2,2.848E3,1.834E3,4.59E2,9.2E1,3.66E2,1.352E3,3.38E2,3.04E2,3.4E1,1.19E2,2.44E2,2.17E3,6.78E2,1.375E3,4.59E2,1.4E1,3.52E2,1.014E3,3.38E2,2.77E2,2.7E1,2.07E2,3.7E1,9.06E2,1.264E3,6.46E2,3.2E1,2.13E2,1.162E3,5E1,3.02E2],"tree_param":{"num_deleted":"0","num_feature":"70","num_nodes":"41","size_leaf_vector":"1"}},{"base_weights":[-0E0,3.5511938E-4,-5.435706E-4,9.1459224E-4,1.3137492E-4,-3.440872E-4,-1.341159E-3,1.125285E-3,-0E0,4.0382837E-4,-0E0,-4.6016666E-4,-0E0,-6.2172454E-5,-1.8542189E-3,1.3846665E-3,-0E0,4.803955E-4,-0E0,1.0093267E-4,-5.222433E-5,-6.15767E-4,-0E0,-0E0,-3.7947894E-4,-1.9476683E-3,-0E0,1.6376762E-5,1.3552819E-6,5.189357E-6,-0E0,1.3641134E-6,-0E0,-0E0,-1.4937964E-6,-0E0,-7.301466E-6,-0E0,-4.1270137E-6,-0E0,-2.0121412E-5],"categories":[],"categories_nodes":[],"categories_segments":[],"categories_sizes":[],"default_left":[0,0,0,0,0,0,0,0,0,0,0,0,0,0,0,0,0,0,0,0,0,0,0,0,0,0,0,0,0,0,0,0,0,0,0,0,0,0,0,0,0],"id":10,"left_children":[1,3,5,7,9,11,13,15,-1,17,19,21,-1,23,25,27,-1,29,-1,31,33,35,-1,-1,37,39,-1,-1,-1,-1,-1,-1,-1,-1,-1,-1,-1,-1,-1,-1,-1],"loss_changes":[1.5447309E-3,5.001679E-4,3.3257826E-4,2.751405E-4,1.2381848E-4,1.3468272E-4,1.5622482E-4,2.8153264E-4,0E0,3.234185E-5,1.35176315E-5,1.5359241E-4,0E0,1.415311E-5,8.8203E-5,8.609868E-5,0E0,3.4780373E-5,0E0,5.231789E-6,1.9414289E-5,1.2123276E-4,0E0,0E0,2.396443E-6,3.209035E-5,0E0,0E0,0E0,0E0,0E0,0E0,0E0,0E0,0E0,0E0,0E0,0E0,0E0,0E0,0E0],"parents":[2147483647,0,0,1,1,2,2,3,3,4,4,5,5,6,6,7,7,9,9,10,10,11,11,13,13,14,14,15,15,17,17,19,19,20,20,21,21,24,24,25,25],"right_children":[2,4,6,8,10,12,14,16,-1,18,20,22,-1,24,26,28,-1,30,-1,32,34,36,-1,-1,38,40,-1,-1,-1,-1,-1,-1,-1,-1,-1,-1,-1,-1,-1,-1,-1],"split_conditions":[8.230641E-4,-3.6360025E-3,1E0,1E0,-3.737568E-4,1E0,2.4045554E-3,1E0,-0E0,1E0,1.939509E1,1E0,-0E0,-7.8556675E-4,5.247044E-3,1E0,-0E0,1.02577545E-2,-0E0,1E0,-2.057582E-3,-2.6328387E-3,-0E0,-0E0,1.5842105E0,1.065265E0,-0E0,1.6376762E-5,1.3552819E-6,5.189357E-6,-0E0,1.3641134E-6,-0E0,-0E0,-1.4937964E-6,-0E0,-7.301466E-6,-0E0,-4.1270137E-6,-0E0,-2.0121412E-5],"split_indices":[63,63,35,37,27,33,63,33,0,37,12,37,0,27,41,34,0,29,0,32,63,27,0,0,52,15,0,0,0,0,0,0,0,0,0,0,0,0,0,0,0],"split_type":[0,0,0,0,0,0,0,0,0,0,0,0,0,0,0,0,0,0,0,0,0,0,0,0,0,0,0,0,0,0,0,0,0,0,0,0,0,0,0,0,0],"sum_hessian":[7.99E3,4.831E3,3.159E3,1.248E3,3.583E3,2.633E3,5.26E2,1.04E3,2.08E2,1.134E3,2.449E3,2.106E3,5.27E2,2.08E2,3.18E2,8.32E2,2.08E2,9.4E2,1.94E2,9.08E2,1.541E3,1.579E3,5.27E2,1.09E2,9.9E1,3.11E2,7E0,6.24E2,2.08E2,9.34E2,6E0,7.76E2,1.32E2,4.87E2,1.054E3,2.3E2,1.349E3,2E0,9.7E1,1.2E1,2.99E2],"tree_param":{"num_deleted":"0","num_feature":"70","num_nodes":"41","size_leaf_vector":"1"}},{"base_weights":[-0E0,3.156326E-4,-6.009591E-4,7.262293E-4,2.4488001E-5,-3.7031173E-4,-1.5232548E-3,4.343129E-4,1.866658E-3,5.305056E-4,-5.773798E-6,-4.8291768E-4,-0E0,-0E0,-1.7826181E-3,5.662593E-4,-0E0,2.0629088E-3,-0E0,-0E0,7.1020325E-4,1.9839828E-5,-2.337105E-4,-6.5377913E-4,-0E0,-0E0,-1.8473358E-3,7.0815013E-6,-0E0,2.199533E-5,-0E0,8.1089465E-6,-0E0,1.4003215E-6,-0E0,-2.6894563E-6,-0E0,-0E0,-7.695454E-6,-0E0,-2.0376092E-5],"categories":[],"categories_nodes":[],"categories_segments":[],"categories_sizes":[],"default_left":[0,0,0,0,0,0,0,0,0,0,0,0,0,0,0,0,0,0,0,0,0,0,0,0,0,0,0,0,0,0,0,0,0,0,0,0,0,0,0,0,0],"id":11,"left_children":[1,3,5,7,9,11,13,15,17,19,21,23,-1,-1,25,27,-1,29,-1,-1,31,33,35,37,-1,-1,39,-1,-1,-1,-1,-1,-1,-1,-1,-1,-1,-1,-1,-1,-1],"loss_changes":[1.5177624E-3,5.517229E-4,3.9409322E-4,4.4265494E-4,1.0173512E-4,1.13745715E-4,1.0463572E-4,1.1539756E-4,1.1982478E-4,2.2024258E-5,3.806688E-5,1.6097724E-4,0E0,0E0,3.937888E-5,7.58832E-5,0E0,4.9322844E-5,0E0,0E0,1.3807847E-5,1.7007684E-5,9.782107E-6,1.0124815E-4,0E0,0E0,5.630264E-5,0E0,0E0,0E0,0E0,0E0,0E0,0E0,0E0,0E0,0E0,0E0,0E0,0E0,0E0],"parents":[2147483647,0,0,1,1,2,2,3,3,4,4,5,5,6,6,7,7,8,8,9,9,10,10,11,11,14,14,15,15,17,17,20,20,21,21,22,22,23,23,26,26],"right_children":[2,4,6,8,10,12,14,16,18,20,22,24,-1,-1,26,28,-1,30,-1,-1,32,34,36,38,-1,-1,40,-1,-1,-1,-1,-1,-1,-1,-1,-1,-1,-1,-1,-1,-1],"split_conditions":[1.3606579E-3,-2.195345E-3,1E0,1E0,1.5166084E-1,1E0,5.1364932E-2,1E0,3.6016415E1,1.6461123E-3,7.5007963E-1,1E0,-0E0,-0E0,-4.317535E-3,1E0,-0E0,1.714297E2,-0E0,-0E0,1E0,-3.946031E-4,1.681941E-3,-2.6328387E-3,-0E0,-0E0,1.2407513E1,7.0815013E-6,-0E0,2.199533E-5,-0E0,8.1089465E-6,-0E0,1.4003215E-6,-0E0,-2.6894563E-6,-0E0,-0E0,-7.695454E-6,-0E0,-2.0376092E-5],"split_indices":[63,63,35,35,23,33,23,37,12,29,23,37,0,0,27,33,0,20,0,0,34,63,10,27,0,0,17,0,0,0,0,0,0,0,0,0,0,0,0,0,0],"split_type":[0,0,0,0,0,0,0,0,0,0,0,0,0,0,0,0,0,0,0,0,0,0,0,0,0,0,0,0,0,0,0,0,0,0,0,0,0,0,0,0,0],"sum_hessian":[7.99E3,5.239E3,2.751E3,2.028E3,3.211E3,2.293E3,4.58E2,1.69E3,3.38E2,3.63E2,2.848E3,1.834E3,4.59E2,9.2E1,3.66E2,1.352E3,3.38E2,3.04E2,3.4E1,1.19E2,2.44E2,2.17E3,6.78E2,1.375E3,4.59E2,1.4E1,3.52E2,1.014E3,3.38E2,2.77E2,2.7E1,2.07E2,3.7E1,9.06E2,1.264E3,6.46E2,3.2E1,2.13E2,1.162E3,5E1,3.02E2],"tree_param":{"num_deleted":"0","num_feature":"70","num_nodes":"41","size_leaf_vector":"1"}},{"base_weights":[-0E0,3.8129187E-4,-4.888702E-4,9.0913736E-4,1.5312902E-4,-2.0710313E-4,-9.286978E-4,1.118291E-3,-0E0,2.891979E-4,-0E0,-0E0,-3.79618E-4,-5.7486026E-4,-2.1633392E-3,1.3757586E-3,-0E0,5.903935E-4,9.260727E-5,-0E0,-2.0195692E-4,-0E0,9.3759896E-5,-4.8229934E-4,-0E0,-7.243373E-4,-0E0,-2.2874644E-3,-0E0,1.5459169E-5,-0E0,7.2864755E-6,-0E0,1.6277862E-6,-0E0,9.1321687E-7,-0E0,-2.897503E-6,-0E0,1.4656821E-6,-0E0,-0E0,-5.9778363E-6,-9.395509E-6,-0E0,-2.3674078E-5,-0E0],"categories":[],"categories_nodes":[],"categories_segments":[],"categories_sizes":[],"default_left":[0,0,0,0,0,0,0,0,0,0,0,0,0,0,0,0,0,0,0,0,0,0,0,0,0,0,0,0,0,0,0,0,0,0,0,0,0,0,0,0,0,0,0,0,0,0,0],"id":12,"left_children":[1,3,5,7,9,11,13,15,-1,17,19,21,23,25,27,29,-1,31,33,35,37,-1,39,41,-1,43,-1,45,-1,-1,-1,-1,-1,-1,-1,-1,-1,-1,-1,-1,-1,-1,-1,-1,-1,-1,-1],"loss_changes":[1.4912668E-3,4.3431093E-4,3.199532E-4,2.6473938E-4,8.451546E-5,1.1929465E-4,2.5686598E-4,2.7075887E-4,0E0,4.5646957E-5,9.421704E-6,2.68123E-6,7.894241E-5,9.202369E-5,8.9301146E-5,8.3538354E-5,0E0,2.6200549E-5,9.466929E-6,4.520091E-6,8.124941E-6,0E0,3.097493E-6,8.9459616E-5,0E0,1.1391073E-4,0E0,4.2285887E-5,0E0,0E0,0E0,0E0,0E0,0E0,0E0,0E0,0E0,0E0,0E0,0E0,0E0,0E0,0E0,0E0,0E0,0E0,0E0],"parents":[2147483647,0,0,1,1,2,2,3,3,4,4,5,5,6,6,7,7,9,9,10,10,11,11,12,12,13,13,14,14,15,15,17,17,18,18,19,19,20,20,22,22,23,23,25,25,27,27],"right_children":[2,4,6,8,10,12,14,16,-1,18,20,22,24,26,28,30,-1,32,34,36,38,-1,40,42,-1,44,-1,46,-1,-1,-1,-1,-1,-1,-1,-1,-1,-1,-1,-1,-1,-1,-1,-1,-1,-1,-1],"split_conditions":[3.2067107E-4,-3.665753E-3,3.8783143E-3,1E0,6.235184E-1,2.232763E-1,1E0,1E0,-0E0,-5.8853824E-4,3.9131725E-3,2.6726734E-3,1E0,1E0,5.247044E-3,9.330855E1,-0E0,0E0,-4.1978082E-4,-1.3435798E-3,9.603796E-2,-0E0,2.2834237E0,-1.5568703E-3,-0E0,1E0,-0E0,3.07E0,-0E0,1.5459169E-5,-0E0,7.2864755E-6,-0E0,1.6277862E-6,-0E0,9.1321687E-7,-0E0,-2.897503E-6,-0E0,1.4656821E-6,-0E0,-0E0,-5.9778363E-6,-9.395509E-6,-0E0,-2.3674078E-5,-0E0],"split_indices":[63,63,63,37,23,23,35,33,0,30,29,29,33,33,41,17,0,63,63,63,60,0,22,30,0,37,0,46,0,0,0,0,0,0,0,0,0,0,0,0,0,0,0,0,0,0,0],"split_type":[0,0,0,0,0,0,0,0,0,0,0,0,0,0,0,0,0,0,0,0,0,0,0,0,0,0,0,0,0,0,0,0,0,0,0,0,0,0,0,0,0,0,0,0,0,0,0],"sum_hessian":[7.99E3,4.489E3,3.501E3,1.218E3,3.271E3,2.277E3,1.224E3,1.015E3,2.03E2,1.924E3,1.347E3,7.75E2,1.502E3,1.02E3,2.04E2,8.12E2,2.03E2,5.55E2,1.369E3,1.121E3,2.26E2,4.75E2,3E2,1.268E3,2.34E2,8.16E2,2.04E2,1.99E2,5E0,6.77E2,1.35E2,4.12E2,1.43E2,7.97E2,5.72E2,5.37E2,5.84E2,2.04E2,2.2E1,2.64E2,3.6E1,1.94E2,1.074E3,6.12E2,2.04E2,1.93E2,6E0],"tree_param":{"num_deleted":"0","num_feature":"70","num_nodes":"47","size_leaf_vector":"1"}},{"base_weights":[-0E0,3.1050981E-4,-5.9037696E-4,8.914254E-4,1.0294229E-4,-3.6260716E-4,-1.4985045E-3,1.0975092E-3,-0E0,4.0583356E-4,-0E0,-4.7328614E-4,-0E0,-0E0,-1.7546308E-3,1.350002E-3,-0E0,5.420199E-4,-0E0,1.02217564E-4,-7.9990845E-5,-6.4133795E-4,-0E0,-0E0,-1.8187028E-3,1.59886E-5,1.1393756E-6,6.2289478E-6,-0E0,2.0463763E-6,-0E0,-0E0,-1.8365336E-6,-0E0,-7.558236E-6,-0E0,-2.0060015E-5],"categories":[],"categories_nodes":[],"categories_segments":[],"categories_sizes":[],"default_left":[0,0,0,0,0,0,0,0,0,0,0,0,0,0,0,0,0,0,0,0,0,0,0,0,0,0,0,0,0,0,0,0,0,0,0,0,0],"id":13,"left_children":[1,3,5,7,9,11,13,15,-1,17,19,21,-1,-1,23,25,-1,27,-1,29,31,33,-1,-1,35,-1,-1,-1,-1,-1,-1,-1,-1,-1,-1,-1,-1],"loss_changes":[1.4661972E-3,5.324218E-4,3.8123422E-4,2.6304694E-4,1.3520148E-4,1.0978547E-4,1.0253466E-4,2.6670704E-4,0E0,5.9243597E-5,2.3359891E-5,1.5567822E-4,0E0,0E0,3.8633123E-5,8.527434E-5,0E0,2.8599403E-5,0E0,1.876341E-5,2.0648074E-5,9.9057506E-5,0E0,0E0,5.4539065E-5,0E0,0E0,0E0,0E0,0E0,0E0,0E0,0E0,0E0,0E0,0E0,0E0],"parents":[2147483647,0,0,1,1,2,2,3,3,4,4,5,5,6,6,7,7,9,9,10,10,11,11,14,14,15,15,17,17,19,19,20,20,21,21,24,24],"right_children":[2,4,6,8,10,12,14,16,-1,18,20,22,-1,-1,24,26,-1,28,-1,30,32,34,-1,-1,36,-1,-1,-1,-1,-1,-1,-1,-1,-1,-1,-1,-1],"split_conditions":[1.3606579E-3,-3.6360025E-3,1E0,1E0,-5.6251005E-4,1E0,5.1364932E-2,1E0,-0E0,6.3033985E1,-1.2262696E-3,1E0,-0E0,-0E0,-4.317535E-3,1E0,-0E0,1E0,-0E0,7.8400955E1,2.0056803E1,-2.6328387E-3,-0E0,-0E0,1.2407513E1,1.59886E-5,1.1393756E-6,6.2289478E-6,-0E0,2.0463763E-6,-0E0,-0E0,-1.8365336E-6,-0E0,-7.558236E-6,-0E0,-2.0060015E-5],"split_indices":[63,63,35,37,27,33,23,33,0,20,63,37,0,0,27,34,0,37,0,17,12,27,0,0,17,0,0,0,0,0,0,0,0,0,0,0,0],"split_type":[0,0,0,0,0,0,0,0,0,0,0,0,0,0,0,0,0,0,0,0,0,0,0,0,0,0,0,0,0,0,0,0,0,0,0,0,0],"sum_hessian":[7.99E3,5.239E3,2.751E3,1.248E3,3.991E3,2.293E3,4.58E2,1.04E3,2.08E2,1.073E3,2.918E3,1.834E3,4.59E2,9.2E1,3.66E2,8.32E2,2.08E2,8.01E2,2.72E2,1.137E3,1.781E3,1.375E3,4.59E2,1.4E1,3.52E2,6.24E2,2.08E2,6.79E2,1.22E2,7.28E2,4.09E2,8.35E2,9.46E2,2.13E2,1.162E3,5E1,3.02E2],"tree_param":{"num_deleted":"0","num_feature":"70","num_nodes":"37","size_leaf_vector":"1"}},{"base_weights":[-0E0,3.4343166E-4,-5.243223E-4,8.832739E-4,1.265589E-4,-3.3003074E-4,-1.2962989E-3,1.087735E-3,-0E0,3.9146154E-4,-0E0,-4.4257502E-4,-0E0,-6.0514747E-5,-1.8086242E-3,1.337799E-3,-0E0,4.6519938E-4,-0E0,5.1393057E-5,-1.03465296E-4,-5.9286866E-4,-0E0,-0E0,-3.511892E-4,-1.9028098E-3,-0E0,1.5038297E-5,-0E0,5.435369E-6,-0E0,1.8574899E-6,-0E0,-0E0,-2.0051516E-6,-0E0,-7.0411065E-6,-0E0,-3.8375833E-6,-0E0,-1.9682597E-5],"categories":[],"categories_nodes":[],"categories_segments":[],"categories_sizes":[],"default_left":[0,0,0,0,0,0,0,0,0,0,0,0,0,0,0,0,0,0,0,0,0,0,0,0,0,0,0,0,0,0,0,0,0,0,0,0,0,0,0,0,0],"id":14,"left_children":[1,3,5,7,9,11,13,15,-1,17,19,21,-1,23,25,27,-1,29,-1,31,33,35,-1,-1,37,39,-1,-1,-1,-1,-1,-1,-1,-1,-1,-1,-1,-1,-1,-1,-1],"loss_changes":[1.4402111E-3,4.646426E-4,3.097917E-4,2.5885378E-4,1.1707326E-4,1.2615541E-4,1.4872744E-4,2.6157382E-4,0E0,3.126354E-5,1.2647521E-5,1.4327816E-4,0E0,1.2275064E-5,8.5816486E-5,8.733012E-5,0E0,2.7289789E-5,0E0,1.8361226E-5,1.125169E-5,1.1450972E-4,0E0,0E0,2.2427394E-6,3.2306765E-5,0E0,0E0,0E0,0E0,0E0,0E0,0E0,0E0,0E0,0E0,0E0,0E0,0E0,0E0,0E0],"parents":[2147483647,0,0,1,1,2,2,3,3,4,4,5,5,6,6,7,7,9,9,10,10,11,11,13,13,14,14,15,15,17,17,19,19,20,20,21,21,24,24,25,25],"right_children":[2,4,6,8,10,12,14,16,-1,18,20,22,-1,24,26,28,-1,30,-1,32,34,36,-1,-1,38,40,-1,-1,-1,-1,-1,-1,-1,-1,-1,-1,-1,-1,-1,-1,-1],"split_conditions":[8.230641E-4,-3.6360025E-3,1E0,1E0,-3.737568E-4,1E0,2.4333925E-3,1E0,-0E0,1.9463827E-3,7.5007963E-1,1E0,-0E0,-7.8556675E-4,5.247044E-3,9.330855E1,-0E0,1E0,-0E0,-1.2262696E-3,-2.057582E-3,-2.6328387E-3,-0E0,-0E0,1.5842105E0,1.065265E0,-0E0,1.5038297E-5,-0E0,5.435369E-6,-0E0,1.8574899E-6,-0E0,-0E0,-2.0051516E-6,-0E0,-7.0411065E-6,-0E0,-3.8375833E-6,-0E0,-1.9682597E-5],"split_indices":[63,63,35,37,27,33,63,33,0,8,23,37,0,27,41,17,0,37,0,63,63,27,0,0,52,15,0,0,0,0,0,0,0,0,0,0,0,0,0,0,0],"split_type":[0,0,0,0,0,0,0,0,0,0,0,0,0,0,0,0,0,0,0,0,0,0,0,0,0,0,0,0,0,0,0,0,0,0,0,0,0,0,0,0,0],"sum_hessian":[7.99E3,4.831E3,3.159E3,1.248E3,3.583E3,2.633E3,5.26E2,1.04E3,2.08E2,1.134E3,2.449E3,2.106E3,5.27E2,2.13E2,3.13E2,8.32E2,2.08E2,9.46E2,1.88E2,1.691E3,7.58E2,1.579E3,5.27E2,1.12E2,1.01E2,3.06E2,7E0,6.96E2,1.36E2,7.84E2,1.62E2,6.57E2,1.034E3,2.8E2,4.78E2,2.3E2,1.349E3,2E0,9.9E1,1.2E1,2.94E2],"tree_param":{"num_deleted":"0","num_feature":"70","num_nodes":"41","size_leaf_vector":"1"}},{"base_weights":[-0E0,3.0521658E-4,-5.798262E-4,7.0247875E-4,2.2517563E-5,-3.5522488E-4,-1.4723416E-3,4.148906E-4,1.8218652E-3,5.1852624E-4,-6.4497667E-6,-4.6406133E-4,-0E0,-0E0,-1.7253961E-3,5.4226024E-4,-0E0,2.015354E-3,-0E0,-0E0,6.942273E-4,1.7041637E-5,-2.2762334E-4,-6.290449E-4,-0E0,-0E0,-1.7888178E-3,6.767639E-6,-0E0,2.1497628E-5,-0E0,7.936919E-6,-0E0,1.3295655E-6,-0E0,-2.6278326E-6,-0E0,-0E0,-7.4128675E-6,-0E0,-1.973171E-5],"categories":[],"categories_nodes":[],"categories_segments":[],"categories_sizes":[],"default_left":[0,0,0,0,0,0,0,0,0,0,0,0,0,0,0,0,0,0,0,0,0,0,0,0,0,0,0,0,0,0,0,0,0,0,0,0,0,0,0,0,0],"id":15,"left_children":[1,3,5,7,9,11,13,15,17,19,21,23,-1,-1,25,27,-1,29,-1,-1,31,33,35,37,-1,-1,39,-1,-1,-1,-1,-1,-1,-1,-1,-1,-1,-1,-1,-1,-1],"loss_changes":[1.415079E-3,5.163519E-4,3.6709633E-4,4.2701326E-4,9.7432014E-5,1.0606152E-4,1.0077725E-4,1.072532E-4,1.1656748E-4,2.106197E-5,3.5900837E-5,1.5002847E-4,0E0,0E0,3.7889346E-5,6.769094E-5,0E0,4.820677E-5,0E0,0E0,1.3542805E-5,1.5472495E-5,9.566975E-6,9.52112E-5,0E0,0E0,5.2921707E-5,0E0,0E0,0E0,0E0,0E0,0E0,0E0,0E0,0E0,0E0,0E0,0E0,0E0,0E0],"parents":[2147483647,0,0,1,1,2,2,3,3,4,4,5,5,6,6,7,7,8,8,9,9,10,10,11,11,14,14,15,15,17,17,20,20,21,21,22,22,23,23,26,26],"right_children":[2,4,6,8,10,12,14,16,18,20,22,24,-1,-1,26,28,-1,30,-1,-1,32,34,36,38,-1,-1,40,-1,-1,-1,-1,-1,-1,-1,-1,-1,-1,-1,-1,-1,-1],"split_conditions":[1.3606579E-3,-2.195345E-3,1E0,1E0,1.5166084E-1,1E0,5.1364932E-2,1E0,3.6016415E1,1.6461123E-3,7.5007963E-1,1E0,-0E0,-0E0,-4.317535E-3,1E0,-0E0,1.714297E2,-0E0,-0E0,1E0,-3.946031E-4,1.681941E-3,-2.6328387E-3,-0E0,-0E0,1.2407513E1,6.767639E-6,-0E0,2.1497628E-5,-0E0,7.936919E-6,-0E0,1.3295655E-6,-0E0,-2.6278326E-6,-0E0,-0E0,-7.4128675E-6,-0E0,-1.973171E-5],"split_indices":[63,63,35,35,23,33,23,37,12,29,23,37,0,0,27,33,0,20,0,0,34,63,10,27,0,0,17,0,0,0,0,0,0,0,0,0,0,0,0,0,0],"split_type":[0,0,0,0,0,0,0,0,0,0,0,0,0,0,0,0,0,0,0,0,0,0,0,0,0,0,0,0,0,0,0,0,0,0,0,0,0,0,0,0,0],"sum_hessian":[7.99E3,5.239E3,2.751E3,2.028E3,3.211E3,2.293E3,4.58E2,1.69E3,3.38E2,3.63E2,2.848E3,1.834E3,4.59E2,9.2E1,3.66E2,1.352E3,3.38E2,3.04E2,3.4E1,1.19E2,2.44E2,2.17E3,6.78E2,1.375E3,4.59E2,1.4E1,3.52E2,1.014E3,3.38E2,2.77E2,2.7E1,2.07E2,3.7E1,9.06E2,1.264E3,6.46E2,3.2E1,2.13E2,1.162E3,5E1,3.02E2],"tree_param":{"num_deleted":"0","num_feature":"70","num_nodes":"41","size_leaf_vector":"1"}},{"base_weights":[-0E0,3.686547E-4,-4.7164116E-4,8.7795727E-4,1.474336E-4,-1.9355293E-4,-9.04708E-4,1.0809056E-3,-0E0,2.5542168E-4,-1.1922144E-5,5.5840733E-6,-3.62338E-4,-5.588993E-4,-2.100547E-3,1.3290838E-3,-0E0,4.1759748E-4,-0E0,-0E0,-2.7200067E-4,6.739571E-5,-0E0,-4.6180963E-4,-0E0,-7.044105E-4,-0E0,-2.2235233E-3,-0E0,1.5323723E-5,-0E0,4.800307E-6,-0E0,7.5664633E-7,-0E0,-0E0,-3.4815469E-6,1.3633759E-6,-0E0,-0E0,-5.7557068E-6,-9.1303555E-6,-0E0,-2.4575418E-5,-0E0],"categories":[],"categories_nodes":[],"categories_segments":[],"categories_sizes":[],"default_left":[0,0,0,0,0,0,0,0,0,0,0,0,0,0,0,0,0,0,0,0,0,0,0,0,0,0,0,1,0,0,0,0,0,0,0,0,0,0,0,0,0,0,0,0,0],"id":16,"left_children":[1,3,5,7,9,11,13,15,-1,17,19,21,23,25,27,29,-1,31,33,-1,35,37,-1,39,-1,41,-1,43,-1,-1,-1,-1,-1,-1,-1,-1,-1,-1,-1,-1,-1,-1,-1,-1,-1],"loss_changes":[1.3906565E-3,4.031459E-4,3.1152862E-4,2.4902454E-4,8.074029E-5,1.1238661E-4,2.3641565E-4,2.514769E-4,0E0,5.5009732E-5,1.5475103E-5,3.0870729E-6,7.3638104E-5,8.7197724E-5,8.641725E-5,8.545455E-5,0E0,2.4297013E-5,4.4999574E-6,0E0,7.2983094E-6,5.717875E-6,0E0,8.596253E-5,0E0,1.0697672E-4,0E0,4.2287633E-5,0E0,0E0,0E0,0E0,0E0,0E0,0E0,0E0,0E0,0E0,0E0,0E0,0E0,0E0,0E0,0E0,0E0],"parents":[2147483647,0,0,1,1,2,2,3,3,4,4,5,5,6,6,7,7,9,9,10,10,11,11,12,12,13,13,14,14,15,15,17,17,18,18,20,20,21,21,23,23,25,25,27,27],"right_children":[2,4,6,8,10,12,14,16,-1,18,20,22,24,26,28,30,-1,32,34,-1,36,38,-1,40,-1,42,-1,44,-1,-1,-1,-1,-1,-1,-1,-1,-1,-1,-1,-1,-1,-1,-1,-1,-1],"split_conditions":[3.2067107E-4,-3.665753E-3,3.8783143E-3,1E0,2.8230497E-1,2.232763E-1,1E0,1E0,-0E0,-8.434648E-4,3.624138E-3,1E0,1E0,1E0,5.247044E-3,1.6243242E2,-0E0,1E0,3.961442E-4,-0E0,1.4523501E1,2.4701303E-3,-0E0,-1.5568703E-3,-0E0,1E0,-0E0,2.1E-1,-0E0,1.5323723E-5,-0E0,4.800307E-6,-0E0,7.5664633E-7,-0E0,-0E0,-3.4815469E-6,1.3633759E-6,-0E0,-0E0,-5.7557068E-6,-9.1303555E-6,-0E0,-2.4575418E-5,-0E0],"split_indices":[63,63,63,37,21,23,35,33,0,63,29,32,33,33,41,20,0,37,27,0,11,63,0,30,0,37,0,51,0,0,0,0,0,0,0,0,0,0,0,0,0,0,0,0,0],"split_type":[0,0,0,0,0,0,0,0,0,0,0,0,0,0,0,0,0,0,0,0,0,0,0,0,0,0,0,0,0,0,0,0,0,0,0,0,0,0,0,0,0,0,0,0,0],"sum_hessian":[7.99E3,4.489E3,3.501E3,1.218E3,3.271E3,2.277E3,1.224E3,1.015E3,2.03E2,2.322E3,9.49E2,7.75E2,1.502E3,1.02E3,2.04E2,8.12E2,2.03E2,1.181E3,1.141E3,7.43E2,2.06E2,6.8E2,9.5E1,1.268E3,2.34E2,8.16E2,2.04E2,1.99E2,5E0,6.46E2,1.66E2,9.98E2,1.83E2,7.81E2,3.6E2,2.2E1,1.84E2,4.7E2,2.1E2,1.94E2,1.074E3,6.12E2,2.04E2,1.69E2,3E1],"tree_param":{"num_deleted":"0","num_feature":"70","num_nodes":"45","size_leaf_vector":"1"}},{"base_weights":[-0E0,3.0015464E-4,-5.69742E-4,6.904413E-4,2.187308E-5,-3.4783917E-4,-1.448973E-3,4.0569706E-4,1.7959491E-3,4.96991E-4,-8.473371E-6,-4.547825E-4,-0E0,-0E0,-1.6984701E-3,5.3074094E-4,-0E0,1.9871364E-3,-0E0,-0E0,6.664739E-4,1.3551869E-5,-2.2422147E-4,-6.170199E-4,-0E0,-0E0,-1.76131E-3,6.6173507E-6,-0E0,2.1188356E-5,-0E0,7.1144345E-6,-0E0,1.2687409E-6,-0E0,-2.5930651E-6,-0E0,-0E0,-7.2805606E-6,-0E0,-1.9426832E-5],"categories":[],"categories_nodes":[],"categories_segments":[],"categories_sizes":[],"default_left":[0,0,0,0,0,0,0,0,0,0,0,0,0,0,0,0,0,0,0,0,0,0,0,0,0,0,0,0,0,0,0,0,0,0,0,0,0,0,0,0,0],"id":17,"left_children":[1,3,5,7,9,11,13,15,17,19,21,23,-1,-1,25,27,-1,29,-1,-1,31,33,35,37,-1,-1,39,-1,-1,-1,-1,-1,-1,-1,-1,-1,-1,-1,-1,-1,-1],"loss_changes":[1.3670606E-3,4.982416E-4,3.555048E-4,4.1615416E-4,9.524156E-5,1.023153E-4,9.818206E-5,1.0326755E-4,1.13828224E-4,1.98001E-5,3.4530043E-5,1.4502957E-4,0E0,0E0,3.7229154E-5,6.3965475E-5,0E0,4.58773E-5,0E0,0E0,1.066699E-5,1.4220887E-5,9.435145E-6,9.320193E-5,0E0,0E0,5.113345E-5,0E0,0E0,0E0,0E0,0E0,0E0,0E0,0E0,0E0,0E0,0E0,0E0,0E0,0E0],"parents":[2147483647,0,0,1,1,2,2,3,3,4,4,5,5,6,6,7,7,8,8,9,9,10,10,11,11,14,14,15,15,17,17,20,20,21,21,22,22,23,23,26,26],"right_children":[2,4,6,8,10,12,14,16,18,20,22,24,-1,-1,26,28,-1,30,-1,-1,32,34,36,38,-1,-1,40,-1,-1,-1,-1,-1,-1,-1,-1,-1,-1,-1,-1,-1,-1],"split_conditions":[1.3606579E-3,-2.195345E-3,1E0,1E0,1.5887898E-1,1E0,5.1364932E-2,1E0,3.6016415E1,1.6461123E-3,7.5007963E-1,1E0,-0E0,-0E0,-4.317535E-3,1E0,-0E0,1.714297E2,-0E0,-0E0,4.690958E1,-3.946031E-4,1.681941E-3,-2.6328387E-3,-0E0,-0E0,1.2407513E1,6.6173507E-6,-0E0,2.1188356E-5,-0E0,7.1144345E-6,-0E0,1.2687409E-6,-0E0,-2.5930651E-6,-0E0,-0E0,-7.2805606E-6,-0E0,-1.9426832E-5],"split_indices":[63,63,35,35,23,33,23,37,12,29,23,37,0,0,27,33,0,20,0,0,16,63,10,27,0,0,17,0,0,0,0,0,0,0,0,0,0,0,0,0,0],"split_type":[0,0,0,0,0,0,0,0,0,0,0,0,0,0,0,0,0,0,0,0,0,0,0,0,0,0,0,0,0,0,0,0,0,0,0,0,0,0,0,0,0],"sum_hessian":[7.99E3,5.239E3,2.751E3,2.028E3,3.211E3,2.293E3,4.58E2,1.69E3,3.38E2,3.86E2,2.825E3,1.834E3,4.59E2,9.2E1,3.66E2,1.352E3,3.38E2,3.04E2,3.4E1,1.29E2,2.57E2,2.147E3,6.78E2,1.375E3,4.59E2,1.4E1,3.52E2,1.014E3,3.38E2,2.77E2,2.7E1,2.46E2,1.1E1,9.03E2,1.244E3,6.46E2,3.2E1,2.13E2,1.162E3,5E1,3.02E2],"tree_param":{"num_deleted":"0","num_feature":"70","num_nodes":"41","size_leaf_vector":"1"}},{"base_weights":[-0E0,3.6238166E-4,-4.63267E-4,8.638307E-4,1.4410203E-4,-1.875236E-4,-8.92014E-4,1.0639675E-3,-0E0,2.507458E-4,-1.195723E-5,6.468999E-6,-3.5366602E-4,-5.500242E-4,-2.0694279E-3,1.3079371E-3,-0E0,4.0973205E-4,-0E0,-0E0,-2.706837E-4,6.795405E-5,-0E0,-4.515619E-4,-0E0,-6.933301E-4,-0E0,-2.191832E-3,-0E0,1.5072972E-5,-0E0,4.707949E-6,-0E0,7.379629E-7,-0E0,-0E0,-3.4620696E-6,1.360083E-6,-0E0,-0E0,-5.6428003E-6,-8.9829155E-6,-0E0,-2.270145E-5,-0E0],"categories":[],"categories_nodes":[],"categories_segments":[],"categories_sizes":[],"default_left":[0,0,0,0,0,0,0,0,0,0,0,0,0,0,0,0,0,0,0,0,0,0,0,0,0,0,0,0,0,0,0,0,0,0,0,0,0,0,0,0,0,0,0,0,0],"id":18,"left_children":[1,3,5,7,9,11,13,15,-1,17,19,21,23,25,27,29,-1,31,33,-1,35,37,-1,39,-1,41,-1,43,-1,-1,-1,-1,-1,-1,-1,-1,-1,-1,-1,-1,-1,-1,-1,-1,-1],"loss_changes":[1.3425988E-3,3.904801E-4,3.0570372E-4,2.4206057E-4,7.8415476E-5,1.08280925E-4,2.2723712E-4,2.4297414E-4,0E0,5.2799587E-5,1.5323498E-5,3.13052E-6,7.108004E-5,8.4570376E-5,8.4992906E-5,8.139468E-5,0E0,2.3206667E-5,4.2804713E-6,0E0,7.1935046E-6,5.623513E-6,0E0,8.3991385E-5,0E0,1.0321432E-4,0E0,4.0362705E-5,0E0,0E0,0E0,0E0,0E0,0E0,0E0,0E0,0E0,0E0,0E0,0E0,0E0,0E0,0E0,0E0,0E0],"parents":[2147483647,0,0,1,1,2,2,3,3,4,4,5,5,6,6,7,7,9,9,10,10,11,11,12,12,13,13,14,14,15,15,17,17,18,18,20,20,21,21,23,23,25,25,27,27],"right_children":[2,4,6,8,10,12,14,16,-1,18,20,22,24,26,28,30,-1,32,34,-1,36,38,-1,40,-1,42,-1,44,-1,-1,-1,-1,-1,-1,-1,-1,-1,-1,-1,-1,-1,-1,-1,-1,-1],"split_conditions":[3.2067107E-4,-3.665753E-3,3.8783143E-3,1E0,2.8230497E-1,2.232763E-1,1E0,1E0,-0E0,-8.434648E-4,3.624138E-3,1E0,1E0,1E0,5.247044E-3,1.6243242E2,-0E0,1E0,3.961442E-4,-0E0,1.4523501E1,2.4701303E-3,-0E0,-1.5568703E-3,-0E0,1E0,-0E0,3.07E0,-0E0,1.5072972E-5,-0E0,4.707949E-6,-0E0,7.379629E-7,-0E0,-0E0,-3.4620696E-6,1.360083E-6,-0E0,-0E0,-5.6428003E-6,-8.9829155E-6,-0E0,-2.270145E-5,-0E0],"split_indices":[63,63,63,37,21,23,35,33,0,63,29,32,33,33,41,20,0,37,27,0,11,63,0,30,0,37,0,46,0,0,0,0,0,0,0,0,0,0,0,0,0,0,0,0,0],"split_type":[0,0,0,0,0,0,0,0,0,0,0,0,0,0,0,0,0,0,0,0,0,0,0,0,0,0,0,0,0,0,0,0,0,0,0,0,0,0,0,0,0,0,0,0,0],"sum_hessian":[7.99E3,4.489E3,3.501E3,1.218E3,3.271E3,2.277E3,1.224E3,1.015E3,2.03E2,2.322E3,9.49E2,7.75E2,1.502E3,1.02E3,2.04E2,8.12E2,2.03E2,1.181E3,1.141E3,7.43E2,2.06E2,6.8E2,9.5E1,1.268E3,2.34E2,8.16E2,2.04E2,1.99E2,5E0,6.46E2,1.66E2,9.98E2,1.83E2,7.81E2,3.6E2,2.2E1,1.84E2,4.7E2,2.1E2,1.94E2,1.074E3,6.12E2,2.04E2,1.93E2,6E0],"tree_param":{"num_deleted":"0","num_feature":"70","num_nodes":"45","size_leaf_vector":"1"}},{"base_weights":[-0E0,2.9516674E-4,-5.597243E-4,6.591518E-4,8.008287E-6,-3.4058592E-4,-1.4253429E-3,3.824846E-4,1.7435068E-3,4.5911697E-4,-1.9017083E-5,-4.4566934E-4,-0E0,-0E0,-1.6717756E-3,4.993909E-4,-0E0,2.0095175E-3,-0E0,-0E0,5.5373594E-4,-0E0,-2.2338949E-4,-6.052076E-4,-0E0,-0E0,-1.7340062E-3,6.1917713E-6,-0E0,-0E0,2.0511634E-5,5.776712E-6,-0E0,9.309824E-7,-0E0,-2.6076386E-6,-0E0,-0E0,-7.150605E-6,-0E0,-1.9125424E-5],"categories":[],"categories_nodes":[],"categories_segments":[],"categories_sizes":[],"default_left":[0,0,0,0,0,0,0,0,0,0,0,0,0,0,0,0,0,0,0,0,0,0,0,0,0,0,0,0,0,0,0,0,0,0,0,0,0,0,0,0,0],"id":19,"left_children":[1,3,5,7,9,11,13,15,17,19,21,23,-1,-1,25,27,-1,29,-1,-1,31,33,35,37,-1,-1,39,-1,-1,-1,-1,-1,-1,-1,-1,-1,-1,-1,-1,-1,-1],"loss_changes":[1.3203059E-3,4.8136778E-4,3.437663E-4,4.3177832E-4,8.1725004E-5,9.869918E-5,9.6251315E-5,9.604273E-5,1.0899326E-4,1.6870152E-5,3.115701E-5,1.4019685E-4,0E0,0E0,3.6536367E-5,5.544469E-5,0E0,2.9866234E-5,0E0,0E0,7.971292E-6,7.17651E-6,9.477204E-6,9.123946E-5,0E0,0E0,4.9530878E-5,0E0,0E0,0E0,0E0,0E0,0E0,0E0,0E0,0E0,0E0,0E0,0E0,0E0,0E0],"parents":[2147483647,0,0,1,1,2,2,3,3,4,4,5,5,6,6,7,7,8,8,9,9,10,10,11,11,14,14,15,15,17,17,20,20,21,21,22,22,23,23,26,26],"right_children":[2,4,6,8,10,12,14,16,18,20,22,24,-1,-1,26,28,-1,30,-1,-1,32,34,36,38,-1,-1,40,-1,-1,-1,-1,-1,-1,-1,-1,-1,-1,-1,-1,-1,-1],"split_conditions":[1.3606579E-3,-2.057582E-3,1E0,1E0,1.5887898E-1,1E0,5.1364932E-2,1E0,1.5071387E2,1.1698664E-3,7.5007963E-1,1E0,-0E0,-0E0,-4.317535E-3,1E0,-0E0,-4.7302946E-1,-0E0,-0E0,4.6041645E-3,-3.946031E-4,1.681941E-3,-2.6328387E-3,-0E0,-0E0,1.2407513E1,6.1917713E-6,-0E0,-0E0,2.0511634E-5,5.776712E-6,-0E0,9.309824E-7,-0E0,-2.6076386E-6,-0E0,-0E0,-7.150605E-6,-0E0,-1.9125424E-5],"split_indices":[63,63,35,35,23,33,23,37,20,29,23,37,0,0,27,33,0,67,0,0,9,63,10,27,0,0,17,0,0,0,0,0,0,0,0,0,0,0,0,0,0],"split_type":[0,0,0,0,0,0,0,0,0,0,0,0,0,0,0,0,0,0,0,0,0,0,0,0,0,0,0,0,0,0,0,0,0,0,0,0,0,0,0,0,0],"sum_hessian":[7.99E3,5.239E3,2.751E3,2.154E3,3.085E3,2.293E3,4.58E2,1.795E3,3.59E2,3.79E2,2.706E3,1.834E3,4.59E2,9.2E1,3.66E2,1.436E3,3.59E2,2.96E2,6.3E1,6.5E1,3.14E2,2.067E3,6.39E2,1.375E3,4.59E2,1.4E1,3.52E2,1.077E3,3.59E2,5E0,2.91E2,3.12E2,2E0,8.23E2,1.244E3,6.07E2,3.2E1,2.13E2,1.162E3,5E1,3.02E2],"tree_param":{"num_deleted":"0","num_feature":"70","num_nodes":"41","size_leaf_vector":"1"}},{"base_weights":[-0E0,2.9256888E-4,-5.546137E-4,8.4121776E-4,9.5141484E-5,-3.3697014E-4,-1.412868E-3,1.0373014E-3,-0E0,3.9001988E-4,-0E0,-4.4115112E-4,-0E0,-0E0,-1.6562071E-3,1.2748663E-3,-0E0,5.2148465E-4,-0E0,8.485671E-5,-7.679867E-5,-5.991866E-4,-0E0,-0E0,-1.7178273E-3,1.5189475E-5,5.467177E-7,5.9902427E-6,-0E0,1.8269905E-6,-0E0,-0E0,-1.7627315E-6,-0E0,-7.0794053E-6,-0E0,-1.8937286E-5],"categories":[],"categories_nodes":[],"categories_segments":[],"categories_sizes":[],"default_left":[0,0,0,0,0,0,0,0,0,0,0,0,0,0,0,0,0,0,0,0,0,0,0,0,0,0,0,0,0,0,0,0,0,0,0,0,0],"id":20,"left_children":[1,3,5,7,9,11,13,15,-1,17,19,21,-1,-1,23,25,-1,27,-1,29,31,33,-1,-1,35,-1,-1,-1,-1,-1,-1,-1,-1,-1,-1,-1,-1],"loss_changes":[1.2966038E-3,4.7398524E-4,3.374386E-4,2.3773167E-4,1.2780912E-4,9.696037E-5,9.342242E-5,2.3594894E-4,0E0,5.5208162E-5,1.8757048E-5,1.3755818E-4,0E0,0E0,3.582111E-5,9.150361E-5,0E0,2.6251088E-5,0E0,1.624361E-5,1.9015793E-5,8.9422974E-5,0E0,0E0,4.7483598E-5,0E0,0E0,0E0,0E0,0E0,0E0,0E0,0E0,0E0,0E0,0E0,0E0],"parents":[2147483647,0,0,1,1,2,2,3,3,4,4,5,5,6,6,7,7,9,9,10,10,11,11,14,14,15,15,17,17,19,19,20,20,21,21,24,24],"right_children":[2,4,6,8,10,12,14,16,-1,18,20,22,-1,-1,24,26,-1,28,-1,30,32,34,-1,-1,36,-1,-1,-1,-1,-1,-1,-1,-1,-1,-1,-1,-1],"split_conditions":[1.3606579E-3,-3.6360025E-3,1E0,1E0,-5.6251005E-4,1E0,5.1364932E-2,1E0,-0E0,6.3033985E1,-1.2262696E-3,1E0,-0E0,-0E0,-4.317535E-3,1E0,-0E0,1E0,-0E0,7.8400955E1,2.0056803E1,-2.6328387E-3,-0E0,-0E0,1.2407513E1,1.5189475E-5,5.467177E-7,5.9902427E-6,-0E0,1.8269905E-6,-0E0,-0E0,-1.7627315E-6,-0E0,-7.0794053E-6,-0E0,-1.8937286E-5],"split_indices":[63,63,35,37,27,33,23,33,0,20,63,37,0,0,27,34,0,37,0,17,12,27,0,0,17,0,0,0,0,0,0,0,0,0,0,0,0],"split_type":[0,0,0,0,0,0,0,0,0,0,0,0,0,0,0,0,0,0,0,0,0,0,0,0,0,0,0,0,0,0,0,0,0,0,0,0,0],"sum_hessian":[7.99E3,5.239E3,2.751E3,1.248E3,3.991E3,2.293E3,4.58E2,1.04E3,2.08E2,1.073E3,2.918E3,1.834E3,4.59E2,9.2E1,3.66E2,8.32E2,2.08E2,8.01E2,2.72E2,1.137E3,1.781E3,1.375E3,4.59E2,1.4E1,3.52E2,6.24E2,2.08E2,6.79E2,1.22E2,7.28E2,4.09E2,8.35E2,9.46E2,2.13E2,1.162E3,5E1,3.02E2],"tree_param":{"num_deleted":"0","num_feature":"70","num_nodes":"37","size_leaf_vector":"1"}},{"base_weights":[-0E0,3.5334285E-4,-4.5110763E-4,8.4256526E-4,1.3964146E-4,-1.7819523E-4,-8.746476E-4,1.0384698E-3,-0E0,3.7246235E-4,-0E0,-0E0,-3.600224E-4,-5.379692E-4,-2.026428E-3,1.2761041E-3,-0E0,4.4852743E-4,-0E0,8.694327E-5,-5.701577E-5,7.617424E-5,-0E0,-4.5816298E-4,-0E0,-6.7827967E-4,-0E0,-2.1481514E-3,-0E0,1.4388423E-5,-0E0,5.2155538E-6,-0E0,1.8324247E-6,-0E0,-0E0,-1.2892499E-6,1.1295141E-6,-0E0,-0E0,-5.5507703E-6,-8.78265E-6,-0E0,-2.3760012E-5,-0E0],"categories":[],"categories_nodes":[],"categories_segments":[],"categories_sizes":[],"default_left":[0,0,0,0,0,0,0,0,0,0,0,0,0,0,0,0,0,0,0,0,0,0,0,0,0,0,0,1,0,0,0,0,0,0,0,0,0,0,0,0,0,0,0,0,0],"id":21,"left_children":[1,3,5,7,9,11,13,15,-1,17,19,21,23,25,27,29,-1,31,-1,33,35,37,-1,39,-1,41,-1,43,-1,-1,-1,-1,-1,-1,-1,-1,-1,-1,-1,-1,-1,-1,-1,-1,-1],"loss_changes":[1.2745454E-3,3.7102756E-4,2.991925E-4,2.3176044E-4,7.609561E-5,1.0290903E-4,2.1469063E-4,2.3044879E-4,0E0,2.8005918E-5,1.3731011E-5,2.2281656E-6,6.3930565E-5,8.106587E-5,8.312933E-5,8.148549E-5,0E0,2.134325E-5,0E0,1.3877522E-5,5.9667495E-6,2.37748E-6,0E0,6.1414714E-5,0E0,9.821064E-5,0E0,4.0927436E-5,0E0,0E0,0E0,0E0,0E0,0E0,0E0,0E0,0E0,0E0,0E0,0E0,0E0,0E0,0E0,0E0,0E0],"parents":[2147483647,0,0,1,1,2,2,3,3,4,4,5,5,6,6,7,7,9,9,10,10,11,11,12,12,13,13,14,14,15,15,17,17,19,19,20,20,21,21,23,23,25,25,27,27],"right_children":[2,4,6,8,10,12,14,16,-1,18,20,22,24,26,28,30,-1,32,-1,34,36,38,-1,40,-1,42,-1,44,-1,-1,-1,-1,-1,-1,-1,-1,-1,-1,-1,-1,-1,-1,-1,-1,-1],"split_conditions":[3.2067107E-4,-3.665753E-3,3.8783143E-3,1E0,-3.8758293E-4,2.7419355E1,1E0,1E0,-0E0,1.7876585E-3,7.428932E1,-8.399725E-4,1E0,1E0,5.247044E-3,9.330855E1,-0E0,1E0,-0E0,-8.434648E-4,-2.195345E-3,1E0,-0E0,-1.5568703E-3,-0E0,1E0,-0E0,2.1E-1,-0E0,1.4388423E-5,-0E0,5.2155538E-6,-0E0,1.8324247E-6,-0E0,-0E0,-1.2892499E-6,1.1295141E-6,-0E0,-0E0,-5.5507703E-6,-8.78265E-6,-0E0,-2.3760012E-5,-0E0],"split_indices":[63,63,63,37,27,17,35,33,0,8,17,30,33,33,41,17,0,37,0,63,63,34,0,30,0,37,0,51,0,0,0,0,0,0,0,0,0,0,0,0,0,0,0,0,0],"split_type":[0,0,0,0,0,0,0,0,0,0,0,0,0,0,0,0,0,0,0,0,0,0,0,0,0,0,0,0,0,0,0,0,0,0,0,0,0,0,0,0,0,0,0,0,0],"sum_hessian":[7.99E3,4.489E3,3.501E3,1.218E3,3.271E3,2.277E3,1.224E3,1.015E3,2.03E2,1.004E3,2.267E3,9.29E2,1.348E3,1.02E3,2.04E2,8.12E2,2.03E2,8.3E2,1.74E2,1.464E3,8.03E2,3.79E2,5.5E2,1.135E3,2.13E2,8.16E2,2.04E2,1.99E2,5E0,6.77E2,1.35E2,6.91E2,1.39E2,7.39E2,7.25E2,2.91E2,5.12E2,3.56E2,2.3E1,1.64E2,9.71E2,6.12E2,2.04E2,1.69E2,3E1],"tree_param":{"num_deleted":"0","num_feature":"70","num_nodes":"45","size_leaf_vector":"1"}},{"base_weights":[-0E0,2.8771747E-4,-5.4503337E-4,6.430484E-4,6.6178277E-6,-3.2997096E-4,-1.3905802E-3,3.699153E-4,1.710148E-3,4.4887682E-4,-1.9151463E-5,-4.3239765E-4,-0E0,-0E0,-1.6305335E-3,4.8379446E-4,-0E0,1.972767E-3,-0E0,-0E0,5.41741E-4,-0E0,-2.18716E-4,-5.878765E-4,-0E0,-0E0,-1.6916064E-3,7.5767985E-6,1.2910828E-6,-0E0,2.014066E-5,5.656253E-6,-0E0,8.9044534E-7,-0E0,-2.5597535E-6,-0E0,-0E0,-6.9549033E-6,-0E0,-1.8645529E-5],"categories":[],"categories_nodes":[],"categories_segments":[],"categories_sizes":[],"default_left":[0,0,0,0,0,0,0,0,0,0,0,0,0,0,0,0,0,0,0,0,0,0,0,0,0,0,0,0,0,0,0,0,0,0,0,0,0,0,0,0,0],"id":22,"left_children":[1,3,5,7,9,11,13,15,17,19,21,23,-1,-1,25,27,-1,29,-1,-1,31,33,35,37,-1,-1,39,-1,-1,-1,-1,-1,-1,-1,-1,-1,-1,-1,-1,-1,-1],"loss_changes":[1.2528065E-3,4.5880058E-4,3.2681634E-4,4.1809323E-4,7.823133E-5,9.362542E-5,9.104592E-5,9.096903E-5,1.0687811E-4,1.624888E-5,2.981249E-5,1.3309275E-4,0E0,0E0,3.5211793E-5,5.0815666E-5,0E0,2.9278104E-5,0E0,0E0,7.797251E-6,6.565154E-6,9.293482E-6,8.755943E-5,0E0,0E0,4.573632E-5,0E0,0E0,0E0,0E0,0E0,0E0,0E0,0E0,0E0,0E0,0E0,0E0,0E0,0E0],"parents":[2147483647,0,0,1,1,2,2,3,3,4,4,5,5,6,6,7,7,8,8,9,9,10,10,11,11,14,14,15,15,17,17,20,20,21,21,22,22,23,23,26,26],"right_children":[2,4,6,8,10,12,14,16,18,20,22,24,-1,-1,26,28,-1,30,-1,-1,32,34,36,38,-1,-1,40,-1,-1,-1,-1,-1,-1,-1,-1,-1,-1,-1,-1,-1,-1],"split_conditions":[1.3606579E-3,-2.057582E-3,1E0,1E0,1.5887898E-1,1E0,5.1364932E-2,1E0,1.5071387E2,1.1698664E-3,7.5007963E-1,1E0,-0E0,-0E0,-4.317535E-3,-4.328539E-3,-0E0,-4.7302946E-1,-0E0,-0E0,4.6041645E-3,-3.946031E-4,1.681941E-3,-2.6328387E-3,-0E0,-0E0,1.2407513E1,7.5767985E-6,1.2910828E-6,-0E0,2.014066E-5,5.656253E-6,-0E0,8.9044534E-7,-0E0,-2.5597535E-6,-0E0,-0E0,-6.9549033E-6,-0E0,-1.8645529E-5],"split_indices":[63,63,35,35,23,33,23,37,20,29,23,37,0,0,27,63,0,67,0,0,9,63,10,27,0,0,17,0,0,0,0,0,0,0,0,0,0,0,0,0,0],"split_type":[0,0,0,0,0,0,0,0,0,0,0,0,0,0,0,0,0,0,0,0,0,0,0,0,0,0,0,0,0,0,0,0,0,0,0,0,0,0,0,0,0],"sum_hessian":[7.99E3,5.239E3,2.751E3,2.154E3,3.085E3,2.293E3,4.58E2,1.795E3,3.59E2,3.79E2,2.706E3,1.834E3,4.59E2,9.2E1,3.66E2,1.436E3,3.59E2,2.96E2,6.3E1,6.5E1,3.14E2,2.067E3,6.39E2,1.375E3,4.59E2,1.4E1,3.52E2,6.48E2,7.88E2,5E0,2.91E2,3.12E2,2E0,8.23E2,1.244E3,6.07E2,3.2E1,2.13E2,1.162E3,5E1,3.02E2],"tree_param":{"num_deleted":"0","num_feature":"70","num_nodes":"41","size_leaf_vector":"1"}},{"base_weights":[-0E0,3.183336E-4,-4.8413465E-4,8.2789315E-4,1.1800661E-4,-3.0060005E-4,-1.2030492E-3,1.0208777E-3,-0E0,3.6836075E-4,-0E0,-1.3416028E-4,-7.7144336E-4,-9.835328E-6,-1.6876573E-3,1.255708E-3,-0E0,4.6712699E-4,-0E0,4.8950555E-5,-1.02593316E-4,-0E0,-3.0746963E-4,-0E0,-8.1486243E-4,-0E0,-2.7789528E-4,-1.779733E-3,-0E0,1.4497584E-5,-0E0,5.7064794E-6,-0E0,1.7832418E-6,-0E0,-0E0,-1.8046023E-6,-0E0,-4.435433E-6,-0E0,-8.661707E-6,-0E0,-3.1040256E-6,-0E0,-1.8440742E-5],"categories":[],"categories_nodes":[],"categories_segments":[],"categories_sizes":[],"default_left":[0,0,0,0,0,0,0,0,0,0,0,0,0,0,0,0,0,0,0,0,0,0,0,0,0,0,0,0,0,0,0,0,0,0,0,0,0,0,0,0,0,0,0,0,0],"id":23,"left_children":[1,3,5,7,9,11,13,15,-1,17,19,21,23,25,27,29,-1,31,-1,33,35,-1,37,-1,39,-1,41,43,-1,-1,-1,-1,-1,-1,-1,-1,-1,-1,-1,-1,-1,-1,-1,-1,-1],"loss_changes":[1.2316606E-3,3.9857335E-4,2.6530307E-4,2.2478233E-4,1.0511764E-4,1.1565446E-4,1.3721373E-4,2.2521242E-4,0E0,2.8230497E-5,1.22067695E-5,5.32149E-5,1.73171E-5,8.164846E-6,7.935328E-5,8.002366E-5,0E0,2.923714E-5,0E0,1.7457853E-5,8.504059E-6,0E0,3.8416743E-5,0E0,1.8539664E-5,0E0,1.8344408E-6,3.170548E-5,0E0,0E0,0E0,0E0,0E0,0E0,0E0,0E0,0E0,0E0,0E0,0E0,0E0,0E0,0E0,0E0,0E0],"parents":[2147483647,0,0,1,1,2,2,3,3,4,4,5,5,6,6,7,7,9,9,10,10,11,11,12,12,13,13,14,14,15,15,17,17,19,19,20,20,22,22,24,24,26,26,27,27],"right_children":[2,4,6,8,10,12,14,16,-1,18,20,22,24,26,28,30,-1,32,-1,34,36,-1,38,-1,40,-1,42,44,-1,-1,-1,-1,-1,-1,-1,-1,-1,-1,-1,-1,-1,-1,-1,-1,-1],"split_conditions":[8.230641E-4,-3.665753E-3,1E0,1E0,-3.737568E-4,1E0,2.4333925E-3,1E0,-0E0,6.3033985E1,7.5007963E-1,3.3479775E-3,5.41E-2,-7.8556675E-4,5.247044E-3,1.6243242E2,-0E0,-5.8853824E-4,-0E0,-1.2262696E-3,-2.195345E-3,-0E0,-1.4962437E2,-0E0,-3.2662451E-3,-0E0,1.5842105E0,1.065265E0,-0E0,1.4497584E-5,-0E0,5.7064794E-6,-0E0,1.7832418E-6,-0E0,-0E0,-1.8046023E-6,-0E0,-4.435433E-6,-0E0,-8.661707E-6,-0E0,-3.1040256E-6,-0E0,-1.8440742E-5],"split_indices":[63,63,35,37,27,32,63,33,0,20,23,63,68,27,41,20,0,30,0,63,63,0,20,0,27,0,52,15,0,0,0,0,0,0,0,0,0,0,0,0,0,0,0,0,0],"split_type":[0,0,0,0,0,0,0,0,0,0,0,0,0,0,0,0,0,0,0,0,0,0,0,0,0,0,0,0,0,0,0,0,0,0,0,0,0,0,0,0,0,0,0,0,0],"sum_hessian":[7.99E3,4.831E3,3.159E3,1.218E3,3.613E3,2.633E3,5.26E2,1.015E3,2.03E2,1.141E3,2.472E3,2.107E3,5.26E2,2.13E2,3.13E2,8.12E2,2.03E2,8.37E2,3.04E2,1.707E3,7.65E2,1.147E3,9.6E2,2.9E1,4.97E2,1.12E2,1.01E2,3.06E2,7E0,6.46E2,1.66E2,6.49E2,1.88E2,6.73E2,1.034E3,2.6E2,5.05E2,3.06E2,6.54E2,3.3E1,4.64E2,2E0,9.9E1,1.2E1,2.94E2],"tree_param":{"num_deleted":"0","num_feature":"70","num_nodes":"45","size_leaf_vector":"1"}},{"base_weights":[-0E0,3.4455454E-4,-4.3966854E-4,8.202354E-4,1.359219E-4,-1.704536E-4,-8.563896E-4,1.011696E-3,-0E0,3.5366815E-4,-0E0,1.2321583E-5,-3.308467E-4,-5.256143E-4,-1.9796563E-3,1.2442449E-3,-0E0,-0E0,5.049608E-4,5.8362784E-5,-3.8683054E-5,7.251423E-5,-0E0,-4.246012E-4,-0E0,-6.634978E-4,-0E0,-2.100416E-3,-0E0,1.4034451E-5,-0E0,5.7119582E-6,-0E0,1.1515635E-6,-0E0,-0E0,-1.5699544E-6,1.3768108E-6,-0E0,-0E0,-5.349048E-6,-8.59329E-6,-0E0,-2.3238628E-5,-0E0],"categories":[],"categories_nodes":[],"categories_segments":[],"categories_sizes":[],"default_left":[0,0,0,0,0,0,0,0,0,0,0,0,0,0,0,0,0,0,0,0,0,0,0,0,0,0,0,1,0,0,0,0,0,0,0,0,0,0,0,0,0,0,0,0,0],"id":24,"left_children":[1,3,5,7,9,11,13,15,-1,17,19,21,23,25,27,29,-1,-1,31,33,35,37,-1,39,-1,41,-1,43,-1,-1,-1,-1,-1,-1,-1,-1,-1,-1,-1,-1,-1,-1,-1,-1,-1],"loss_changes":[1.2112572E-3,3.498228E-4,2.8991536E-4,2.2118184E-4,7.393892E-5,9.877173E-5,2.0090386E-4,2.2083544E-4,0E0,2.5668589E-5,6.2725585E-6,3.4835236E-6,6.454879E-5,7.825109E-5,8.091738E-5,7.847231E-5,0E0,0E0,1.31157285E-5,4.2084207E-6,9.291924E-6,5.402193E-6,0E0,7.922258E-5,0E0,9.419315E-5,0E0,3.9662467E-5,0E0,0E0,0E0,0E0,0E0,0E0,0E0,0E0,0E0,0E0,0E0,0E0,0E0,0E0,0E0,0E0,0E0],"parents":[2147483647,0,0,1,1,2,2,3,3,4,4,5,5,6,6,7,7,9,9,10,10,11,11,12,12,13,13,14,14,15,15,18,18,19,19,20,20,21,21,23,23,25,25,27,27],"right_children":[2,4,6,8,10,12,14,16,-1,18,20,22,24,26,28,30,-1,-1,32,34,36,38,-1,40,-1,42,-1,44,-1,-1,-1,-1,-1,-1,-1,-1,-1,-1,-1,-1,-1,-1,-1,-1,-1],"split_conditions":[3.2067107E-4,-3.665753E-3,3.8783143E-3,1E0,3.7231182E1,2.232763E-1,1E0,1E0,-0E0,1.7545172E-3,2.8451718E-3,1E0,1E0,1E0,5.247044E-3,9.330855E1,-0E0,-0E0,1E0,-1.2815329E-3,5.3268448E1,2.4701303E-3,-0E0,-1.5568703E-3,-0E0,1E0,-0E0,2.1E-1,-0E0,1.4034451E-5,-0E0,5.7119582E-6,-0E0,1.1515635E-6,-0E0,-0E0,-1.5699544E-6,1.3768108E-6,-0E0,-0E0,-5.349048E-6,-8.59329E-6,-0E0,-2.3238628E-5,-0E0],"split_indices":[63,63,63,37,17,23,35,33,0,29,29,32,33,33,41,17,0,0,34,63,16,63,0,30,0,37,0,51,0,0,0,0,0,0,0,0,0,0,0,0,0,0,0,0,0],"split_type":[0,0,0,0,0,0,0,0,0,0,0,0,0,0,0,0,0,0,0,0,0,0,0,0,0,0,0,0,0,0,0,0,0,0,0,0,0,0,0,0,0,0,0,0,0],"sum_hessian":[7.99E3,4.489E3,3.501E3,1.218E3,3.271E3,2.277E3,1.224E3,1.015E3,2.03E2,1.07E3,2.201E3,7.75E2,1.502E3,1.02E3,2.04E2,8.12E2,2.03E2,4.47E2,6.23E2,1.547E3,6.54E2,6.8E2,9.5E1,1.268E3,2.34E2,8.16E2,2.04E2,1.99E2,5E0,6.77E2,1.35E2,5.26E2,9.7E1,7.11E2,8.36E2,2.42E2,4.12E2,4.7E2,2.1E2,1.94E2,1.074E3,6.12E2,2.04E2,1.69E2,3E1],"tree_param":{"num_deleted":"0","num_feature":"70","num_nodes":"45","size_leaf_vector":"1"}},{"base_weights":[-0E0,2.8080159E-4,-5.3119264E-4,6.2778225E-4,5.547441E-6,-3.2026862E-4,-1.356349E-3,3.5780505E-4,1.6794857E-3,4.397725E-4,-1.9081906E-5,-4.2058044E-4,-0E0,-0E0,-1.5931223E-3,4.6887086E-4,-0E0,1.8512018E-3,-0E0,-0E0,5.3088786E-4,-0E0,-2.1362482E-4,-5.7285966E-4,-0E0,-0E0,-1.6536409E-3,5.8057617E-6,-0E0,1.9575746E-5,-0E0,5.547037E-6,-0E0,8.52937E-7,-0E0,-2.5077259E-6,-0E0,-0E0,-6.737033E-6,-0E0,-1.8236098E-5],"categories":[],"categories_nodes":[],"categories_segments":[],"categories_sizes":[],"default_left":[0,0,0,0,0,0,0,0,0,0,0,0,0,0,0,0,0,0,0,0,0,0,0,0,0,0,0,0,0,0,0,0,0,0,0,0,0,0,0,0,0],"id":25,"left_children":[1,3,5,7,9,11,13,15,17,19,21,23,-1,-1,25,27,-1,29,-1,-1,31,33,35,37,-1,-1,39,-1,-1,-1,-1,-1,-1,-1,-1,-1,-1,-1,-1,-1,-1],"loss_changes":[1.1911353E-3,4.3749285E-4,3.0983507E-4,4.0628394E-4,7.5157586E-5,8.958642E-5,8.983922E-5,8.634526E-5,1.041682E-4,1.5642036E-5,2.8402177E-5,1.2757521E-4,0E0,0E0,3.461435E-5,4.791905E-5,0E0,4.9393508E-5,0E0,0E0,7.6321085E-6,6.0237135E-6,9.097474E-6,8.542504E-5,0E0,0E0,4.4718327E-5,0E0,0E0,0E0,0E0,0E0,0E0,0E0,0E0,0E0,0E0,0E0,0E0,0E0,0E0],"parents":[2147483647,0,0,1,1,2,2,3,3,4,4,5,5,6,6,7,7,8,8,9,9,10,10,11,11,14,14,15,15,17,17,20,20,21,21,22,22,23,23,26,26],"right_children":[2,4,6,8,10,12,14,16,18,20,22,24,-1,-1,26,28,-1,30,-1,-1,32,34,36,38,-1,-1,40,-1,-1,-1,-1,-1,-1,-1,-1,-1,-1,-1,-1,-1,-1],"split_conditions":[1.3606579E-3,-2.057582E-3,1E0,1E0,1.5887898E-1,1E0,5.1364932E-2,1E0,3.6016415E1,1.1698664E-3,7.5007963E-1,1E0,-0E0,-0E0,-4.317535E-3,1E0,-0E0,1.9265965E2,-0E0,-0E0,4.6041645E-3,-3.946031E-4,1.681941E-3,1.4980519E-2,-0E0,-0E0,1.2407513E1,5.8057617E-6,-0E0,1.9575746E-5,-0E0,5.547037E-6,-0E0,8.52937E-7,-0E0,-2.5077259E-6,-0E0,-0E0,-6.737033E-6,-0E0,-1.8236098E-5],"split_indices":[63,63,35,35,23,33,23,37,12,29,23,37,0,0,27,33,0,20,0,0,9,63,10,23,0,0,17,0,0,0,0,0,0,0,0,0,0,0,0,0,0],"split_type":[0,0,0,0,0,0,0,0,0,0,0,0,0,0,0,0,0,0,0,0,0,0,0,0,0,0,0,0,0,0,0,0,0,0,0,0,0,0,0,0,0],"sum_hessian":[7.99E3,5.239E3,2.751E3,2.154E3,3.085E3,2.293E3,4.58E2,1.795E3,3.59E2,3.79E2,2.706E3,1.834E3,4.59E2,9.2E1,3.66E2,1.436E3,3.59E2,3.25E2,3.4E1,6.5E1,3.14E2,2.067E3,6.39E2,1.375E3,4.59E2,1.4E1,3.52E2,1.077E3,3.59E2,3.03E2,2.2E1,3.12E2,2E0,8.23E2,1.244E3,6.07E2,3.2E1,1.94E2,1.181E3,5E1,3.02E2],"tree_param":{"num_deleted":"0","num_feature":"70","num_nodes":"41","size_leaf_vector":"1"}},{"base_weights":[-0E0,3.1048135E-4,-4.717327E-4,8.069665E-4,1.1458479E-4,-2.9173392E-4,-1.173198E-3,9.957863E-4,-0E0,3.6160828E-4,-0E0,-1.2767446E-4,-7.531933E-4,-0E0,-1.645832E-3,1.2243821E-3,-0E0,4.581902E-4,-0E0,4.6173354E-5,-1.00166224E-4,-0E0,-2.9789787E-4,-0E0,-7.960804E-4,-0E0,-2.6024907E-4,-1.7370835E-3,-0E0,1.41393475E-5,-0E0,5.5970536E-6,-0E0,1.6908535E-6,-0E0,-0E0,-1.4548613E-6,-0E0,-4.3089303E-6,-0E0,-8.466632E-6,-0E0,-2.9271935E-6,-0E0,-1.8005643E-5],"categories":[],"categories_nodes":[],"categories_segments":[],"categories_sizes":[],"default_left":[0,0,0,0,0,0,0,0,0,0,0,0,0,0,0,0,0,0,0,0,0,0,0,0,0,0,0,0,0,0,0,0,0,0,0,0,0,0,0,0,0,0,0,0,0],"id":26,"left_children":[1,3,5,7,9,11,13,15,-1,17,19,21,23,25,27,29,-1,31,-1,33,35,-1,37,-1,39,-1,41,43,-1,-1,-1,-1,-1,-1,-1,-1,-1,-1,-1,-1,-1,-1,-1,-1,-1],"loss_changes":[1.1702743E-3,3.7773058E-4,2.5129126E-4,2.150106E-4,1.0234841E-4,1.11146874E-4,1.3052154E-4,2.1335203E-4,0E0,2.6916416E-5,1.1470383E-5,5.1209914E-5,1.6903155E-5,7.179336E-6,7.704325E-5,7.671269E-5,0E0,2.8110662E-5,0E0,1.9075984E-5,5.636859E-6,0E0,3.6718615E-5,0E0,1.8057763E-5,0E0,1.731863E-6,3.093772E-5,0E0,0E0,0E0,0E0,0E0,0E0,0E0,0E0,0E0,0E0,0E0,0E0,0E0,0E0,0E0,0E0,0E0],"parents":[2147483647,0,0,1,1,2,2,3,3,4,4,5,5,6,6,7,7,9,9,10,10,11,11,12,12,13,13,14,14,15,15,17,17,19,19,20,20,22,22,24,24,26,26,27,27],"right_children":[2,4,6,8,10,12,14,16,-1,18,20,22,24,26,28,30,-1,32,-1,34,36,-1,38,-1,40,-1,42,44,-1,-1,-1,-1,-1,-1,-1,-1,-1,-1,-1,-1,-1,-1,-1,-1,-1],"split_conditions":[8.230641E-4,-3.665753E-3,1E0,1E0,-3.737568E-4,1E0,2.4333925E-3,1E0,-0E0,6.3033985E1,2.8738213E-1,3.3479775E-3,5.41E-2,-7.8556675E-4,5.247044E-3,1.6243242E2,-0E0,-5.8853824E-4,-0E0,-9.2077284E-4,-2.7632366E-3,-0E0,-1.4962437E2,-0E0,-3.2662451E-3,-0E0,1.5842105E0,1.065265E0,-0E0,1.41393475E-5,-0E0,5.5970536E-6,-0E0,1.6908535E-6,-0E0,-0E0,-1.4548613E-6,-0E0,-4.3089303E-6,-0E0,-8.466632E-6,-0E0,-2.9271935E-6,-0E0,-1.8005643E-5],"split_indices":[63,63,35,37,27,32,63,33,0,20,21,63,68,27,41,20,0,30,0,63,63,0,20,0,27,0,52,15,0,0,0,0,0,0,0,0,0,0,0,0,0,0,0,0,0],"split_type":[0,0,0,0,0,0,0,0,0,0,0,0,0,0,0,0,0,0,0,0,0,0,0,0,0,0,0,0,0,0,0,0,0,0,0,0,0,0,0,0,0,0,0,0,0],"sum_hessian":[7.99E3,4.831E3,3.159E3,1.218E3,3.613E3,2.633E3,5.26E2,1.015E3,2.03E2,1.141E3,2.472E3,2.107E3,5.26E2,2.13E2,3.13E2,8.12E2,2.03E2,8.37E2,3.04E2,1.695E3,7.77E2,1.147E3,9.6E2,2.9E1,4.97E2,1.12E2,1.01E2,3.06E2,7E0,6.46E2,1.66E2,6.49E2,1.88E2,7.89E2,9.06E2,1.45E2,6.32E2,3.06E2,6.54E2,3.3E1,4.64E2,2E0,9.9E1,1.2E1,2.94E2],"tree_param":{"num_deleted":"0","num_feature":"70","num_nodes":"45","size_leaf_vector":"1"}},{"base_weights":[-0E0,5.1217544E-4,-2.8079122E-4,2.9061668E-4,1.3961366E-3,-5.8370522E-5,-7.827523E-4,3.7785238E-4,-0E0,1.6647414E-3,-0E0,1.4257054E-4,-1.7112702E-4,-9.429045E-4,-0E0,7.2075566E-4,1.1699962E-4,1.9203641E-3,-0E0,-0E0,2.711E-4,-2.6449937E-4,-0E0,-1.1660744E-3,-0E0,9.3512745E-6,-0E0,2.2077277E-6,-0E0,-0E0,1.959632E-5,3.0557635E-6,-0E0,-0E0,-3.4351951E-6,-0E0,-1.3486505E-5],"categories":[],"categories_nodes":[],"categories_segments":[],"categories_sizes":[],"default_left":[0,0,0,0,0,0,0,0,0,0,0,0,0,0,0,0,0,0,0,0,0,0,0,0,0,0,0,0,0,0,0,0,0,0,0,0,0],"id":27,"left_children":[1,3,5,7,9,11,13,15,-1,17,-1,19,21,23,-1,25,27,29,-1,-1,31,33,-1,35,-1,-1,-1,-1,-1,-1,-1,-1,-1,-1,-1,-1,-1],"loss_changes":[1.1523832E-3,3.8609572E-4,4.914204E-4,7.0673705E-5,1.1863053E-4,8.719522E-5,1.8597482E-4,8.5484324E-5,0E0,1.1130946E-4,0E0,3.637289E-5,5.904422E-5,2.4081115E-4,0E0,9.013535E-5,2.647667E-5,2.8792769E-5,0E0,0E0,8.538194E-6,4.048976E-5,0E0,1.265778E-4,0E0,0E0,0E0,0E0,0E0,0E0,0E0,0E0,0E0,0E0,0E0,0E0,0E0],"parents":[2147483647,0,0,1,1,2,2,3,3,4,4,5,5,6,6,7,7,9,9,11,11,12,12,13,13,15,15,16,16,17,17,20,20,21,21,23,23],"right_children":[2,4,6,8,10,12,14,16,-1,18,-1,20,22,24,-1,26,28,30,-1,-1,32,34,-1,36,-1,-1,-1,-1,-1,-1,-1,-1,-1,-1,-1,-1,-1],"split_conditions":[-1.118006E-3,1E0,3.3479775E-3,1E0,-1.887785E-3,-7.4616383E-4,1E0,-4.328539E-3,-0E0,1.5071387E2,-0E0,1.7467617E1,1E0,1E0,-0E0,1E0,3.869571E-1,-4.7302946E-1,-0E0,-0E0,-2.8699725E-3,2.3871283E-1,-0E0,8.665831E-3,-0E0,9.3512745E-6,-0E0,2.2077277E-6,-0E0,-0E0,1.959632E-5,3.0557635E-6,-0E0,-0E0,-3.4351951E-6,-0E0,-1.3486505E-5],"split_indices":[63,35,63,37,63,27,33,63,0,20,0,13,33,37,0,33,21,67,0,0,45,23,0,23,0,0,0,0,0,0,0,0,0,0,0,0,0],"split_type":[0,0,0,0,0,0,0,0,0,0,0,0,0,0,0,0,0,0,0,0,0,0,0,0,0,0,0,0,0,0,0,0,0,0,0,0,0],"sum_hessian":[7.99E3,2.838E3,5.152E3,2.365E3,4.73E2,3.712E3,1.44E3,1.892E3,4.73E2,3.74E2,9.9E1,1.015E3,2.697E3,1.2E3,2.4E2,6.48E2,1.244E3,3.1E2,6.4E1,2.43E2,7.72E2,1.97E3,7.27E2,9.6E2,2.4E2,4.86E2,1.62E2,8.89E2,3.55E2,5E0,3.05E2,6.98E2,7.4E1,4.61E2,1.509E3,1.74E2,7.86E2],"tree_param":{"num_deleted":"0","num_feature":"70","num_nodes":"37","size_leaf_vector":"1"}},{"base_weights":[-0E0,3.3364692E-4,-4.250336E-4,8.707218E-4,1.5579614E-4,-1.615172E-4,-8.312331E-4,1.0733586E-3,-0E0,3.9985444E-4,2.8384889E-6,-0E0,-3.3663603E-4,-5.06944E-4,-1.9232915E-3,1.3220235E-3,-0E0,5.0105836E-4,-0E0,1.01906466E-4,-5.1929423E-5,8.0109436E-5,-0E0,-4.3043596E-4,-0E0,-6.408129E-4,-0E0,-2.043047E-3,-0E0,1.5183358E-5,-0E0,5.81138E-6,-0E0,2.0571706E-6,-0E0,-0E0,-1.6980836E-6,1.1694012E-6,-0E0,-0E0,-5.2486075E-6,-8.298562E-6,-0E0,-2.2618136E-5,-0E0],"categories":[],"categories_nodes":[],"categories_segments":[],"categories_sizes":[],"default_left":[0,0,0,0,0,0,0,0,0,0,0,0,0,0,0,0,0,0,0,0,0,0,0,0,0,0,0,1,0,0,0,0,0,0,0,0,0,0,0,0,0,0,0,0,0],"id":28,"left_children":[1,3,5,7,9,11,13,15,-1,17,19,21,23,25,27,29,-1,31,-1,33,35,37,-1,39,-1,41,-1,43,-1,-1,-1,-1,-1,-1,-1,-1,-1,-1,-1,-1,-1,-1,-1,-1,-1],"loss_changes":[1.1336446E-3,3.2593316E-4,2.7533667E-4,1.9824144E-4,9.120334E-5,9.3794755E-5,1.8734281E-4,2.023179E-4,0E0,3.2712225E-5,1.8165321E-5,2.4643284E-6,5.7886515E-5,7.371936E-5,7.840281E-5,9.669154E-5,0E0,4.660923E-5,0E0,1.817515E-5,7.831997E-6,2.4723442E-6,0E0,5.7653655E-5,0E0,8.776761E-5,0E0,3.8645114E-5,0E0,0E0,0E0,0E0,0E0,0E0,0E0,0E0,0E0,0E0,0E0,0E0,0E0,0E0,0E0,0E0,0E0],"parents":[2147483647,0,0,1,1,2,2,3,3,4,4,5,5,6,6,7,7,9,9,10,10,11,11,12,12,13,13,14,14,15,15,17,17,19,19,20,20,21,21,23,23,25,25,27,27],"right_children":[2,4,6,8,10,12,14,16,-1,18,20,22,24,26,28,30,-1,32,-1,34,36,38,-1,40,-1,42,-1,44,-1,-1,-1,-1,-1,-1,-1,-1,-1,-1,-1,-1,-1,-1,-1,-1,-1],"split_conditions":[3.2067107E-4,-4.328539E-3,3.8783143E-3,1E0,-3.595829E-4,2.7419355E1,1E0,1E0,-0E0,0E0,7.428932E1,-8.399725E-4,1E0,1E0,5.247044E-3,9.330855E1,-0E0,1.4924749E0,-0E0,-8.434648E-4,2.6055237E-3,1E0,-0E0,-1.5568703E-3,-0E0,1E0,-0E0,2.1E-1,-0E0,1.5183358E-5,-0E0,5.81138E-6,-0E0,2.0571706E-6,-0E0,-0E0,-1.6980836E-6,1.1694012E-6,-0E0,-0E0,-5.2486075E-6,-8.298562E-6,-0E0,-2.2618136E-5,-0E0],"split_indices":[63,63,63,37,27,17,35,33,0,63,17,30,33,33,41,17,0,44,0,63,29,34,0,30,0,37,0,51,0,0,0,0,0,0,0,0,0,0,0,0,0,0,0,0,0],"split_type":[0,0,0,0,0,0,0,0,0,0,0,0,0,0,0,0,0,0,0,0,0,0,0,0,0,0,0,0,0,0,0,0,0,0,0,0,0,0,0,0,0,0,0,0,0],"sum_hessian":[7.99E3,4.489E3,3.501E3,9.72E2,3.517E3,2.277E3,1.224E3,8.1E2,1.62E2,1.1E3,2.417E3,9.29E2,1.348E3,1.02E3,2.04E2,6.48E2,1.62E2,8.29E2,2.71E2,1.509E3,9.08E2,3.79E2,5.5E2,1.135E3,2.13E2,8.16E2,2.04E2,1.99E2,5E0,5.32E2,1.16E2,7.53E2,7.6E1,7.96E2,7.13E2,5.56E2,3.52E2,3.56E2,2.3E1,1.64E2,9.71E2,6.12E2,2.04E2,1.69E2,3E1],"tree_param":{"num_deleted":"0","num_feature":"70","num_nodes":"45","size_leaf_vector":"1"}},{"base_weights":[-0E0,2.53644E-4,-5.510661E-4,6.072972E-4,-0E0,-3.4064552E-4,-1.3511966E-3,3.4246664E-4,1.6338316E-3,4.28999E-4,-3.194027E-5,-4.4490155E-4,-0E0,-0E0,-1.6046874E-3,4.50063E-4,-0E0,1.8025249E-3,-0E0,-0E0,5.7848316E-4,-0E0,-2.2787978E-4,-6.0248555E-4,-0E0,-1.6403256E-3,-0E0,5.5621736E-6,-0E0,1.905689E-5,-0E0,6.717402E-6,-0E0,8.242432E-7,-5.8152935E-8,-0E0,-2.8500212E-6,-0E0,-7.219043E-6,-0E0,-1.7438257E-5],"categories":[],"categories_nodes":[],"categories_segments":[],"categories_sizes":[],"default_left":[0,0,0,0,0,0,0,0,0,0,0,0,0,0,0,0,0,0,0,0,0,0,0,0,0,0,0,0,0,0,0,0,0,0,0,0,0,0,0,0,0],"id":29,"left_children":[1,3,5,7,9,11,13,15,17,19,21,23,-1,-1,25,27,-1,29,-1,-1,31,33,35,37,-1,39,-1,-1,-1,-1,-1,-1,-1,-1,-1,-1,-1,-1,-1,-1,-1],"loss_changes":[1.1154221E-3,4.4305998E-4,2.511078E-4,3.8651325E-4,7.808057E-5,8.8674744E-5,9.2173344E-5,8.077409E-5,1.0053796E-4,1.5934456E-5,3.2060016E-5,1.2473183E-4,0E0,0E0,3.0669675E-5,4.286252E-5,0E0,4.6346686E-5,0E0,0E0,1.5919846E-5,5.6942185E-6,1.3521072E-5,9.1968424E-5,0E0,3.1140225E-5,0E0,0E0,0E0,0E0,0E0,0E0,0E0,0E0,0E0,0E0,0E0,0E0,0E0,0E0,0E0],"parents":[2147483647,0,0,1,1,2,2,3,3,4,4,5,5,6,6,7,7,8,8,9,9,10,10,11,11,14,14,15,15,17,17,20,20,21,21,22,22,23,23,25,25],"right_children":[2,4,6,8,10,12,14,16,18,20,22,24,-1,-1,26,28,-1,30,-1,-1,32,34,36,38,-1,40,-1,-1,-1,-1,-1,-1,-1,-1,-1,-1,-1,-1,-1,-1,-1],"split_conditions":[1.6353604E-3,-2.057582E-3,1E0,1E0,1.5166084E-1,1E0,5.1364932E-2,1E0,3.6016415E1,1.6691765E-3,7.5007963E-1,1E0,-0E0,-0E0,5.0514193E0,1E0,-0E0,1.9265965E2,-0E0,-0E0,1E0,-3.946031E-4,1.0163644E-3,-2.6328387E-3,-0E0,6.768838E0,-0E0,5.5621736E-6,-0E0,1.905689E-5,-0E0,6.717402E-6,-0E0,8.242432E-7,-5.8152935E-8,-0E0,-2.8500212E-6,-0E0,-7.219043E-6,-0E0,-1.7438257E-5],"split_indices":[63,63,35,35,23,33,23,37,12,29,23,37,0,0,22,33,0,20,0,0,34,63,29,27,0,17,0,0,0,0,0,0,0,0,0,0,0,0,0,0,0],"split_type":[0,0,0,0,0,0,0,0,0,0,0,0,0,0,0,0,0,0,0,0,0,0,0,0,0,0,0,0,0,0,0,0,0,0,0,0,0,0,0,0,0],"sum_hessian":[7.99E3,5.485E3,2.505E3,2.154E3,3.331E3,2.088E3,4.17E2,1.795E3,3.59E2,4.03E2,2.928E3,1.67E3,4.18E2,8.7E1,3.3E2,1.436E3,3.59E2,3.25E2,3.4E1,1.36E2,2.67E2,2.258E3,6.7E2,1.252E3,4.18E2,3.27E2,3E0,1.077E3,3.59E2,3.03E2,2.2E1,2.32E2,3.5E1,8.26E2,1.432E3,7.7E1,5.93E2,2.05E2,1.047E3,2.8E1,2.99E2],"tree_param":{"num_deleted":"0","num_feature":"70","num_nodes":"41","size_leaf_vector":"1"}},{"base_weights":[-0E0,3.0052883E-4,-4.5622193E-4,7.809327E-4,1.1008199E-4,-2.7989995E-4,-1.139567E-3,1.1137499E-3,4.217106E-6,3.5114237E-4,-0E0,-1.1871949E-4,-7.300199E-4,-3.7184628E-4,-2.0428873E-3,1.2675463E-3,-0E0,1.18020354E-4,-0E0,4.1938204E-4,-0E0,8.507728E-5,-5.257893E-5,-0E0,-2.8318155E-4,-0E0,-8.3597563E-4,-0E0,-7.829727E-4,-2.1835924E-3,-0E0,1.4093385E-5,-0E0,3.0015708E-6,-0E0,4.577294E-6,-0E0,1.201082E-6,-0E0,-0E0,-1.3481668E-6,-0E0,-4.115051E-6,-0E0,-9.127714E-6,-8.303983E-6,-0E0,-2.4268305E-5,-0E0],"categories":[],"categories_nodes":[],"categories_segments":[],"categories_sizes":[],"default_left":[0,0,0,0,0,0,0,0,0,0,0,0,0,0,0,0,0,0,0,0,0,0,0,0,0,0,0,0,0,1,0,0,0,0,0,0,0,0,0,0,0,0,0,0,0,0,0,0,0],"id":30,"left_children":[1,3,5,7,9,11,13,15,17,19,21,23,25,27,29,31,-1,33,-1,35,-1,37,39,-1,41,-1,43,-1,45,47,-1,-1,-1,-1,-1,-1,-1,-1,-1,-1,-1,-1,-1,-1,-1,-1,-1,-1,-1],"loss_changes":[1.0953259E-3,3.5292102E-4,2.3768493E-4,2.043306E-4,9.745981E-5,1.0608102E-4,1.2297573E-4,1.0540837E-4,4.602218E-6,2.6136098E-5,1.09683615E-5,4.761789E-5,1.7522456E-5,5.602173E-5,8.4987434E-5,1.0636309E-4,0E0,1.25074785E-5,0E0,3.0763345E-5,0E0,4.6653536E-6,1.4924148E-5,0E0,3.420763E-5,0E0,2.108881E-5,0E0,9.636278E-6,5.2377E-5,0E0,0E0,0E0,0E0,0E0,0E0,0E0,0E0,0E0,0E0,0E0,0E0,0E0,0E0,0E0,0E0,0E0,0E0,0E0],"parents":[2147483647,0,0,1,1,2,2,3,3,4,4,5,5,6,6,7,7,8,8,9,9,10,10,11,11,12,12,13,13,14,14,15,15,17,17,19,19,21,21,22,22,24,24,26,26,28,28,29,29],"right_children":[2,4,6,8,10,12,14,16,18,20,22,24,26,28,30,32,-1,34,-1,36,-1,38,40,-1,42,-1,44,-1,46,48,-1,-1,-1,-1,-1,-1,-1,-1,-1,-1,-1,-1,-1,-1,-1,-1,-1,-1,-1],"split_conditions":[8.230641E-4,-3.665753E-3,1E0,9.395659E-1,-3.737568E-4,1E0,4.3068687E-3,1E0,1E0,1E0,1.939509E1,3.3479775E-3,1.332E-1,-7.8556675E-4,5.247044E-3,1E0,-0E0,-5.7286015E-3,-0E0,1.02577545E-2,-0E0,1E0,-2.057582E-3,-0E0,-1.4962437E2,-0E0,-2.949204E-3,-0E0,-1.9589555E-1,2.1E-1,-0E0,1.4093385E-5,-0E0,3.0015708E-6,-0E0,4.577294E-6,-0E0,1.201082E-6,-0E0,-0E0,-1.3481668E-6,-0E0,-4.115051E-6,-0E0,-9.127714E-6,-8.303983E-6,-0E0,-2.4268305E-5,-0E0],"split_indices":[63,63,35,23,27,32,63,33,37,37,12,63,68,27,41,37,0,63,0,29,0,32,63,0,20,0,30,0,67,51,0,0,0,0,0,0,0,0,0,0,0,0,0,0,0,0,0,0,0],"split_type":[0,0,0,0,0,0,0,0,0,0,0,0,0,0,0,0,0,0,0,0,0,0,0,0,0,0,0,0,0,0,0,0,0,0,0,0,0,0,0,0,0,0,0,0,0,0,0,0,0],"sum_hessian":[7.99E3,4.831E3,3.159E3,1.218E3,3.613E3,2.633E3,5.26E2,7.61E2,4.57E2,1.141E3,2.472E3,2.107E3,5.26E2,3.48E2,1.78E2,6.52E2,1.09E2,3.26E2,1.31E2,9.47E2,1.94E2,9.13E2,1.559E3,1.147E3,9.6E2,1.01E2,4.25E2,1.82E2,1.66E2,1.73E2,5E0,5.8E2,7.2E1,1.85E2,1.41E2,9.41E2,6E0,7.79E2,1.34E2,5.05E2,1.054E3,3.06E2,6.54E2,4.4E1,3.81E2,1.61E2,5E0,1.48E2,2.5E1],"tree_param":{"num_deleted":"0","num_feature":"70","num_nodes":"49","size_leaf_vector":"1"}},{"base_weights":[-0E0,4.956724E-4,-2.7162678E-4,2.7801987E-4,1.3604385E-3,-5.5078075E-5,-7.58515E-4,3.6239516E-4,-0E0,1.6209442E-3,-0E0,1.3998778E-4,-1.6562278E-4,-9.143433E-4,-0E0,6.9228595E-4,1.0840746E-4,1.8702357E-3,-0E0,-0E0,2.6695122E-4,-2.5683775E-4,-0E0,-1.1310218E-3,-0E0,8.976007E-6,-0E0,2.1059109E-6,-0E0,-0E0,1.9092196E-5,3.0064998E-6,-0E0,-3.296553E-6,-0E0,-0E0,-1.2627092E-5],"categories":[],"categories_nodes":[],"categories_segments":[],"categories_sizes":[],"default_left":[0,0,0,0,0,0,0,0,0,0,0,0,0,0,0,0,0,0,0,0,0,0,0,0,0,0,0,0,0,0,0,0,0,0,0,0,0],"id":31,"left_children":[1,3,5,7,9,11,13,15,-1,17,-1,19,21,23,-1,25,27,29,-1,-1,31,33,-1,35,-1,-1,-1,-1,-1,-1,-1,-1,-1,-1,-1,-1,-1],"loss_changes":[1.0789891E-3,3.6936853E-4,4.6216018E-4,6.594426E-5,1.1112832E-4,8.283094E-5,1.7603498E-4,7.850162E-5,0E0,1.05993706E-4,0E0,3.53828E-5,5.616383E-5,2.2702944E-4,0E0,8.26357E-5,2.4969184E-5,2.8186012E-5,0E0,0E0,8.173149E-6,3.8921135E-5,0E0,1.2242573E-4,0E0,0E0,0E0,0E0,0E0,0E0,0E0,0E0,0E0,0E0,0E0,0E0,0E0],"parents":[2147483647,0,0,1,1,2,2,3,3,4,4,5,5,6,6,7,7,9,9,11,11,12,12,13,13,15,15,16,16,17,17,20,20,21,21,23,23],"right_children":[2,4,6,8,10,12,14,16,-1,18,-1,20,22,24,-1,26,28,30,-1,-1,32,34,-1,36,-1,-1,-1,-1,-1,-1,-1,-1,-1,-1,-1,-1,-1],"split_conditions":[-1.118006E-3,1E0,3.3479775E-3,1E0,-1.887785E-3,-7.4616383E-4,1E0,-4.328539E-3,-0E0,1.5071387E2,-0E0,1.7467617E1,1E0,1E0,-0E0,1E0,3.869571E-1,-4.7302946E-1,-0E0,-0E0,-2.8699725E-3,1E0,-0E0,-1.8076477E2,-0E0,8.976007E-6,-0E0,2.1059109E-6,-0E0,-0E0,1.9092196E-5,3.0064998E-6,-0E0,-3.296553E-6,-0E0,-0E0,-1.2627092E-5],"split_indices":[63,35,63,37,63,27,33,63,0,20,0,13,33,37,0,33,21,67,0,0,45,37,0,20,0,0,0,0,0,0,0,0,0,0,0,0,0],"split_type":[0,0,0,0,0,0,0,0,0,0,0,0,0,0,0,0,0,0,0,0,0,0,0,0,0,0,0,0,0,0,0,0,0,0,0,0,0],"sum_hessian":[7.99E3,2.838E3,5.152E3,2.365E3,4.73E2,3.712E3,1.44E3,1.892E3,4.73E2,3.74E2,9.9E1,1.015E3,2.697E3,1.2E3,2.4E2,6.48E2,1.244E3,3.1E2,6.4E1,2.43E2,7.72E2,1.97E3,7.27E2,9.6E2,2.4E2,4.86E2,1.62E2,8.89E2,3.55E2,5E0,3.05E2,6.98E2,7.4E1,1.552E3,4.18E2,1.14E2,8.46E2],"tree_param":{"num_deleted":"0","num_feature":"70","num_nodes":"37","size_leaf_vector":"1"}},{"base_weights":[-0E0,2.475862E-4,-5.375252E-4,5.9219E-4,-0E0,-3.3034172E-4,-1.3217608E-3,3.3196117E-4,1.5961762E-3,4.2264402E-4,-3.127471E-5,-4.3235952E-4,-0E0,-0E0,-1.5708443E-3,4.3695697E-4,-0E0,1.7621224E-3,-0E0,-0E0,5.694177E-4,-0E0,-2.2341122E-4,-5.8609166E-4,-0E0,-0E0,-1.8159952E-3,6.856055E-6,1.0334752E-6,1.8624687E-5,-0E0,6.6188004E-6,-0E0,8.0034476E-7,-5.1738375E-8,-0E0,-2.800861E-6,-0E0,-7.0368455E-6,-0E0,-1.8837565E-5],"categories":[],"categories_nodes":[],"categories_segments":[],"categories_sizes":[],"default_left":[0,0,0,0,0,0,0,0,0,0,0,0,0,0,0,0,0,0,0,0,0,0,0,0,0,0,0,0,0,0,0,0,0,0,0,0,0,0,0,0,0],"id":32,"left_children":[1,3,5,7,9,11,13,15,17,19,21,23,-1,-1,25,27,-1,29,-1,-1,31,33,35,37,-1,-1,39,-1,-1,-1,-1,-1,-1,-1,-1,-1,-1,-1,-1,-1,-1],"loss_changes":[1.0617538E-3,4.2060643E-4,2.4043297E-4,3.686105E-4,7.574899E-5,8.471568E-5,8.9374196E-5,7.677535E-5,9.728357E-5,1.5312136E-5,3.0822197E-5,1.18668104E-4,0E0,0E0,3.0808093E-5,4.0283514E-5,0E0,4.371244E-5,0E0,0E0,1.5633857E-5,5.3614513E-6,1.3221044E-5,8.9137175E-5,0E0,0E0,4.7439244E-5,0E0,0E0,0E0,0E0,0E0,0E0,0E0,0E0,0E0,0E0,0E0,0E0,0E0,0E0],"parents":[2147483647,0,0,1,1,2,2,3,3,4,4,5,5,6,6,7,7,8,8,9,9,10,10,11,11,14,14,15,15,17,17,20,20,21,21,22,22,23,23,26,26],"right_children":[2,4,6,8,10,12,14,16,18,20,22,24,-1,-1,26,28,-1,30,-1,-1,32,34,36,38,-1,-1,40,-1,-1,-1,-1,-1,-1,-1,-1,-1,-1,-1,-1,-1,-1],"split_conditions":[1.6353604E-3,-2.057582E-3,1E0,1E0,1.5166084E-1,1E0,5.1364932E-2,1E0,3.6016415E1,1.6691765E-3,7.5007963E-1,1E0,-0E0,-0E0,1.5916955E1,-4.328539E-3,-0E0,1.9265965E2,-0E0,-0E0,1E0,-3.946031E-4,1.0163644E-3,-2.6328387E-3,-0E0,-0E0,-4.317535E-3,6.856055E-6,1.0334752E-6,1.8624687E-5,-0E0,6.6188004E-6,-0E0,8.0034476E-7,-5.1738375E-8,-0E0,-2.800861E-6,-0E0,-7.0368455E-6,-0E0,-1.8837565E-5],"split_indices":[63,63,35,35,23,33,23,37,12,29,23,37,0,0,17,63,0,20,0,0,34,63,29,27,0,0,27,0,0,0,0,0,0,0,0,0,0,0,0,0,0],"split_type":[0,0,0,0,0,0,0,0,0,0,0,0,0,0,0,0,0,0,0,0,0,0,0,0,0,0,0,0,0,0,0,0,0,0,0,0,0,0,0,0,0],"sum_hessian":[7.99E3,5.485E3,2.505E3,2.154E3,3.331E3,2.088E3,4.17E2,1.795E3,3.59E2,4.03E2,2.928E3,1.67E3,4.18E2,8.7E1,3.3E2,1.436E3,3.59E2,3.25E2,3.4E1,1.36E2,2.67E2,2.258E3,6.7E2,1.252E3,4.18E2,7.5E1,2.55E2,6.48E2,7.88E2,3.03E2,2.2E1,2.32E2,3.5E1,8.26E2,1.432E3,7.7E1,5.93E2,2.05E2,1.047E3,5E0,2.5E2],"tree_param":{"num_deleted":"0","num_feature":"70","num_nodes":"41","size_leaf_vector":"1"}},{"base_weights":[-0E0,3.2043684E-4,-4.076635E-4,9.459898E-4,1.7334409E-4,-1.5086259E-4,-8.014645E-4,1.364786E-3,-0E0,4.2197516E-4,2.4252095E-5,-0E0,-3.2161924E-4,-4.851625E-4,-1.8550634E-3,1.5029225E-3,-0E0,5.2529434E-4,-0E0,1.18005715E-4,-2.1429752E-5,8.052968E-5,-0E0,-4.126399E-4,-0E0,-6.142157E-4,-0E0,-1.9736022E-3,-0E0,1.6722111E-5,-0E0,6.0830143E-6,-0E0,2.2676466E-6,-0E0,-0E0,-1.5118201E-6,1.1696097E-6,-0E0,-0E0,-5.0525914E-6,-7.951453E-6,-0E0,-2.0490705E-5,-0E0],"categories":[],"categories_nodes":[],"categories_segments":[],"categories_sizes":[],"default_left":[0,0,0,0,0,0,0,0,0,0,0,0,0,0,0,0,0,0,0,0,0,0,0,0,0,0,0,0,0,0,0,0,0,0,0,0,0,0,0,0,0,0,0,0,0],"id":33,"left_children":[1,3,5,7,9,11,13,15,-1,17,19,21,23,25,27,29,-1,31,-1,33,35,37,-1,39,-1,41,-1,43,-1,-1,-1,-1,-1,-1,-1,-1,-1,-1,-1,-1,-1,-1,-1,-1,-1],"loss_changes":[1.0441034E-3,3.0075898E-4,2.5871908E-4,1.9125082E-4,9.522413E-5,8.8015644E-5,1.7104816E-4,6.5718195E-5,0E0,3.9045946E-5,2.0874144E-5,2.4902515E-6,5.415686E-5,6.846392E-5,7.537834E-5,8.132128E-5,0E0,5.17414E-5,0E0,2.2393522E-5,7.793515E-6,2.448181E-6,0E0,5.50502E-5,0E0,8.037081E-5,0E0,3.6739046E-5,0E0,0E0,0E0,0E0,0E0,0E0,0E0,0E0,0E0,0E0,0E0,0E0,0E0,0E0,0E0,0E0,0E0],"parents":[2147483647,0,0,1,1,2,2,3,3,4,4,5,5,6,6,7,7,9,9,10,10,11,11,12,12,13,13,14,14,15,15,17,17,19,19,20,20,21,21,23,23,25,25,27,27],"right_children":[2,4,6,8,10,12,14,16,-1,18,20,22,24,26,28,30,-1,32,-1,34,36,38,-1,40,-1,42,-1,44,-1,-1,-1,-1,-1,-1,-1,-1,-1,-1,-1,-1,-1,-1,-1,-1,-1],"split_conditions":[3.2067107E-4,-5.1609906E-3,3.8783143E-3,7.567656E-1,-3.595829E-4,2.7419355E1,1E0,1E0,-0E0,0E0,7.428932E1,-8.399725E-4,1E0,1E0,5.247044E-3,1E0,-0E0,1.4924749E0,-0E0,-8.434648E-4,2.8451718E-3,1E0,-0E0,-1.5568703E-3,-0E0,1E0,-0E0,3.07E0,-0E0,1.6722111E-5,-0E0,6.0830143E-6,-0E0,2.2676466E-6,-0E0,-0E0,-1.5118201E-6,1.1696097E-6,-0E0,-0E0,-5.0525914E-6,-7.951453E-6,-0E0,-2.0490705E-5,-0E0],"split_indices":[63,63,63,21,27,17,35,33,0,63,17,30,33,33,41,37,0,44,0,63,29,34,0,30,0,37,0,46,0,0,0,0,0,0,0,0,0,0,0,0,0,0,0,0,0],"split_type":[0,0,0,0,0,0,0,0,0,0,0,0,0,0,0,0,0,0,0,0,0,0,0,0,0,0,0,0,0,0,0,0,0,0,0,0,0,0,0,0,0,0,0,0,0],"sum_hessian":[7.99E3,4.489E3,3.501E3,7.2E2,3.769E3,2.277E3,1.224E3,4.46E2,2.74E2,1.158E3,2.611E3,9.29E2,1.348E3,1.02E3,2.04E2,3.96E2,5E1,8.87E2,2.71E2,1.57E3,1.041E3,3.79E2,5.5E2,1.135E3,2.13E2,8.16E2,2.04E2,1.99E2,5E0,3.48E2,4.8E1,8E2,8.7E1,8.57E2,7.13E2,6.84E2,3.57E2,3.56E2,2.3E1,1.64E2,9.71E2,6.12E2,2.04E2,1.93E2,6E0],"tree_param":{"num_deleted":"0","num_feature":"70","num_nodes":"45","size_leaf_vector":"1"}},{"base_weights":[-0E0,2.4372862E-4,-5.283163E-4,5.831466E-4,-0E0,-3.2363602E-4,-1.3002458E-3,3.2539706E-4,1.5749966E-3,4.1740612E-4,-3.1109805E-5,-4.23972E-4,-0E0,-0E0,-1.5465154E-3,4.2903755E-4,-0E0,1.7389337E-3,-0E0,-0E0,5.6189054E-4,-0E0,-2.2032621E-4,-5.7518046E-4,-0E0,-1.5817517E-3,-0E0,5.3044896E-6,-0E0,1.8379891E-5,-0E0,6.535523E-6,-0E0,7.6465096E-7,-4.2222414E-8,-0E0,-2.7663211E-6,-0E0,-6.91573E-6,-0E0,-1.682288E-5],"categories":[],"categories_nodes":[],"categories_segments":[],"categories_sizes":[],"default_left":[0,0,0,0,0,0,0,0,0,0,0,0,0,0,0,0,0,0,0,0,0,0,0,0,0,0,0,0,0,0,0,0,0,0,0,0,0,0,0,0,0],"id":34,"left_children":[1,3,5,7,9,11,13,15,17,19,21,23,-1,-1,25,27,-1,29,-1,-1,31,33,35,37,-1,39,-1,-1,-1,-1,-1,-1,-1,-1,-1,-1,-1,-1,-1,-1,-1],"loss_changes":[1.0267124E-3,4.080634E-4,2.3208465E-4,3.5934406E-4,7.3923584E-5,8.186362E-5,8.7773136E-5,7.465965E-5,9.494019E-5,1.4791134E-5,2.9928338E-5,1.1477148E-4,0E0,0E0,2.9420771E-5,3.9199484E-5,0E0,4.260312E-5,0E0,0E0,1.5353857E-5,4.884401E-6,1.2995195E-5,8.7286986E-5,0E0,2.970465E-5,0E0,0E0,0E0,0E0,0E0,0E0,0E0,0E0,0E0,0E0,0E0,0E0,0E0,0E0,0E0],"parents":[2147483647,0,0,1,1,2,2,3,3,4,4,5,5,6,6,7,7,8,8,9,9,10,10,11,11,14,14,15,15,17,17,20,20,21,21,22,22,23,23,25,25],"right_children":[2,4,6,8,10,12,14,16,18,20,22,24,-1,-1,26,28,-1,30,-1,-1,32,34,36,38,-1,40,-1,-1,-1,-1,-1,-1,-1,-1,-1,-1,-1,-1,-1,-1,-1],"split_conditions":[1.6353604E-3,-2.057582E-3,1E0,1E0,1.5166084E-1,1E0,5.1364932E-2,1E0,3.6016415E1,1.6691765E-3,7.5007963E-1,1E0,-0E0,-0E0,5.0514193E0,1E0,-0E0,1.9265965E2,-0E0,-0E0,1E0,-3.946031E-4,1.0163644E-3,-2.6328387E-3,-0E0,6.768838E0,-0E0,5.3044896E-6,-0E0,1.8379891E-5,-0E0,6.535523E-6,-0E0,7.6465096E-7,-4.2222414E-8,-0E0,-2.7663211E-6,-0E0,-6.91573E-6,-0E0,-1.682288E-5],"split_indices":[63,63,35,35,23,33,23,37,12,29,23,37,0,0,22,33,0,20,0,0,34,63,29,27,0,17,0,0,0,0,0,0,0,0,0,0,0,0,0,0,0],"split_type":[0,0,0,0,0,0,0,0,0,0,0,0,0,0,0,0,0,0,0,0,0,0,0,0,0,0,0,0,0,0,0,0,0,0,0,0,0,0,0,0,0],"sum_hessian":[7.99E3,5.485E3,2.505E3,2.154E3,3.331E3,2.088E3,4.17E2,1.795E3,3.59E2,4.03E2,2.928E3,1.67E3,4.18E2,8.7E1,3.3E2,1.436E3,3.59E2,3.25E2,3.4E1,1.36E2,2.67E2,2.258E3,6.7E2,1.252E3,4.18E2,3.27E2,3E0,1.077E3,3.59E2,3.03E2,2.2E1,2.32E2,3.5E1,8.26E2,1.432E3,7.7E1,5.93E2,2.05E2,1.047E3,2.8E1,2.99E2],"tree_param":{"num_deleted":"0","num_feature":"70","num_nodes":"41","size_leaf_vector":"1"}},{"base_weights":[-0E0,2.8883165E-4,-4.375006E-4,7.5094803E-4,1.0458277E-4,-2.6572737E-4,-1.0984237E-3,1.0745265E-3,-0E0,3.384652E-4,-0E0,-1.0776312E-4,-7.0318853E-4,-3.4691778E-4,-1.9715903E-3,1.222956E-3,-0E0,9.796086E-5,-0E0,4.3190958E-4,-0E0,8.018247E-5,-5.3138214E-5,-0E0,-2.6605412E-4,-0E0,-8.0696266E-4,-0E0,-7.465374E-4,-2.1108119E-3,-0E0,1.35937835E-5,-0E0,2.7663648E-6,-0E0,5.2922155E-6,-0E0,1.1501787E-6,-0E0,-0E0,-1.3028308E-6,-0E0,-4.148023E-6,-0E0,-8.815979E-6,-0E0,-8.097132E-6,-2.3489349E-5,-0E0],"categories":[],"categories_nodes":[],"categories_segments":[],"categories_sizes":[],"default_left":[0,0,0,0,0,0,0,0,0,0,0,0,0,0,0,0,0,0,0,0,0,0,0,0,0,0,0,0,0,1,0,0,0,0,0,0,0,0,0,0,0,0,0,0,0,0,0,0,0],"id":35,"left_children":[1,3,5,7,9,11,13,15,17,19,21,23,25,27,29,31,-1,33,-1,35,-1,37,39,-1,41,-1,43,-1,45,47,-1,-1,-1,-1,-1,-1,-1,-1,-1,-1,-1,-1,-1,-1,-1,-1,-1,-1,-1],"loss_changes":[1.0090482E-3,3.258127E-4,2.2133085E-4,1.9475137E-4,9.171219E-5,1.0082025E-4,1.1316617E-4,9.819394E-5,3.176385E-6,2.5787376E-5,1.0318251E-5,4.3780896E-5,1.7445389E-5,5.281717E-5,8.173188E-5,9.840401E-5,0E0,1.1363885E-5,0E0,2.6097696E-5,0E0,4.469592E-6,1.3558907E-5,0E0,3.1660085E-5,0E0,1.999375E-5,0E0,9.600284E-6,5.1093113E-5,0E0,0E0,0E0,0E0,0E0,0E0,0E0,0E0,0E0,0E0,0E0,0E0,0E0,0E0,0E0,0E0,0E0,0E0,0E0],"parents":[2147483647,0,0,1,1,2,2,3,3,4,4,5,5,6,6,7,7,8,8,9,9,10,10,11,11,12,12,13,13,14,14,15,15,17,17,19,19,21,21,22,22,24,24,26,26,28,28,29,29],"right_children":[2,4,6,8,10,12,14,16,18,20,22,24,26,28,30,32,-1,34,-1,36,-1,38,40,-1,42,-1,44,-1,46,48,-1,-1,-1,-1,-1,-1,-1,-1,-1,-1,-1,-1,-1,-1,-1,-1,-1,-1,-1],"split_conditions":[8.230641E-4,-3.665753E-3,1E0,9.395659E-1,-3.737568E-4,1E0,4.3068687E-3,1E0,1E0,6.3033985E1,1.939509E1,3.3479775E-3,1.332E-1,-7.8556675E-4,5.247044E-3,1E0,-0E0,-5.7286015E-3,-0E0,-5.8853824E-4,-0E0,1E0,-2.057582E-3,-0E0,9.381637E-2,-0E0,-2.949204E-3,-0E0,1.5868182E0,2.1E-1,-0E0,1.35937835E-5,-0E0,2.7663648E-6,-0E0,5.2922155E-6,-0E0,1.1501787E-6,-0E0,-0E0,-1.3028308E-6,-0E0,-4.148023E-6,-0E0,-8.815979E-6,-0E0,-8.097132E-6,-2.3489349E-5,-0E0],"split_indices":[63,63,35,23,27,32,63,33,37,20,12,63,68,27,41,37,0,63,0,30,0,32,63,0,23,0,30,0,52,51,0,0,0,0,0,0,0,0,0,0,0,0,0,0,0,0,0,0,0],"split_type":[0,0,0,0,0,0,0,0,0,0,0,0,0,0,0,0,0,0,0,0,0,0,0,0,0,0,0,0,0,0,0,0,0,0,0,0,0,0,0,0,0,0,0,0,0,0,0,0,0],"sum_hessian":[7.99E3,4.831E3,3.159E3,1.218E3,3.613E3,2.633E3,5.26E2,7.61E2,4.57E2,1.141E3,2.472E3,2.107E3,5.26E2,3.48E2,1.78E2,6.52E2,1.09E2,3.26E2,1.31E2,8.37E2,3.04E2,9.13E2,1.559E3,1.147E3,9.6E2,1.01E2,4.25E2,1.82E2,1.66E2,1.73E2,5E0,5.8E2,7.2E1,1.85E2,1.41E2,6.49E2,1.88E2,7.79E2,1.34E2,5.05E2,1.054E3,3.84E2,5.76E2,4.4E1,3.81E2,1.1E1,1.55E2,1.48E2,2.5E1],"tree_param":{"num_deleted":"0","num_feature":"70","num_nodes":"49","size_leaf_vector":"1"}},{"base_weights":[-0E0,4.76428E-4,-2.6038795E-4,2.64212E-4,1.3144399E-3,-5.049017E-5,-7.302067E-4,3.4554768E-4,-0E0,1.5642102E-3,-0E0,1.3809481E-4,-1.5859684E-4,-8.808493E-4,-0E0,6.602626E-4,9.956164E-5,1.8055526E-3,-0E0,-0E0,2.627053E-4,-2.472968E-4,-0E0,-1.0896955E-3,-0E0,8.577599E-6,-0E0,1.9990478E-6,-0E0,-0E0,1.844205E-5,2.9523028E-6,-0E0,-0E0,-3.2340884E-6,-0E0,-1.2183745E-5],"categories":[],"categories_nodes":[],"categories_segments":[],"categories_sizes":[],"default_left":[0,0,0,0,0,0,0,0,0,0,0,0,0,0,0,0,0,0,0,0,0,0,0,0,0,0,0,0,0,0,0,0,0,0,0,0,0],"id":36,"left_children":[1,3,5,7,9,11,13,15,-1,17,-1,19,21,23,-1,25,27,29,-1,-1,31,33,-1,35,-1,-1,-1,-1,-1,-1,-1,-1,-1,-1,-1,-1,-1],"loss_changes":[9.949688E-4,3.45996E-4,4.3029795E-4,6.1062965E-5,1.0145386E-4,7.793928E-5,1.6447739E-4,7.054604E-5,0E0,9.958696E-5,0E0,3.4172357E-5,5.2819232E-5,2.109218E-4,0E0,7.658117E-5,2.334522E-5,2.7432106E-5,0E0,0E0,7.650186E-6,3.757169E-5,0E0,1.1737947E-4,0E0,0E0,0E0,0E0,0E0,0E0,0E0,0E0,0E0,0E0,0E0,0E0,0E0],"parents":[2147483647,0,0,1,1,2,2,3,3,4,4,5,5,6,6,7,7,9,9,11,11,12,12,13,13,15,15,16,16,17,17,20,20,21,21,23,23],"right_children":[2,4,6,8,10,12,14,16,-1,18,-1,20,22,24,-1,26,28,30,-1,-1,32,34,-1,36,-1,-1,-1,-1,-1,-1,-1,-1,-1,-1,-1,-1,-1],"split_conditions":[-1.118006E-3,1E0,3.3479775E-3,1E0,-1.887785E-3,-7.4616383E-4,1E0,-4.328539E-3,-0E0,1.5071387E2,-0E0,1.7467617E1,1E0,1E0,-0E0,1E0,3.869571E-1,-4.7302946E-1,-0E0,-0E0,-2.8699725E-3,2.3871283E-1,-0E0,-1.8076477E2,-0E0,8.577599E-6,-0E0,1.9990478E-6,-0E0,-0E0,1.844205E-5,2.9523028E-6,-0E0,-0E0,-3.2340884E-6,-0E0,-1.2183745E-5],"split_indices":[63,35,63,37,63,27,33,63,0,20,0,13,33,37,0,33,21,67,0,0,45,23,0,20,0,0,0,0,0,0,0,0,0,0,0,0,0],"split_type":[0,0,0,0,0,0,0,0,0,0,0,0,0,0,0,0,0,0,0,0,0,0,0,0,0,0,0,0,0,0,0,0,0,0,0,0,0],"sum_hessian":[7.99E3,2.838E3,5.152E3,2.365E3,4.73E2,3.712E3,1.44E3,1.892E3,4.73E2,3.74E2,9.9E1,1.015E3,2.697E3,1.2E3,2.4E2,6.48E2,1.244E3,3.1E2,6.4E1,2.43E2,7.72E2,1.97E3,7.27E2,9.6E2,2.4E2,4.86E2,1.62E2,8.89E2,3.55E2,5E0,3.05E2,6.98E2,7.4E1,4.61E2,1.509E3,1.14E2,8.46E2],"tree_param":{"num_deleted":"0","num_feature":"70","num_nodes":"37","size_leaf_vector":"1"}},{"base_weights":[-0E0,2.551803E-4,-4.8074932E-4,5.860722E-4,1.45151425E-5,-2.8239956E-4,-1.2440409E-3,3.2750558E-4,1.56374E-3,4.56583E-4,-7.480491E-6,-3.7413897E-4,-0E0,-0E0,-1.4665077E-3,4.339524E-4,-0E0,1.7387427E-3,-0E0,-0E0,6.1310915E-4,6.1035425E-6,-1.970967E-4,-5.126775E-4,-0E0,-0E0,-1.5256429E-3,5.384783E-6,-0E0,1.9094005E-5,-0E0,7.0807023E-6,-0E0,1.0054999E-6,-0E0,-2.321414E-6,-0E0,-0E0,-6.1360824E-6,-0E0,-1.6870961E-5],"categories":[],"categories_nodes":[],"categories_segments":[],"categories_sizes":[],"default_left":[0,0,0,0,0,0,0,0,0,0,0,0,0,0,0,0,0,0,0,0,0,0,0,0,0,0,0,0,0,0,0,0,0,0,0,0,0,0,0,0,0],"id":37,"left_children":[1,3,5,7,9,11,13,15,17,19,21,23,-1,-1,25,27,-1,29,-1,-1,31,33,35,37,-1,-1,39,-1,-1,-1,-1,-1,-1,-1,-1,-1,-1,-1,-1,-1,-1],"loss_changes":[9.784399E-4,3.5750025E-4,2.6285416E-4,3.2224134E-4,7.619831E-5,7.415879E-5,8.1332924E-5,7.3737494E-5,9.5444964E-5,1.6883561E-5,2.6453954E-5,1.05293584E-4,0E0,0E0,3.3059157E-5,3.9925042E-5,0E0,4.2900443E-5,0E0,0E0,1.26892555E-5,9.129459E-6,8.549574E-6,7.667646E-5,0E0,0E0,4.2863714E-5,0E0,0E0,0E0,0E0,0E0,0E0,0E0,0E0,0E0,0E0,0E0,0E0,0E0,0E0],"parents":[2147483647,0,0,1,1,2,2,3,3,4,4,5,5,6,6,7,7,8,8,9,9,10,10,11,11,14,14,15,15,17,17,20,20,21,21,22,22,23,23,26,26],"right_children":[2,4,6,8,10,12,14,16,18,20,22,24,-1,-1,26,28,-1,30,-1,-1,32,34,36,38,-1,-1,40,-1,-1,-1,-1,-1,-1,-1,-1,-1,-1,-1,-1,-1,-1],"split_conditions":[1.3606579E-3,-2.195345E-3,1E0,1E0,1.5166084E-1,1E0,5.1364932E-2,1E0,3.6016415E1,1.6461123E-3,7.5007963E-1,1E0,-0E0,-0E0,-4.317535E-3,1E0,-0E0,9.264931E1,-0E0,-0E0,1E0,-3.946031E-4,1.681941E-3,-2.6328387E-3,-0E0,-0E0,1.2407513E1,5.384783E-6,-0E0,1.9094005E-5,-0E0,7.0807023E-6,-0E0,1.0054999E-6,-0E0,-2.321414E-6,-0E0,-0E0,-6.1360824E-6,-0E0,-1.6870961E-5],"split_indices":[63,63,35,35,23,33,23,37,12,29,23,37,0,0,27,33,0,17,0,0,34,63,10,27,0,0,17,0,0,0,0,0,0,0,0,0,0,0,0,0,0],"split_type":[0,0,0,0,0,0,0,0,0,0,0,0,0,0,0,0,0,0,0,0,0,0,0,0,0,0,0,0,0,0,0,0,0,0,0,0,0,0,0,0,0],"sum_hessian":[7.99E3,5.239E3,2.751E3,2.028E3,3.211E3,2.293E3,4.58E2,1.69E3,3.38E2,3.63E2,2.848E3,1.834E3,4.59E2,9.2E1,3.66E2,1.352E3,3.38E2,3.04E2,3.4E1,1.19E2,2.44E2,2.17E3,6.78E2,1.375E3,4.59E2,1.4E1,3.52E2,1.014E3,3.38E2,2.63E2,4.1E1,2.07E2,3.7E1,9.06E2,1.264E3,6.46E2,3.2E1,2.13E2,1.162E3,5E1,3.02E2],"tree_param":{"num_deleted":"0","num_feature":"70","num_nodes":"41","size_leaf_vector":"1"}},{"base_weights":[-0E0,2.362265E-4,-5.1107444E-4,5.6387763E-4,-0E0,-3.1080848E-4,-1.2613145E-3,3.1242205E-4,1.5248683E-3,4.0710365E-4,-2.9535157E-5,-4.0824024E-4,-0E0,-0E0,-1.5005821E-3,4.129143E-4,-0E0,1.6847295E-3,-0E0,-0E0,5.4718886E-4,-0E0,-2.1282664E-4,-5.545837E-4,-0E0,-0E0,-1.7362419E-3,6.4987094E-6,8.9084176E-7,1.780457E-5,-0E0,6.3742527E-6,-0E0,7.3461655E-7,-2.7942017E-8,-0E0,-2.6863588E-6,-0E0,-6.682202E-6,-0E0,-1.8031682E-5],"categories":[],"categories_nodes":[],"categories_segments":[],"categories_sizes":[],"default_left":[0,0,0,0,0,0,0,0,0,0,0,0,0,0,0,0,0,0,0,0,0,0,0,0,0,0,0,0,0,0,0,0,0,0,0,0,0,0,0,0,0],"id":38,"left_children":[1,3,5,7,9,11,13,15,17,19,21,23,-1,-1,25,27,-1,29,-1,-1,31,33,35,