{"learner":{"attributes":{"scikit_learn":"{\"_estimator_type\": \"regressor\"}"},"feature_names":[],"feature_types":[],"gradient_booster":{"model":{"cats":{"enc":[],"feature_segments":[],"sorted_idx":[]},"gbtree_model_param":{"num_parallel_tree":"1","num_trees":"300"},"iteration_indptr":[0,1,2,3,4,5,6,7,8,9,10,11,12,13,14,15,16,17,18,19,20,21,22,23,24,25,26,27,28,29,30,31,32,33,34,35,36,37,38,39,40,41,42,43,44,45,46,47,48,49,50,51,52,53,54,55,56,57,58,59,60,61,62,63,64,65,66,67,68,69,70,71,72,73,74,75,76,77,78,79,80,81,82,83,84,85,86,87,88,89,90,91,92,93,94,95,96,97,98,99,100,101,102,103,104,105,106,107,108,109,110,111,112,113,114,115,116,117,118,119,120,121,122,123,124,125,126,127,128,129,130,131,132,133,134,135,136,137,138,139,140,141,142,143,144,145,146,147,148,149,150,151,152,153,154,155,156,157,158,159,160,161,162,163,164,165,166,167,168,169,170,171,172,173,174,175,176,177,178,179,180,181,182,183,184,185,186,187,188,189,190,191,192,193,194,195,196,197,198,199,200,201,202,203,204,205,206,207,208,209,210,211,212,213,214,215,216,217,218,219,220,221,222,223,224,225,226,227,228,229,230,231,232,233,234,235,236,237,238,239,240,241,242,243,244,245,246,247,248,249,250,251,252,253,254,255,256,257,258,259,260,261,262,263,264,265,266,267,268,269,270,271,272,273,274,275,276,277,278,279,280,281,282,283,284,285,286,287,288,289,290,291,292,293,294,295,296,297,298,299,300],"tree_info":[0,0,0,0,0,0,0,0,0,0,0,0,0,0,0,0,0,0,0,0,0,0,0,0,0,0,0,0,0,0,0,0,0,0,0,0,0,0,0,0,0,0,0,0,0,0,0,0,0,0,0,0,0,0,0,0,0,0,0,0,0,0,0,0,0,0,0,0,0,0,0,0,0,0,0,0,0,0,0,0,0,0,0,0,0,0,0,0,0,0,0,0,0,0,0,0,0,0,0,0,0,0,0,0,0,0,0,0,0,0,0,0,0,0,0,0,0,0,0,0,0,0,0,0,0,0,0,0,0,0,0,0,0,0,0,0,0,0,0,0,0,0,0,0,0,0,0,0,0,0,0,0,0,0,0,0,0,0,0,0,0,0,0,0,0,0,0,0,0,0,0,0,0,0,0,0,0,0,0,0,0,0,0,0,0,0,0,0,0,0,0,0,0,0,0,0,0,0,0,0,0,0,0,0,0,0,0,0,0,0,0,0,0,0,0,0,0,0,0,0,0,0,0,0,0,0,0,0,0,0,0,0,0,0,0,0,0,0,0,0,0,0,0,0,0,0,0,0,0,0,0,0,0,0,0,0,0,0,0,0,0,0,0,0,0,0,0,0,0,0,0,0,0,0,0,0,0,0,0,0,0,0,0,0,0,0,0,0,0,0,0,0,0,0,0,0,0,0,0,0],"trees":[{"base_weights":[-0E0,-2.6836587E-4,1.5811938E-4,-3.4570516E-4,-0E0,-0E0,3.3353185E-4,-6.344768E-6,-1.0221893E-6,-0E0,6.524602E-7,1.2267377E-7,-1.7366763E-6,3.9073784E-6,-4.324169E-6],"categories":[],"categories_nodes":[],"categories_segments":[],"categories_sizes":[],"default_left":[0,0,0,0,0,0,0,0,0,0,0,0,0,0,0],"id":0,"left_children":[1,3,5,7,9,11,13,-1,-1,-1,-1,-1,-1,-1,-1],"loss_changes":[3.3947077E-4,8.182181E-5,1.7205128E-4,9.98172E-5,1.3111694E-6,2.073282E-5,1.14018476E-4,0E0,0E0,0E0,0E0,0E0,0E0,0E0,0E0],"parents":[2147483647,0,0,1,1,2,2,3,3,4,4,5,5,6,6],"right_children":[2,4,6,8,10,12,14,-1,-1,-1,-1,-1,-1,-1,-1],"split_conditions":[-7.819305E-4,1E0,3.011617E-3,-5.8598807E-3,-6.321489E-2,1.7313714E-3,1.3220919E0,-6.344768E-6,-1.0221893E-6,-0E0,6.524602E-7,1.2267377E-7,-1.7366763E-6,3.9073784E-6,-4.324169E-6],"split_indices":[64,33,29,64,10,63,24,0,0,0,0,0,0,0,0],"split_type":[0,0,0,0,0,0,0,0,0,0,0,0,0,0,0],"sum_hessian":[7.99E3,2.961E3,5.029E3,2.467E3,4.94E2,2.356E3,2.673E3,9.37E2,1.53E3,1.91E2,3.03E2,1.682E3,6.74E2,2.611E3,6.2E1],"tree_param":{"num_deleted":"0","num_feature":"70","num_nodes":"15","size_leaf_vector":"1"}},{"base_weights":[-0E0,-2.659008E-4,1.5633753E-4,-3.426675E-4,-0E0,-0E0,3.2982233E-4,-6.2816566E-6,-1.0120004E-6,-0E0,6.4604166E-7,1.214506E-7,-1.7194373E-6,3.8683793E-6,-4.284154E-6],"categories":[],"categories_nodes":[],"categories_segments":[],"categories_sizes":[],"default_left":[0,0,0,0,0,0,0,0,0,0,0,0,0,0,0],"id":1,"left_children":[1,3,5,7,9,11,13,-1,-1,-1,-1,-1,-1,-1,-1],"loss_changes":[3.3274392E-4,8.055901E-5,1.6828213E-4,9.716157E-5,1.2854989E-6,2.0323232E-5,1.1244451E-4,0E0,0E0,0E0,0E0,0E0,0E0,0E0,0E0],"parents":[2147483647,0,0,1,1,2,2,3,3,4,4,5,5,6,6],"right_children":[2,4,6,8,10,12,14,-1,-1,-1,-1,-1,-1,-1,-1],"split_conditions":[-7.819305E-4,1E0,3.011617E-3,-5.8598807E-3,-6.321489E-2,1.7313714E-3,1.3220919E0,-6.2816566E-6,-1.0120004E-6,-0E0,6.4604166E-7,1.214506E-7,-1.7194373E-6,3.8683793E-6,-4.284154E-6],"split_indices":[64,33,29,64,10,63,24,0,0,0,0,0,0,0,0],"split_type":[0,0,0,0,0,0,0,0,0,0,0,0,0,0,0],"sum_hessian":[7.99E3,2.961E3,5.029E3,2.467E3,4.94E2,2.356E3,2.673E3,9.37E2,1.53E3,1.91E2,3.03E2,1.682E3,6.74E2,2.611E3,6.2E1],"tree_param":{"num_deleted":"0","num_feature":"70","num_nodes":"15","size_leaf_vector":"1"}},{"base_weights":[-0E0,-1.5835608E-4,2.579696E-4,-4.6280806E-4,-4.2516884E-5,3.5869324E-4,-4.814936E-5,-6.2191734E-6,-0E0,-1.6176757E-6,-0E0,-0E0,4.3931777E-6,-0E0,-3.414447E-5],"categories":[],"categories_nodes":[],"categories_segments":[],"categories_sizes":[],"default_left":[0,0,0,0,0,0,0,0,0,0,0,0,0,0,0],"id":2,"left_children":[1,3,5,7,9,11,13,-1,-1,-1,-1,-1,-1,-1,-1],"loss_changes":[3.264797E-4,1.2447215E-4,1.2472017E-4,1.223117E-4,2.8255457E-5,8.750832E-5,1.03743674E-4,0E0,0E0,0E0,0E0,0E0,0E0,0E0,0E0],"parents":[2147483647,0,0,1,1,2,2,3,3,4,4,5,5,6,6],"right_children":[2,4,6,8,10,12,14,-1,-1,-1,-1,-1,-1,-1,-1],"split_conditions":[1.7075955E-3,-5.8598807E-3,1E0,1E0,6.2183E0,0E0,1.6560957E0,-6.2191734E-6,-0E0,-1.6176757E-6,-0E0,-0E0,4.3931777E-6,-0E0,-3.414447E-5],"split_indices":[64,64,33,33,68,53,24,0,0,0,0,0,0,0,0],"split_type":[0,0,0,0,0,0,0,0,0,0,0,0,0,0,0],"sum_hessian":[7.99E3,4.96E3,3.03E3,1.125E3,3.835E3,2.525E3,5.05E2,9.37E2,1.88E2,1.34E3,2.495E3,3.9E2,2.135E3,5.01E2,4E0],"tree_param":{"num_deleted":"0","num_feature":"70","num_nodes":"15","size_leaf_vector":"1"}},{"base_weights":[-0E0,-2.611454E-4,1.5296173E-4,-3.3695268E-4,-0E0,-0E0,3.2418227E-4,-6.1573123E-6,-9.96275E-7,-0E0,6.4304754E-7,1.0951893E-7,-1.717623E-6,3.8097808E-6,-4.2505258E-6],"categories":[],"categories_nodes":[],"categories_segments":[],"categories_sizes":[],"default_left":[0,0,0,0,0,0,0,0,0,0,0,0,0,0,0],"id":3,"left_children":[1,3,5,7,9,11,13,-1,-1,-1,-1,-1,-1,-1,-1],"loss_changes":[3.2005407E-4,7.839162E-5,1.6366014E-4,9.170783E-5,1.2736112E-6,2.0234404E-5,1.1036024E-4,0E0,0E0,0E0,0E0,0E0,0E0,0E0,0E0],"parents":[2147483647,0,0,1,1,2,2,3,3,4,4,5,5,6,6],"right_children":[2,4,6,8,10,12,14,-1,-1,-1,-1,-1,-1,-1,-1],"split_conditions":[-7.819305E-4,1E0,3.011617E-3,-5.8598807E-3,-6.321489E-2,1.7313714E-3,1.3220919E0,-6.1573123E-6,-9.96275E-7,-0E0,6.4304754E-7,1.0951893E-7,-1.717623E-6,3.8097808E-6,-4.2505258E-6],"split_indices":[64,33,29,64,10,63,24,0,0,0,0,0,0,0,0],"split_type":[0,0,0,0,0,0,0,0,0,0,0,0,0,0,0],"sum_hessian":[7.99E3,2.961E3,5.029E3,2.467E3,4.94E2,2.356E3,2.673E3,9.37E2,1.53E3,1.91E2,3.03E2,1.682E3,6.74E2,2.611E3,6.2E1],"tree_param":{"num_deleted":"0","num_feature":"70","num_nodes":"15","size_leaf_vector":"1"}},{"base_weights":[-0E0,-1.5598568E-4,2.5314972E-4,-4.5260065E-4,-4.2455773E-5,3.5289663E-4,-4.8076607E-5,-6.0960656E-6,-0E0,-1.6063861E-6,-0E0,-0E0,4.3286764E-6,-0E0,-3.397382E-5],"categories":[],"categories_nodes":[],"categories_segments":[],"categories_sizes":[],"default_left":[0,0,0,0,0,0,0,0,0,0,0,0,0,0,0],"id":4,"left_children":[1,3,5,7,9,11,13,-1,-1,-1,-1,-1,-1,-1,-1],"loss_changes":[3.153034E-4,1.1759301E-4,1.2175765E-4,1.1858868E-4,2.7785838E-5,8.590505E-5,1.0270105E-4,0E0,0E0,0E0,0E0,0E0,0E0,0E0,0E0],"parents":[2147483647,0,0,1,1,2,2,3,3,4,4,5,5,6,6],"right_children":[2,4,6,8,10,12,14,-1,-1,-1,-1,-1,-1,-1,-1],"split_conditions":[1.7075955E-3,-5.8598807E-3,1E0,1E0,6.2183E0,0E0,1.6560957E0,-6.0960656E-6,-0E0,-1.6063861E-6,-0E0,-0E0,4.3286764E-6,-0E0,-3.397382E-5],"split_indices":[64,64,33,33,68,53,24,0,0,0,0,0,0,0,0],"split_type":[0,0,0,0,0,0,0,0,0,0,0,0,0,0,0],"sum_hessian":[7.99E3,4.96E3,3.03E3,1.125E3,3.835E3,2.525E3,5.05E2,9.37E2,1.88E2,1.34E3,2.495E3,3.9E2,2.135E3,5.01E2,4E0],"tree_param":{"num_deleted":"0","num_feature":"70","num_nodes":"15","size_leaf_vector":"1"}},{"base_weights":[-0E0,-1.5440168E-4,2.5014946E-4,-4.4754578E-4,-4.1895215E-5,3.4924378E-4,-4.7810157E-5,-6.035428E-6,-0E0,5.5850787E-8,-1.2703692E-6,-0E0,4.285491E-6,-0E0,-3.3853496E-5],"categories":[],"categories_nodes":[],"categories_segments":[],"categories_sizes":[],"default_left":[0,0,0,0,0,0,0,0,0,0,0,0,0,0,0],"id":5,"left_children":[1,3,5,7,9,11,13,-1,-1,-1,-1,-1,-1,-1,-1],"loss_changes":[3.0827936E-4,1.1471087E-4,1.1983857E-4,1.1680079E-4,2.7672137E-5,8.443309E-5,1.0197957E-4,0E0,0E0,0E0,0E0,0E0,0E0,0E0,0E0],"parents":[2147483647,0,0,1,1,2,2,3,3,4,4,5,5,6,6],"right_children":[2,4,6,8,10,12,14,-1,-1,-1,-1,-1,-1,-1,-1],"split_conditions":[1.7075955E-3,-5.8598807E-3,1E0,1E0,-1.9000695E-4,0E0,7.136123E-3,-6.035428E-6,-0E0,5.5850787E-8,-1.2703692E-6,-0E0,4.285491E-6,-0E0,-3.3853496E-5],"split_indices":[64,64,33,33,30,53,38,0,0,0,0,0,0,0,0],"split_type":[0,0,0,0,0,0,0,0,0,0,0,0,0,0,0],"sum_hessian":[7.99E3,4.96E3,3.03E3,1.125E3,3.835E3,2.525E3,5.05E2,9.37E2,1.88E2,1.711E3,2.124E3,3.9E2,2.135E3,5.01E2,4E0],"tree_param":{"num_deleted":"0","num_feature":"70","num_nodes":"15","size_leaf_vector":"1"}},{"base_weights":[-0E0,-2.541789E-4,1.4814019E-4,-3.2866793E-4,-0E0,-1.0454203E-6,3.1673114E-4,-5.9753947E-6,-9.744947E-7,-0E0,6.445945E-7,8.909101E-8,-1.730455E-6,3.7329023E-6,-4.227062E-6],"categories":[],"categories_nodes":[],"categories_segments":[],"categories_sizes":[],"default_left":[0,0,0,0,0,0,0,0,0,0,0,0,0,0,0],"id":6,"left_children":[1,3,5,7,9,11,13,-1,-1,-1,-1,-1,-1,-1,-1],"loss_changes":[3.0209788E-4,7.5407734E-5,1.581821E-4,8.3889405E-5,1.2797461E-6,2.0463802E-5,1.07846456E-4,0E0,0E0,0E0,0E0,0E0,0E0,0E0,0E0],"parents":[2147483647,0,0,1,1,2,2,3,3,4,4,5,5,6,6],"right_children":[2,4,6,8,10,12,14,-1,-1,-1,-1,-1,-1,-1,-1],"split_conditions":[-7.819305E-4,1E0,3.011617E-3,-5.8598807E-3,-6.321489E-2,1.7313714E-3,1.3220919E0,-5.9753947E-6,-9.744947E-7,-0E0,6.445945E-7,8.909101E-8,-1.730455E-6,3.7329023E-6,-4.227062E-6],"split_indices":[64,33,29,64,10,63,24,0,0,0,0,0,0,0,0],"split_type":[0,0,0,0,0,0,0,0,0,0,0,0,0,0,0],"sum_hessian":[7.99E3,2.961E3,5.029E3,2.467E3,4.94E2,2.356E3,2.673E3,9.37E2,1.53E3,1.91E2,3.03E2,1.682E3,6.74E2,2.611E3,6.2E1],"tree_param":{"num_deleted":"0","num_feature":"70","num_nodes":"15","size_leaf_vector":"1"}},{"base_weights":[-0E0,-1.5200081E-4,2.4545423E-4,-4.6175005E-4,-4.818128E-5,3.4359164E-4,-4.7712256E-5,-6.1926785E-6,-0E0,7.832413E-8,-1.3935327E-6,-0E0,4.222596E-6,-0E0,-3.3728815E-5],"categories":[],"categories_nodes":[],"categories_segments":[],"categories_sizes":[],"default_left":[0,0,0,0,0,0,0,0,0,0,0,0,0,0,0],"id":7,"left_children":[1,3,5,7,9,11,13,-1,-1,-1,-1,-1,-1,-1,-1],"loss_changes":[2.975646E-4,1.08560176E-4,1.1698864E-4,1.0691743E-4,3.3411427E-5,8.2889135E-5,1.0122598E-4,0E0,0E0,0E0,0E0,0E0,0E0,0E0,0E0],"parents":[2147483647,0,0,1,1,2,2,3,3,4,4,5,5,6,6],"right_children":[2,4,6,8,10,12,14,-1,-1,-1,-1,-1,-1,-1,-1],"split_conditions":[1.7075955E-3,-6.5622088E-3,1E0,1E0,-1.9000695E-4,0E0,1.6560957E0,-6.1926785E-6,-0E0,7.832413E-8,-1.3935327E-6,-0E0,4.222596E-6,-0E0,-3.3728815E-5],"split_indices":[64,64,33,33,30,53,24,0,0,0,0,0,0,0,0],"split_type":[0,0,0,0,0,0,0,0,0,0,0,0,0,0,0],"sum_hessian":[7.99E3,4.96E3,3.03E3,9.99E2,3.961E3,2.525E3,5.05E2,8.32E2,1.67E2,1.777E3,2.184E3,3.9E2,2.135E3,5.01E2,4E0],"tree_param":{"num_deleted":"0","num_feature":"70","num_nodes":"15","size_leaf_vector":"1"}},{"base_weights":[-0E0,-1.5037811E-4,2.4252827E-4,-4.330127E-4,-4.0969535E-5,3.4002832E-4,-4.7447702E-5,-5.860615E-6,-0E0,-1.5819336E-6,-0E0,-0E0,4.1804687E-6,-0E0,-3.3614084E-5],"categories":[],"categories_nodes":[],"categories_segments":[],"categories_sizes":[],"default_left":[0,0,0,0,0,0,0,0,0,0,0,0,0,0,0],"id":8,"left_children":[1,3,5,7,9,11,13,-1,-1,-1,-1,-1,-1,-1,-1],"loss_changes":[2.90795E-4,1.06044026E-4,1.1514625E-4,1.1167198E-4,2.7213366E-5,8.147655E-5,1.0054345E-4,0E0,0E0,0E0,0E0,0E0,0E0,0E0,0E0],"parents":[2147483647,0,0,1,1,2,2,3,3,4,4,5,5,6,6],"right_children":[2,4,6,8,10,12,14,-1,-1,-1,-1,-1,-1,-1,-1],"split_conditions":[1.7075955E-3,-5.8598807E-3,1E0,1E0,6.2183E0,0E0,7.136123E-3,-5.860615E-6,-0E0,-1.5819336E-6,-0E0,-0E0,4.1804687E-6,-0E0,-3.3614084E-5],"split_indices":[64,64,33,33,68,53,38,0,0,0,0,0,0,0,0],"split_type":[0,0,0,0,0,0,0,0,0,0,0,0,0,0,0],"sum_hessian":[7.99E3,4.96E3,3.03E3,1.125E3,3.835E3,2.525E3,5.05E2,9.37E2,1.88E2,1.34E3,2.495E3,3.9E2,2.135E3,5.01E2,4E0],"tree_param":{"num_deleted":"0","num_feature":"70","num_nodes":"15","size_leaf_vector":"1"}},{"base_weights":[-0E0,-2.47471E-4,1.434774E-4,-3.207064E-4,-0E0,-2.7592E-6,3.0947712E-4,-5.80232E-6,-9.524926E-7,-0E0,6.4667785E-7,6.981947E-8,-1.7421652E-6,3.6580193E-6,-4.202703E-6],"categories":[],"categories_nodes":[],"categories_segments":[],"categories_sizes":[],"default_left":[0,0,0,0,0,0,0,0,0,0,0,0,0,0,0],"id":9,"left_children":[1,3,5,7,9,11,13,-1,-1,-1,-1,-1,-1,-1,-1],"loss_changes":[2.8527222E-4,7.260812E-5,1.5287762E-4,7.6817E-5,1.2880323E-6,2.067286E-5,1.0539536E-4,0E0,0E0,0E0,0E0,0E0,0E0,0E0,0E0],"parents":[2147483647,0,0,1,1,2,2,3,3,4,4,5,5,6,6],"right_children":[2,4,6,8,10,12,14,-1,-1,-1,-1,-1,-1,-1,-1],"split_conditions":[-7.819305E-4,1E0,3.011617E-3,-5.8598807E-3,-6.321489E-2,1.7313714E-3,1.3220919E0,-5.80232E-6,-9.524926E-7,-0E0,6.4667785E-7,6.981947E-8,-1.7421652E-6,3.6580193E-6,-4.202703E-6],"split_indices":[64,33,29,64,10,63,24,0,0,0,0,0,0,0,0],"split_type":[0,0,0,0,0,0,0,0,0,0,0,0,0,0,0],"sum_hessian":[7.99E3,2.961E3,5.029E3,2.467E3,4.94E2,2.356E3,2.673E3,9.37E2,1.53E3,1.91E2,3.03E2,1.682E3,6.74E2,2.611E3,6.2E1],"tree_param":{"num_deleted":"0","num_feature":"70","num_nodes":"15","size_leaf_vector":"1"}},{"base_weights":[-0E0,-1.4812905E-4,2.3795433E-4,-4.470094E-4,-4.706588E-5,3.3451675E-4,-4.7325528E-5,-6.015189E-6,-0E0,8.2309434E-8,-1.3765683E-6,-0E0,4.119138E-6,-0E0,-3.348553E-5],"categories":[],"categories_nodes":[],"categories_segments":[],"categories_sizes":[],"default_left":[0,0,0,0,0,0,0,0,0,0,0,0,0,0,0],"id":10,"left_children":[1,3,5,7,9,11,13,-1,-1,-1,-1,-1,-1,-1,-1],"loss_changes":[2.8079166E-4,1.00459045E-4,1.1240439E-4,1.0223084E-4,3.2815507E-5,7.998943E-5,9.9773024E-5,0E0,0E0,0E0,0E0,0E0,0E0,0E0,0E0],"parents":[2147483647,0,0,1,1,2,2,3,3,4,4,5,5,6,6],"right_children":[2,4,6,8,10,12,14,-1,-1,-1,-1,-1,-1,-1,-1],"split_conditions":[1.7075955E-3,-6.5622088E-3,1E0,1E0,-1.9000695E-4,0E0,1.6560957E0,-6.015189E-6,-0E0,8.2309434E-8,-1.3765683E-6,-0E0,4.119138E-6,-0E0,-3.348553E-5],"split_indices":[64,64,33,33,30,53,24,0,0,0,0,0,0,0,0],"split_type":[0,0,0,0,0,0,0,0,0,0,0,0,0,0,0],"sum_hessian":[7.99E3,4.96E3,3.03E3,9.99E2,3.961E3,2.525E3,5.05E2,8.32E2,1.67E2,1.777E3,2.184E3,3.9E2,2.135E3,5.01E2,4E0],"tree_param":{"num_deleted":"0","num_feature":"70","num_nodes":"15","size_leaf_vector":"1"}},{"base_weights":[-0E0,-2.4308008E-4,1.404272E-4,-3.1545467E-4,-0E0,-3.301445E-6,3.0422155E-4,-5.690841E-6,-9.363301E-7,-0E0,6.453754E-7,6.0927064E-8,-1.7389265E-6,3.60333E-6,-4.1680373E-6],"categories":[],"categories_nodes":[],"categories_segments":[],"categories_sizes":[],"default_left":[0,0,0,0,0,0,0,0,0,0,0,0,0,0,0],"id":11,"left_children":[1,3,5,7,9,11,13,-1,-1,-1,-1,-1,-1,-1,-1],"loss_changes":[2.7452427E-4,7.073801E-5,1.4860714E-4,7.2537805E-5,1.2828489E-6,2.0568936E-5,1.0344983E-4,0E0,0E0,0E0,0E0,0E0,0E0,0E0,0E0],"parents":[2147483647,0,0,1,1,2,2,3,3,4,4,5,5,6,6],"right_children":[2,4,6,8,10,12,14,-1,-1,-1,-1,-1,-1,-1,-1],"split_conditions":[-7.819305E-4,1E0,3.011617E-3,-5.8598807E-3,-6.321489E-2,1.7313714E-3,1.3220919E0,-5.690841E-6,-9.363301E-7,-0E0,6.453754E-7,6.0927064E-8,-1.7389265E-6,3.60333E-6,-4.1680373E-6],"split_indices":[64,33,29,64,10,63,24,0,0,0,0,0,0,0,0],"split_type":[0,0,0,0,0,0,0,0,0,0,0,0,0,0,0],"sum_hessian":[7.99E3,2.961E3,5.029E3,2.467E3,4.94E2,2.356E3,2.673E3,9.37E2,1.53E3,1.91E2,3.03E2,1.682E3,6.74E2,2.611E3,6.2E1],"tree_param":{"num_deleted":"0","num_feature":"70","num_nodes":"15","size_leaf_vector":"1"}},{"base_weights":[-0E0,-1.4584305E-4,2.3345463E-4,-4.3736474E-4,-4.6645626E-5,3.2909188E-4,-4.719147E-5,-5.8988285E-6,-0E0,7.866857E-8,-1.3659903E-6,-0E0,4.0587647E-6,-0E0,-3.3362525E-5],"categories":[],"categories_nodes":[],"categories_segments":[],"categories_sizes":[],"default_left":[0,0,0,0,0,0,0,0,0,0,0,0,0,0,0],"id":12,"left_children":[1,3,5,7,9,11,13,-1,-1,-1,-1,-1,-1,-1,-1],"loss_changes":[2.7101726E-4,9.507581E-5,1.09727756E-4,9.919093E-5,3.2326207E-5,7.853177E-5,9.903943E-5,0E0,0E0,0E0,0E0,0E0,0E0,0E0,0E0],"parents":[2147483647,0,0,1,1,2,2,3,3,4,4,5,5,6,6],"right_children":[2,4,6,8,10,12,14,-1,-1,-1,-1,-1,-1,-1,-1],"split_conditions":[1.7075955E-3,-6.5622088E-3,1E0,1E0,-1.9000695E-4,0E0,7.136123E-3,-5.8988285E-6,-0E0,7.866857E-8,-1.3659903E-6,-0E0,4.0587647E-6,-0E0,-3.3362525E-5],"split_indices":[64,64,33,33,30,53,38,0,0,0,0,0,0,0,0],"split_type":[0,0,0,0,0,0,0,0,0,0,0,0,0,0,0],"sum_hessian":[7.99E3,4.96E3,3.03E3,9.99E2,3.961E3,2.525E3,5.05E2,8.32E2,1.67E2,1.777E3,2.184E3,3.9E2,2.135E3,5.01E2,4E0],"tree_param":{"num_deleted":"0","num_feature":"70","num_nodes":"15","size_leaf_vector":"1"}},{"base_weights":[-0E0,-1.4428185E-4,2.3064343E-4,-4.3247643E-4,-4.5928653E-5,3.256668E-4,-4.69298E-5,-5.8401915E-6,-0E0,7.7884124E-8,-1.3523617E-6,-0E0,4.475408E-6,-0E0,-3.324404E-5],"categories":[],"categories_nodes":[],"categories_segments":[],"categories_sizes":[],"default_left":[0,0,0,0,0,0,0,0,0,0,0,0,0,0,0],"id":13,"left_children":[1,3,5,7,9,11,13,-1,-1,-1,-1,-1,-1,-1,-1],"loss_changes":[2.6480868E-4,9.279239E-5,1.080011E-4,9.769862E-5,3.1776282E-5,7.857819E-5,9.8341734E-5,0E0,0E0,0E0,0E0,0E0,0E0,0E0,0E0],"parents":[2147483647,0,0,1,1,2,2,3,3,4,4,5,5,6,6],"right_children":[2,4,6,8,10,12,14,-1,-1,-1,-1,-1,-1,-1,-1],"split_conditions":[1.7075955E-3,-6.5622088E-3,1E0,1E0,-1.9000695E-4,2.8066195E-3,1.6560957E0,-5.8401915E-6,-0E0,7.7884124E-8,-1.3523617E-6,-0E0,4.475408E-6,-0E0,-3.324404E-5],"split_indices":[64,64,33,33,30,29,24,0,0,0,0,0,0,0,0],"split_type":[0,0,0,0,0,0,0,0,0,0,0,0,0,0,0],"sum_hessian":[7.99E3,4.96E3,3.03E3,9.99E2,3.961E3,2.525E3,5.05E2,8.32E2,1.67E2,1.777E3,2.184E3,7.98E2,1.727E3,5.01E2,4E0],"tree_param":{"num_deleted":"0","num_feature":"70","num_nodes":"15","size_leaf_vector":"1"}},{"base_weights":[-0E0,-2.36691E-4,1.362231E-4,-3.078995E-4,-0E0,-3.65395E-6,2.966296E-4,-5.529292E-6,-9.137993E-7,-0E0,6.4903605E-7,5.4699196E-8,-1.7357104E-6,3.5251053E-6,-4.148287E-6],"categories":[],"categories_nodes":[],"categories_segments":[],"categories_sizes":[],"default_left":[0,0,0,0,0,0,0,0,0,0,0,0,0,0,0],"id":14,"left_children":[1,3,5,7,9,11,13,-1,-1,-1,-1,-1,-1,-1,-1],"loss_changes":[2.595777E-4,6.8187655E-5,1.4225175E-4,6.6465305E-5,1.2974432E-6,2.047512E-5,1.0096849E-4,0E0,0E0,0E0,0E0,0E0,0E0,0E0,0E0],"parents":[2147483647,0,0,1,1,2,2,3,3,4,4,5,5,6,6],"right_children":[2,4,6,8,10,12,14,-1,-1,-1,-1,-1,-1,-1,-1],"split_conditions":[-7.819305E-4,1E0,3.011617E-3,-5.8598807E-3,-6.321489E-2,1.7313714E-3,1.3220919E0,-5.529292E-6,-9.137993E-7,-0E0,6.4903605E-7,5.4699196E-8,-1.7357104E-6,3.5251053E-6,-4.148287E-6],"split_indices":[64,33,29,64,10,63,24,0,0,0,0,0,0,0,0],"split_type":[0,0,0,0,0,0,0,0,0,0,0,0,0,0,0],"sum_hessian":[7.99E3,2.961E3,5.029E3,2.467E3,4.94E2,2.356E3,2.673E3,9.37E2,1.53E3,1.91E2,3.03E2,1.682E3,6.74E2,2.611E3,6.2E1],"tree_param":{"num_deleted":"0","num_feature":"70","num_nodes":"15","size_leaf_vector":"1"}},{"base_weights":[-0E0,-1.4205601E-4,2.2653808E-4,-4.2311093E-4,-4.5513043E-5,3.2071216E-4,-4.678176E-5,-5.271276E-6,-0E0,7.434396E-8,-1.3419498E-6,-0E0,3.9690945E-6,-0E0,-3.31266E-5],"categories":[],"categories_nodes":[],"categories_segments":[],"categories_sizes":[],"default_left":[0,0,0,0,0,0,0,0,0,0,0,0,0,0,0],"id":15,"left_children":[1,3,5,7,9,11,13,-1,-1,-1,-1,-1,-1,-1,-1],"loss_changes":[2.5594793E-4,8.776102E-5,1.0558788E-4,9.534597E-5,3.1303327E-5,7.690303E-5,9.764729E-5,0E0,0E0,0E0,0E0,0E0,0E0,0E0,0E0],"parents":[2147483647,0,0,1,1,2,2,3,3,4,4,5,5,6,6],"right_children":[2,4,6,8,10,12,14,-1,-1,-1,-1,-1,-1,-1,-1],"split_conditions":[1.7075955E-3,-6.5622088E-3,1E0,4.5948368E1,-1.9000695E-4,0E0,7.136123E-3,-5.271276E-6,-0E0,7.434396E-8,-1.3419498E-6,-0E0,3.9690945E-6,-0E0,-3.31266E-5],"split_indices":[64,64,33,13,30,53,38,0,0,0,0,0,0,0,0],"split_type":[0,0,0,0,0,0,0,0,0,0,0,0,0,0,0],"sum_hessian":[7.99E3,4.96E3,3.03E3,9.99E2,3.961E3,2.525E3,5.05E2,9.85E2,1.4E1,1.777E3,2.184E3,3.9E2,2.135E3,5.01E2,4E0],"tree_param":{"num_deleted":"0","num_feature":"70","num_nodes":"15","size_leaf_vector":"1"}},{"base_weights":[-0E0,-1.4044656E-4,2.2378966E-4,-4.1793942E-4,-4.4807362E-5,3.1736278E-4,-4.6521945E-5,-5.21883E-6,-0E0,7.360264E-8,-1.3285609E-6,-0E0,3.929497E-6,-0E0,-3.3004235E-5],"categories":[],"categories_nodes":[],"categories_segments":[],"categories_sizes":[],"default_left":[0,0,0,0,0,0,0,0,0,0,0,0,0,0,0],"id":16,"left_children":[1,3,5,7,9,11,13,-1,-1,-1,-1,-1,-1,-1,-1],"loss_changes":[2.499341E-4,8.539877E-5,1.03924875E-4,9.4266215E-5,3.0771473E-5,7.5616845E-5,9.693138E-5,0E0,0E0,0E0,0E0,0E0,0E0,0E0,0E0],"parents":[2147483647,0,0,1,1,2,2,3,3,4,4,5,5,6,6],"right_children":[2,4,6,8,10,12,14,-1,-1,-1,-1,-1,-1,-1,-1],"split_conditions":[1.7075955E-3,-6.5622088E-3,1E0,4.5948368E1,-1.9000695E-4,0E0,1.6560957E0,-5.21883E-6,-0E0,7.360264E-8,-1.3285609E-6,-0E0,3.929497E-6,-0E0,-3.3004235E-5],"split_indices":[64,64,33,13,30,53,24,0,0,0,0,0,0,0,0],"split_type":[0,0,0,0,0,0,0,0,0,0,0,0,0,0,0],"sum_hessian":[7.99E3,4.96E3,3.03E3,9.99E2,3.961E3,2.525E3,5.05E2,9.85E2,1.4E1,1.777E3,2.184E3,3.9E2,2.135E3,5.01E2,4E0],"tree_param":{"num_deleted":"0","num_feature":"70","num_nodes":"15","size_leaf_vector":"1"}},{"base_weights":[-0E0,-2.3018783E-4,1.3195776E-4,-3.009084E-4,-0E0,-5.0712624E-6,2.8986132E-4,-5.381848E-6,-8.916969E-7,-0E0,6.821341E-7,3.8748915E-8,-1.7453636E-6,3.4551394E-6,-4.121772E-6],"categories":[],"categories_nodes":[],"categories_segments":[],"categories_sizes":[],"default_left":[0,0,0,0,0,0,0,0,0,0,0,0,0,0,0],"id":17,"left_children":[1,3,5,7,9,11,13,-1,-1,-1,-1,-1,-1,-1,-1],"loss_changes":[2.4481403E-4,6.667162E-5,1.3740888E-4,6.121938E-5,1.4331454E-6,2.0648948E-5,9.867597E-5,0E0,0E0,0E0,0E0,0E0,0E0,0E0,0E0],"parents":[2147483647,0,0,1,1,2,2,3,3,4,4,5,5,6,6],"right_children":[2,4,6,8,10,12,14,-1,-1,-1,-1,-1,-1,-1,-1],"split_conditions":[-7.819305E-4,1E0,3.011617E-3,-5.8598807E-3,-6.321489E-2,1.7313714E-3,1.3220919E0,-5.381848E-6,-8.916969E-7,-0E0,6.821341E-7,3.8748915E-8,-1.7453636E-6,3.4551394E-6,-4.121772E-6],"split_indices":[64,33,29,64,10,63,24,0,0,0,0,0,0,0,0],"split_type":[0,0,0,0,0,0,0,0,0,0,0,0,0,0,0],"sum_hessian":[7.99E3,2.961E3,5.029E3,2.467E3,4.94E2,2.356E3,2.673E3,9.37E2,1.53E3,1.91E2,3.03E2,1.682E3,6.74E2,2.611E3,6.2E1],"tree_param":{"num_deleted":"0","num_feature":"70","num_nodes":"15","size_leaf_vector":"1"}},{"base_weights":[-0E0,-1.3819318E-4,2.1951011E-4,-4.0841862E-4,-4.4396584E-5,3.1219493E-4,-4.6352812E-5,-5.1229827E-6,-0E0,3.3766998E-8,-1.3506698E-6,-0E0,4.304208E-6,-0E0,-3.289233E-5],"categories":[],"categories_nodes":[],"categories_segments":[],"categories_sizes":[],"default_left":[0,0,0,0,0,0,0,0,0,0,0,0,0,0,0],"id":18,"left_children":[1,3,5,7,9,11,13,-1,-1,-1,-1,-1,-1,-1,-1],"loss_changes":[2.4105891E-4,8.047184E-5,1.01443395E-4,9.235201E-5,3.035052E-5,7.4285694E-5,9.627572E-5,0E0,0E0,0E0,0E0,0E0,0E0,0E0,0E0],"parents":[2147483647,0,0,1,1,2,2,3,3,4,4,5,5,6,6],"right_children":[2,4,6,8,10,12,14,-1,-1,-1,-1,-1,-1,-1,-1],"split_conditions":[1.7075955E-3,-6.5622088E-3,1E0,4.5948368E1,-9.572257E-5,2.8066195E-3,7.136123E-3,-5.1229827E-6,-0E0,3.3766998E-8,-1.3506698E-6,-0E0,4.304208E-6,-0E0,-3.289233E-5],"split_indices":[64,64,33,13,30,29,38,0,0,0,0,0,0,0,0],"split_type":[0,0,0,0,0,0,0,0,0,0,0,0,0,0,0],"sum_hessian":[7.99E3,4.96E3,3.03E3,9.99E2,3.961E3,2.525E3,5.05E2,9.85E2,1.4E1,1.875E3,2.086E3,7.98E2,1.727E3,5.01E2,4E0],"tree_param":{"num_deleted":"0","num_feature":"70","num_nodes":"15","size_leaf_vector":"1"}},{"base_weights":[-0E0,-1.3662213E-4,2.1710424E-4,-3.827197E-4,-3.7983227E-5,3.092568E-4,-4.6094843E-5,-5.2831797E-6,-0E0,-1.5441472E-6,-0E0,-0E0,3.8427534E-6,-0E0,-3.2766144E-5],"categories":[],"categories_nodes":[],"categories_segments":[],"categories_sizes":[],"default_left":[0,0,0,0,0,0,0,0,0,0,0,0,0,0,0],"id":19,"left_children":[1,3,5,7,9,11,13,-1,-1,-1,-1,-1,-1,-1,-1],"loss_changes":[2.3572719E-4,7.8381374E-5,9.999979E-5,9.7414915E-5,2.652999E-5,7.403988E-5,9.55422E-5,0E0,0E0,0E0,0E0,0E0,0E0,0E0,0E0],"parents":[2147483647,0,0,1,1,2,2,3,3,4,4,5,5,6,6],"right_children":[2,4,6,8,10,12,14,-1,-1,-1,-1,-1,-1,-1,-1],"split_conditions":[1.7075955E-3,-5.8598807E-3,1E0,1E0,6.2183E0,0E0,1.6560957E0,-5.2831797E-6,-0E0,-1.5441472E-6,-0E0,-0E0,3.8427534E-6,-0E0,-3.2766144E-5],"split_indices":[64,64,33,33,68,53,24,0,0,0,0,0,0,0,0],"split_type":[0,0,0,0,0,0,0,0,0,0,0,0,0,0,0],"sum_hessian":[7.99E3,4.96E3,3.03E3,1.125E3,3.835E3,2.525E3,5.05E2,9.37E2,1.88E2,1.34E3,2.495E3,3.9E2,2.135E3,5.01E2,4E0],"tree_param":{"num_deleted":"0","num_feature":"70","num_nodes":"15","size_leaf_vector":"1"}},{"base_weights":[-0E0,-2.2396698E-4,1.278933E-4,-2.9386184E-4,-0E0,-5.473894E-6,2.825761E-4,-0E0,-3.5950345E-6,-0E0,6.9781055E-7,3.1540168E-8,-1.7414534E-6,3.3800275E-6,-4.100953E-6],"categories":[],"categories_nodes":[],"categories_segments":[],"categories_sizes":[],"default_left":[0,0,0,0,0,0,0,0,0,0,0,0,0,0,0],"id":20,"left_children":[1,3,5,7,9,11,13,-1,-1,-1,-1,-1,-1,-1,-1],"loss_changes":[2.3111777E-4,6.469086E-5,1.3156742E-4,5.8845457E-5,1.4997738E-6,2.05378E-5,9.629878E-5,0E0,0E0,0E0,0E0,0E0,0E0,0E0,0E0],"parents":[2147483647,0,0,1,1,2,2,3,3,4,4,5,5,6,6],"right_children":[2,4,6,8,10,12,14,-1,-1,-1,-1,-1,-1,-1,-1],"split_conditions":[-7.819305E-4,1E0,3.011617E-3,2.13E-1,-6.321489E-2,1.7313714E-3,1.3220919E0,-0E0,-3.5950345E-6,-0E0,6.9781055E-7,3.1540168E-8,-1.7414534E-6,3.3800275E-6,-4.100953E-6],"split_indices":[64,33,29,47,10,63,24,0,0,0,0,0,0,0,0],"split_type":[0,0,0,0,0,0,0,0,0,0,0,0,0,0,0],"sum_hessian":[7.99E3,2.961E3,5.029E3,2.467E3,4.94E2,2.356E3,2.673E3,3.65E2,2.102E3,1.91E2,3.03E2,1.682E3,6.74E2,2.611E3,6.2E1],"tree_param":{"num_deleted":"0","num_feature":"70","num_nodes":"15","size_leaf_vector":"1"}},{"base_weights":[-0E0,-1.3430236E-4,2.1292754E-4,-3.9625692E-4,-4.260445E-5,3.0420956E-4,-4.5911944E-5,-5.000811E-6,-0E0,4.6257437E-8,-1.3279083E-6,5.8836315E-7,5.158162E-6,-0E0,-3.2659693E-5],"categories":[],"categories_nodes":[],"categories_segments":[],"categories_sizes":[],"default_left":[0,0,0,0,0,0,0,0,0,0,0,0,0,0,0],"id":21,"left_children":[1,3,5,7,9,11,13,-1,-1,-1,-1,-1,-1,-1,-1],"loss_changes":[2.2715554E-4,7.5292155E-5,9.760873E-5,8.99327E-5,2.971284E-5,7.3747186E-5,9.4923984E-5,0E0,0E0,0E0,0E0,0E0,0E0,0E0,0E0],"parents":[2147483647,0,0,1,1,2,2,3,3,4,4,5,5,6,6],"right_children":[2,4,6,8,10,12,14,-1,-1,-1,-1,-1,-1,-1,-1],"split_conditions":[1.7075955E-3,-6.5622088E-3,1E0,4.5948368E1,-9.572257E-5,2.5866448E-3,7.136123E-3,-5.000811E-6,-0E0,4.6257437E-8,-1.3279083E-6,5.8836315E-7,5.158162E-6,-0E0,-3.2659693E-5],"split_indices":[64,64,33,13,30,42,38,0,0,0,0,0,0,0,0],"split_type":[0,0,0,0,0,0,0,0,0,0,0,0,0,0,0],"sum_hessian":[7.99E3,4.96E3,3.03E3,9.99E2,3.961E3,2.525E3,5.05E2,9.85E2,1.4E1,1.875E3,2.086E3,1.391E3,1.134E3,5.01E2,4E0],"tree_param":{"num_deleted":"0","num_feature":"70","num_nodes":"15","size_leaf_vector":"1"}},{"base_weights":[-0E0,-1.3276981E-4,2.1077362E-4,-3.7115722E-4,-3.640481E-5,3.0157407E-4,-4.5655797E-5,-5.152723E-6,-0E0,-1.519784E-6,-0E0,-0E0,3.7601567E-6,-0E0,-3.2529708E-5],"categories":[],"categories_nodes":[],"categories_segments":[],"categories_sizes":[],"default_left":[0,0,0,0,0,0,0,0,0,0,0,0,0,0,0],"id":22,"left_children":[1,3,5,7,9,11,13,-1,-1,-1,-1,-1,-1,-1,-1],"loss_changes":[2.2235358E-4,7.3233234E-5,9.632735E-5,9.4440096E-5,2.597686E-5,7.2474126E-5,9.4173316E-5,0E0,0E0,0E0,0E0,0E0,0E0,0E0,0E0],"parents":[2147483647,0,0,1,1,2,2,3,3,4,4,5,5,6,6],"right_children":[2,4,6,8,10,12,14,-1,-1,-1,-1,-1,-1,-1,-1],"split_conditions":[1.7075955E-3,-5.8598807E-3,1E0,1E0,6.2183E0,0E0,1.6560957E0,-5.152723E-6,-0E0,-1.519784E-6,-0E0,-0E0,3.7601567E-6,-0E0,-3.2529708E-5],"split_indices":[64,64,33,33,68,53,24,0,0,0,0,0,0,0,0],"split_type":[0,0,0,0,0,0,0,0,0,0,0,0,0,0,0],"sum_hessian":[7.99E3,4.96E3,3.03E3,1.125E3,3.835E3,2.525E3,5.05E2,9.37E2,1.88E2,1.34E3,2.495E3,3.9E2,2.135E3,5.01E2,4E0],"tree_param":{"num_deleted":"0","num_feature":"70","num_nodes":"15","size_leaf_vector":"1"}},{"base_weights":[-0E0,-2.1745876E-4,1.2404555E-4,-2.8645693E-4,-0E0,-6.334696E-6,2.7610213E-4,-0E0,-3.512523E-6,-0E0,7.1281283E-7,2.025413E-8,-1.7433445E-6,3.3133692E-6,-4.0859595E-6],"categories":[],"categories_nodes":[],"categories_segments":[],"categories_sizes":[],"default_left":[0,0,0,0,0,0,0,0,0,0,0,0,0,0,0],"id":23,"left_children":[1,3,5,7,9,11,13,-1,-1,-1,-1,-1,-1,-1,-1],"loss_changes":[2.1771679E-4,6.258917E-5,1.2678542E-4,5.7111552E-5,1.5649546E-6,2.0548685E-5,9.423077E-5,0E0,0E0,0E0,0E0,0E0,0E0,0E0,0E0],"parents":[2147483647,0,0,1,1,2,2,3,3,4,4,5,5,6,6],"right_children":[2,4,6,8,10,12,14,-1,-1,-1,-1,-1,-1,-1,-1],"split_conditions":[-7.819305E-4,1E0,3.011617E-3,2.13E-1,-6.321489E-2,1.7313714E-3,1.3220919E0,-0E0,-3.512523E-6,-0E0,7.1281283E-7,2.025413E-8,-1.7433445E-6,3.3133692E-6,-4.0859595E-6],"split_indices":[64,33,29,47,10,63,24,0,0,0,0,0,0,0,0],"split_type":[0,0,0,0,0,0,0,0,0,0,0,0,0,0,0],"sum_hessian":[7.99E3,2.961E3,5.029E3,2.467E3,4.94E2,2.356E3,2.673E3,3.65E2,2.102E3,1.91E2,3.03E2,1.682E3,6.74E2,2.611E3,6.2E1],"tree_param":{"num_deleted":"0","num_feature":"70","num_nodes":"15","size_leaf_vector":"1"}},{"base_weights":[-0E0,-1.3050238E-4,2.0669433E-4,-3.843892E-4,-4.0851617E-5,2.966404E-4,-4.5456763E-5,-4.8815937E-6,-0E0,5.836316E-8,-1.3055466E-6,5.368835E-7,5.053128E-6,-0E0,-3.2428652E-5],"categories":[],"categories_nodes":[],"categories_segments":[],"categories_sizes":[],"default_left":[0,0,0,0,0,0,0,0,0,0,0,0,0,0,0],"id":24,"left_children":[1,3,5,7,9,11,13,-1,-1,-1,-1,-1,-1,-1,-1],"loss_changes":[2.1422119E-4,7.0406495E-5,9.4019604E-5,8.75705E-5,2.9085451E-5,7.222865E-5,9.359177E-5,0E0,0E0,0E0,0E0,0E0,0E0,0E0,0E0],"parents":[2147483647,0,0,1,1,2,2,3,3,4,4,5,5,6,6],"right_children":[2,4,6,8,10,12,14,-1,-1,-1,-1,-1,-1,-1,-1],"split_conditions":[1.7075955E-3,-6.5622088E-3,1E0,4.5948368E1,-9.572257E-5,2.5866448E-3,7.136123E-3,-4.8815937E-6,-0E0,5.836316E-8,-1.3055466E-6,5.368835E-7,5.053128E-6,-0E0,-3.2428652E-5],"split_indices":[64,64,33,13,30,42,38,0,0,0,0,0,0,0,0],"split_type":[0,0,0,0,0,0,0,0,0,0,0,0,0,0,0],"sum_hessian":[7.99E3,4.96E3,3.03E3,9.99E2,3.961E3,2.525E3,5.05E2,9.85E2,1.4E1,1.875E3,2.086E3,1.391E3,1.134E3,5.01E2,4E0],"tree_param":{"num_deleted":"0","num_feature":"70","num_nodes":"15","size_leaf_vector":"1"}},{"base_weights":[-0E0,-1.2900744E-4,2.0460295E-4,-3.7959998E-4,-4.019253E-5,2.9408032E-4,-4.520243E-5,-4.8330244E-6,-0E0,5.7781083E-8,-1.2925224E-6,-0E0,3.6795743E-6,-0E0,-3.229491E-5],"categories":[],"categories_nodes":[],"categories_segments":[],"categories_sizes":[],"default_left":[0,0,0,0,0,0,0,0,0,0,0,0,0,0,0],"id":25,"left_children":[1,3,5,7,9,11,13,-1,-1,-1,-1,-1,-1,-1,-1],"loss_changes":[2.096844E-4,6.8447254E-5,9.279237E-5,8.6572894E-5,2.8588474E-5,7.0937705E-5,9.282445E-5,0E0,0E0,0E0,0E0,0E0,0E0,0E0,0E0],"parents":[2147483647,0,0,1,1,2,2,3,3,4,4,5,5,6,6],"right_children":[2,4,6,8,10,12,14,-1,-1,-1,-1,-1,-1,-1,-1],"split_conditions":[1.7075955E-3,-6.5622088E-3,1E0,4.5948368E1,-9.572257E-5,0E0,1.6560957E0,-4.8330244E-6,-0E0,5.7781083E-8,-1.2925224E-6,-0E0,3.6795743E-6,-0E0,-3.229491E-5],"split_indices":[64,64,33,13,30,53,24,0,0,0,0,0,0,0,0],"split_type":[0,0,0,0,0,0,0,0,0,0,0,0,0,0,0],"sum_hessian":[7.99E3,4.96E3,3.03E3,9.99E2,3.961E3,2.525E3,5.05E2,9.85E2,1.4E1,1.875E3,2.086E3,3.9E2,2.135E3,5.01E2,4E0],"tree_param":{"num_deleted":"0","num_feature":"70","num_nodes":"15","size_leaf_vector":"1"}},{"base_weights":[-0E0,-2.1101438E-4,1.20369165E-4,-2.7945987E-4,-0E0,-7.0435362E-6,2.6981634E-4,-0E0,-3.2296366E-6,-0E0,7.4211994E-7,1.0875147E-8,-1.7446896E-6,3.2486043E-6,-4.0696705E-6],"categories":[],"categories_nodes":[],"categories_segments":[],"categories_sizes":[],"default_left":[0,0,0,0,0,0,0,0,0,0,0,0,0,0,0],"id":26,"left_children":[1,3,5,7,9,11,13,-1,-1,-1,-1,-1,-1,-1,-1],"loss_changes":[2.0500358E-4,6.0990526E-5,1.2214153E-4,5.5710872E-5,1.6962854E-6,2.0553229E-5,9.2213755E-5,0E0,0E0,0E0,0E0,0E0,0E0,0E0,0E0],"parents":[2147483647,0,0,1,1,2,2,3,3,4,4,5,5,6,6],"right_children":[2,4,6,8,10,12,14,-1,-1,-1,-1,-1,-1,-1,-1],"split_conditions":[-7.819305E-4,1E0,3.011617E-3,2.4354942E1,-6.321489E-2,1.7313714E-3,1.3220919E0,-0E0,-3.2296366E-6,-0E0,7.4211994E-7,1.0875147E-8,-1.7446896E-6,3.2486043E-6,-4.0696705E-6],"split_indices":[64,33,29,16,10,63,24,0,0,0,0,0,0,0,0],"split_type":[0,0,0,0,0,0,0,0,0,0,0,0,0,0,0],"sum_hessian":[7.99E3,2.961E3,5.029E3,2.467E3,4.94E2,2.356E3,2.673E3,8.7E1,2.38E3,1.91E2,3.03E2,1.682E3,6.74E2,2.611E3,6.2E1],"tree_param":{"num_deleted":"0","num_feature":"70","num_nodes":"15","size_leaf_vector":"1"}},{"base_weights":[-0E0,-1.2656927E-4,2.0061799E-4,-3.5317522E-4,-3.367927E-5,2.8925686E-4,-4.4988774E-5,-4.9529276E-6,-0E0,-1.4845222E-6,-0E0,4.126029E-6,-0E0,-0E0,-3.219921E-5],"categories":[],"categories_nodes":[],"categories_segments":[],"categories_sizes":[],"default_left":[0,0,0,0,0,0,0,0,0,0,0,0,0,0,0],"id":27,"left_children":[1,3,5,7,9,11,13,-1,-1,-1,-1,-1,-1,-1,-1],"loss_changes":[2.016896E-4,6.576547E-5,9.056476E-5,9.0138696E-5,2.5285506E-5,7.09164E-5,9.227879E-5,0E0,0E0,0E0,0E0,0E0,0E0,0E0,0E0],"parents":[2147483647,0,0,1,1,2,2,3,3,4,4,5,5,6,6],"right_children":[2,4,6,8,10,12,14,-1,-1,-1,-1,-1,-1,-1,-1],"split_conditions":[1.7075955E-3,-5.8598807E-3,1E0,1E0,6.2183E0,1.7313714E-3,7.136123E-3,-4.9529276E-6,-0E0,-1.4845222E-6,-0E0,4.126029E-6,-0E0,-0E0,-3.219921E-5],"split_indices":[64,64,33,33,68,63,38,0,0,0,0,0,0,0,0],"split_type":[0,0,0,0,0,0,0,0,0,0,0,0,0,0,0],"sum_hessian":[7.99E3,4.96E3,3.03E3,1.125E3,3.835E3,2.525E3,5.05E2,9.37E2,1.88E2,1.34E3,2.495E3,1.655E3,8.7E2,5.01E2,4E0],"tree_param":{"num_deleted":"0","num_feature":"70","num_nodes":"15","size_leaf_vector":"1"}},{"base_weights":[-0E0,-1.2523388E-4,1.9841047E-4,-3.683446E-4,-3.831776E-5,2.8655783E-4,-4.473623E-5,-4.7195617E-6,-0E0,7.1037135E-8,-1.268882E-6,4.6115483E-7,4.9219843E-6,-0E0,-3.2061733E-5],"categories":[],"categories_nodes":[],"categories_segments":[],"categories_sizes":[],"default_left":[0,0,0,0,0,0,0,0,0,0,0,0,0,0,0],"id":28,"left_children":[1,3,5,7,9,11,13,-1,-1,-1,-1,-1,-1,-1,-1],"loss_changes":[1.973467E-4,6.417483E-5,8.92946E-5,8.429476E-5,2.7938175E-5,7.1150265E-5,9.149525E-5,0E0,0E0,0E0,0E0,0E0,0E0,0E0,0E0],"parents":[2147483647,0,0,1,1,2,2,3,3,4,4,5,5,6,6],"right_children":[2,4,6,8,10,12,14,-1,-1,-1,-1,-1,-1,-1,-1],"split_conditions":[1.7075955E-3,-6.5622088E-3,1E0,4.5948368E1,-9.572257E-5,2.5866448E-3,1.6560957E0,-4.7195617E-6,-0E0,7.1037135E-8,-1.268882E-6,4.6115483E-7,4.9219843E-6,-0E0,-3.2061733E-5],"split_indices":[64,64,33,13,30,42,24,0,0,0,0,0,0,0,0],"split_type":[0,0,0,0,0,0,0,0,0,0,0,0,0,0,0],"sum_hessian":[7.99E3,4.96E3,3.03E3,9.99E2,3.961E3,2.525E3,5.05E2,9.85E2,1.4E1,1.875E3,2.086E3,1.391E3,1.134E3,5.01E2,4E0],"tree_param":{"num_deleted":"0","num_feature":"70","num_nodes":"15","size_leaf_vector":"1"}},{"base_weights":[-0E0,-1.237913E-4,1.9640232E-4,-3.4489817E-4,-3.2523127E-5,2.8409815E-4,-4.448477E-5,-4.862096E-6,-0E0,-0E0,-1.2975743E-6,4.059281E-6,-0E0,-0E0,-3.198485E-5],"categories":[],"categories_nodes":[],"categories_segments":[],"categories_sizes":[],"default_left":[0,0,0,0,0,0,0,0,0,0,0,0,0,0,0],"id":29,"left_children":[1,3,5,7,9,11,13,-1,-1,-1,-1,-1,-1,-1,-1],"loss_changes":[1.9315677E-4,6.239557E-5,8.813826E-5,8.826972E-5,2.486418E-5,6.933014E-5,9.106355E-5,0E0,0E0,0E0,0E0,0E0,0E0,0E0,0E0],"parents":[2147483647,0,0,1,1,2,2,3,3,4,4,5,5,6,6],"right_children":[2,4,6,8,10,12,14,-1,-1,-1,-1,-1,-1,-1,-1],"split_conditions":[1.7075955E-3,-5.8598807E-3,1E0,1E0,1.4040096E-1,1.7313714E-3,7.136123E-3,-4.862096E-6,-0E0,-0E0,-1.2975743E-6,4.059281E-6,-0E0,-0E0,-3.198485E-5],"split_indices":[64,64,33,33,66,63,38,0,0,0,0,0,0,0,0],"split_type":[0,0,0,0,0,0,0,0,0,0,0,0,0,0,0],"sum_hessian":[7.99E3,4.96E3,3.03E3,1.125E3,3.835E3,2.525E3,5.05E2,9.37E2,1.88E2,2.122E3,1.713E3,1.655E3,8.7E2,5.01E2,4E0],"tree_param":{"num_deleted":"0","num_feature":"70","num_nodes":"15","size_leaf_vector":"1"}},{"base_weights":[-0E0,-2.0277519E-4,1.1582776E-4,-2.700154E-4,-0E0,-8.392391E-6,2.6246876E-4,-0E0,-3.1355585E-6,-0E0,7.588508E-7,-0E0,-1.7292368E-6,3.1728323E-6,-4.048001E-6],"categories":[],"categories_nodes":[],"categories_segments":[],"categories_sizes":[],"default_left":[0,0,0,0,0,0,0,0,0,0,0,0,0,0,0],"id":30,"left_children":[1,3,5,7,9,11,13,-1,-1,-1,-1,-1,-1,-1,-1],"loss_changes":[1.8949182E-4,5.8273996E-5,1.1711683E-4,5.425737E-5,1.7736319E-6,2.0137575E-5,8.984101E-5,0E0,0E0,0E0,0E0,0E0,0E0,0E0,0E0],"parents":[2147483647,0,0,1,1,2,2,3,3,4,4,5,5,6,6],"right_children":[2,4,6,8,10,12,14,-1,-1,-1,-1,-1,-1,-1,-1],"split_conditions":[-7.819305E-4,1E0,3.011617E-3,2.4354942E1,-6.321489E-2,1.7313714E-3,1.3220919E0,-0E0,-3.1355585E-6,-0E0,7.588508E-7,-0E0,-1.7292368E-6,3.1728323E-6,-4.048001E-6],"split_indices":[64,33,29,16,10,63,24,0,0,0,0,0,0,0,0],"split_type":[0,0,0,0,0,0,0,0,0,0,0,0,0,0,0],"sum_hessian":[7.99E3,2.961E3,5.029E3,2.467E3,4.94E2,2.356E3,2.673E3,8.7E1,2.38E3,1.91E2,3.03E2,1.682E3,6.74E2,2.611E3,6.2E1],"tree_param":{"num_deleted":"0","num_feature":"70","num_nodes":"15","size_leaf_vector":"1"}},{"base_weights":[-0E0,-1.2149834E-4,1.9283356E-4,-3.5734932E-4,-3.642475E-5,2.797715E-4,-4.425902E-5,-4.6087243E-6,-0E0,8.417739E-8,-1.2447915E-6,4.1791168E-7,4.8242446E-6,-0E0,-3.1830168E-5],"categories":[],"categories_nodes":[],"categories_segments":[],"categories_sizes":[],"default_left":[0,0,0,0,0,0,0,0,0,0,0,0,0,0,0],"id":31,"left_children":[1,3,5,7,9,11,13,-1,-1,-1,-1,-1,-1,-1,-1],"loss_changes":[1.8614839E-4,6.017871E-5,8.617164E-5,8.207002E-5,2.7271442E-5,6.949299E-5,9.0185364E-5,0E0,0E0,0E0,0E0,0E0,0E0,0E0,0E0],"parents":[2147483647,0,0,1,1,2,2,3,3,4,4,5,5,6,6],"right_children":[2,4,6,8,10,12,14,-1,-1,-1,-1,-1,-1,-1,-1],"split_conditions":[1.7075955E-3,-6.5622088E-3,1E0,4.5948368E1,-9.572257E-5,2.5866448E-3,1.6560957E0,-4.6087243E-6,-0E0,8.417739E-8,-1.2447915E-6,4.1791168E-7,4.8242446E-6,-0E0,-3.1830168E-5],"split_indices":[64,64,33,13,30,42,24,0,0,0,0,0,0,0,0],"split_type":[0,0,0,0,0,0,0,0,0,0,0,0,0,0,0],"sum_hessian":[7.99E3,4.96E3,3.03E3,9.99E2,3.961E3,2.525E3,5.05E2,9.85E2,1.4E1,1.875E3,2.086E3,1.391E3,1.134E3,5.01E2,4E0],"tree_param":{"num_deleted":"0","num_feature":"70","num_nodes":"15","size_leaf_vector":"1"}},{"base_weights":[-0E0,-1.2009282E-4,1.9088143E-4,-0E0,-2.3525459E-4,-1.4929465E-3,2.3197333E-4,1.4303359E-6,-4.276144E-7,-3.3243631E-7,-5.0616054E-6,-0E0,-4.207021E-5,4.812221E-7,4.5811234E-6],"categories":[],"categories_nodes":[],"categories_segments":[],"categories_sizes":[],"default_left":[0,0,0,0,0,0,0,0,0,0,0,0,0,0,0],"id":32,"left_children":[1,3,5,7,9,11,13,-1,-1,-1,-1,-1,-1,-1,-1],"loss_changes":[1.8218906E-4,5.922826E-5,8.563111E-5,1.1946896E-5,7.534765E-5,1.4355691E-4,7.5033444E-5,0E0,0E0,0E0,0E0,0E0,0E0,0E0,0E0],"parents":[2147483647,0,0,1,1,2,2,3,3,4,4,5,5,6,6],"right_children":[2,4,6,8,10,12,14,-1,-1,-1,-1,-1,-1,-1,-1],"split_conditions":[1.7075955E-3,1.4040096E-1,-1.0326632E-2,-3.835915E-3,6.898777E-1,1.566E1,4.074082E-3,1.4303359E-6,-4.276144E-7,-3.3243631E-7,-5.0616054E-6,-0E0,-4.207021E-5,4.812221E-7,4.5811234E-6],"split_indices":[64,66,30,63,24,59,29,0,0,0,0,0,0,0,0],"split_type":[0,0,0,0,0,0,0,0,0,0,0,0,0,0,0],"sum_hessian":[7.99E3,4.96E3,3.03E3,2.601E3,2.359E3,1E1,3.02E3,3.8E2,2.221E3,1.566E3,7.93E2,5E0,5E0,1.913E3,1.107E3],"tree_param":{"num_deleted":"0","num_feature":"70","num_nodes":"15","size_leaf_vector":"1"}},{"base_weights":[-0E0,-1.9740773E-4,1.1278004E-4,-2.6407593E-4,-0E0,-8.190105E-6,2.5656144E-4,-0E0,-3.5750195E-6,-0E0,7.7544087E-7,-0E0,-1.7179905E-6,3.1122395E-6,-4.0433306E-6],"categories":[],"categories_nodes":[],"categories_segments":[],"categories_sizes":[],"default_left":[0,0,0,0,0,0,0,0,0,0,0,0,0,0,0],"id":33,"left_children":[1,3,5,7,9,11,13,-1,-1,-1,-1,-1,-1,-1,-1],"loss_changes":[1.7961362E-4,5.680317E-5,1.124053E-4,5.4087533E-5,1.8520302E-6,1.9882256E-5,8.806412E-5,0E0,0E0,0E0,0E0,0E0,0E0,0E0,0E0],"parents":[2147483647,0,0,1,1,2,2,3,3,4,4,5,5,6,6],"right_children":[2,4,6,8,10,12,14,-1,-1,-1,-1,-1,-1,-1,-1],"split_conditions":[-7.819305E-4,1E0,3.011617E-3,-2.161428E-3,-6.321489E-2,1.7313714E-3,1.3220919E0,-0E0,-3.5750195E-6,-0E0,7.7544087E-7,-0E0,-1.7179905E-6,3.1122395E-6,-4.0433306E-6],"split_indices":[64,33,29,63,10,63,24,0,0,0,0,0,0,0,0],"split_type":[0,0,0,0,0,0,0,0,0,0,0,0,0,0,0],"sum_hessian":[7.99E3,2.961E3,5.029E3,2.467E3,4.94E2,2.356E3,2.673E3,7E2,1.767E3,1.91E2,3.03E2,1.682E3,6.74E2,2.611E3,6.2E1],"tree_param":{"num_deleted":"0","num_feature":"70","num_nodes":"15","size_leaf_vector":"1"}},{"base_weights":[-0E0,-1.1839065E-4,1.876104E-4,-0E0,-2.3266867E-4,-1.480044E-3,2.2862753E-4,1.4097334E-6,-4.1354704E-7,-3.2196962E-7,-5.0056055E-6,-0E0,-4.186827E-5,4.7114048E-7,4.5074953E-6],"categories":[],"categories_nodes":[],"categories_segments":[],"categories_sizes":[],"default_left":[0,0,0,0,0,0,0,0,0,0,0,0,0,0,0],"id":34,"left_children":[1,3,5,7,9,11,13,-1,-1,-1,-1,-1,-1,-1,-1],"loss_changes":[1.7641607E-4,5.8383288E-5,8.4151434E-5,1.1458222E-5,7.360167E-5,1.4243723E-4,7.2069844E-5,0E0,0E0,0E0,0E0,0E0,0E0,0E0,0E0],"parents":[2147483647,0,0,1,1,2,2,3,3,4,4,5,5,6,6],"right_children":[2,4,6,8,10,12,14,-1,-1,-1,-1,-1,-1,-1,-1],"split_conditions":[1.7075955E-3,1.4040096E-1,-1.0326632E-2,-3.835915E-3,6.898777E-1,1.566E1,4.074082E-3,1.4097334E-6,-4.1354704E-7,-3.2196962E-7,-5.0056055E-6,-0E0,-4.186827E-5,4.7114048E-7,4.5074953E-6],"split_indices":[64,66,30,63,24,59,29,0,0,0,0,0,0,0,0],"split_type":[0,0,0,0,0,0,0,0,0,0,0,0,0,0,0],"sum_hessian":[7.99E3,4.96E3,3.03E3,2.601E3,2.359E3,1E1,3.02E3,3.8E2,2.221E3,1.566E3,7.93E2,5E0,5E0,1.913E3,1.107E3],"tree_param":{"num_deleted":"0","num_feature":"70","num_nodes":"15","size_leaf_vector":"1"}},{"base_weights":[-0E0,-1.9435024E-4,1.1068842E-4,-2.6051342E-4,-0E0,-7.706009E-6,2.522029E-4,-0E0,-3.2355915E-6,-0E0,7.745587E-7,-0E0,-1.7013621E-6,3.0671533E-6,-4.025058E-6],"categories":[],"categories_nodes":[],"categories_segments":[],"categories_sizes":[],"default_left":[0,0,0,0,0,0,0,0,0,0,0,0,0,0,0],"id":35,"left_children":[1,3,5,7,9,11,13,-1,-1,-1,-1,-1,-1,-1,-1],"loss_changes":[1.7370799E-4,5.5736033E-5,1.0880171E-4,5.2815114E-5,1.847819E-6,1.9514355E-5,8.6615386E-5,0E0,0E0,0E0,0E0,0E0,0E0,0E0,0E0],"parents":[2147483647,0,0,1,1,2,2,3,3,4,4,5,5,6,6],"right_children":[2,4,6,8,10,12,14,-1,-1,-1,-1,-1,-1,-1,-1],"split_conditions":[-7.819305E-4,1E0,3.011617E-3,2.13E-1,-6.321489E-2,1.7313714E-3,1.3220919E0,-0E0,-3.2355915E-6,-0E0,7.745587E-7,-0E0,-1.7013621E-6,3.0671533E-6,-4.025058E-6],"split_indices":[64,33,29,47,10,63,24,0,0,0,0,0,0,0,0],"split_type":[0,0,0,0,0,0,0,0,0,0,0,0,0,0,0],"sum_hessian":[7.99E3,2.961E3,5.029E3,2.467E3,4.94E2,2.356E3,2.673E3,3.65E2,2.102E3,1.91E2,3.03E2,1.682E3,6.74E2,2.611E3,6.2E1],"tree_param":{"num_deleted":"0","num_feature":"70","num_nodes":"15","size_leaf_vector":"1"}},{"base_weights":[-0E0,-1.1659996E-4,1.8439406E-4,-0E0,-2.2984033E-4,-1.4671868E-3,2.2533679E-4,1.4015212E-6,-4.0222278E-7,-3.0922533E-7,-4.9469077E-6,-0E0,-4.1667165E-5,2.861313E-6,-0E0],"categories":[],"categories_nodes":[],"categories_segments":[],"categories_sizes":[],"default_left":[0,0,0,0,0,0,0,0,0,0,0,0,0,0,0],"id":36,"left_children":[1,3,5,7,9,11,13,-1,-1,-1,-1,-1,-1,-1,-1],"loss_changes":[1.7069545E-4,5.738013E-5,8.269542E-5,1.1163701E-5,7.190589E-5,1.4132573E-4,6.958128E-5,0E0,0E0,0E0,0E0,0E0,0E0,0E0,0E0],"parents":[2147483647,0,0,1,1,2,2,3,3,4,4,5,5,6,6],"right_children":[2,4,6,8,10,12,14,-1,-1,-1,-1,-1,-1,-1,-1],"split_conditions":[1.7075955E-3,1.4040096E-1,-1.0326632E-2,-3.835915E-3,6.898777E-1,1.566E1,5.259836E-3,1.4015212E-6,-4.0222278E-7,-3.0922533E-7,-4.9469077E-6,-0E0,-4.1667165E-5,2.861313E-6,-0E0],"split_indices":[64,66,30,63,24,59,63,0,0,0,0,0,0,0,0],"split_type":[0,0,0,0,0,0,0,0,0,0,0,0,0,0,0],"sum_hessian":[7.99E3,4.96E3,3.03E3,2.601E3,2.359E3,1E1,3.02E3,3.8E2,2.221E3,1.566E3,7.93E2,5E0,5E0,2.721E3,2.99E2],"tree_param":{"num_deleted":"0","num_feature":"70","num_nodes":"15","size_leaf_vector":"1"}},{"base_weights":[-0E0,-1.9114753E-4,1.08234286E-4,-2.5677317E-4,-0E0,-8.41817E-6,2.4821758E-4,-0E0,-3.4885804E-6,-0E0,7.735397E-7,-0E0,-1.6961792E-6,3.0255503E-6,-3.993621E-6],"categories":[],"categories_nodes":[],"categories_segments":[],"categories_sizes":[],"default_left":[0,0,0,0,0,0,0,0,0,0,0,0,0,0,0],"id":37,"left_children":[1,3,5,7,9,11,13,-1,-1,-1,-1,-1,-1,-1,-1],"loss_changes":[1.6734147E-4,5.4615164E-5,1.0619256E-4,5.2670774E-5,1.84296E-6,1.936768E-5,8.5156455E-5,0E0,0E0,0E0,0E0,0E0,0E0,0E0,0E0],"parents":[2147483647,0,0,1,1,2,2,3,3,4,4,5,5,6,6],"right_children":[2,4,6,8,10,12,14,-1,-1,-1,-1,-1,-1,-1,-1],"split_conditions":[-7.819305E-4,1E0,3.011617E-3,-2.161428E-3,-6.321489E-2,1.7313714E-3,1.3220919E0,-0E0,-3.4885804E-6,-0E0,7.735397E-7,-0E0,-1.6961792E-6,3.0255503E-6,-3.993621E-6],"split_indices":[64,33,29,63,10,63,24,0,0,0,0,0,0,0,0],"split_type":[0,0,0,0,0,0,0,0,0,0,0,0,0,0,0],"sum_hessian":[7.99E3,2.961E3,5.029E3,2.467E3,4.94E2,2.356E3,2.673E3,7E2,1.767E3,1.91E2,3.03E2,1.682E3,6.74E2,2.611E3,6.2E1],"tree_param":{"num_deleted":"0","num_feature":"70","num_nodes":"15","size_leaf_vector":"1"}},{"base_weights":[-0E0,-1.14947594E-4,1.8057451E-4,-0E0,-2.2732202E-4,-1.4543787E-3,2.214411E-4,1.3813667E-6,-3.886262E-7,-2.4420197E-7,-4.7895646E-6,-0E0,-4.1466938E-5,4.3021467E-7,4.382591E-6],"categories":[],"categories_nodes":[],"categories_segments":[],"categories_sizes":[],"default_left":[0,0,0,0,0,0,0,0,0,0,0,0,0,0,0],"id":38,"left_children":[1,3,5,7,9,11,13,-1,-1,-1,-1,-1,-1,-1,-1],"loss_changes":[1.64565E-4,5.6558107E-5,8.1099926E-5,1.0708405E-5,7.0302805E-5,1.4022243E-4,6.879856E-5,0E0,0E0,0E0,0E0,0E0,0E0,0E0,0E0],"parents":[2147483647,0,0,1,1,2,2,3,3,4,4,5,5,6,6],"right_children":[2,4,6,8,10,12,14,-1,-1,-1,-1,-1,-1,-1,-1],"split_conditions":[1.7075955E-3,1.4040096E-1,-1.0326632E-2,-3.835915E-3,6.7952347E-1,1.566E1,4.074082E-3,1.3813667E-6,-3.886262E-7,-2.4420197E-7,-4.7895646E-6,-0E0,-4.1466938E-5,4.3021467E-7,4.382591E-6],"split_indices":[64,66,30,63,24,59,29,0,0,0,0,0,0,0,0],"split_type":[0,0,0,0,0,0,0,0,0,0,0,0,0,0,0],"sum_hessian":[7.99E3,4.96E3,3.03E3,2.601E3,2.359E3,1E1,3.02E3,3.8E2,2.221E3,1.529E3,8.3E2,5E0,5E0,1.913E3,1.107E3],"tree_param":{"num_deleted":"0","num_feature":"70","num_nodes":"15","size_leaf_vector":"1"}},{"base_weights":[-0E0,-1.8818318E-4,1.0621771E-4,-2.5331604E-4,-0E0,-7.930904E-6,2.4399732E-4,-0E0,-2.9687324E-6,-0E0,7.722647E-7,-0E0,-1.6794849E-6,2.9818762E-6,-3.9752326E-6],"categories":[],"categories_nodes":[],"categories_segments":[],"categories_sizes":[],"default_left":[0,0,0,0,0,0,0,0,0,0,0,0,0,0,0],"id":39,"left_children":[1,3,5,7,9,11,13,-1,-1,-1,-1,-1,-1,-1,-1],"loss_changes":[1.618293E-4,5.3591117E-5,1.027878E-4,5.1573108E-5,1.8368896E-6,1.9003839E-5,8.3757666E-5,0E0,0E0,0E0,0E0,0E0,0E0,0E0,0E0],"parents":[2147483647,0,0,1,1,2,2,3,3,4,4,5,5,6,6],"right_children":[2,4,6,8,10,12,14,-1,-1,-1,-1,-1,-1,-1,-1],"split_conditions":[-7.819305E-4,1E0,3.011617E-3,2.4354942E1,-6.321489E-2,1.7313714E-3,1.3220919E0,-0E0,-2.9687324E-6,-0E0,7.722647E-7,-0E0,-1.6794849E-6,2.9818762E-6,-3.9752326E-6],"split_indices":[64,33,29,16,10,63,24,0,0,0,0,0,0,0,0],"split_type":[0,0,0,0,0,0,0,0,0,0,0,0,0,0,0],"sum_hessian":[7.99E3,2.961E3,5.029E3,2.467E3,4.94E2,2.356E3,2.673E3,8.7E1,2.38E3,1.91E2,3.03E2,1.682E3,6.74E2,2.611E3,6.2E1],"tree_param":{"num_deleted":"0","num_feature":"70","num_nodes":"15","size_leaf_vector":"1"}},{"base_weights":[-0E0,-1.13122296E-4,1.7747121E-4,-0E0,-2.2463239E-4,-1.4416168E-3,2.1826426E-4,5.495303E-7,-7.0481826E-7,-2.323281E-7,-4.7352314E-6,-0E0,-4.1267554E-5,2.7870208E-6,-0E0],"categories":[],"categories_nodes":[],"categories_segments":[],"categories_sizes":[],"default_left":[0,0,0,0,0,0,0,0,0,0,0,0,0,0,0],"id":40,"left_children":[1,3,5,7,9,11,13,-1,-1,-1,-1,-1,-1,-1,-1],"loss_changes":[1.5912585E-4,5.575137E-5,7.9692276E-5,1.058841E-5,6.8768444E-5,1.3912722E-4,6.7632805E-5,0E0,0E0,0E0,0E0,0E0,0E0,0E0,0E0],"parents":[2147483647,0,0,1,1,2,2,3,3,4,4,5,5,6,6],"right_children":[2,4,6,8,10,12,14,-1,-1,-1,-1,-1,-1,-1,-1],"split_conditions":[1.7075955E-3,1.4040096E-1,-1.0326632E-2,-1.7519278E-2,6.7952347E-1,1.566E1,5.259836E-3,5.495303E-7,-7.0481826E-7,-2.323281E-7,-4.7352314E-6,-0E0,-4.1267554E-5,2.7870208E-6,-0E0],"split_indices":[64,66,30,10,24,59,63,0,0,0,0,0,0,0,0],"split_type":[0,0,0,0,0,0,0,0,0,0,0,0,0,0,0],"sum_hessian":[7.99E3,4.96E3,3.03E3,2.601E3,2.359E3,1E1,3.02E3,1.218E3,1.383E3,1.529E3,8.3E2,5E0,5E0,2.721E3,2.99E2],"tree_param":{"num_deleted":"0","num_feature":"70","num_nodes":"15","size_leaf_vector":"1"}},{"base_weights":[-0E0,-1.8491935E-4,1.03825485E-4,-2.494964E-4,-0E0,-8.649844E-6,2.4013435E-4,-0E0,-3.404349E-6,-0E0,7.7262274E-7,-0E0,-1.6744733E-6,2.941534E-6,-3.9441034E-6],"categories":[],"categories_nodes":[],"categories_segments":[],"categories_sizes":[],"default_left":[0,0,0,0,0,0,0,0,0,0,0,0,0,0,0],"id":41,"left_children":[1,3,5,7,9,11,13,-1,-1,-1,-1,-1,-1,-1,-1],"loss_changes":[1.5568803E-4,5.2455303E-5,1.0033701E-4,5.1489405E-5,1.8385934E-6,1.8861567E-5,8.2349536E-5,0E0,0E0,0E0,0E0,0E0,0E0,0E0,0E0],"parents":[2147483647,0,0,1,1,2,2,3,3,4,4,5,5,6,6],"right_children":[2,4,6,8,10,12,14,-1,-1,-1,-1,-1,-1,-1,-1],"split_conditions":[-7.819305E-4,1E0,3.011617E-3,-2.161428E-3,-6.321489E-2,1.7313714E-3,1.3220919E0,-0E0,-3.404349E-6,-0E0,7.7262274E-7,-0E0,-1.6744733E-6,2.941534E-6,-3.9441034E-6],"split_indices":[64,33,29,63,10,63,24,0,0,0,0,0,0,0,0],"split_type":[0,0,0,0,0,0,0,0,0,0,0,0,0,0,0],"sum_hessian":[7.99E3,2.961E3,5.029E3,2.467E3,4.94E2,2.356E3,2.673E3,7E2,1.767E3,1.91E2,3.03E2,1.682E3,6.74E2,2.611E3,6.2E1],"tree_param":{"num_deleted":"0","num_feature":"70","num_nodes":"15","size_leaf_vector":"1"}},{"base_weights":[-0E0,-1.1152039E-4,1.7375934E-4,-3.3617878E-4,-2.9292796E-5,2.582949E-4,-5.1228384E-5,-4.3962787E-6,-0E0,-1.461723E-6,-0E0,2.5287147E-7,4.5494753E-6,-0E0,-3.1483814E-5],"categories":[],"categories_nodes":[],"categories_segments":[],"categories_sizes":[],"default_left":[0,0,0,0,0,0,0,0,0,0,0,0,0,0,0],"id":42,"left_children":[1,3,5,7,9,11,13,-1,-1,-1,-1,-1,-1,-1,-1],"loss_changes":[1.5338237E-4,5.512264E-5,7.8496865E-5,7.7871686E-5,2.597562E-5,6.7847635E-5,8.7872344E-5,0E0,0E0,0E0,0E0,0E0,0E0,0E0,0E0],"parents":[2147483647,0,0,1,1,2,2,3,3,4,4,5,5,6,6],"right_children":[2,4,6,8,10,12,14,-1,-1,-1,-1,-1,-1,-1,-1],"split_conditions":[1.7075955E-3,-6.5622088E-3,1E0,4.5948368E1,6.2183E0,2.5866448E-3,7.136123E-3,-4.3962787E-6,-0E0,-1.461723E-6,-0E0,2.5287147E-7,4.5494753E-6,-0E0,-3.1483814E-5],"split_indices":[64,64,33,13,68,42,38,0,0,0,0,0,0,0,0],"split_type":[0,0,0,0,0,0,0,0,0,0,0,0,0,0,0],"sum_hessian":[7.99E3,4.96E3,3.03E3,9.99E2,3.961E3,2.525E3,5.05E2,9.85E2,1.4E1,1.37E3,2.591E3,1.391E3,1.134E3,5.01E2,4E0],"tree_param":{"num_deleted":"0","num_feature":"70","num_nodes":"15","size_leaf_vector":"1"}},{"base_weights":[-0E0,-1.1024488E-4,1.7198507E-4,-0E0,-2.2076783E-4,-1.4295345E-3,2.1270006E-4,5.6390047E-7,-6.803727E-7,-2.6212683E-7,-4.770865E-6,-0E0,-4.105575E-5,2.7281799E-6,-9.34801E-9],"categories":[],"categories_nodes":[],"categories_segments":[],"categories_sizes":[],"default_left":[0,0,0,0,0,0,0,0,0,0,0,0,0,0,0],"id":43,"left_children":[1,3,5,7,9,11,13,-1,-1,-1,-1,-1,-1,-1,-1],"loss_changes":[1.5011613E-4,5.4873373E-5,7.773669E-5,1.031409E-5,6.7495785E-5,1.3790395E-4,6.604052E-5,0E0,0E0,0E0,0E0,0E0,0E0,0E0,0E0],"parents":[2147483647,0,0,1,1,2,2,3,3,4,4,5,5,6,6],"right_children":[2,4,6,8,10,12,14,-1,-1,-1,-1,-1,-1,-1,-1],"split_conditions":[1.7075955E-3,1.4040096E-1,-1.0326632E-2,-1.7519278E-2,6.898777E-1,1.566E1,5.259836E-3,5.6390047E-7,-6.803727E-7,-2.6212683E-7,-4.770865E-6,-0E0,-4.105575E-5,2.7281799E-6,-9.34801E-9],"split_indices":[64,66,30,10,24,59,63,0,0,0,0,0,0,0,0],"split_type":[0,0,0,0,0,0,0,0,0,0,0,0,0,0,0],"sum_hessian":[7.99E3,4.96E3,3.03E3,2.601E3,2.359E3,1E1,3.02E3,1.218E3,1.383E3,1.566E3,7.93E2,5E0,5E0,2.721E3,2.99E2],"tree_param":{"num_deleted":"0","num_feature":"70","num_nodes":"15","size_leaf_vector":"1"}},{"base_weights":[-0E0,-1.8024037E-4,1.0060278E-4,-2.443341E-4,-0E0,-9.638142E-6,2.3494774E-4,-0E0,-3.3440804E-6,-0E0,7.8843937E-7,-0E0,-1.6738513E-6,2.8880665E-6,-3.929572E-6],"categories":[],"categories_nodes":[],"categories_segments":[],"categories_sizes":[],"default_left":[0,0,0,0,0,0,0,0,0,0,0,0,0,0,0],"id":44,"left_children":[1,3,5,7,9,11,13,-1,-1,-1,-1,-1,-1,-1,-1],"loss_changes":[1.4730394E-4,5.122106E-5,9.709739E-5,5.0584218E-5,1.9146407E-6,1.8804752E-5,8.071773E-5,0E0,0E0,0E0,0E0,0E0,0E0,0E0,0E0],"parents":[2147483647,0,0,1,1,2,2,3,3,4,4,5,5,6,6],"right_children":[2,4,6,8,10,12,14,-1,-1,-1,-1,-1,-1,-1,-1],"split_conditions":[-7.819305E-4,1E0,3.011617E-3,-2.161428E-3,-6.321489E-2,1.7313714E-3,1.3220919E0,-0E0,-3.3440804E-6,-0E0,7.8843937E-7,-0E0,-1.6738513E-6,2.8880665E-6,-3.929572E-6],"split_indices":[64,33,29,63,10,63,24,0,0,0,0,0,0,0,0],"split_type":[0,0,0,0,0,0,0,0,0,0,0,0,0,0,0],"sum_hessian":[7.99E3,2.961E3,5.029E3,2.467E3,4.94E2,2.356E3,2.673E3,7E2,1.767E3,1.91E2,3.03E2,1.682E3,6.74E2,2.611E3,6.2E1],"tree_param":{"num_deleted":"0","num_feature":"70","num_nodes":"15","size_leaf_vector":"1"}},{"base_weights":[-0E0,-1.08683984E-4,1.683554E-4,-0E0,-2.1836466E-4,2.5223402E-4,-5.3320466E-5,5.657152E-7,-6.6706707E-7,-1.9922238E-7,-4.618603E-6,6.808945E-7,5.2331397E-6,-0E0,-3.1294752E-5],"categories":[],"categories_nodes":[],"categories_segments":[],"categories_sizes":[],"default_left":[0,0,0,0,0,0,0,0,0,0,0,0,0,0,0],"id":45,"left_children":[1,3,5,7,9,11,13,-1,-1,-1,-1,-1,-1,-1,-1],"loss_changes":[1.4467027E-4,5.407529E-5,7.639099E-5,1.0090313E-5,6.60039E-5,6.697379E-5,8.669257E-5,0E0,0E0,0E0,0E0,0E0,0E0,0E0,0E0],"parents":[2147483647,0,0,1,1,2,2,3,3,4,4,5,5,6,6],"right_children":[2,4,6,8,10,12,14,-1,-1,-1,-1,-1,-1,-1,-1],"split_conditions":[1.7075955E-3,1.4040096E-1,1E0,-1.7519278E-2,6.7952347E-1,2.9118753E-3,1.6560957E0,5.657152E-7,-6.6706707E-7,-1.9922238E-7,-4.618603E-6,6.808945E-7,5.2331397E-6,-0E0,-3.1294752E-5],"split_indices":[64,66,33,10,24,42,24,0,0,0,0,0,0,0,0],"split_type":[0,0,0,0,0,0,0,0,0,0,0,0,0,0,0],"sum_hessian":[7.99E3,4.96E3,3.03E3,2.601E3,2.359E3,2.525E3,5.05E2,1.218E3,1.383E3,1.529E3,8.3E2,1.727E3,7.98E2,5.01E2,4E0],"tree_param":{"num_deleted":"0","num_feature":"70","num_nodes":"15","size_leaf_vector":"1"}},{"base_weights":[-0E0,-1.77413E-4,9.866794E-5,-2.4102718E-4,-0E0,-9.496171E-6,2.3118554E-4,-5.2475416E-6,-8.2997656E-7,-0E0,7.8822796E-7,-0E0,-1.6619011E-6,4.929138E-6,3.97988E-7],"categories":[],"categories_nodes":[],"categories_segments":[],"categories_sizes":[],"default_left":[0,0,0,0,0,0,0,0,0,0,0,0,0,0,0],"id":46,"left_children":[1,3,5,7,9,11,13,-1,-1,-1,-1,-1,-1,-1,-1],"loss_changes":[1.4236377E-4,5.0252667E-5,9.43355E-5,4.9844704E-5,1.9136144E-6,1.8540499E-5,8.077521E-5,0E0,0E0,0E0,0E0,0E0,0E0,0E0,0E0],"parents":[2147483647,0,0,1,1,2,2,3,3,4,4,5,5,6,6],"right_children":[2,4,6,8,10,12,14,-1,-1,-1,-1,-1,-1,-1,-1],"split_conditions":[-7.819305E-4,1E0,3.011617E-3,-8.1874905E-3,-6.321489E-2,1.7313714E-3,1.4273853E2,-5.2475416E-6,-8.2997656E-7,-0E0,7.8822796E-7,-0E0,-1.6619011E-6,4.929138E-6,3.97988E-7],"split_indices":[64,33,29,64,10,63,5,0,0,0,0,0,0,0,0],"split_type":[0,0,0,0,0,0,0,0,0,0,0,0,0,0,0],"sum_hessian":[7.99E3,2.961E3,5.029E3,2.467E3,4.94E2,2.356E3,2.673E3,6.52E2,1.815E3,1.91E2,3.03E2,1.682E3,6.74E2,9.05E2,1.768E3],"tree_param":{"num_deleted":"0","num_feature":"70","num_nodes":"15","size_leaf_vector":"1"}},{"base_weights":[-0E0,-1.0716636E-4,1.6580327E-4,-0E0,-2.1574857E-4,-1.418789E-3,2.0644456E-4,1.3912078E-6,-3.3968027E-7,-1.8968983E-7,-4.5620504E-6,-0E0,-4.0849725E-5,2.6617167E-6,-3.5830038E-8],"categories":[],"categories_nodes":[],"categories_segments":[],"categories_sizes":[],"default_left":[0,0,0,0,0,0,0,0,0,0,0,0,0,0,0],"id":47,"left_children":[1,3,5,7,9,11,13,-1,-1,-1,-1,-1,-1,-1,-1],"loss_changes":[1.4045554E-4,5.3016993E-5,7.568363E-5,1.0019936E-5,6.4296524E-5,1.366756E-4,6.421027E-5,0E0,0E0,0E0,0E0,0E0,0E0,0E0,0E0],"parents":[2147483647,0,0,1,1,2,2,3,3,4,4,5,5,6,6],"right_children":[2,4,6,8,10,12,14,-1,-1,-1,-1,-1,-1,-1,-1],"split_conditions":[1.7075955E-3,1.4040096E-1,-1.0326632E-2,-3.835915E-3,6.7952347E-1,1.566E1,5.259836E-3,1.3912078E-6,-3.3968027E-7,-1.8968983E-7,-4.5620504E-6,-0E0,-4.0849725E-5,2.6617167E-6,-3.5830038E-8],"split_indices":[64,66,30,63,24,59,63,0,0,0,0,0,0,0,0],"split_type":[0,0,0,0,0,0,0,0,0,0,0,0,0,0,0],"sum_hessian":[7.99E3,4.96E3,3.03E3,2.601E3,2.359E3,1E1,3.02E3,3.8E2,2.221E3,1.529E3,8.3E2,5E0,5E0,2.721E3,2.99E2],"tree_param":{"num_deleted":"0","num_feature":"70","num_nodes":"15","size_leaf_vector":"1"}},{"base_weights":[-0E0,-1.749457E-4,9.680089E-5,-2.3814882E-4,-0E0,-1.0150934E-5,2.2825318E-4,-0E0,-3.2725884E-6,-0E0,7.861543E-7,-0E0,-1.6562094E-6,2.8194224E-6,-3.9252072E-6],"categories":[],"categories_nodes":[],"categories_segments":[],"categories_sizes":[],"default_left":[0,0,0,0,0,0,0,0,0,0,0,0,0,0,0],"id":48,"left_children":[1,3,5,7,9,11,13,-1,-1,-1,-1,-1,-1,-1,-1],"loss_changes":[1.3794805E-4,4.942174E-5,9.2595124E-5,4.9579132E-5,1.9035591E-6,1.8381892E-5,7.8749945E-5,0E0,0E0,0E0,0E0,0E0,0E0,0E0,0E0],"parents":[2147483647,0,0,1,1,2,2,3,3,4,4,5,5,6,6],"right_children":[2,4,6,8,10,12,14,-1,-1,-1,-1,-1,-1,-1,-1],"split_conditions":[-7.819305E-4,1E0,3.011617E-3,-2.161428E-3,-6.321489E-2,1.7313714E-3,1.3220919E0,-0E0,-3.2725884E-6,-0E0,7.861543E-7,-0E0,-1.6562094E-6,2.8194224E-6,-3.9252072E-6],"split_indices":[64,33,29,63,10,63,24,0,0,0,0,0,0,0,0],"split_type":[0,0,0,0,0,0,0,0,0,0,0,0,0,0,0],"sum_hessian":[7.99E3,2.961E3,5.029E3,2.467E3,4.94E2,2.356E3,2.673E3,7E2,1.767E3,1.91E2,3.03E2,1.682E3,6.74E2,2.611E3,6.2E1],"tree_param":{"num_deleted":"0","num_feature":"70","num_nodes":"15","size_leaf_vector":"1"}},{"base_weights":[-0E0,-1.05647676E-4,1.622702E-4,-0E0,-2.1340683E-4,-1.4061526E-3,2.0283714E-4,5.735789E-7,-6.498247E-7,-2.3268022E-7,-4.610773E-6,-0E0,-4.065283E-5,3.0725434E-7,4.0885875E-6],"categories":[],"categories_nodes":[],"categories_segments":[],"categories_sizes":[],"default_left":[0,0,0,0,0,0,0,0,0,0,0,0,0,0,0],"id":49,"left_children":[1,3,5,7,9,11,13,-1,-1,-1,-1,-1,-1,-1,-1],"loss_changes":[1.3533296E-4,5.224591E-5,7.4199794E-5,9.8847195E-6,6.283677E-5,1.3560627E-4,6.324143E-5,0E0,0E0,0E0,0E0,0E0,0E0,0E0,0E0],"parents":[2147483647,0,0,1,1,2,2,3,3,4,4,5,5,6,6],"right_children":[2,4,6,8,10,12,14,-1,-1,-1,-1,-1,-1,-1,-1],"split_conditions":[1.7075955E-3,1.4040096E-1,-1.0326632E-2,-1.7519278E-2,6.898777E-1,1.566E1,4.074082E-3,5.735789E-7,-6.498247E-7,-2.3268022E-7,-4.610773E-6,-0E0,-4.065283E-5,3.0725434E-7,4.0885875E-6],"split_indices":[64,66,30,10,24,59,29,0,0,0,0,0,0,0,0],"split_type":[0,0,0,0,0,0,0,0,0,0,0,0,0,0,0],"sum_hessian":[7.99E3,4.96E3,3.03E3,2.601E3,2.359E3,1E1,3.02E3,1.218E3,1.383E3,1.566E3,7.93E2,5E0,5E0,1.913E3,1.107E3],"tree_param":{"num_deleted":"0","num_feature":"70","num_nodes":"15","size_leaf_vector":"1"}},{"base_weights":[-0E0,-1.7218484E-4,9.494632E-5,-2.3491545E-4,-0E0,-9.660978E-6,2.2433508E-4,-5.148193E-6,-7.8282835E-7,-0E0,7.8583673E-7,-0E0,-1.6397681E-6,4.826183E-6,3.473584E-7],"categories":[],"categories_nodes":[],"categories_segments":[],"categories_sizes":[],"default_left":[0,0,0,0,0,0,0,0,0,0,0,0,0,0,0],"id":50,"left_children":[1,3,5,7,9,11,13,-1,-1,-1,-1,-1,-1,-1,-1],"loss_changes":[1.3331536E-4,4.8483154E-5,8.961347E-5,4.886587E-5,1.9020215E-6,1.8036857E-5,7.932325E-5,0E0,0E0,0E0,0E0,0E0,0E0,0E0,0E0],"parents":[2147483647,0,0,1,1,2,2,3,3,4,4,5,5,6,6],"right_children":[2,4,6,8,10,12,14,-1,-1,-1,-1,-1,-1,-1,-1],"split_conditions":[-7.819305E-4,1E0,3.011617E-3,-8.1874905E-3,-6.321489E-2,1.7313714E-3,1.4273853E2,-5.148193E-6,-7.8282835E-7,-0E0,7.8583673E-7,-0E0,-1.6397681E-6,4.826183E-6,3.473584E-7],"split_indices":[64,33,29,64,10,63,5,0,0,0,0,0,0,0,0],"split_type":[0,0,0,0,0,0,0,0,0,0,0,0,0,0,0],"sum_hessian":[7.99E3,2.961E3,5.029E3,2.467E3,4.94E2,2.356E3,2.673E3,6.52E2,1.815E3,1.91E2,3.03E2,1.682E3,6.74E2,9.05E2,1.768E3],"tree_param":{"num_deleted":"0","num_feature":"70","num_nodes":"15","size_leaf_vector":"1"}},{"base_weights":[-0E0,-1.04178216E-4,1.5985737E-4,-0E0,-2.1086035E-4,-1.3934303E-3,2.0035324E-4,5.729749E-7,-6.4009953E-7,-1.713273E-7,-4.457392E-6,-0E0,-4.04513E-5,2.5971399E-6,-6.288733E-8],"categories":[],"categories_nodes":[],"categories_segments":[],"categories_sizes":[],"default_left":[0,0,0,0,0,0,0,0,0,0,0,0,0,0,0],"id":51,"left_children":[1,3,5,7,9,11,13,-1,-1,-1,-1,-1,-1,-1,-1],"loss_changes":[1.3144319E-4,5.1222727E-5,7.2994975E-5,9.702129E-6,6.12426E-5,1.3450606E-4,6.245663E-5,0E0,0E0,0E0,0E0,0E0,0E0,0E0,0E0],"parents":[2147483647,0,0,1,1,2,2,3,3,4,4,5,5,6,6],"right_children":[2,4,6,8,10,12,14,-1,-1,-1,-1,-1,-1,-1,-1],"split_conditions":[1.7075955E-3,1.4040096E-1,-1.0326632E-2,-1.7519278E-2,6.7952347E-1,1.566E1,5.259836E-3,5.729749E-7,-6.4009953E-7,-1.713273E-7,-4.457392E-6,-0E0,-4.04513E-5,2.5971399E-6,-6.288733E-8],"split_indices":[64,66,30,10,24,59,63,0,0,0,0,0,0,0,0],"split_type":[0,0,0,0,0,0,0,0,0,0,0,0,0,0,0],"sum_hessian":[7.99E3,4.96E3,3.03E3,2.601E3,2.359E3,1E1,3.02E3,1.218E3,1.383E3,1.529E3,8.3E2,5E0,5E0,2.721E3,2.99E2],"tree_param":{"num_deleted":"0","num_feature":"70","num_nodes":"15","size_leaf_vector":"1"}},{"base_weights":[-0E0,-1.6978473E-4,9.3128125E-5,-2.3211229E-4,-0E0,-1.0321337E-5,2.214995E-4,-0E0,-3.2042844E-6,-0E0,7.852653E-7,-0E0,-1.6343298E-6,4.7656254E-6,3.3561057E-7],"categories":[],"categories_nodes":[],"categories_segments":[],"categories_sizes":[],"default_left":[0,0,0,0,0,0,0,0,0,0,0,0,0,0,0],"id":52,"left_children":[1,3,5,7,9,11,13,-1,-1,-1,-1,-1,-1,-1,-1],"loss_changes":[1.2915957E-4,4.76813E-5,8.798051E-5,4.8757283E-5,1.8992563E-6,1.7884802E-5,7.728068E-5,0E0,0E0,0E0,0E0,0E0,0E0,0E0,0E0],"parents":[2147483647,0,0,1,1,2,2,3,3,4,4,5,5,6,6],"right_children":[2,4,6,8,10,12,14,-1,-1,-1,-1,-1,-1,-1,-1],"split_conditions":[-7.819305E-4,1E0,3.011617E-3,-2.161428E-3,-6.321489E-2,1.7313714E-3,1.4273853E2,-0E0,-3.2042844E-6,-0E0,7.852653E-7,-0E0,-1.6343298E-6,4.7656254E-6,3.3561057E-7],"split_indices":[64,33,29,63,10,63,5,0,0,0,0,0,0,0,0],"split_type":[0,0,0,0,0,0,0,0,0,0,0,0,0,0,0],"sum_hessian":[7.99E3,2.961E3,5.029E3,2.467E3,4.94E2,2.356E3,2.673E3,7E2,1.767E3,1.91E2,3.03E2,1.682E3,6.74E2,9.05E2,1.768E3],"tree_param":{"num_deleted":"0","num_feature":"70","num_nodes":"15","size_leaf_vector":"1"}},{"base_weights":[-0E0,-1.02539765E-4,1.5682199E-4,-0E0,-2.0835892E-4,2.3934792E-4,-5.8030393E-5,5.761971E-7,-6.2693346E-7,-2.1240824E-7,-4.501142E-6,5.793112E-7,5.0462454E-6,-0E0,-3.1113224E-5],"categories":[],"categories_nodes":[],"categories_segments":[],"categories_sizes":[],"default_left":[0,0,0,0,0,0,0,0,0,0,0,0,0,0,0],"id":53,"left_children":[1,3,5,7,9,11,13,-1,-1,-1,-1,-1,-1,-1,-1],"loss_changes":[1.2684418E-4,5.042535E-5,7.201446E-5,9.515872E-6,5.9756487E-5,6.535613E-5,8.54055E-5,0E0,0E0,0E0,0E0,0E0,0E0,0E0,0E0],"parents":[2147483647,0,0,1,1,2,2,3,3,4,4,5,5,6,6],"right_children":[2,4,6,8,10,12,14,-1,-1,-1,-1,-1,-1,-1,-1],"split_conditions":[1.7075955E-3,1.4040096E-1,1E0,-1.7519278E-2,6.898777E-1,2.9118753E-3,7.136123E-3,5.761971E-7,-6.2693346E-7,-2.1240824E-7,-4.501142E-6,5.793112E-7,5.0462454E-6,-0E0,-3.1113224E-5],"split_indices":[64,66,33,10,24,42,38,0,0,0,0,0,0,0,0],"split_type":[0,0,0,0,0,0,0,0,0,0,0,0,0,0,0],"sum_hessian":[7.99E3,4.96E3,3.03E3,2.601E3,2.359E3,2.525E3,5.05E2,1.218E3,1.383E3,1.566E3,7.93E2,1.727E3,7.98E2,5.01E2,4E0],"tree_param":{"num_deleted":"0","num_feature":"70","num_nodes":"15","size_leaf_vector":"1"}},{"base_weights":[-0E0,-1.670963E-4,9.1699796E-5,-2.289596E-4,-0E0,-1.0150912E-5,2.1866433E-4,-5.050454E-6,-7.3721577E-7,-0E0,7.846781E-7,-0E0,-1.6224851E-6,2.7220178E-6,-3.954748E-6],"categories":[],"categories_nodes":[],"categories_segments":[],"categories_sizes":[],"default_left":[0,0,0,0,0,0,0,0,0,0,0,0,0,0,0],"id":54,"left_children":[1,3,5,7,9,11,13,-1,-1,-1,-1,-1,-1,-1,-1],"loss_changes":[1.2514435E-4,4.677423E-5,8.595925E-5,4.788462E-5,1.896417E-6,1.7631111E-5,7.626212E-5,0E0,0E0,0E0,0E0,0E0,0E0,0E0,0E0],"parents":[2147483647,0,0,1,1,2,2,3,3,4,4,5,5,6,6],"right_children":[2,4,6,8,10,12,14,-1,-1,-1,-1,-1,-1,-1,-1],"split_conditions":[-7.819305E-4,1E0,3.011617E-3,-8.1874905E-3,-6.321489E-2,1.7313714E-3,1.3220919E0,-5.050454E-6,-7.3721577E-7,-0E0,7.846781E-7,-0E0,-1.6224851E-6,2.7220178E-6,-3.954748E-6],"split_indices":[64,33,29,64,10,63,24,0,0,0,0,0,0,0,0],"split_type":[0,0,0,0,0,0,0,0,0,0,0,0,0,0,0],"sum_hessian":[7.99E3,2.961E3,5.029E3,2.467E3,4.94E2,2.356E3,2.673E3,6.52E2,1.815E3,1.91E2,3.03E2,1.682E3,6.74E2,2.611E3,6.2E1],"tree_param":{"num_deleted":"0","num_feature":"70","num_nodes":"15","size_leaf_vector":"1"}},{"base_weights":[-0E0,-1.01283E-4,1.5403757E-4,-0E0,-2.0610329E-4,-1.3826389E-3,1.9446069E-4,1.3834773E-6,-3.0954993E-7,-1.5369233E-7,-4.355111E-6,-0E0,-4.0246727E-5,2.5344061E-6,-8.6695685E-8],"categories":[],"categories_nodes":[],"categories_segments":[],"categories_sizes":[],"default_left":[0,0,0,0,0,0,0,0,0,0,0,0,0,0,0],"id":55,"left_children":[1,3,5,7,9,11,13,-1,-1,-1,-1,-1,-1,-1,-1],"loss_changes":[1.2294538E-4,4.948713E-5,7.105243E-5,9.501916E-6,5.8317404E-5,1.3330454E-4,6.0729435E-5,0E0,0E0,0E0,0E0,0E0,0E0,0E0,0E0],"parents":[2147483647,0,0,1,1,2,2,3,3,4,4,5,5,6,6],"right_children":[2,4,6,8,10,12,14,-1,-1,-1,-1,-1,-1,-1,-1],"split_conditions":[1.7075955E-3,1.4040096E-1,-1.0326632E-2,-3.835915E-3,6.7952347E-1,1.566E1,5.259836E-3,1.3834773E-6,-3.0954993E-7,-1.5369233E-7,-4.355111E-6,-0E0,-4.0246727E-5,2.5344061E-6,-8.6695685E-8],"split_indices":[64,66,30,63,24,59,63,0,0,0,0,0,0,0,0],"split_type":[0,0,0,0,0,0,0,0,0,0,0,0,0,0,0],"sum_hessian":[7.99E3,4.96E3,3.03E3,2.601E3,2.359E3,1E1,3.02E3,3.8E2,2.221E3,1.529E3,8.3E2,5E0,5E0,2.721E3,2.99E2],"tree_param":{"num_deleted":"0","num_feature":"70","num_nodes":"15","size_leaf_vector":"1"}},{"base_weights":[-0E0,-1.6478845E-4,8.953894E-5,-2.2626098E-4,-0E0,-1.0768466E-5,2.151469E-4,-0E0,-3.1364805E-6,-0E0,7.8217016E-7,-0E0,-1.616619E-6,4.6668056E-6,2.9037832E-7],"categories":[],"categories_nodes":[],"categories_segments":[],"categories_sizes":[],"default_left":[0,0,0,0,0,0,0,0,0,0,0,0,0,0,0],"id":56,"left_children":[1,3,5,7,9,11,13,-1,-1,-1,-1,-1,-1,-1,-1],"loss_changes":[1.2090112E-4,4.6009227E-5,8.3874846E-5,4.776902E-5,1.8843137E-6,1.747159E-5,7.5724805E-5,0E0,0E0,0E0,0E0,0E0,0E0,0E0,0E0],"parents":[2147483647,0,0,1,1,2,2,3,3,4,4,5,5,6,6],"right_children":[2,4,6,8,10,12,14,-1,-1,-1,-1,-1,-1,-1,-1],"split_conditions":[-7.819305E-4,1E0,3.011617E-3,-2.161428E-3,-6.321489E-2,1.7313714E-3,1.4273853E2,-0E0,-3.1364805E-6,-0E0,7.8217016E-7,-0E0,-1.616619E-6,4.6668056E-6,2.9037832E-7],"split_indices":[64,33,29,63,10,63,5,0,0,0,0,0,0,0,0],"split_type":[0,0,0,0,0,0,0,0,0,0,0,0,0,0,0],"sum_hessian":[7.99E3,2.961E3,5.029E3,2.467E3,4.94E2,2.356E3,2.673E3,7E2,1.767E3,1.91E2,3.03E2,1.682E3,6.74E2,9.05E2,1.768E3],"tree_param":{"num_deleted":"0","num_feature":"70","num_nodes":"15","size_leaf_vector":"1"}},{"base_weights":[-0E0,-9.968462E-5,1.5109341E-4,-0E0,-2.0366108E-4,-1.3700003E-3,1.9144414E-4,5.830808E-7,-6.108796E-7,-0E0,-3.2284995E-6,-0E0,-4.0046943E-5,2.500912E-6,-8.6516664E-8],"categories":[],"categories_nodes":[],"categories_segments":[],"categories_sizes":[],"default_left":[0,0,0,0,0,0,0,0,0,0,0,0,0,0,0],"id":57,"left_children":[1,3,5,7,9,11,13,-1,-1,-1,-1,-1,-1,-1,-1],"loss_changes":[1.18624E-4,4.8716294E-5,6.973568E-5,9.337649E-6,5.7356447E-5,1.3222225E-4,5.9653248E-5,0E0,0E0,0E0,0E0,0E0,0E0,0E0,0E0],"parents":[2147483647,0,0,1,1,2,2,3,3,4,4,5,5,6,6],"right_children":[2,4,6,8,10,12,14,-1,-1,-1,-1,-1,-1,-1,-1],"split_conditions":[1.7075955E-3,1.4040096E-1,-1.0326632E-2,-1.7519278E-2,-9.420567E-4,1.566E1,5.259836E-3,5.830808E-7,-6.108796E-7,-0E0,-3.2284995E-6,-0E0,-4.0046943E-5,2.500912E-6,-8.6516664E-8],"split_indices":[64,66,30,10,27,59,63,0,0,0,0,0,0,0,0],"split_type":[0,0,0,0,0,0,0,0,0,0,0,0,0,0,0],"sum_hessian":[7.99E3,4.96E3,3.03E3,2.601E3,2.359E3,1E1,3.02E3,1.218E3,1.383E3,8.73E2,1.486E3,5E0,5E0,2.721E3,2.99E2],"tree_param":{"num_deleted":"0","num_feature":"70","num_nodes":"15","size_leaf_vector":"1"}},{"base_weights":[-0E0,-1.6206798E-4,8.793829E-5,-2.2313616E-4,-0E0,-1.1053877E-5,2.1238968E-4,-4.958258E-6,-6.914013E-7,-0E0,7.8621355E-7,-0E0,-1.6091029E-6,2.6575E-6,-3.9436563E-6],"categories":[],"categories_nodes":[],"categories_segments":[],"categories_sizes":[],"default_left":[0,0,0,0,0,0,0,0,0,0,0,0,0,0,0],"id":58,"left_children":[1,3,5,7,9,11,13,-1,-1,-1,-1,-1,-1,-1,-1],"loss_changes":[1.1683369E-4,4.5175213E-5,8.2162755E-5,4.7138994E-5,1.9038459E-6,1.7292265E-5,7.43672E-5,0E0,0E0,0E0,0E0,0E0,0E0,0E0,0E0],"parents":[2147483647,0,0,1,1,2,2,3,3,4,4,5,5,6,6],"right_children":[2,4,6,8,10,12,14,-1,-1,-1,-1,-1,-1,-1,-1],"split_conditions":[-7.819305E-4,1E0,3.011617E-3,-8.1874905E-3,-6.321489E-2,1.7313714E-3,1.3220919E0,-4.958258E-6,-6.914013E-7,-0E0,7.8621355E-7,-0E0,-1.6091029E-6,2.6575E-6,-3.9436563E-6],"split_indices":[64,33,29,64,10,63,24,0,0,0,0,0,0,0,0],"split_type":[0,0,0,0,0,0,0,0,0,0,0,0,0,0,0],"sum_hessian":[7.99E3,2.961E3,5.029E3,2.467E3,4.94E2,2.356E3,2.673E3,6.52E2,1.815E3,1.91E2,3.03E2,1.682E3,6.74E2,2.611E3,6.2E1],"tree_param":{"num_deleted":"0","num_feature":"70","num_nodes":"15","size_leaf_vector":"1"}},{"base_weights":[-0E0,-1.6063526E-4,8.682393E-5,-0E0,-2.1904026E-4,-1.0594522E-5,2.0988996E-4,-0E0,1.5643169E-6,-2.860309E-6,-0E0,-0E0,-1.5931303E-6,4.5835695E-6,2.5369715E-7],"categories":[],"categories_nodes":[],"categories_segments":[],"categories_sizes":[],"default_left":[0,0,0,0,0,0,0,0,0,0,0,0,0,0,0],"id":59,"left_children":[1,3,5,7,9,11,13,-1,-1,-1,-1,-1,-1,-1,-1],"loss_changes":[1.1448201E-4,4.4756256E-5,8.02928E-5,5.4080633E-6,5.5100303E-5,1.6968448E-5,7.434797E-5,0E0,0E0,0E0,0E0,0E0,0E0,0E0,0E0],"parents":[2147483647,0,0,1,1,2,2,3,3,4,4,5,5,6,6],"right_children":[2,4,6,8,10,12,14,-1,-1,-1,-1,-1,-1,-1,-1],"split_conditions":[-7.819305E-4,2.13E-1,3.011617E-3,8.7434417E-1,1.599996E-2,1.7313714E-3,1.4273853E2,-0E0,1.5643169E-6,-2.860309E-6,-0E0,-0E0,-1.5931303E-6,4.5835695E-6,2.5369715E-7],"split_indices":[64,47,29,44,65,63,5,0,0,0,0,0,0,0,0],"split_type":[0,0,0,0,0,0,0,0,0,0,0,0,0,0,0],"sum_hessian":[7.99E3,2.961E3,5.029E3,4.38E2,2.523E3,2.356E3,2.673E3,2.22E2,2.16E2,2.151E3,3.72E2,1.682E3,6.74E2,9.05E2,1.768E3],"tree_param":{"num_deleted":"0","num_feature":"70","num_nodes":"15","size_leaf_vector":"1"}},{"base_weights":[-0E0,-9.736859E-5,1.4706895E-4,-0E0,-1.9992838E-4,2.2843169E-4,-6.191746E-5,5.8829625E-7,-5.962029E-7,-1.0619134E-7,-4.267556E-6,4.919138E-7,4.890818E-6,-0E0,-3.088767E-5],"categories":[],"categories_nodes":[],"categories_segments":[],"categories_sizes":[],"default_left":[0,0,0,0,0,0,0,0,0,0,0,0,0,0,0],"id":60,"left_children":[1,3,5,7,9,11,13,-1,-1,-1,-1,-1,-1,-1,-1],"loss_changes":[1.1271624E-4,4.7420905E-5,6.832839E-5,9.166467E-6,5.7751196E-5,6.425148E-5,8.3909115E-5,0E0,0E0,0E0,0E0,0E0,0E0,0E0,0E0],"parents":[2147483647,0,0,1,1,2,2,3,3,4,4,5,5,6,6],"right_children":[2,4,6,8,10,12,14,-1,-1,-1,-1,-1,-1,-1,-1],"split_conditions":[1.7075955E-3,1.4040096E-1,1E0,-1.7519278E-2,6.7952347E-1,2.9118753E-3,7.136123E-3,5.8829625E-7,-5.962029E-7,-1.0619134E-7,-4.267556E-6,4.919138E-7,4.890818E-6,-0E0,-3.088767E-5],"split_indices":[64,66,33,10,24,42,38,0,0,0,0,0,0,0,0],"split_type":[0,0,0,0,0,0,0,0,0,0,0,0,0,0,0],"sum_hessian":[7.99E3,4.96E3,3.03E3,2.601E3,2.359E3,2.525E3,5.05E2,1.218E3,1.383E3,1.529E3,8.3E2,1.727E3,7.98E2,5.01E2,4E0],"tree_param":{"num_deleted":"0","num_feature":"70","num_nodes":"15","size_leaf_vector":"1"}},{"base_weights":[-0E0,-1.578743E-4,8.5490254E-5,-3.0822784E-4,-0E0,-1.0417726E-5,2.072271E-4,-4.7392678E-6,-0E0,1.6051716E-6,-1.2630927E-6,-0E0,-1.5812673E-6,2.6044331E-6,-3.9351507E-6],"categories":[],"categories_nodes":[],"categories_segments":[],"categories_sizes":[],"default_left":[0,0,0,0,0,0,0,0,0,0,0,0,0,0,0],"id":61,"left_children":[1,3,5,7,9,11,13,-1,-1,-1,-1,-1,-1,-1,-1],"loss_changes":[1.10716865E-4,4.426003E-5,7.8466386E-5,7.4976204E-5,3.2214462E-5,1.672152E-5,7.2818824E-5,0E0,0E0,0E0,0E0,0E0,0E0,0E0,0E0],"parents":[2147483647,0,0,1,1,2,2,3,3,4,4,5,5,6,6],"right_children":[2,4,6,8,10,12,14,-1,-1,-1,-1,-1,-1,-1,-1],"split_conditions":[-7.819305E-4,-8.6802915E-3,3.011617E-3,1.0746645E0,-2.6399156E-3,1.7313714E-3,1.3220919E0,-4.7392678E-6,-0E0,1.6051716E-6,-1.2630927E-6,-0E0,-1.5812673E-6,2.6044331E-6,-3.9351507E-6],"split_indices":[64,65,29,44,63,63,24,0,0,0,0,0,0,0,0],"split_type":[0,0,0,0,0,0,0,0,0,0,0,0,0,0,0],"sum_hessian":[7.99E3,2.961E3,5.029E3,1.239E3,1.722E3,2.356E3,2.673E3,8.55E2,3.84E2,4.62E2,1.26E3,1.682E3,6.74E2,2.611E3,6.2E1],"tree_param":{"num_deleted":"0","num_feature":"70","num_nodes":"15","size_leaf_vector":"1"}},{"base_weights":[-0E0,-9.60399E-5,1.4443244E-4,-0E0,-1.9769554E-4,-1.3600291E-3,1.847117E-4,-3.1751426E-7,1.1807952E-6,-0E0,-3.1618008E-6,-0E0,-3.984982E-5,2.4293945E-6,-1.15132934E-7],"categories":[],"categories_nodes":[],"categories_segments":[],"categories_sizes":[],"default_left":[0,0,0,0,0,0,0,0,0,0,0,0,0,0,0],"id":62,"left_children":[1,3,5,7,9,11,13,-1,-1,-1,-1,-1,-1,-1,-1],"loss_changes":[1.0910779E-4,4.6597987E-5,6.764107E-5,8.970253E-6,5.6661585E-5,1.3105564E-4,5.771946E-5,0E0,0E0,0E0,0E0,0E0,0E0,0E0,0E0],"parents":[2147483647,0,0,1,1,2,2,3,3,4,4,5,5,6,6],"right_children":[2,4,6,8,10,12,14,-1,-1,-1,-1,-1,-1,-1,-1],"split_conditions":[1.7075955E-3,1.4040096E-1,-1.0326632E-2,2.8879114E-3,-9.420567E-4,1.566E1,5.259836E-3,-3.1751426E-7,1.1807952E-6,-0E0,-3.1618008E-6,-0E0,-3.984982E-5,2.4293945E-6,-1.15132934E-7],"split_indices":[64,66,30,42,27,59,63,0,0,0,0,0,0,0,0],"split_type":[0,0,0,0,0,0,0,0,0,0,0,0,0,0,0],"sum_hessian":[7.99E3,4.96E3,3.03E3,2.601E3,2.359E3,1E1,3.02E3,2.116E3,4.85E2,8.73E2,1.486E3,5E0,5E0,2.721E3,2.99E2],"tree_param":{"num_deleted":"0","num_feature":"70","num_nodes":"15","size_leaf_vector":"1"}},{"base_weights":[-0E0,-1.5529385E-4,8.353929E-5,-2.1600001E-4,-0E0,-1.0680266E-5,2.0379123E-4,-4.1274798E-6,-2.9409404E-7,-0E0,8.287741E-7,-0E0,-1.5738832E-6,4.4880817E-6,2.1058922E-7],"categories":[],"categories_nodes":[],"categories_segments":[],"categories_sizes":[],"default_left":[0,0,0,0,0,0,0,0,0,0,0,0,0,0,0],"id":63,"left_children":[1,3,5,7,9,11,13,-1,-1,-1,-1,-1,-1,-1,-1],"loss_changes":[1.06659936E-4,4.3805063E-5,7.6357624E-5,4.647397E-5,2.115549E-6,1.6550252E-5,7.2866824E-5,0E0,0E0,0E0,0E0,0E0,0E0,0E0,0E0],"parents":[2147483647,0,0,1,1,2,2,3,3,4,4,5,5,6,6],"right_children":[2,4,6,8,10,12,14,-1,-1,-1,-1,-1,-1,-1,-1],"split_conditions":[-7.819305E-4,1E0,3.011617E-3,-5.8598807E-3,-6.321489E-2,1.7313714E-3,1.4273853E2,-4.1274798E-6,-2.9409404E-7,-0E0,8.287741E-7,-0E0,-1.5738832E-6,4.4880817E-6,2.1058922E-7],"split_indices":[64,33,29,64,10,63,5,0,0,0,0,0,0,0,0],"split_type":[0,0,0,0,0,0,0,0,0,0,0,0,0,0,0],"sum_hessian":[7.99E3,2.961E3,5.029E3,2.467E3,4.94E2,2.356E3,2.673E3,9.37E2,1.53E3,1.91E2,3.03E2,1.682E3,6.74E2,9.05E2,1.768E3],"tree_param":{"num_deleted":"0","num_feature":"70","num_nodes":"15","size_leaf_vector":"1"}},{"base_weights":[-0E0,-9.451253E-5,1.4164185E-4,-0E0,-1.9498117E-4,-1.3474567E-3,1.8184954E-4,5.932245E-7,-5.826411E-7,-1.2029224E-7,-4.286185E-6,-0E0,-3.965163E-5,1.7165121E-7,3.7515483E-6],"categories":[],"categories_nodes":[],"categories_segments":[],"categories_sizes":[],"default_left":[0,0,0,0,0,0,0,0,0,0,0,0,0,0,0],"id":64,"left_children":[1,3,5,7,9,11,13,-1,-1,-1,-1,-1,-1,-1,-1],"loss_changes":[1.0523987E-4,4.5523288E-5,6.637966E-5,9.015778E-6,5.6957215E-5,1.2999057E-4,5.7034777E-5,0E0,0E0,0E0,0E0,0E0,0E0,0E0,0E0],"parents":[2147483647,0,0,1,1,2,2,3,3,4,4,5,5,6,6],"right_children":[2,4,6,8,10,12,14,-1,-1,-1,-1,-1,-1,-1,-1],"split_conditions":[1.7075955E-3,1.4040096E-1,-1.0326632E-2,-1.7519278E-2,6.898777E-1,1.566E1,4.074082E-3,5.932245E-7,-5.826411E-7,-1.2029224E-7,-4.286185E-6,-0E0,-3.965163E-5,1.7165121E-7,3.7515483E-6],"split_indices":[64,66,30,10,24,59,29,0,0,0,0,0,0,0,0],"split_type":[0,0,0,0,0,0,0,0,0,0,0,0,0,0,0],"sum_hessian":[7.99E3,4.96E3,3.03E3,2.601E3,2.359E3,1E1,3.02E3,1.218E3,1.383E3,1.566E3,7.93E2,5E0,5E0,1.913E3,1.107E3],"tree_param":{"num_deleted":"0","num_feature":"70","num_nodes":"15","size_leaf_vector":"1"}},{"base_weights":[-0E0,-1.5314482E-4,8.228911E-5,-3.0112787E-4,-0E0,-1.0176058E-5,2.0099666E-4,-4.6527784E-6,-0E0,1.6137003E-6,-1.2251722E-6,-0E0,-1.5576413E-6,4.4305216E-6,1.9792199E-7],"categories":[],"categories_nodes":[],"categories_segments":[],"categories_sizes":[],"default_left":[0,0,0,0,0,0,0,0,0,0,0,0,0,0,0],"id":65,"left_children":[1,3,5,7,9,11,13,-1,-1,-1,-1,-1,-1,-1,-1],"loss_changes":[1.03650316E-4,4.3240834E-5,7.4347045E-5,7.337234E-5,3.114906E-5,1.6229726E-5,7.113292E-5,0E0,0E0,0E0,0E0,0E0,0E0,0E0,0E0],"parents":[2147483647,0,0,1,1,2,2,3,3,4,4,5,5,6,6],"right_children":[2,4,6,8,10,12,14,-1,-1,-1,-1,-1,-1,-1,-1],"split_conditions":[-7.819305E-4,-8.6802915E-3,3.011617E-3,1.0746645E0,-2.6399156E-3,1.7313714E-3,1.4273853E2,-4.6527784E-6,-0E0,1.6137003E-6,-1.2251722E-6,-0E0,-1.5576413E-6,4.4305216E-6,1.9792199E-7],"split_indices":[64,65,29,44,63,63,5,0,0,0,0,0,0,0,0],"split_type":[0,0,0,0,0,0,0,0,0,0,0,0,0,0,0],"sum_hessian":[7.99E3,2.961E3,5.029E3,1.239E3,1.722E3,2.356E3,2.673E3,8.55E2,3.84E2,4.62E2,1.26E3,1.682E3,6.74E2,9.05E2,1.768E3],"tree_param":{"num_deleted":"0","num_feature":"70","num_nodes":"15","size_leaf_vector":"1"}},{"base_weights":[-0E0,-9.306442E-5,1.3955428E-4,-0E0,-1.9259601E-4,-1.3349359E-3,1.7969299E-4,5.932803E-7,-5.7151306E-7,-0E0,-3.1034303E-6,-0E0,-3.9454364E-5,2.3754824E-6,-1.3109319E-7],"categories":[],"categories_nodes":[],"categories_segments":[],"categories_sizes":[],"default_left":[0,0,0,0,0,0,0,0,0,0,0,0,0,0,0],"id":66,"left_children":[1,3,5,7,9,11,13,-1,-1,-1,-1,-1,-1,-1,-1],"loss_changes":[1.02109625E-4,4.4686592E-5,6.5298926E-5,8.8383185E-6,5.591403E-5,1.2893388E-4,5.6202203E-5,0E0,0E0,0E0,0E0,0E0,0E0,0E0,0E0],"parents":[2147483647,0,0,1,1,2,2,3,3,4,4,5,5,6,6],"right_children":[2,4,6,8,10,12,14,-1,-1,-1,-1,-1,-1,-1,-1],"split_conditions":[1.7075955E-3,1.4040096E-1,-1.0326632E-2,-1.7519278E-2,-9.420567E-4,1.566E1,5.259836E-3,5.932803E-7,-5.7151306E-7,-0E0,-3.1034303E-6,-0E0,-3.9454364E-5,2.3754824E-6,-1.3109319E-7],"split_indices":[64,66,30,10,27,59,63,0,0,0,0,0,0,0,0],"split_type":[0,0,0,0,0,0,0,0,0,0,0,0,0,0,0],"sum_hessian":[7.99E3,4.96E3,3.03E3,2.601E3,2.359E3,1E1,3.02E3,1.218E3,1.383E3,8.73E2,1.486E3,5E0,5E0,2.721E3,2.99E2],"tree_param":{"num_deleted":"0","num_feature":"70","num_nodes":"15","size_leaf_vector":"1"}},{"base_weights":[-0E0,-1.5065099E-4,8.0803635E-5,-2.1099902E-4,-0E0,-1.0438592E-5,1.9843578E-4,-0E0,-2.9663834E-6,-0E0,8.529493E-7,-0E0,-1.5501885E-6,2.5148736E-6,-3.9522233E-6],"categories":[],"categories_nodes":[],"categories_segments":[],"categories_sizes":[],"default_left":[0,0,0,0,0,0,0,0,0,0,0,0,0,0,0],"id":67,"left_children":[1,3,5,7,9,11,13,-1,-1,-1,-1,-1,-1,-1,-1],"loss_changes":[1.00183635E-4,4.2739375E-5,7.284009E-5,4.587105E-5,2.2407692E-6,1.6059677E-5,7.0465736E-5,0E0,0E0,0E0,0E0,0E0,0E0,0E0,0E0],"parents":[2147483647,0,0,1,1,2,2,3,3,4,4,5,5,6,6],"right_children":[2,4,6,8,10,12,14,-1,-1,-1,-1,-1,-1,-1,-1],"split_conditions":[-7.819305E-4,1E0,3.011617E-3,-2.161428E-3,-6.321489E-2,1.7313714E-3,1.3220919E0,-0E0,-2.9663834E-6,-0E0,8.529493E-7,-0E0,-1.5501885E-6,2.5148736E-6,-3.9522233E-6],"split_indices":[64,33,29,63,10,63,24,0,0,0,0,0,0,0,0],"split_type":[0,0,0,0,0,0,0,0,0,0,0,0,0,0,0],"sum_hessian":[7.99E3,2.961E3,5.029E3,2.467E3,4.94E2,2.356E3,2.673E3,7E2,1.767E3,1.91E2,3.03E2,1.682E3,6.74E2,2.611E3,6.2E1],"tree_param":{"num_deleted":"0","num_feature":"70","num_nodes":"15","size_leaf_vector":"1"}},{"base_weights":[-0E0,-9.152885E-5,1.3643561E-4,-0E0,-1.9008163E-4,2.1649906E-4,-6.6001E-5,5.940104E-7,-5.60052E-7,-3.523906E-8,-4.1191292E-6,3.9677525E-7,4.7200638E-6,-0E0,-3.0650714E-5],"categories":[],"categories_nodes":[],"categories_segments":[],"categories_sizes":[],"default_left":[0,0,0,0,0,0,0,0,0,0,0,0,0,0,0],"id":68,"left_children":[1,3,5,7,9,11,13,-1,-1,-1,-1,-1,-1,-1,-1],"loss_changes":[9.808998E-5,4.3819313E-5,6.431184E-5,8.668912E-6,5.6281642E-5,6.304132E-5,8.233035E-5,0E0,0E0,0E0,0E0,0E0,0E0,0E0,0E0],"parents":[2147483647,0,0,1,1,2,2,3,3,4,4,5,5,6,6],"right_children":[2,4,6,8,10,12,14,-1,-1,-1,-1,-1,-1,-1,-1],"split_conditions":[1.7075955E-3,1.4040096E-1,1E0,-1.7519278E-2,6.7952347E-1,2.9118753E-3,1.6560957E0,5.940104E-7,-5.60052E-7,-3.523906E-8,-4.1191292E-6,3.9677525E-7,4.7200638E-6,-0E0,-3.0650714E-5],"split_indices":[64,66,33,10,24,42,24,0,0,0,0,0,0,0,0],"split_type":[0,0,0,0,0,0,0,0,0,0,0,0,0,0,0],"sum_hessian":[7.99E3,4.96E3,3.03E3,2.601E3,2.359E3,2.525E3,5.05E2,1.218E3,1.383E3,1.529E3,8.3E2,1.727E3,7.98E2,5.01E2,4E0],"tree_param":{"num_deleted":"0","num_feature":"70","num_nodes":"15","size_leaf_vector":"1"}},{"base_weights":[-0E0,-1.4822955E-4,7.915868E-5,-2.9422788E-4,-0E0,-1.0266786E-5,1.9519219E-4,-4.5670545E-6,-0E0,1.6103717E-6,-1.176551E-6,-0E0,-1.5384022E-6,4.3391096E-6,1.5716672E-7],"categories":[],"categories_nodes":[],"categories_segments":[],"categories_sizes":[],"default_left":[0,0,0,0,0,0,0,0,0,0,0,0,0,0,0],"id":69,"left_children":[1,3,5,7,9,11,13,-1,-1,-1,-1,-1,-1,-1,-1],"loss_changes":[9.671248E-5,4.252419E-5,7.073711E-5,7.168557E-5,2.9621744E-5,1.5820902E-5,6.973986E-5,0E0,0E0,0E0,0E0,0E0,0E0,0E0,0E0],"parents":[2147483647,0,0,1,1,2,2,3,3,4,4,5,5,6,6],"right_children":[2,4,6,8,10,12,14,-1,-1,-1,-1,-1,-1,-1,-1],"split_conditions":[-7.819305E-4,-8.6802915E-3,3.011617E-3,1.0746645E0,-2.6399156E-3,1.7313714E-3,1.4273853E2,-4.5670545E-6,-0E0,1.6103717E-6,-1.176551E-6,-0E0,-1.5384022E-6,4.3391096E-6,1.5716672E-7],"split_indices":[64,65,29,44,63,63,5,0,0,0,0,0,0,0,0],"split_type":[0,0,0,0,0,0,0,0,0,0,0,0,0,0,0],"sum_hessian":[7.99E3,2.961E3,5.029E3,1.239E3,1.722E3,2.356E3,2.673E3,8.55E2,3.84E2,4.62E2,1.26E3,1.682E3,6.74E2,9.05E2,1.768E3],"tree_param":{"num_deleted":"0","num_feature":"70","num_nodes":"15","size_leaf_vector":"1"}},{"base_weights":[-0E0,-9.0126654E-5,1.343625E-4,-0E0,-1.8776272E-4,-1.3240497E-3,1.7443007E-4,5.9390277E-7,-5.492946E-7,-0E0,-3.0471633E-6,-0E0,-3.925221E-5,2.3192504E-6,-1.5055116E-7],"categories":[],"categories_nodes":[],"categories_segments":[],"categories_sizes":[],"default_left":[0,0,0,0,0,0,0,0,0,0,0,0,0,0,0],"id":70,"left_children":[1,3,5,7,9,11,13,-1,-1,-1,-1,-1,-1,-1,-1],"loss_changes":[9.512148E-5,4.3012664E-5,6.354309E-5,8.501709E-6,5.509999E-5,1.27777E-4,5.466016E-5,0E0,0E0,0E0,0E0,0E0,0E0,0E0,0E0],"parents":[2147483647,0,0,1,1,2,2,3,3,4,4,5,5,6,6],"right_children":[2,4,6,8,10,12,14,-1,-1,-1,-1,-1,-1,-1,-1],"split_conditions":[1.7075955E-3,1.4040096E-1,-1.0326632E-2,-1.7519278E-2,-9.420567E-4,1.566E1,5.259836E-3,5.9390277E-7,-5.492946E-7,-0E0,-3.0471633E-6,-0E0,-3.925221E-5,2.3192504E-6,-1.5055116E-7],"split_indices":[64,66,30,10,27,59,63,0,0,0,0,0,0,0,0],"split_type":[0,0,0,0,0,0,0,0,0,0,0,0,0,0,0],"sum_hessian":[7.99E3,4.96E3,3.03E3,2.601E3,2.359E3,1E1,3.02E3,1.218E3,1.383E3,8.73E2,1.486E3,5E0,5E0,2.721E3,2.99E2],"tree_param":{"num_deleted":"0","num_feature":"70","num_nodes":"15","size_leaf_vector":"1"}},{"base_weights":[-0E0,-1.4580254E-4,7.772281E-5,-2.9014357E-4,-0E0,-1.051726E-5,1.9271392E-4,-5.5139894E-6,-0E0,1.6013435E-6,-1.1564779E-6,-0E0,-1.5309093E-6,2.456065E-6,-3.9430874E-6],"categories":[],"categories_nodes":[],"categories_segments":[],"categories_sizes":[],"default_left":[0,0,0,0,0,0,0,0,0,0,0,0,0,0,0],"id":71,"left_children":[1,3,5,7,9,11,13,-1,-1,-1,-1,-1,-1,-1,-1],"loss_changes":[9.346192E-5,4.1671672E-5,6.93089E-5,7.070752E-5,2.8893915E-5,1.5652457E-5,6.8763584E-5,0E0,0E0,0E0,0E0,0E0,0E0,0E0,0E0],"parents":[2147483647,0,0,1,1,2,2,3,3,4,4,5,5,6,6],"right_children":[2,4,6,8,10,12,14,-1,-1,-1,-1,-1,-1,-1,-1],"split_conditions":[-7.819305E-4,-8.6802915E-3,3.011617E-3,8.080424E-1,-2.6399156E-3,1.7313714E-3,1.3220919E0,-5.5139894E-6,-0E0,1.6013435E-6,-1.1564779E-6,-0E0,-1.5309093E-6,2.456065E-6,-3.9430874E-6],"split_indices":[64,65,29,44,63,63,24,0,0,0,0,0,0,0,0],"split_type":[0,0,0,0,0,0,0,0,0,0,0,0,0,0,0],"sum_hessian":[7.99E3,2.961E3,5.029E3,1.239E3,1.722E3,2.356E3,2.673E3,5.72E2,6.67E2,4.62E2,1.26E3,1.682E3,6.74E2,2.611E3,6.2E1],"tree_param":{"num_deleted":"0","num_feature":"70","num_nodes":"15","size_leaf_vector":"1"}},{"base_weights":[-0E0,-6.926282E-5,1.7449314E-4,-2.8235043E-4,-5.148929E-6,2.8040944E-4,-2.6702578E-4,-3.857297E-6,-0E0,5.0839157E-7,-8.763379E-7,5.2394344E-6,-0E0,-2.3864608E-5,-0E0],"categories":[],"categories_nodes":[],"categories_segments":[],"categories_sizes":[],"default_left":[0,0,0,0,0,0,0,0,0,0,0,0,0,0,0],"id":72,"left_children":[1,3,5,7,9,11,13,-1,-1,-1,-1,-1,-1,-1,-1],"loss_changes":[9.221914E-5,5.1861527E-5,9.987049E-5,6.725889E-5,2.6340005E-5,9.747734E-5,1.5474143E-4,0E0,0E0,0E0,0E0,0E0,0E0,0E0,0E0],"parents":[2147483647,0,0,1,1,2,2,3,3,4,4,5,5,6,6],"right_children":[2,4,6,8,10,12,14,-1,-1,-1,-1,-1,-1,-1,-1],"split_conditions":[3.9736987E-3,-6.5622088E-3,1.5363685E0,4.5948368E1,-1.6856774E-4,1.0286031E-4,9.357E1,-3.857297E-6,-0E0,5.0839157E-7,-8.763379E-7,5.2394344E-6,-0E0,-2.3864608E-5,-0E0],"split_indices":[64,64,44,13,30,63,62,0,0,0,0,0,0,0,0],"split_type":[0,0,0,0,0,0,0,0,0,0,0,0,0,0,0],"sum_hessian":[7.99E3,5.896E3,2.094E3,9.99E2,4.897E3,1.873E3,2.21E2,9.85E2,1.4E1,2.196E3,2.701E3,8.88E2,9.85E2,2.5E1,1.96E2],"tree_param":{"num_deleted":"0","num_feature":"70","num_nodes":"15","size_leaf_vector":"1"}},{"base_weights":[-0E0,-6.840703E-5,1.7256079E-4,-2.7856615E-4,-4.893817E-6,2.77932E-4,-2.643859E-4,-3.818919E-6,-0E0,5.0331914E-7,-8.675907E-7,5.1873335E-6,-0E0,-0E0,-1.3775779E-5],"categories":[],"categories_nodes":[],"categories_segments":[],"categories_sizes":[],"default_left":[0,0,0,0,0,0,0,0,0,0,0,0,0,0,0],"id":73,"left_children":[1,3,5,7,9,11,13,-1,-1,-1,-1,-1,-1,-1,-1],"loss_changes":[9.011626E-5,5.0413037E-5,9.8363336E-5,6.647351E-5,2.5826828E-5,9.5223906E-5,1.5309978E-4,0E0,0E0,0E0,0E0,0E0,0E0,0E0,0E0],"parents":[2147483647,0,0,1,1,2,2,3,3,4,4,5,5,6,6],"right_children":[2,4,6,8,10,12,14,-1,-1,-1,-1,-1,-1,-1,-1],"split_conditions":[3.9736987E-3,-6.5622088E-3,1.5363685E0,4.5948368E1,-1.6856774E-4,1.0286031E-4,1.52568E2,-3.818919E-6,-0E0,5.0331914E-7,-8.675907E-7,5.1873335E-6,-0E0,-0E0,-1.3775779E-5],"split_indices":[64,64,44,13,30,63,1,0,0,0,0,0,0,0,0],"split_type":[0,0,0,0,0,0,0,0,0,0,0,0,0,0,0],"sum_hessian":[7.99E3,5.896E3,2.094E3,9.99E2,4.897E3,1.873E3,2.21E2,9.85E2,1.4E1,2.196E3,2.701E3,8.88E2,9.85E2,1.37E2,8.4E1],"tree_param":{"num_deleted":"0","num_feature":"70","num_nodes":"15","size_leaf_vector":"1"}},{"base_weights":[-0E0,-1.4168264E-4,7.554954E-5,-2.01587E-4,-0E0,-1.1069865E-5,1.8911589E-4,-4.614522E-6,-5.2279654E-7,-0E0,9.110212E-7,-0E0,-1.5106111E-6,4.244969E-6,1.13706406E-7],"categories":[],"categories_nodes":[],"categories_segments":[],"categories_sizes":[],"default_left":[0,0,0,0,0,0,0,0,0,0,0,0,0,0,0],"id":74,"left_children":[1,3,5,7,9,11,13,-1,-1,-1,-1,-1,-1,-1,-1],"loss_changes":[8.827212E-5,4.0916064E-5,6.733478E-5,4.441925E-5,2.5562758E-6,1.5205094E-5,6.843089E-5,0E0,0E0,0E0,0E0,0E0,0E0,0E0,0E0],"parents":[2147483647,0,0,1,1,2,2,3,3,4,4,5,5,6,6],"right_children":[2,4,6,8,10,12,14,-1,-1,-1,-1,-1,-1,-1,-1],"split_conditions":[-7.819305E-4,1E0,3.011617E-3,-8.1874905E-3,-6.321489E-2,1.7313714E-3,1.4273853E2,-4.614522E-6,-5.2279654E-7,-0E0,9.110212E-7,-0E0,-1.5106111E-6,4.244969E-6,1.13706406E-7],"split_indices":[64,33,29,64,10,63,5,0,0,0,0,0,0,0,0],"split_type":[0,0,0,0,0,0,0,0,0,0,0,0,0,0,0],"sum_hessian":[7.99E3,2.961E3,5.029E3,2.467E3,4.94E2,2.356E3,2.673E3,6.52E2,1.815E3,1.91E2,3.03E2,1.682E3,6.74E2,9.05E2,1.768E3],"tree_param":{"num_deleted":"0","num_feature":"70","num_nodes":"15","size_leaf_vector":"1"}},{"base_weights":[-0E0,-6.7236986E-5,1.7032305E-4,-2.7180804E-4,-4.869485E-6,2.7491953E-4,-2.6013612E-4,-3.7509467E-6,-0E0,4.9618507E-7,-8.613472E-7,5.1270295E-6,-0E0,-2.361035E-5,-0E0],"categories":[],"categories_nodes":[],"categories_segments":[],"categories_sizes":[],"default_left":[0,0,0,0,0,0,0,0,0,0,0,0,0,0,0],"id":75,"left_children":[1,3,5,7,9,11,13,-1,-1,-1,-1,-1,-1,-1,-1],"loss_changes":[8.7569184E-5,4.7614034E-5,9.6342366E-5,6.511394E-5,2.5378946E-5,9.279723E-5,1.5194099E-4,0E0,0E0,0E0,0E0,0E0,0E0,0E0,0E0],"parents":[2147483647,0,0,1,1,2,2,3,3,4,4,5,5,6,6],"right_children":[2,4,6,8,10,12,14,-1,-1,-1,-1,-1,-1,-1,-1],"split_conditions":[3.9736987E-3,-6.5622088E-3,1.5363685E0,4.5948368E1,-1.6856774E-4,1.0286031E-4,9.357E1,-3.7509467E-6,-0E0,4.9618507E-7,-8.613472E-7,5.1270295E-6,-0E0,-2.361035E-5,-0E0],"split_indices":[64,64,44,13,30,63,62,0,0,0,0,0,0,0,0],"split_type":[0,0,0,0,0,0,0,0,0,0,0,0,0,0,0],"sum_hessian":[7.99E3,5.896E3,2.094E3,9.99E2,4.897E3,1.873E3,2.21E2,9.85E2,1.4E1,2.196E3,2.701E3,8.88E2,9.85E2,2.5E1,1.96E2],"tree_param":{"num_deleted":"0","num_feature":"70","num_nodes":"15","size_leaf_vector":"1"}},{"base_weights":[-0E0,-6.640127E-5,1.6843523E-4,-2.5296456E-4,-1.252917E-6,2.7249524E-4,-2.5752434E-4,-3.84357E-6,-0E0,-1.0516178E-6,2.6401395E-7,5.076047E-6,-0E0,-0E0,-1.36133995E-5],"categories":[],"categories_nodes":[],"categories_segments":[],"categories_sizes":[],"default_left":[0,0,0,0,0,0,0,0,0,0,0,0,0,0,0],"id":76,"left_children":[1,3,5,7,9,11,13,-1,-1,-1,-1,-1,-1,-1,-1],"loss_changes":[8.556779E-5,4.629914E-5,9.48869E-5,6.685203E-5,2.161389E-5,9.064423E-5,1.4995087E-4,0E0,0E0,0E0,0E0,0E0,0E0,0E0,0E0],"parents":[2147483647,0,0,1,1,2,2,3,3,4,4,5,5,6,6],"right_children":[2,4,6,8,10,12,14,-1,-1,-1,-1,-1,-1,-1,-1],"split_conditions":[3.9736987E-3,-5.8598807E-3,1.5363685E0,1E0,6.5343E0,1.0286031E-4,1.52568E2,-3.84357E-6,-0E0,-1.0516178E-6,2.6401395E-7,5.076047E-6,-0E0,-0E0,-1.36133995E-5],"split_indices":[64,64,44,33,68,63,1,0,0,0,0,0,0,0,0],"split_type":[0,0,0,0,0,0,0,0,0,0,0,0,0,0,0],"sum_hessian":[7.99E3,5.896E3,2.094E3,1.125E3,4.771E3,1.873E3,2.21E2,9.37E2,1.88E2,1.76E3,3.011E3,8.88E2,9.85E2,1.37E2,8.4E1],"tree_param":{"num_deleted":"0","num_feature":"70","num_nodes":"15","size_leaf_vector":"1"}},{"base_weights":[-0E0,-6.5612025E-5,1.6683256E-4,-2.6494294E-4,-4.319432E-6,2.7009507E-4,-2.5246452E-4,-3.6818299E-6,-0E0,4.9475597E-7,-8.5022043E-7,5.0255703E-6,-0E0,-2.3359144E-5,-0E0],"categories":[],"categories_nodes":[],"categories_segments":[],"categories_sizes":[],"default_left":[0,0,0,0,0,0,0,0,0,0,0,0,0,0,0],"id":77,"left_children":[1,3,5,7,9,11,13,-1,-1,-1,-1,-1,-1,-1,-1],"loss_changes":[8.382512E-5,4.5163564E-5,9.29858E-5,6.372757E-5,2.4857218E-5,8.853666E-5,1.4929E-4,0E0,0E0,0E0,0E0,0E0,0E0,0E0,0E0],"parents":[2147483647,0,0,1,1,2,2,3,3,4,4,5,5,6,6],"right_children":[2,4,6,8,10,12,14,-1,-1,-1,-1,-1,-1,-1,-1],"split_conditions":[3.9736987E-3,-6.5622088E-3,1.5363685E0,4.5948368E1,-1.6856774E-4,1.0286031E-4,9.357E1,-3.6818299E-6,-0E0,4.9475597E-7,-8.5022043E-7,5.0255703E-6,-0E0,-2.3359144E-5,-0E0],"split_indices":[64,64,44,13,30,63,62,0,0,0,0,0,0,0,0],"split_type":[0,0,0,0,0,0,0,0,0,0,0,0,0,0,0],"sum_hessian":[7.99E3,5.896E3,2.094E3,9.99E2,4.897E3,1.873E3,2.21E2,9.85E2,1.4E1,2.196E3,2.701E3,8.88E2,9.85E2,2.5E1,1.96E2],"tree_param":{"num_deleted":"0","num_feature":"70","num_nodes":"15","size_leaf_vector":"1"}},{"base_weights":[-0E0,-8.3643994E-5,1.2496054E-4,-0E0,-1.8074196E-4,2.0413118E-4,-7.293459E-5,1.5314031E-6,-2.411481E-7,-0E0,-3.0802814E-6,2.932647E-7,4.553654E-6,-0E0,-3.045666E-5],"categories":[],"categories_nodes":[],"categories_segments":[],"categories_sizes":[],"default_left":[0,1,0,0,0,0,0,0,0,0,0,0,0,0,0],"id":78,"left_children":[1,3,5,7,9,11,13,-1,-1,-1,-1,-1,-1,-1,-1],"loss_changes":[8.212865E-5,4.1313586E-5,6.0744907E-5,1.0481633E-5,6.380479E-5,6.257386E-5,8.077182E-5,0E0,0E0,0E0,0E0,0E0,0E0,0E0,0E0],"parents":[2147483647,0,0,1,1,2,2,3,3,4,4,5,5,6,6],"right_children":[2,4,6,8,10,12,14,-1,-1,-1,-1,-1,-1,-1,-1],"split_conditions":[1.7075955E-3,1.4040096E-1,1E0,-3.835915E-3,-9.420567E-4,2.9118753E-3,7.136123E-3,1.5314031E-6,-2.411481E-7,-0E0,-3.0802814E-6,2.932647E-7,4.553654E-6,-0E0,-3.045666E-5],"split_indices":[64,66,33,63,27,42,38,0,0,0,0,0,0,0,0],"split_type":[0,0,0,0,0,0,0,0,0,0,0,0,0,0,0],"sum_hessian":[7.99E3,4.96E3,3.03E3,2.637E3,2.323E3,2.525E3,5.05E2,3.86E2,2.251E3,8.54E2,1.469E3,1.727E3,7.98E2,5.01E2,4E0],"tree_param":{"num_deleted":"0","num_feature":"70","num_nodes":"15","size_leaf_vector":"1"}},{"base_weights":[-0E0,-1.355342E-4,7.278812E-5,-2.7610702E-4,-0E0,-1.2014921E-5,1.8475826E-4,-5.3500157E-6,-0E0,1.6607494E-6,-1.0756861E-6,-0E0,-1.489055E-6,4.1670287E-6,8.789071E-8],"categories":[],"categories_nodes":[],"categories_segments":[],"categories_sizes":[],"default_left":[0,0,0,0,0,0,0,0,0,0,0,0,0,0,0],"id":79,"left_children":[1,3,5,7,9,11,13,-1,-1,-1,-1,-1,-1,-1,-1],"loss_changes":[8.1154685E-5,4.0352457E-5,6.508532E-5,7.031636E-5,2.7517599E-5,1.4714533E-5,6.673535E-5,0E0,0E0,0E0,0E0,0E0,0E0,0E0,0E0],"parents":[2147483647,0,0,1,1,2,2,3,3,4,4,5,5,6,6],"right_children":[2,4,6,8,10,12,14,-1,-1,-1,-1,-1,-1,-1,-1],"split_conditions":[-7.819305E-4,-8.6802915E-3,3.011617E-3,8.080424E-1,-2.6399156E-3,1.7313714E-3,1.4273853E2,-5.3500157E-6,-0E0,1.6607494E-6,-1.0756861E-6,-0E0,-1.489055E-6,4.1670287E-6,8.789071E-8],"split_indices":[64,65,29,44,63,63,5,0,0,0,0,0,0,0,0],"split_type":[0,0,0,0,0,0,0,0,0,0,0,0,0,0,0],"sum_hessian":[7.99E3,2.961E3,5.029E3,1.239E3,1.722E3,2.356E3,2.673E3,5.72E2,6.67E2,4.62E2,1.26E3,1.682E3,6.74E2,9.05E2,1.768E3],"tree_param":{"num_deleted":"0","num_feature":"70","num_nodes":"15","size_leaf_vector":"1"}},{"base_weights":[-0E0,-6.389939E-5,1.6303796E-4,-2.5916172E-4,-3.441846E-6,2.6580796E-4,-2.5208257E-4,-3.6231445E-6,-0E0,4.927361E-7,-8.326798E-7,4.9529735E-6,-0E0,-0E0,-1.346788E-5],"categories":[],"categories_nodes":[],"categories_segments":[],"categories_sizes":[],"default_left":[0,0,0,0,0,0,0,0,0,0,0,0,0,0,0],"id":80,"left_children":[1,3,5,7,9,11,13,-1,-1,-1,-1,-1,-1,-1,-1],"loss_changes":[7.988887E-5,4.339696E-5,9.1254966E-5,6.252559E-5,2.4047915E-5,8.638232E-5,1.4707027E-4,0E0,0E0,0E0,0E0,0E0,0E0,0E0,0E0],"parents":[2147483647,0,0,1,1,2,2,3,3,4,4,5,5,6,6],"right_children":[2,4,6,8,10,12,14,-1,-1,-1,-1,-1,-1,-1,-1],"split_conditions":[3.9736987E-3,-6.5622088E-3,1.5363685E0,4.5948368E1,-1.6856774E-4,1.0286031E-4,1.52568E2,-3.6231445E-6,-0E0,4.927361E-7,-8.326798E-7,4.9529735E-6,-0E0,-0E0,-1.346788E-5],"split_indices":[64,64,44,13,30,63,1,0,0,0,0,0,0,0,0],"split_type":[0,0,0,0,0,0,0,0,0,0,0,0,0,0,0],"sum_hessian":[7.99E3,5.896E3,2.094E3,9.99E2,4.897E3,1.873E3,2.21E2,9.85E2,1.4E1,2.196E3,2.701E3,8.88E2,9.85E2,1.37E2,8.4E1],"tree_param":{"num_deleted":"0","num_feature":"70","num_nodes":"15","size_leaf_vector":"1"}},{"base_weights":[-0E0,-1.3297732E-4,7.171751E-5,-2.7193007E-4,-0E0,-1.2034271E-5,1.8276283E-4,-5.280982E-6,-0E0,1.6566792E-6,-1.0553094E-6,-0E0,-1.4713838E-6,2.3527402E-6,-3.8862686E-6],"categories":[],"categories_nodes":[],"categories_segments":[],"categories_sizes":[],"default_left":[0,0,0,0,0,0,0,0,0,0,0,0,0,0,0],"id":81,"left_children":[1,3,5,7,9,11,13,-1,-1,-1,-1,-1,-1,-1,-1],"loss_changes":[7.8339566E-5,3.9541093E-5,6.390127E-5,6.892943E-5,2.6905247E-5,1.4358221E-5,6.547356E-5,0E0,0E0,0E0,0E0,0E0,0E0,0E0,0E0],"parents":[2147483647,0,0,1,1,2,2,3,3,4,4,5,5,6,6],"right_children":[2,4,6,8,10,12,14,-1,-1,-1,-1,-1,-1,-1,-1],"split_conditions":[-7.819305E-4,-8.6802915E-3,3.011617E-3,8.080424E-1,-2.6399156E-3,1.7313714E-3,1.3220919E0,-5.280982E-6,-0E0,1.6566792E-6,-1.0553094E-6,-0E0,-1.4713838E-6,2.3527402E-6,-3.8862686E-6],"split_indices":[64,65,29,44,63,63,24,0,0,0,0,0,0,0,0],"split_type":[0,0,0,0,0,0,0,0,0,0,0,0,0,0,0],"sum_hessian":[7.99E3,2.961E3,5.029E3,1.239E3,1.722E3,2.356E3,2.673E3,5.72E2,6.67E2,4.62E2,1.26E3,1.682E3,6.74E2,2.611E3,6.2E1],"tree_param":{"num_deleted":"0","num_feature":"70","num_nodes":"15","size_leaf_vector":"1"}},{"base_weights":[-0E0,-6.296186E-5,1.6047063E-4,-0E0,-1.7646971E-4,2.6246527E-4,-2.4815003E-4,-9.958424E-7,8.478872E-7,-3.6745114E-6,-0E0,4.890884E-6,-0E0,-2.3123102E-5,-0E0],"categories":[],"categories_nodes":[],"categories_segments":[],"categories_sizes":[],"default_left":[0,0,0,0,0,0,0,0,0,0,0,0,0,0,0],"id":82,"left_children":[1,3,5,7,9,11,13,-1,-1,-1,-1,-1,-1,-1,-1],"loss_changes":[7.74437E-5,4.1911124E-5,8.923744E-5,3.222588E-5,4.1902313E-5,8.4240615E-5,1.4648664E-4,0E0,0E0,0E0,0E0,0E0,0E0,0E0,0E0],"parents":[2147483647,0,0,1,1,2,2,3,3,4,4,5,5,6,6],"right_children":[2,4,6,8,10,12,14,-1,-1,-1,-1,-1,-1,-1,-1],"split_conditions":[3.9736987E-3,1.532E1,1.5363685E0,6.5343E0,-6.5622088E-3,1.0286031E-4,9.357E1,-9.958424E-7,8.478872E-7,-3.6745114E-6,-0E0,4.890884E-6,-0E0,-2.3123102E-5,-0E0],"split_indices":[64,59,44,68,64,63,62,0,0,0,0,0,0,0,0],"split_type":[0,0,0,0,0,0,0,0,0,0,0,0,0,0,0],"sum_hessian":[7.99E3,5.896E3,2.094E3,3.804E3,2.092E3,1.873E3,2.21E2,1.757E3,2.047E3,7.89E2,1.303E3,8.88E2,9.85E2,2.5E1,1.96E2],"tree_param":{"num_deleted":"0","num_feature":"70","num_nodes":"15","size_leaf_vector":"1"}},{"base_weights":[-0E0,-6.246817E-5,1.586769E-4,-0E0,-1.7508716E-4,2.6015265E-4,-2.4559218E-4,-9.859122E-7,8.394289E-7,-3.6379977E-6,-0E0,4.748193E-6,-0E0,-0E0,-1.5363838E-5],"categories":[],"categories_nodes":[],"categories_segments":[],"categories_sizes":[],"default_left":[0,0,0,0,0,0,0,0,0,0,0,0,0,0,0],"id":83,"left_children":[1,3,5,7,9,11,13,-1,-1,-1,-1,-1,-1,-1,-1],"loss_changes":[7.587669E-5,4.1257306E-5,8.788382E-5,3.1586274E-5,4.080151E-5,8.23443E-5,1.4452054E-4,0E0,0E0,0E0,0E0,0E0,0E0,0E0,0E0],"parents":[2147483647,0,0,1,1,2,2,3,3,4,4,5,5,6,6],"right_children":[2,4,6,8,10,12,14,-1,-1,-1,-1,-1,-1,-1,-1],"split_conditions":[3.9736987E-3,1.532E1,1.5363685E0,6.5343E0,-6.5622088E-3,1.988924E-4,1.5405E0,-9.859122E-7,8.394289E-7,-3.6379977E-6,-0E0,4.748193E-6,-0E0,-0E0,-1.5363838E-5],"split_indices":[64,59,44,68,64,63,52,0,0,0,0,0,0,0,0],"split_type":[0,0,0,0,0,0,0,0,0,0,0,0,0,0,0],"sum_hessian":[7.99E3,5.896E3,2.094E3,3.804E3,2.092E3,1.873E3,2.21E2,1.757E3,2.047E3,7.89E2,1.303E3,9.24E2,9.49E2,1.59E2,6.2E1],"tree_param":{"num_deleted":"0","num_feature":"70","num_nodes":"15","size_leaf_vector":"1"}},{"base_weights":[-0E0,-6.197939E-5,1.5704053E-4,-1.973236E-4,-0E0,2.578165E-4,-2.4137727E-4,1.1031658E-6,-3.0193553E-6,2.1850151E-7,-2.516797E-6,4.7950334E-6,-0E0,-2.2879196E-5,-0E0],"categories":[],"categories_nodes":[],"categories_segments":[],"categories_sizes":[],"default_left":[0,0,0,0,0,0,0,0,0,0,0,0,0,0,0],"id":84,"left_children":[1,3,5,7,9,11,13,-1,-1,-1,-1,-1,-1,-1,-1],"loss_changes":[7.443332E-5,4.1148734E-5,8.6231885E-5,7.207611E-5,3.3220742E-5,8.049223E-5,1.4386985E-4,0E0,0E0,0E0,0E0,0E0,0E0,0E0,0E0],"parents":[2147483647,0,0,1,1,2,2,3,3,4,4,5,5,6,6],"right_children":[2,4,6,8,10,12,14,-1,-1,-1,-1,-1,-1,-1,-1],"split_conditions":[3.9736987E-3,-4.5E-2,1.5363685E0,-3.6013208E-3,2.57387E1,1.0286031E-4,9.357E1,1.1031658E-6,-3.0193553E-6,2.1850151E-7,-2.516797E-6,4.7950334E-6,-0E0,-2.2879196E-5,-0E0],"split_indices":[64,46,44,27,68,63,62,0,0,0,0,0,0,0,0],"split_type":[0,0,0,0,0,0,0,0,0,0,0,0,0,0,0],"sum_hessian":[7.99E3,5.896E3,2.094E3,1.634E3,4.262E3,1.873E3,2.21E2,1.72E2,1.462E3,3.771E3,4.91E2,8.88E2,9.85E2,2.5E1,1.96E2],"tree_param":{"num_deleted":"0","num_feature":"70","num_nodes":"15","size_leaf_vector":"1"}},{"base_weights":[-0E0,-1.289584E-4,6.899655E-5,-2.657473E-4,-0E0,-1.32389405E-5,1.7871015E-4,-5.1904412E-6,-0E0,1.6601771E-6,-1.023172E-6,-0E0,-1.4509005E-6,4.073509E-6,4.4537085E-8],"categories":[],"categories_nodes":[],"categories_segments":[],"categories_sizes":[],"default_left":[0,0,0,0,0,0,0,0,0,0,0,0,0,0,0],"id":85,"left_children":[1,3,5,7,9,11,13,-1,-1,-1,-1,-1,-1,-1,-1],"loss_changes":[7.328986E-5,3.8527916E-5,6.1977466E-5,6.75944E-5,2.6114441E-5,1.3879904E-5,6.5507695E-5,0E0,0E0,0E0,0E0,0E0,0E0,0E0,0E0],"parents":[2147483647,0,0,1,1,2,2,3,3,4,4,5,5,6,6],"right_children":[2,4,6,8,10,12,14,-1,-1,-1,-1,-1,-1,-1,-1],"split_conditions":[-7.819305E-4,-8.6802915E-3,3.011617E-3,8.080424E-1,-2.6399156E-3,1.7313714E-3,1.4273853E2,-5.1904412E-6,-0E0,1.6601771E-6,-1.023172E-6,-0E0,-1.4509005E-6,4.073509E-6,4.4537085E-8],"split_indices":[64,65,29,44,63,63,5,0,0,0,0,0,0,0,0],"split_type":[0,0,0,0,0,0,0,0,0,0,0,0,0,0,0],"sum_hessian":[7.99E3,2.961E3,5.029E3,1.239E3,1.722E3,2.356E3,2.673E3,5.72E2,6.67E2,4.62E2,1.26E3,1.682E3,6.74E2,9.05E2,1.768E3],"tree_param":{"num_deleted":"0","num_feature":"70","num_nodes":"15","size_leaf_vector":"1"}},{"base_weights":[-0E0,-7.8539015E-5,1.1712947E-4,-0E0,-1.7347149E-4,1.9547329E-4,-7.658718E-5,1.5136884E-6,-2.0075267E-7,-0E0,-2.9963278E-6,-0E0,3.6501453E-6,-0E0,-3.028573E-5],"categories":[],"categories_nodes":[],"categories_segments":[],"categories_sizes":[],"default_left":[0,1,0,0,0,0,0,0,0,0,0,0,0,0,0],"id":86,"left_children":[1,3,5,7,9,11,13,-1,-1,-1,-1,-1,-1,-1,-1],"loss_changes":[7.2264105E-5,