{"learner":{"attributes":{"scikit_learn":"{\"_estimator_type\": \"regressor\"}"},"feature_names":[],"feature_types":[],"gradient_booster":{"model":{"cats":{"enc":[],"feature_segments":[],"sorted_idx":[]},"gbtree_model_param":{"num_parallel_tree":"1","num_trees":"300"},"iteration_indptr":[0,1,2,3,4,5,6,7,8,9,10,11,12,13,14,15,16,17,18,19,20,21,22,23,24,25,26,27,28,29,30,31,32,33,34,35,36,37,38,39,40,41,42,43,44,45,46,47,48,49,50,51,52,53,54,55,56,57,58,59,60,61,62,63,64,65,66,67,68,69,70,71,72,73,74,75,76,77,78,79,80,81,82,83,84,85,86,87,88,89,90,91,92,93,94,95,96,97,98,99,100,101,102,103,104,105,106,107,108,109,110,111,112,113,114,115,116,117,118,119,120,121,122,123,124,125,126,127,128,129,130,131,132,133,134,135,136,137,138,139,140,141,142,143,144,145,146,147,148,149,150,151,152,153,154,155,156,157,158,159,160,161,162,163,164,165,166,167,168,169,170,171,172,173,174,175,176,177,178,179,180,181,182,183,184,185,186,187,188,189,190,191,192,193,194,195,196,197,198,199,200,201,202,203,204,205,206,207,208,209,210,211,212,213,214,215,216,217,218,219,220,221,222,223,224,225,226,227,228,229,230,231,232,233,234,235,236,237,238,239,240,241,242,243,244,245,246,247,248,249,250,251,252,253,254,255,256,257,258,259,260,261,262,263,264,265,266,267,268,269,270,271,272,273,274,275,276,277,278,279,280,281,282,283,284,285,286,287,288,289,290,291,292,293,294,295,296,297,298,299,300],"tree_info":[0,0,0,0,0,0,0,0,0,0,0,0,0,0,0,0,0,0,0,0,0,0,0,0,0,0,0,0,0,0,0,0,0,0,0,0,0,0,0,0,0,0,0,0,0,0,0,0,0,0,0,0,0,0,0,0,0,0,0,0,0,0,0,0,0,0,0,0,0,0,0,0,0,0,0,0,0,0,0,0,0,0,0,0,0,0,0,0,0,0,0,0,0,0,0,0,0,0,0,0,0,0,0,0,0,0,0,0,0,0,0,0,0,0,0,0,0,0,0,0,0,0,0,0,0,0,0,0,0,0,0,0,0,0,0,0,0,0,0,0,0,0,0,0,0,0,0,0,0,0,0,0,0,0,0,0,0,0,0,0,0,0,0,0,0,0,0,0,0,0,0,0,0,0,0,0,0,0,0,0,0,0,0,0,0,0,0,0,0,0,0,0,0,0,0,0,0,0,0,0,0,0,0,0,0,0,0,0,0,0,0,0,0,0,0,0,0,0,0,0,0,0,0,0,0,0,0,0,0,0,0,0,0,0,0,0,0,0,0,0,0,0,0,0,0,0,0,0,0,0,0,0,0,0,0,0,0,0,0,0,0,0,0,0,0,0,0,0,0,0,0,0,0,0,0,0,0,0,0,0,0,0,0,0,0,0,0,0,0,0,0,0,0,0,0,0,0,0,0,0],"trees":[{"base_weights":[-0E0,-4.6303478E-4,1.0989563E-4,-5.817846E-4,-0E0,-0E0,3.4772485E-4,-6.5046593E-6,1.8226841E-6,6.0431597E-7,-0E0,-1.0204097E-6,3.9094462E-7,4.7069448E-6,-9.195678E-7],"categories":[],"categories_nodes":[],"categories_segments":[],"categories_sizes":[],"default_left":[0,0,0,0,0,0,0,0,0,0,0,0,0,0,0],"id":0,"left_children":[1,3,5,7,9,11,13,-1,-1,-1,-1,-1,-1,-1,-1],"loss_changes":[6.4517726E-4,1.6466161E-4,2.9037206E-4,1.5378179E-4,1.3658398E-6,3.1337004E-5,2.2327135E-4,0E0,0E0,0E0,0E0,0E0,0E0,0E0,0E0],"parents":[2147483647,0,0,1,1,2,2,3,3,4,4,5,5,6,6],"right_children":[2,4,6,8,10,12,14,-1,-1,-1,-1,-1,-1,-1,-1],"split_conditions":[-5.479077E-3,1E0,4.652243E-3,7.766617E-3,4.1608745E-3,-5.9486983E-6,1E0,-6.5046593E-6,1.8226841E-6,6.0431597E-7,-0E0,-1.0204097E-6,3.9094462E-7,4.7069448E-6,-9.195678E-7],"split_indices":[64,33,64,40,42,31,33,0,0,0,0,0,0,0,0],"split_type":[0,0,0,0,0,0,0,0,0,0,0,0,0,0,0],"sum_hessian":[1.2669E4,2.427E3,1.0242E4,2.022E3,4.05E2,6.822E3,3.42E3,1.976E3,4.6E1,3.69E2,3.6E1,2.347E3,4.475E3,2.85E3,5.7E2],"tree_param":{"num_deleted":"0","num_feature":"70","num_nodes":"15","size_leaf_vector":"1"}},{"base_weights":[-0E0,-1.8320011E-4,2.7186266E-4,-4.6272503E-4,-3.5499746E-5,3.6041843E-4,-5.3475553E-5,-5.8213805E-6,-0E0,-1.7282729E-6,-0E0,4.747411E-6,-0E0,-0E0,-3.4274788E-5],"categories":[],"categories_nodes":[],"categories_segments":[],"categories_sizes":[],"default_left":[0,0,0,0,0,0,0,0,0,0,0,0,0,0,0],"id":1,"left_children":[1,3,5,7,9,11,13,-1,-1,-1,-1,-1,-1,-1,-1],"loss_changes":[6.315077E-4,2.6279502E-4,1.7786867E-4,1.6291515E-4,2.726511E-5,1.4481775E-4,1.0328349E-4,0E0,0E0,0E0,0E0,0E0,0E0,0E0,0E0],"parents":[2147483647,0,0,1,1,2,2,3,3,4,4,5,5,6,6],"right_children":[2,4,6,8,10,12,14,-1,-1,-1,-1,-1,-1,-1,-1],"split_conditions":[1.6884726E-3,-5.643606E-3,1E0,1E0,-4.5E-2,2.0387897E-3,1.6560957E0,-5.8213805E-6,-0E0,-1.7282729E-6,-0E0,4.747411E-6,-0E0,-0E0,-3.4274788E-5],"split_indices":[64,64,33,33,49,63,24,0,0,0,0,0,0,0,0],"split_type":[0,0,0,0,0,0,0,0,0,0,0,0,0,0,0],"sum_hessian":[1.2669E4,7.569E3,5.1E3,2.379E3,5.19E3,4.25E3,8.5E2,1.982E3,3.97E2,1.127E3,4.063E3,3.09E3,1.16E3,8.46E2,4E0],"tree_param":{"num_deleted":"0","num_feature":"70","num_nodes":"15","size_leaf_vector":"1"}},{"base_weights":[-0E0,-1.8141959E-4,2.6901596E-4,-4.5788527E-4,-3.5124824E-5,3.5697085E-4,-5.3315205E-5,-5.7633133E-6,-0E0,-1.7110668E-6,-0E0,4.700014E-6,-0E0,2.3592867E-7,-6.5344534E-6],"categories":[],"categories_nodes":[],"categories_segments":[],"categories_sizes":[],"default_left":[0,0,0,0,0,0,0,0,0,0,0,0,0,0,0],"id":2,"left_children":[1,3,5,7,9,11,13,-1,-1,-1,-1,-1,-1,-1,-1],"loss_changes":[6.187303E-4,2.5695266E-4,1.7519057E-4,1.6017072E-4,2.6732781E-5,1.4148251E-4,1.0252474E-4,0E0,0E0,0E0,0E0,0E0,0E0,0E0,0E0],"parents":[2147483647,0,0,1,1,2,2,3,3,4,4,5,5,6,6],"right_children":[2,4,6,8,10,12,14,-1,-1,-1,-1,-1,-1,-1,-1],"split_conditions":[1.6884726E-3,-5.643606E-3,1E0,1E0,-4.5E-2,2.0387897E-3,1.09171625E-2,-5.7633133E-6,-0E0,-1.7110668E-6,-0E0,4.700014E-6,-0E0,2.3592867E-7,-6.5344534E-6],"split_indices":[64,64,33,33,49,63,64,0,0,0,0,0,0,0,0],"split_type":[0,0,0,0,0,0,0,0,0,0,0,0,0,0,0],"sum_hessian":[1.2669E4,7.569E3,5.1E3,2.379E3,5.19E3,4.25E3,8.5E2,1.982E3,3.97E2,1.127E3,4.063E3,3.09E3,1.16E3,6.1E2,2.4E2],"tree_param":{"num_deleted":"0","num_feature":"70","num_nodes":"15","size_leaf_vector":"1"}},{"base_weights":[-0E0,-1.7965681E-4,2.6645008E-4,-4.530938E-4,-3.475362E-5,3.5355767E-4,-5.1649295E-5,-5.705825E-6,-0E0,-1.6940315E-6,-0E0,4.653089E-6,-0E0,-0E0,-3.4093413E-5],"categories":[],"categories_nodes":[],"categories_segments":[],"categories_sizes":[],"default_left":[0,0,0,0,0,0,0,0,0,0,0,0,0,0,0],"id":3,"left_children":[1,3,5,7,9,11,13,-1,-1,-1,-1,-1,-1,-1,-1],"loss_changes":[6.0689554E-4,2.5123273E-4,1.7173594E-4,1.5747565E-4,2.6210893E-5,1.3821799E-4,1.0233164E-4,0E0,0E0,0E0,0E0,0E0,0E0,0E0,0E0],"parents":[2147483647,0,0,1,1,2,2,3,3,4,4,5,5,6,6],"right_children":[2,4,6,8,10,12,14,-1,-1,-1,-1,-1,-1,-1,-1],"split_conditions":[1.6884726E-3,-5.643606E-3,1E0,1E0,-4.5E-2,2.0387897E-3,1.6560957E0,-5.705825E-6,-0E0,-1.6940315E-6,-0E0,4.653089E-6,-0E0,-0E0,-3.4093413E-5],"split_indices":[64,64,33,33,49,63,24,0,0,0,0,0,0,0,0],"split_type":[0,0,0,0,0,0,0,0,0,0,0,0,0,0,0],"sum_hessian":[1.2669E4,7.569E3,5.1E3,2.379E3,5.19E3,4.25E3,8.5E2,1.982E3,3.97E2,1.127E3,4.063E3,3.09E3,1.16E3,8.46E2,4E0],"tree_param":{"num_deleted":"0","num_feature":"70","num_nodes":"15","size_leaf_vector":"1"}},{"base_weights":[-0E0,-1.7791161E-4,2.6366036E-4,-4.4835013E-4,-3.438612E-5,3.5017857E-4,-5.1489795E-5,-5.6489107E-6,-0E0,-0E0,-1.4404819E-6,4.6066334E-6,-0E0,-0E0,-3.3941888E-5],"categories":[],"categories_nodes":[],"categories_segments":[],"categories_sizes":[],"default_left":[0,0,0,0,0,0,0,0,0,0,0,0,0,0,0],"id":4,"left_children":[1,3,5,7,9,11,13,-1,-1,-1,-1,-1,-1,-1,-1],"loss_changes":[5.9461955E-4,2.4563272E-4,1.6915312E-4,1.5482903E-4,2.6081972E-5,1.3502274E-4,1.01417885E-4,0E0,0E0,0E0,0E0,0E0,0E0,0E0,0E0],"parents":[2147483647,0,0,1,1,2,2,3,3,4,4,5,5,6,6],"right_children":[2,4,6,8,10,12,14,-1,-1,-1,-1,-1,-1,-1,-1],"split_conditions":[1.6884726E-3,-5.643606E-3,1E0,1E0,1.4075949E-3,2.0387897E-3,1.6560957E0,-5.6489107E-6,-0E0,-0E0,-1.4404819E-6,4.6066334E-6,-0E0,-0E0,-3.3941888E-5],"split_indices":[64,64,33,33,63,63,24,0,0,0,0,0,0,0,0],"split_type":[0,0,0,0,0,0,0,0,0,0,0,0,0,0,0],"sum_hessian":[1.2669E4,7.569E3,5.1E3,2.379E3,5.19E3,4.25E3,8.5E2,1.982E3,3.97E2,3.642E3,1.548E3,3.09E3,1.16E3,8.46E2,4E0],"tree_param":{"num_deleted":"0","num_feature":"70","num_nodes":"15","size_leaf_vector":"1"}},{"base_weights":[-0E0,-1.7613897E-4,2.608986E-4,-4.7195365E-4,-4.5591478E-5,3.4683323E-4,-5.1330997E-5,-5.9559998E-6,-0E0,-1.871612E-6,-0E0,4.5606416E-6,-0E0,-0E0,-3.379103E-5],"categories":[],"categories_nodes":[],"categories_segments":[],"categories_sizes":[],"default_left":[0,0,0,0,0,0,0,0,0,0,0,0,0,0,0],"id":5,"left_children":[1,3,5,7,9,11,13,-1,-1,-1,-1,-1,-1,-1,-1],"loss_changes":[5.8247044E-4,2.4062957E-4,1.6661323E-4,1.5199152E-4,3.0122956E-5,1.3189513E-4,1.00512225E-4,0E0,0E0,0E0,0E0,0E0,0E0,0E0,0E0],"parents":[2147483647,0,0,1,1,2,2,3,3,4,4,5,5,6,6],"right_children":[2,4,6,8,10,12,14,-1,-1,-1,-1,-1,-1,-1,-1],"split_conditions":[1.6884726E-3,-6.6663558E-3,1E0,1E0,-4.5E-2,2.0387897E-3,1.6560957E0,-5.9559998E-6,-0E0,-1.871612E-6,-0E0,4.5606416E-6,-0E0,-0E0,-3.379103E-5],"split_indices":[64,64,33,33,49,63,24,0,0,0,0,0,0,0,0],"split_type":[0,0,0,0,0,0,0,0,0,0,0,0,0,0,0],"sum_hessian":[1.2669E4,7.569E3,5.1E3,2.079E3,5.49E3,4.25E3,8.5E2,1.732E3,3.47E2,1.181E3,4.309E3,3.09E3,1.16E3,8.46E2,4E0],"tree_param":{"num_deleted":"0","num_feature":"70","num_nodes":"15","size_leaf_vector":"1"}},{"base_weights":[-0E0,-1.7448513E-4,2.5816457E-4,-4.3928422E-4,-3.3550867E-5,3.4352127E-4,-5.1172912E-5,-5.540223E-6,-0E0,-0E0,-1.4218574E-6,4.515109E-6,-0E0,2.3358848E-7,-6.453817E-6],"categories":[],"categories_nodes":[],"categories_segments":[],"categories_sizes":[],"default_left":[0,0,0,0,0,0,0,0,0,0,0,0,0,0,0],"id":6,"left_children":[1,3,5,7,9,11,13,-1,-1,-1,-1,-1,-1,-1,-1],"loss_changes":[5.7083374E-4,2.3529894E-4,1.6411528E-4,1.4984919E-4,2.554886E-5,1.2883398E-4,1.00143436E-4,0E0,0E0,0E0,0E0,0E0,0E0,0E0,0E0],"parents":[2147483647,0,0,1,1,2,2,3,3,4,4,5,5,6,6],"right_children":[2,4,6,8,10,12,14,-1,-1,-1,-1,-1,-1,-1,-1],"split_conditions":[1.6884726E-3,-5.643606E-3,1E0,1E0,1.4075949E-3,2.0387897E-3,1.09171625E-2,-5.540223E-6,-0E0,-0E0,-1.4218574E-6,4.515109E-6,-0E0,2.3358848E-7,-6.453817E-6],"split_indices":[64,64,33,33,63,63,64,0,0,0,0,0,0,0,0],"split_type":[0,0,0,0,0,0,0,0,0,0,0,0,0,0,0],"sum_hessian":[1.2669E4,7.569E3,5.1E3,2.379E3,5.19E3,4.25E3,8.5E2,1.982E3,3.97E2,3.642E3,1.548E3,3.09E3,1.16E3,6.1E2,2.4E2],"tree_param":{"num_deleted":"0","num_feature":"70","num_nodes":"15","size_leaf_vector":"1"}},{"base_weights":[-0E0,-1.7274474E-4,2.5570713E-4,-4.623992E-4,-4.4536613E-5,3.4024238E-4,-4.952797E-5,-5.8413684E-6,-0E0,-1.8466285E-6,-0E0,4.470031E-6,-0E0,-0E0,-3.361217E-5],"categories":[],"categories_nodes":[],"categories_segments":[],"categories_sizes":[],"default_left":[0,0,0,0,0,0,0,0,0,0,0,0,0,0,0],"id":7,"left_children":[1,3,5,7,9,11,13,-1,-1,-1,-1,-1,-1,-1,-1],"loss_changes":[5.5981E-4,2.3047192E-4,1.6088065E-4,1.4710554E-4,2.9543653E-5,1.2583792E-4,9.958269E-5,0E0,0E0,0E0,0E0,0E0,0E0,0E0,0E0],"parents":[2147483647,0,0,1,1,2,2,3,3,4,4,5,5,6,6],"right_children":[2,4,6,8,10,12,14,-1,-1,-1,-1,-1,-1,-1,-1],"split_conditions":[1.6884726E-3,-6.6663558E-3,1E0,1E0,-4.5E-2,2.0387897E-3,1.6560957E0,-5.8413684E-6,-0E0,-1.8466285E-6,-0E0,4.470031E-6,-0E0,-0E0,-3.361217E-5],"split_indices":[64,64,33,33,49,63,24,0,0,0,0,0,0,0,0],"split_type":[0,0,0,0,0,0,0,0,0,0,0,0,0,0,0],"sum_hessian":[1.2669E4,7.569E3,5.1E3,2.079E3,5.49E3,4.25E3,8.5E2,1.732E3,3.47E2,1.181E3,4.309E3,3.09E3,1.16E3,8.46E2,4E0],"tree_param":{"num_deleted":"0","num_feature":"70","num_nodes":"15","size_leaf_vector":"1"}},{"base_weights":[-0E0,-1.71121E-4,2.530278E-4,-4.303926E-4,-3.2726577E-5,3.3699622E-4,-4.9370723E-5,-5.433625E-6,-0E0,-0E0,-1.4034753E-6,4.4254025E-6,-0E0,-0E0,-3.3462784E-5],"categories":[],"categories_nodes":[],"categories_segments":[],"categories_sizes":[],"default_left":[0,0,0,0,0,0,0,0,0,0,0,0,0,0,0],"id":8,"left_children":[1,3,5,7,9,11,13,-1,-1,-1,-1,-1,-1,-1,-1],"loss_changes":[5.4862263E-4,2.2538596E-4,1.5847155E-4,1.4504057E-4,2.5026113E-5,1.2290542E-4,9.869418E-5,0E0,0E0,0E0,0E0,0E0,0E0,0E0,0E0],"parents":[2147483647,0,0,1,1,2,2,3,3,4,4,5,5,6,6],"right_children":[2,4,6,8,10,12,14,-1,-1,-1,-1,-1,-1,-1,-1],"split_conditions":[1.6884726E-3,-5.643606E-3,1E0,1E0,1.4075949E-3,2.0387897E-3,1.6560957E0,-5.433625E-6,-0E0,-0E0,-1.4034753E-6,4.4254025E-6,-0E0,-0E0,-3.3462784E-5],"split_indices":[64,64,33,33,63,63,24,0,0,0,0,0,0,0,0],"split_type":[0,0,0,0,0,0,0,0,0,0,0,0,0,0,0],"sum_hessian":[1.2669E4,7.569E3,5.1E3,2.379E3,5.19E3,4.25E3,8.5E2,1.982E3,3.97E2,3.642E3,1.548E3,3.09E3,1.16E3,8.46E2,4E0],"tree_param":{"num_deleted":"0","num_feature":"70","num_nodes":"15","size_leaf_vector":"1"}},{"base_weights":[-0E0,-1.6941226E-4,2.5037536E-4,-4.530286E-4,-4.349715E-5,3.3378246E-4,-4.9214166E-5,-5.7289426E-6,-0E0,-1.8219895E-6,-0E0,4.38122E-6,-0E0,2.3127164E-7,-6.3796456E-6],"categories":[],"categories_nodes":[],"categories_segments":[],"categories_sizes":[],"default_left":[0,0,0,0,0,0,0,0,0,0,0,0,0,0,0],"id":9,"left_children":[1,3,5,7,9,11,13,-1,-1,-1,-1,-1,-1,-1,-1],"loss_changes":[5.373991E-4,2.2072843E-4,1.5610218E-4,1.423875E-4,2.897445E-5,1.2003537E-4,9.7972814E-5,0E0,0E0,0E0,0E0,0E0,0E0,0E0,0E0],"parents":[2147483647,0,0,1,1,2,2,3,3,4,4,5,5,6,6],"right_children":[2,4,6,8,10,12,14,-1,-1,-1,-1,-1,-1,-1,-1],"split_conditions":[1.6884726E-3,-6.6663558E-3,1E0,1E0,-4.5E-2,2.0387897E-3,1.09171625E-2,-5.7289426E-6,-0E0,-1.8219895E-6,-0E0,4.38122E-6,-0E0,2.3127164E-7,-6.3796456E-6],"split_indices":[64,64,33,33,49,63,64,0,0,0,0,0,0,0,0],"split_type":[0,0,0,0,0,0,0,0,0,0,0,0,0,0,0],"sum_hessian":[1.2669E4,7.569E3,5.1E3,2.079E3,5.49E3,4.25E3,8.5E2,1.732E3,3.47E2,1.181E3,4.309E3,3.09E3,1.16E3,6.1E2,2.4E2],"tree_param":{"num_deleted":"0","num_feature":"70","num_nodes":"15","size_leaf_vector":"1"}},{"base_weights":[-0E0,-1.6781809E-4,2.4799578E-4,-4.2167178E-4,-3.1913107E-5,3.306008E-4,-4.758839E-5,-5.3290755E-6,-0E0,-0E0,-1.3853326E-6,4.337479E-6,-0E0,-0E0,-3.32857E-5],"categories":[],"categories_nodes":[],"categories_segments":[],"categories_sizes":[],"default_left":[0,0,0,0,0,0,0,0,0,0,0,0,0,0,0],"id":10,"left_children":[1,3,5,7,9,11,13,-1,-1,-1,-1,-1,-1,-1,-1],"loss_changes":[5.2727305E-4,2.1587711E-4,1.5302739E-4,1.403969E-4,2.451351E-5,1.17226446E-4,9.777815E-5,0E0,0E0,0E0,0E0,0E0,0E0,0E0,0E0],"parents":[2147483647,0,0,1,1,2,2,3,3,4,4,5,5,6,6],"right_children":[2,4,6,8,10,12,14,-1,-1,-1,-1,-1,-1,-1,-1],"split_conditions":[1.6884726E-3,-5.643606E-3,1E0,1E0,1.4075949E-3,2.0387897E-3,1.6560957E0,-5.3290755E-6,-0E0,-0E0,-1.3853326E-6,4.337479E-6,-0E0,-0E0,-3.32857E-5],"split_indices":[64,64,33,33,63,63,24,0,0,0,0,0,0,0,0],"split_type":[0,0,0,0,0,0,0,0,0,0,0,0,0,0,0],"sum_hessian":[1.2669E4,7.569E3,5.1E3,2.379E3,5.19E3,4.25E3,8.5E2,1.982E3,3.97E2,3.642E3,1.548E3,3.09E3,1.16E3,8.46E2,4E0],"tree_param":{"num_deleted":"0","num_feature":"70","num_nodes":"15","size_leaf_vector":"1"}},{"base_weights":[-0E0,-1.661404E-4,2.4539643E-4,-4.4383833E-4,-4.2472846E-5,3.2745092E-4,-4.7432663E-5,-5.6186805E-6,-0E0,5.1503893E-8,-1.1179608E-6,4.2941742E-6,-0E0,-0E0,-3.3137763E-5],"categories":[],"categories_nodes":[],"categories_segments":[],"categories_sizes":[],"default_left":[0,0,0,0,0,0,0,0,0,0,0,0,0,0,0],"id":11,"left_children":[1,3,5,7,9,11,13,-1,-1,-1,-1,-1,-1,-1,-1],"loss_changes":[5.164824E-4,2.1138265E-4,1.5074213E-4,1.3783123E-4,2.8808623E-5,1.14477385E-4,9.69064E-5,0E0,0E0,0E0,0E0,0E0,0E0,0E0,0E0],"parents":[2147483647,0,0,1,1,2,2,3,3,4,4,5,5,6,6],"right_children":[2,4,6,8,10,12,14,-1,-1,-1,-1,-1,-1,-1,-1],"split_conditions":[1.6884726E-3,-6.6663558E-3,1E0,1E0,-2.021073E-4,2.0387897E-3,1.6560957E0,-5.6186805E-6,-0E0,5.1503893E-8,-1.1179608E-6,4.2941742E-6,-0E0,-0E0,-3.3137763E-5],"split_indices":[64,64,33,33,30,63,24,0,0,0,0,0,0,0,0],"split_type":[0,0,0,0,0,0,0,0,0,0,0,0,0,0,0],"sum_hessian":[1.2669E4,7.569E3,5.1E3,2.079E3,5.49E3,4.25E3,8.5E2,1.732E3,3.47E2,2.402E3,3.088E3,3.09E3,1.16E3,8.46E2,4E0],"tree_param":{"num_deleted":"0","num_feature":"70","num_nodes":"15","size_leaf_vector":"1"}},{"base_weights":[-0E0,-1.6441608E-4,2.4282317E-4,-4.1309022E-4,-3.089129E-5,3.2433248E-4,-4.7277637E-5,-5.2262776E-6,-0E0,-0E0,-1.3658849E-6,4.2513016E-6,-0E0,-0E0,-3.299049E-5],"categories":[],"categories_nodes":[],"categories_segments":[],"categories_sizes":[],"default_left":[0,0,0,0,0,0,0,0,0,0,0,0,0,0,0],"id":12,"left_children":[1,3,5,7,9,11,13,-1,-1,-1,-1,-1,-1,-1,-1],"loss_changes":[5.057519E-4,2.0702639E-4,1.484945E-4,1.3591454E-4,2.4015975E-5,1.1178694E-4,9.604245E-5,0E0,0E0,0E0,0E0,0E0,0E0,0E0,0E0],"parents":[2147483647,0,0,1,1,2,2,3,3,4,4,5,5,6,6],"right_children":[2,4,6,8,10,12,14,-1,-1,-1,-1,-1,-1,-1,-1],"split_conditions":[1.6884726E-3,-5.643606E-3,1E0,1E0,1.4075949E-3,2.0387897E-3,1.6560957E0,-5.2262776E-6,-0E0,-0E0,-1.3658849E-6,4.2513016E-6,-0E0,-0E0,-3.299049E-5],"split_indices":[64,64,33,33,63,63,24,0,0,0,0,0,0,0,0],"split_type":[0,0,0,0,0,0,0,0,0,0,0,0,0,0,0],"sum_hessian":[1.2669E4,7.569E3,5.1E3,2.379E3,5.19E3,4.25E3,8.5E2,1.982E3,3.97E2,3.642E3,1.548E3,3.09E3,1.16E3,8.46E2,4E0],"tree_param":{"num_deleted":"0","num_feature":"70","num_nodes":"15","size_leaf_vector":"1"}},{"base_weights":[-0E0,-1.6276928E-4,2.4027574E-4,-4.3482517E-4,-4.124456E-5,3.2124514E-4,-4.7123296E-5,-5.5105434E-6,-0E0,-1.7859104E-6,-0E0,4.2088573E-6,-0E0,6.065631E-8,-6.7706515E-6],"categories":[],"categories_nodes":[],"categories_segments":[],"categories_sizes":[],"default_left":[0,0,0,0,0,0,0,0,0,0,0,0,0,0,0],"id":13,"left_children":[1,3,5,7,9,11,13,-1,-1,-1,-1,-1,-1,-1,-1],"loss_changes":[4.953884E-4,2.027113E-4,1.4628391E-4,1.3343102E-4,2.8479564E-5,1.0915383E-4,9.576807E-5,0E0,0E0,0E0,0E0,0E0,0E0,0E0,0E0],"parents":[2147483647,0,0,1,1,2,2,3,3,4,4,5,5,6,6],"right_children":[2,4,6,8,10,12,14,-1,-1,-1,-1,-1,-1,-1,-1],"split_conditions":[1.6884726E-3,-6.6663558E-3,1E0,1E0,-4.5E-2,2.0387897E-3,1.1840033E-2,-5.5105434E-6,-0E0,-1.7859104E-6,-0E0,4.2088573E-6,-0E0,6.065631E-8,-6.7706515E-6],"split_indices":[64,64,33,33,49,63,64,0,0,0,0,0,0,0,0],"split_type":[0,0,0,0,0,0,0,0,0,0,0,0,0,0,0],"sum_hessian":[1.2669E4,7.569E3,5.1E3,2.079E3,5.49E3,4.25E3,8.5E2,1.732E3,3.47E2,1.181E3,4.309E3,3.09E3,1.16E3,6.42E2,2.08E2],"tree_param":{"num_deleted":"0","num_feature":"70","num_nodes":"15","size_leaf_vector":"1"}},{"base_weights":[-0E0,-1.6123067E-4,2.3799641E-4,-4.0470134E-4,-3.009685E-5,3.1818866E-4,-4.552172E-5,-5.1257084E-6,-0E0,-0E0,-1.3481991E-6,-0E0,3.993248E-6,-0E0,-3.4875324E-5],"categories":[],"categories_nodes":[],"categories_segments":[],"categories_sizes":[],"default_left":[0,0,0,0,0,0,0,0,0,0,0,0,0,0,0],"id":14,"left_children":[1,3,5,7,9,11,13,-1,-1,-1,-1,-1,-1,-1,-1],"loss_changes":[4.8604753E-4,1.982762E-4,1.4340621E-4,1.3158325E-4,2.3522225E-5,1.065878E-4,9.553131E-5,0E0,0E0,0E0,0E0,0E0,0E0,0E0,0E0],"parents":[2147483647,0,0,1,1,2,2,3,3,4,4,5,5,6,6],"right_children":[2,4,6,8,10,12,14,-1,-1,-1,-1,-1,-1,-1,-1],"split_conditions":[1.6884726E-3,-5.643606E-3,1E0,1E0,1.4075949E-3,2.2676515E-3,8.422003E-3,-5.1257084E-6,-0E0,-0E0,-1.3481991E-6,-0E0,3.993248E-6,-0E0,-3.4875324E-5],"split_indices":[64,64,33,33,63,29,41,0,0,0,0,0,0,0,0],"split_type":[0,0,0,0,0,0,0,0,0,0,0,0,0,0,0],"sum_hessian":[1.2669E4,7.569E3,5.1E3,2.379E3,5.19E3,4.25E3,8.5E2,1.982E3,3.97E2,3.642E3,1.548E3,8.85E2,3.365E3,8.47E2,3E0],"tree_param":{"num_deleted":"0","num_feature":"70","num_nodes":"15","size_leaf_vector":"1"}},{"base_weights":[-0E0,-1.596138E-4,2.3538474E-4,-4.2598546E-4,-4.0247724E-5,3.1503066E-4,-4.539935E-5,-5.4044867E-6,-0E0,9.01628E-8,-1.0757201E-6,4.135626E-6,-0E0,-0E0,-3.4744542E-5],"categories":[],"categories_nodes":[],"categories_segments":[],"categories_sizes":[],"default_left":[0,0,0,0,0,0,0,0,0,0,0,0,0,0,0],"id":15,"left_children":[1,3,5,7,9,11,13,-1,-1,-1,-1,-1,-1,-1,-1],"loss_changes":[4.75807E-4,1.941119E-4,1.4119936E-4,1.291812E-4,2.8085491E-5,1.070658E-4,9.481241E-5,0E0,0E0,0E0,0E0,0E0,0E0,0E0,0E0],"parents":[2147483647,0,0,1,1,2,2,3,3,4,4,5,5,6,6],"right_children":[2,4,6,8,10,12,14,-1,-1,-1,-1,-1,-1,-1,-1],"split_conditions":[1.6884726E-3,-6.6663558E-3,1E0,1E0,-2.6409896E-4,2.0387897E-3,8.422003E-3,-5.4044867E-6,-0E0,9.01628E-8,-1.0757201E-6,4.135626E-6,-0E0,-0E0,-3.4744542E-5],"split_indices":[64,64,33,33,30,63,41,0,0,0,0,0,0,0,0],"split_type":[0,0,0,0,0,0,0,0,0,0,0,0,0,0,0],"sum_hessian":[1.2669E4,7.569E3,5.1E3,2.079E3,5.49E3,4.25E3,8.5E2,1.732E3,3.47E2,2.315E3,3.175E3,3.09E3,1.16E3,8.47E2,3E0],"tree_param":{"num_deleted":"0","num_feature":"70","num_nodes":"15","size_leaf_vector":"1"}},{"base_weights":[-0E0,-1.5795454E-4,2.3290189E-4,-3.928249E-4,-2.7394111E-5,3.1202735E-4,-4.527744E-5,-4.9751716E-6,-0E0,-1.5668328E-6,-0E0,4.094337E-6,-0E0,-0E0,-3.2659063E-5],"categories":[],"categories_nodes":[],"categories_segments":[],"categories_sizes":[],"default_left":[0,0,0,0,0,0,0,0,0,0,0,0,0,0,0],"id":16,"left_children":[1,3,5,7,9,11,13,-1,-1,-1,-1,-1,-1,-1,-1],"loss_changes":[4.6588056E-4,1.9017933E-4,1.3911212E-4,1.2644447E-4,2.3927705E-5,1.0456194E-4,9.4242496E-5,0E0,0E0,0E0,0E0,0E0,0E0,0E0,0E0],"parents":[2147483647,0,0,1,1,2,2,3,3,4,4,5,5,6,6],"right_children":[2,4,6,8,10,12,14,-1,-1,-1,-1,-1,-1,-1,-1],"split_conditions":[1.6884726E-3,-5.479077E-3,1E0,1E0,-4.5E-2,2.0387897E-3,1.6560957E0,-4.9751716E-6,-0E0,-1.5668328E-6,-0E0,4.094337E-6,-0E0,-0E0,-3.2659063E-5],"split_indices":[64,64,33,33,49,63,24,0,0,0,0,0,0,0,0],"split_type":[0,0,0,0,0,0,0,0,0,0,0,0,0,0,0],"sum_hessian":[1.2669E4,7.569E3,5.1E3,2.427E3,5.142E3,4.25E3,8.5E2,2.022E3,4.05E2,1.127E3,4.015E3,3.09E3,1.16E3,8.46E2,4E0],"tree_param":{"num_deleted":"0","num_feature":"70","num_nodes":"15","size_leaf_vector":"1"}},{"base_weights":[-0E0,-1.5639319E-4,2.3044922E-4,-4.1735897E-4,-3.908024E-5,3.09054E-4,-4.5124645E-5,-5.300989E-6,-0E0,7.466861E-8,-1.075715E-6,-0E0,3.8942994E-6,2.2837604E-7,-6.229661E-6],"categories":[],"categories_nodes":[],"categories_segments":[],"categories_sizes":[],"default_left":[0,0,0,0,0,0,0,0,0,0,0,0,0,0,0],"id":17,"left_children":[1,3,5,7,9,11,13,-1,-1,-1,-1,-1,-1,-1,-1],"loss_changes":[4.5636162E-4,1.8614999E-4,1.3704426E-4,1.2509662E-4,2.7532926E-5,1.0466596E-4,9.3661045E-5,0E0,0E0,0E0,0E0,0E0,0E0,0E0,0E0],"parents":[2147483647,0,0,1,1,2,2,3,3,4,4,5,5,6,6],"right_children":[2,4,6,8,10,12,14,-1,-1,-1,-1,-1,-1,-1,-1],"split_conditions":[1.6884726E-3,-6.6663558E-3,1E0,1E0,-2.021073E-4,2.2676515E-3,1.09171625E-2,-5.300989E-6,-0E0,7.466861E-8,-1.075715E-6,-0E0,3.8942994E-6,2.2837604E-7,-6.229661E-6],"split_indices":[64,64,33,33,30,29,64,0,0,0,0,0,0,0,0],"split_type":[0,0,0,0,0,0,0,0,0,0,0,0,0,0,0],"sum_hessian":[1.2669E4,7.569E3,5.1E3,2.079E3,5.49E3,4.25E3,8.5E2,1.732E3,3.47E2,2.402E3,3.088E3,8.85E2,3.365E3,6.1E2,2.4E2],"tree_param":{"num_deleted":"0","num_feature":"70","num_nodes":"15","size_leaf_vector":"1"}},{"base_weights":[-0E0,-1.5476608E-4,2.2814785E-4,-3.8483975E-4,-2.6475227E-5,3.0597427E-4,-4.3538897E-5,-4.879537E-6,-0E0,-1.545839E-6,-0E0,-0E0,3.8554144E-6,-0E0,-3.4509238E-5],"categories":[],"categories_nodes":[],"categories_segments":[],"categories_sizes":[],"default_left":[0,0,0,0,0,0,0,0,0,0,0,0,0,0,0],"id":18,"left_children":[1,3,5,7,9,11,13,-1,-1,-1,-1,-1,-1,-1,-1],"loss_changes":[4.4713914E-4,1.823744E-4,1.3425236E-4,1.2244316E-4,2.3442755E-5,1.0256996E-4,9.365024E-5,0E0,0E0,0E0,0E0,0E0,0E0,0E0,0E0],"parents":[2147483647,0,0,1,1,2,2,3,3,4,4,5,5,6,6],"right_children":[2,4,6,8,10,12,14,-1,-1,-1,-1,-1,-1,-1,-1],"split_conditions":[1.6884726E-3,-5.479077E-3,1E0,1E0,-4.5E-2,2.2676515E-3,8.422003E-3,-4.879537E-6,-0E0,-1.545839E-6,-0E0,-0E0,3.8554144E-6,-0E0,-3.4509238E-5],"split_indices":[64,64,33,33,49,29,41,0,0,0,0,0,0,0,0],"split_type":[0,0,0,0,0,0,0,0,0,0,0,0,0,0,0],"sum_hessian":[1.2669E4,7.569E3,5.1E3,2.427E3,5.142E3,4.25E3,8.5E2,2.022E3,4.05E2,1.127E3,4.015E3,8.85E2,3.365E3,8.47E2,3E0],"tree_param":{"num_deleted":"0","num_feature":"70","num_nodes":"15","size_leaf_vector":"1"}},{"base_weights":[-0E0,-1.532334E-4,2.2562682E-4,-4.0889802E-4,-3.79338E-5,3.029253E-4,-4.341782E-5,-5.199477E-6,-0E0,-1.7179518E-6,-0E0,3.992889E-6,-0E0,-0E0,-3.4379835E-5],"categories":[],"categories_nodes":[],"categories_segments":[],"categories_sizes":[],"default_left":[0,0,0,0,0,0,0,0,0,0,0,0,0,0,0],"id":19,"left_children":[1,3,5,7,9,11,13,-1,-1,-1,-1,-1,-1,-1,-1],"loss_changes":[4.377237E-4,1.7850584E-4,1.3218386E-4,1.2115063E-4,2.7095954E-5,1.0298632E-4,9.294608E-5,0E0,0E0,0E0,0E0,0E0,0E0,0E0,0E0],"parents":[2147483647,0,0,1,1,2,2,3,3,4,4,5,5,6,6],"right_children":[2,4,6,8,10,12,14,-1,-1,-1,-1,-1,-1,-1,-1],"split_conditions":[1.6884726E-3,-6.6663558E-3,1E0,1E0,-4.5E-2,2.0387897E-3,8.422003E-3,-5.199477E-6,-0E0,-1.7179518E-6,-0E0,3.992889E-6,-0E0,-0E0,-3.4379835E-5],"split_indices":[64,64,33,33,49,63,41,0,0,0,0,0,0,0,0],"split_type":[0,0,0,0,0,0,0,0,0,0,0,0,0,0,0],"sum_hessian":[1.2669E4,7.569E3,5.1E3,2.079E3,5.49E3,4.25E3,8.5E2,1.732E3,3.47E2,1.181E3,4.309E3,3.09E3,1.16E3,8.47E2,3E0],"tree_param":{"num_deleted":"0","num_feature":"70","num_nodes":"15","size_leaf_vector":"1"}},{"base_weights":[-0E0,-1.517765E-4,2.2323016E-4,-3.7704175E-4,-2.576058E-5,3.0002563E-4,-4.3297183E-5,-4.786053E-6,-0E0,-1.5133453E-6,-0E0,3.9530246E-6,-0E0,-0E0,-3.2333133E-5],"categories":[],"categories_nodes":[],"categories_segments":[],"categories_sizes":[],"default_left":[0,0,0,0,0,0,0,0,0,0,0,0,0,0,0],"id":20,"left_children":[1,3,5,7,9,11,13,-1,-1,-1,-1,-1,-1,-1,-1],"loss_changes":[4.2886636E-4,1.7467444E-4,1.3022742E-4,1.18576456E-4,2.2509637E-5,1.0062178E-4,9.248602E-5,0E0,0E0,0E0,0E0,0E0,0E0,0E0,0E0],"parents":[2147483647,0,0,1,1,2,2,3,3,4,4,5,5,6,6],"right_children":[2,4,6,8,10,12,14,-1,-1,-1,-1,-1,-1,-1,-1],"split_conditions":[1.6884726E-3,-5.479077E-3,1E0,1E0,-4.5E-2,2.0387897E-3,1.6560957E0,-4.786053E-6,-0E0,-1.5133453E-6,-0E0,3.9530246E-6,-0E0,-0E0,-3.2333133E-5],"split_indices":[64,64,33,33,49,63,24,0,0,0,0,0,0,0,0],"split_type":[0,0,0,0,0,0,0,0,0,0,0,0,0,0,0],"sum_hessian":[1.2669E4,7.569E3,5.1E3,2.427E3,5.142E3,4.25E3,8.5E2,2.022E3,4.05E2,1.127E3,4.015E3,3.09E3,1.16E3,8.46E2,4E0],"tree_param":{"num_deleted":"0","num_feature":"70","num_nodes":"15","size_leaf_vector":"1"}},{"base_weights":[-0E0,-1.5027361E-4,2.2086278E-4,-4.005991E-4,-3.7001613E-5,2.9715494E-4,-4.3145916E-5,-4.630994E-6,6.2244308E-6,1.1159959E-7,-1.0352671E-6,-0E0,3.7598813E-6,-0E0,-3.4170072E-5],"categories":[],"categories_nodes":[],"categories_segments":[],"categories_sizes":[],"default_left":[0,0,0,0,0,0,0,0,0,0,0,0,0,0,0],"id":21,"left_children":[1,3,5,7,9,11,13,-1,-1,-1,-1,-1,-1,-1,-1],"loss_changes":[4.2006106E-4,1.7092557E-4,1.2828884E-4,1.1875894E-4,2.6848178E-5,1.0068607E-4,9.1815855E-5,0E0,0E0,0E0,0E0,0E0,0E0,0E0,0E0],"parents":[2147483647,0,0,1,1,2,2,3,3,4,4,5,5,6,6],"right_children":[2,4,6,8,10,12,14,-1,-1,-1,-1,-1,-1,-1,-1],"split_conditions":[1.6884726E-3,-6.6663558E-3,1E0,4.5110203E1,-2.6409896E-4,2.2676515E-3,8.422003E-3,-4.630994E-6,6.2244308E-6,1.1159959E-7,-1.0352671E-6,-0E0,3.7598813E-6,-0E0,-3.4170072E-5],"split_indices":[64,64,33,13,30,29,41,0,0,0,0,0,0,0,0],"split_type":[0,0,0,0,0,0,0,0,0,0,0,0,0,0,0],"sum_hessian":[1.2669E4,7.569E3,5.1E3,2.079E3,5.49E3,4.25E3,8.5E2,2.054E3,2.5E1,2.315E3,3.175E3,8.85E2,3.365E3,8.47E2,3E0],"tree_param":{"num_deleted":"0","num_feature":"70","num_nodes":"15","size_leaf_vector":"1"}},{"base_weights":[-0E0,-1.4863841E-4,2.1840452E-4,-3.6914597E-4,-2.4873578E-5,2.941815E-4,-4.3026022E-5,-4.6992523E-6,-0E0,-1.493088E-6,-0E0,-0E0,3.7223383E-6,6.098233E-8,-6.6071734E-6],"categories":[],"categories_nodes":[],"categories_segments":[],"categories_sizes":[],"default_left":[0,0,0,0,0,0,0,0,0,0,0,0,0,0,0],"id":22,"left_children":[1,3,5,7,9,11,13,-1,-1,-1,-1,-1,-1,-1,-1],"loss_changes":[4.1084643E-4,1.672548E-4,1.2631102E-4,1.1621622E-4,2.2051388E-5,9.870119E-5,9.1425856E-5,0E0,0E0,0E0,0E0,0E0,0E0,0E0,0E0],"parents":[2147483647,0,0,1,1,2,2,3,3,4,4,5,5,6,6],"right_children":[2,4,6,8,10,12,14,-1,-1,-1,-1,-1,-1,-1,-1],"split_conditions":[1.6884726E-3,-5.479077E-3,1E0,1E0,-4.5E-2,2.2676515E-3,1.1840033E-2,-4.6992523E-6,-0E0,-1.493088E-6,-0E0,-0E0,3.7223383E-6,6.098233E-8,-6.6071734E-6],"split_indices":[64,64,33,33,49,29,64,0,0,0,0,0,0,0,0],"split_type":[0,0,0,0,0,0,0,0,0,0,0,0,0,0,0],"sum_hessian":[1.2669E4,7.569E3,5.1E3,2.427E3,5.142E3,4.25E3,8.5E2,2.022E3,4.05E2,1.127E3,4.015E3,8.85E2,3.365E3,6.42E2,2.08E2],"tree_param":{"num_deleted":"0","num_feature":"70","num_nodes":"15","size_leaf_vector":"1"}},{"base_weights":[-0E0,-1.471617E-4,2.1621243E-4,-3.9220392E-4,-3.5896224E-5,2.9123772E-4,-4.1464467E-5,-4.54577E-6,6.2070208E-6,1.1665281E-7,-1.0198528E-6,3.8550784E-6,-0E0,-0E0,-3.2084128E-5],"categories":[],"categories_nodes":[],"categories_segments":[],"categories_sizes":[],"default_left":[0,0,0,0,0,0,0,0,0,0,0,0,0,0,0],"id":23,"left_children":[1,3,5,7,9,11,13,-1,-1,-1,-1,-1,-1,-1,-1],"loss_changes":[4.0267443E-4,1.6362275E-4,1.2372904E-4,1.16461335E-4,2.6310357E-5,9.906085E-5,9.117523E-5,0E0,0E0,0E0,0E0,0E0,0E0,0E0,0E0],"parents":[2147483647,0,0,1,1,2,2,3,3,4,4,5,5,6,6],"right_children":[2,4,6,8,10,12,14,-1,-1,-1,-1,-1,-1,-1,-1],"split_conditions":[1.6884726E-3,-6.6663558E-3,1E0,4.5110203E1,-2.6409896E-4,2.0387897E-3,1.6560957E0,-4.54577E-6,6.2070208E-6,1.1665281E-7,-1.0198528E-6,3.8550784E-6,-0E0,-0E0,-3.2084128E-5],"split_indices":[64,64,33,13,30,63,24,0,0,0,0,0,0,0,0],"split_type":[0,0,0,0,0,0,0,0,0,0,0,0,0,0,0],"sum_hessian":[1.2669E4,7.569E3,5.1E3,2.079E3,5.49E3,4.25E3,8.5E2,2.054E3,2.5E1,2.315E3,3.175E3,3.09E3,1.16E3,8.46E2,4E0],"tree_param":{"num_deleted":"0","num_feature":"70","num_nodes":"15","size_leaf_vector":"1"}},{"base_weights":[-0E0,-1.4555755E-4,2.1390413E-4,-3.6139565E-4,-2.4002089E-5,2.8843817E-4,-4.1314368E-5,-4.614049E-6,-0E0,-1.4731395E-6,-0E0,3.81659E-6,-0E0,-0E0,-3.3936947E-5],"categories":[],"categories_nodes":[],"categories_segments":[],"categories_sizes":[],"default_left":[0,0,0,0,0,0,0,0,0,0,0,0,0,0,0],"id":24,"left_children":[1,3,5,7,9,11,13,-1,-1,-1,-1,-1,-1,-1,-1],"loss_changes":[3.940495E-4,1.601306E-4,1.2188166E-4,1.1390139E-4,2.1600801E-5,9.6827454E-5,9.067794E-5,0E0,0E0,0E0,0E0,0E0,0E0,0E0,0E0],"parents":[2147483647,0,0,1,1,2,2,3,3,4,4,5,5,6,6],"right_children":[2,4,6,8,10,12,14,-1,-1,-1,-1,-1,-1,-1,-1],"split_conditions":[1.6884726E-3,-5.479077E-3,1E0,1E0,-4.5E-2,2.0387897E-3,8.422003E-3,-4.614049E-6,-0E0,-1.4731395E-6,-0E0,3.81659E-6,-0E0,-0E0,-3.3936947E-5],"split_indices":[64,64,33,33,49,63,41,0,0,0,0,0,0,0,0],"split_type":[0,0,0,0,0,0,0,0,0,0,0,0,0,0,0],"sum_hessian":[1.2669E4,7.569E3,5.1E3,2.427E3,5.142E3,4.25E3,8.5E2,2.022E3,4.05E2,1.127E3,4.015E3,3.09E3,1.16E3,8.47E2,3E0],"tree_param":{"num_deleted":"0","num_feature":"70","num_nodes":"15","size_leaf_vector":"1"}},{"base_weights":[-0E0,-1.4410657E-4,2.1161394E-4,-3.8396334E-4,-3.481047E-5,2.8566655E-4,-4.119529E-5,-4.462103E-6,6.1891333E-6,1.0099339E-7,-1.0203447E-6,-0E0,3.6301026E-6,-0E0,-3.3809683E-5],"categories":[],"categories_nodes":[],"categories_segments":[],"categories_sizes":[],"default_left":[0,0,0,0,0,0,0,0,0,0,0,0,0,0,0],"id":25,"left_children":[1,3,5,7,9,11,13,-1,-1,-1,-1,-1,-1,-1,-1],"loss_changes":[3.8589124E-4,1.5661129E-4,1.2007756E-4,1.1420637E-4,2.5788166E-5,9.68558E-5,8.99966E-5,0E0,0E0,0E0,0E0,0E0,0E0,0E0,0E0],"parents":[2147483647,0,0,1,1,2,2,3,3,4,4,5,5,6,6],"right_children":[2,4,6,8,10,12,14,-1,-1,-1,-1,-1,-1,-1,-1],"split_conditions":[1.6884726E-3,-6.6663558E-3,1E0,4.5110203E1,-2.021073E-4,2.2676515E-3,8.422003E-3,-4.462103E-6,6.1891333E-6,1.0099339E-7,-1.0203447E-6,-0E0,3.6301026E-6,-0E0,-3.3809683E-5],"split_indices":[64,64,33,13,30,29,41,0,0,0,0,0,0,0,0],"split_type":[0,0,0,0,0,0,0,0,0,0,0,0,0,0,0],"sum_hessian":[1.2669E4,7.569E3,5.1E3,2.079E3,5.49E3,4.25E3,8.5E2,2.054E3,2.5E1,2.402E3,3.088E3,8.85E2,3.365E3,8.47E2,3E0],"tree_param":{"num_deleted":"0","num_feature":"70","num_nodes":"15","size_leaf_vector":"1"}},{"base_weights":[-0E0,-1.4253294E-4,2.09241E-4,-3.537869E-4,-2.314644E-5,2.8279572E-4,-4.107666E-5,-4.5303996E-6,-0E0,-1.4534958E-6,-0E0,-0E0,3.5938554E-6,-0E0,-3.1790987E-5],"categories":[],"categories_nodes":[],"categories_segments":[],"categories_sizes":[],"default_left":[0,0,0,0,0,0,0,0,0,0,0,0,0,0,0],"id":26,"left_children":[1,3,5,7,9,11,13,-1,-1,-1,-1,-1,-1,-1,-1],"loss_changes":[3.7737668E-4,1.532886E-4,1.182235E-4,1.1163033E-4,2.1157655E-5,9.497546E-5,8.951739E-5,0E0,0E0,0E0,0E0,0E0,0E0,0E0,0E0],"parents":[2147483647,0,0,1,1,2,2,3,3,4,4,5,5,6,6],"right_children":[2,4,6,8,10,12,14,-1,-1,-1,-1,-1,-1,-1,-1],"split_conditions":[1.6884726E-3,-5.479077E-3,1E0,1E0,-4.5E-2,2.2676515E-3,1.6560957E0,-4.5303996E-6,-0E0,-1.4534958E-6,-0E0,-0E0,3.5938554E-6,-0E0,-3.1790987E-5],"split_indices":[64,64,33,33,49,29,24,0,0,0,0,0,0,0,0],"split_type":[0,0,0,0,0,0,0,0,0,0,0,0,0,0,0],"sum_hessian":[1.2669E4,7.569E3,5.1E3,2.427E3,5.142E3,4.25E3,8.5E2,2.022E3,4.05E2,1.127E3,4.015E3,8.85E2,3.365E3,8.46E2,4E0],"tree_param":{"num_deleted":"0","num_feature":"70","num_nodes":"15","size_leaf_vector":"1"}},{"base_weights":[-0E0,-1.411072E-4,2.0689699E-4,-3.7587454E-4,-3.374401E-5,2.799536E-4,-4.092794E-5,-4.3799655E-6,6.17078E-6,1.2652741E-7,-9.89867E-7,3.7220248E-6,-0E0,2.2550591E-7,-6.0760003E-6],"categories":[],"categories_nodes":[],"categories_segments":[],"categories_sizes":[],"default_left":[0,0,0,0,0,0,0,0,0,0,0,0,0,0,0],"id":27,"left_children":[1,3,5,7,9,11,13,-1,-1,-1,-1,-1,-1,-1,-1],"loss_changes":[3.6933422E-4,1.4988022E-4,1.1638712E-4,1.1199314E-4,2.527329E-5,9.528344E-5,8.932909E-5,0E0,0E0,0E0,0E0,0E0,0E0,0E0,0E0],"parents":[2147483647,0,0,1,1,2,2,3,3,4,4,5,5,6,6],"right_children":[2,4,6,8,10,12,14,-1,-1,-1,-1,-1,-1,-1,-1],"split_conditions":[1.6884726E-3,-6.6663558E-3,1E0,4.5110203E1,-2.6409896E-4,2.0387897E-3,1.09171625E-2,-4.3799655E-6,6.17078E-6,1.2652741E-7,-9.89867E-7,3.7220248E-6,-0E0,2.2550591E-7,-6.0760003E-6],"split_indices":[64,64,33,13,30,63,64,0,0,0,0,0,0,0,0],"split_type":[0,0,0,0,0,0,0,0,0,0,0,0,0,0,0],"sum_hessian":[1.2669E4,7.569E3,5.1E3,2.079E3,5.49E3,4.25E3,8.5E2,2.054E3,2.5E1,2.315E3,3.175E3,3.09E3,1.16E3,6.1E2,2.4E2],"tree_param":{"num_deleted":"0","num_feature":"70","num_nodes":"15","size_leaf_vector":"1"}},{"base_weights":[-0E0,-1.0373098E-4,2.770515E-4,-3.4631952E-4,-2.589336E-6,3.8138218E-4,-6.946908E-5,-4.448304E-6,-0E0,-1.0731051E-6,3.007074E-7,4.7506383E-6,-0E0,-2.4585162E-5,-0E0],"categories":[],"categories_nodes":[],"categories_segments":[],"categories_sizes":[],"default_left":[0,0,0,0,0,0,0,0,0,0,0,0,0,0,0],"id":28,"left_children":[1,3,5,7,9,11,13,-1,-1,-1,-1,-1,-1,-1,-1],"loss_changes":[3.6246865E-4,1.9215894E-4,1.5514687E-4,1.0940351E-4,3.108983E-5,1.0042521E-4,1.0602252E-4,0E0,0E0,0E0,0E0,0E0,0E0,0E0,0E0],"parents":[2147483647,0,0,1,1,2,2,3,3,4,4,5,5,6,6],"right_children":[2,4,6,8,10,12,14,-1,-1,-1,-1,-1,-1,-1,-1],"split_conditions":[4.652243E-3,-5.479077E-3,1E0,1E0,-5.9486983E-6,1E0,-2.3015447E-2,-4.448304E-6,-0E0,-1.0731051E-6,3.007074E-7,4.7506383E-6,-0E0,-2.4585162E-5,-0E0],"split_indices":[64,64,33,33,31,37,45,0,0,0,0,0,0,0,0],"split_type":[0,0,0,0,0,0,0,0,0,0,0,0,0,0,0],"sum_hessian":[1.2669E4,9.249E3,3.42E3,2.427E3,6.822E3,2.85E3,5.7E2,2.022E3,4.05E2,2.347E3,4.475E3,2.28E3,5.7E2,1.3E1,5.57E2],"tree_param":{"num_deleted":"0","num_feature":"70","num_nodes":"15","size_leaf_vector":"1"}},{"base_weights":[-0E0,-1.3825376E-4,2.0289217E-4,-3.6793467E-4,-3.2822227E-5,2.747527E-4,-3.895689E-5,-4.299329E-6,6.151977E-6,-1.614078E-6,-0E0,3.6593385E-6,-0E0,-0E0,-3.3519173E-5],"categories":[],"categories_nodes":[],"categories_segments":[],"categories_sizes":[],"default_left":[0,0,0,0,0,0,0,0,0,0,0,0,0,0,0],"id":29,"left_children":[1,3,5,7,9,11,13,-1,-1,-1,-1,-1,-1,-1,-1],"loss_changes":[3.5491874E-4,1.4327296E-4,1.12354915E-4,1.0982086E-4,2.4978486E-5,9.3238166E-5,8.858522E-5,0E0,0E0,0E0,0E0,0E0,0E0,0E0,0E0],"parents":[2147483647,0,0,1,1,2,2,3,3,4,4,5,5,6,6],"right_children":[2,4,6,8,10,12,14,-1,-1,-1,-1,-1,-1,-1,-1],"split_conditions":[1.6884726E-3,-6.6663558E-3,1E0,4.5110203E1,-4.5E-2,2.0387897E-3,8.422003E-3,-4.299329E-6,6.151977E-6,-1.614078E-6,-0E0,3.6593385E-6,-0E0,-0E0,-3.3519173E-5],"split_indices":[64,64,33,13,49,63,41,0,0,0,0,0,0,0,0],"split_type":[0,0,0,0,0,0,0,0,0,0,0,0,0,0,0],"sum_hessian":[1.2669E4,7.569E3,5.1E3,2.079E3,5.49E3,4.25E3,8.5E2,2.054E3,2.5E1,1.181E3,4.309E3,3.09E3,1.16E3,8.47E2,3E0],"tree_param":{"num_deleted":"0","num_feature":"70","num_nodes":"15","size_leaf_vector":"1"}},{"base_weights":[-0E0,-1.01876154E-4,2.7175734E-4,-3.3901742E-4,-2.6763669E-6,3.7488388E-4,-6.873835E-5,-4.36797E-6,-0E0,-1.064479E-6,2.9485247E-7,4.676203E-6,-0E0,-2.4370358E-5,-0E0],"categories":[],"categories_nodes":[],"categories_segments":[],"categories_sizes":[],"default_left":[0,0,0,0,0,0,0,0,0,0,0,0,0,0,0],"id":30,"left_children":[1,3,5,7,9,11,13,-1,-1,-1,-1,-1,-1,-1,-1],"loss_changes":[3.4898822E-4,1.835205E-4,1.5100933E-4,1.07218075E-4,3.0496798E-5,9.84224E-5,1.04187726E-4,0E0,0E0,0E0,0E0,0E0,0E0,0E0,0E0],"parents":[2147483647,0,0,1,1,2,2,3,3,4,4,5,5,6,6],"right_children":[2,4,6,8,10,12,14,-1,-1,-1,-1,-1,-1,-1,-1],"split_conditions":[4.652243E-3,-5.479077E-3,1E0,1E0,-5.9486983E-6,1E0,-2.3015447E-2,-4.36797E-6,-0E0,-1.064479E-6,2.9485247E-7,4.676203E-6,-0E0,-2.4370358E-5,-0E0],"split_indices":[64,64,33,33,31,37,45,0,0,0,0,0,0,0,0],"split_type":[0,0,0,0,0,0,0,0,0,0,0,0,0,0,0],"sum_hessian":[1.2669E4,9.249E3,3.42E3,2.427E3,6.822E3,2.85E3,5.7E2,2.022E3,4.05E2,2.347E3,4.475E3,2.28E3,5.7E2,1.3E1,5.57E2],"tree_param":{"num_deleted":"0","num_feature":"70","num_nodes":"15","size_leaf_vector":"1"}},{"base_weights":[-0E0,-1.00794365E-4,2.6873694E-4,-3.3538582E-4,-2.503696E-6,3.7114948E-4,-6.818737E-5,-4.324398E-6,-0E0,-1.0538569E-6,2.9190716E-7,4.6295436E-6,-0E0,-2.4194349E-5,-0E0],"categories":[],"categories_nodes":[],"categories_segments":[],"categories_sizes":[],"default_left":[0,0,0,0,0,0,0,0,0,0,0,0,0,0,0],"id":31,"left_children":[1,3,5,7,9,11,13,-1,-1,-1,-1,-1,-1,-1,-1],"loss_changes":[3.4136797E-4,1.7958698E-4,1.4860331E-4,1.0549725E-4,2.9896253E-5,9.6454925E-5,1.026925E-4,0E0,0E0,0E0,0E0,0E0,0E0,0E0,0E0],"parents":[2147483647,0,0,1,1,2,2,3,3,4,4,5,5,6,6],"right_children":[2,4,6,8,10,12,14,-1,-1,-1,-1,-1,-1,-1,-1],"split_conditions":[4.652243E-3,-5.479077E-3,1E0,1E0,-5.9486983E-6,1E0,-2.3015447E-2,-4.324398E-6,-0E0,-1.0538569E-6,2.9190716E-7,4.6295436E-6,-0E0,-2.4194349E-5,-0E0],"split_indices":[64,64,33,33,31,37,45,0,0,0,0,0,0,0,0],"split_type":[0,0,0,0,0,0,0,0,0,0,0,0,0,0,0],"sum_hessian":[1.2669E4,9.249E3,3.42E3,2.427E3,6.822E3,2.85E3,5.7E2,2.022E3,4.05E2,2.347E3,4.475E3,2.28E3,5.7E2,1.3E1,5.57E2],"tree_param":{"num_deleted":"0","num_feature":"70","num_nodes":"15","size_leaf_vector":"1"}},{"base_weights":[-0E0,-1.3429172E-4,1.9676173E-4,-3.565469E-4,-3.1680036E-5,2.6720445E-4,-3.799563E-5,-4.18425E-6,6.164454E-6,1.4155042E-7,-9.651619E-7,-0E0,3.7525338E-6,-0E0,-3.138565E-5],"categories":[],"categories_nodes":[],"categories_segments":[],"categories_sizes":[],"default_left":[0,0,0,0,0,0,0,0,0,0,0,0,0,0,0],"id":32,"left_children":[1,3,5,7,9,11,13,-1,-1,-1,-1,-1,-1,-1,-1],"loss_changes":[3.3423252E-4,1.338533E-4,1.0739273E-4,1.06958876E-4,2.4572826E-5,9.259512E-5,8.7420965E-5,0E0,0E0,0E0,0E0,0E0,0E0,0E0,0E0],"parents":[2147483647,0,0,1,1,2,2,3,3,4,4,5,5,6,6],"right_children":[2,4,6,8,10,12,14,-1,-1,-1,-1,-1,-1,-1,-1],"split_conditions":[1.6884726E-3,-6.6663558E-3,1E0,4.5110203E1,-2.6409896E-4,2.801467E-3,1.6560957E0,-4.18425E-6,6.164454E-6,1.4155042E-7,-9.651619E-7,-0E0,3.7525338E-6,-0E0,-3.138565E-5],"split_indices":[64,64,33,13,30,29,24,0,0,0,0,0,0,0,0],"split_type":[0,0,0,0,0,0,0,0,0,0,0,0,0,0,0],"sum_hessian":[1.2669E4,7.569E3,5.1E3,2.079E3,5.49E3,4.25E3,8.5E2,2.054E3,2.5E1,2.315E3,3.175E3,1.44E3,2.81E3,8.46E2,4E0],"tree_param":{"num_deleted":"0","num_feature":"70","num_nodes":"15","size_leaf_vector":"1"}},{"base_weights":[-0E0,-9.886834E-5,2.6365803E-4,-3.282578E-4,-2.4321996E-6,3.6490243E-4,-6.742204E-5,-4.2460365E-6,-0E0,-1.0438933E-6,2.8776583E-7,4.556121E-6,-0E0,-2.3984741E-5,-0E0],"categories":[],"categories_nodes":[],"categories_segments":[],"categories_sizes":[],"default_left":[0,0,0,0,0,0,0,0,0,0,0,0,0,0,0],"id":33,"left_children":[1,3,5,7,9,11,13,-1,-1,-1,-1,-1,-1,-1,-1],"loss_changes":[3.2854817E-4,1.7163876E-4,1.4467703E-4,1.03388535E-4,2.9299525E-5,9.417176E-5,1.0093442E-4,0E0,0E0,0E0,0E0,0E0,0E0,0E0,0E0],"parents":[2147483647,0,0,1,1,2,2,3,3,4,4,5,5,6,6],"right_children":[2,4,6,8,10,12,14,-1,-1,-1,-1,-1,-1,-1,-1],"split_conditions":[4.652243E-3,-5.479077E-3,1E0,1E0,-5.9486983E-6,1E0,-2.3015447E-2,-4.2460365E-6,-0E0,-1.0438933E-6,2.8776583E-7,4.556121E-6,-0E0,-2.3984741E-5,-0E0],"split_indices":[64,64,33,33,31,37,45,0,0,0,0,0,0,0,0],"split_type":[0,0,0,0,0,0,0,0,0,0,0,0,0,0,0],"sum_hessian":[1.2669E4,9.249E3,3.42E3,2.427E3,6.822E3,2.85E3,5.7E2,2.022E3,4.05E2,2.347E3,4.475E3,2.28E3,5.7E2,1.3E1,5.57E2],"tree_param":{"num_deleted":"0","num_feature":"70","num_nodes":"15","size_leaf_vector":"1"}},{"base_weights":[-0E0,-9.781499E-5,2.607161E-4,-3.2472762E-4,-2.2619492E-6,3.612639E-4,-6.6879766E-5,-4.2036813E-6,-0E0,-1.0334765E-6,2.848914E-7,4.5106594E-6,-0E0,-2.3811515E-5,-0E0],"categories":[],"categories_nodes":[],"categories_segments":[],"categories_sizes":[],"default_left":[0,0,0,0,0,0,0,0,0,0,0,0,0,0,0],"id":34,"left_children":[1,3,5,7,9,11,13,-1,-1,-1,-1,-1,-1,-1,-1],"loss_changes":[3.2134727E-4,1.6794435E-4,1.4237546E-4,1.0174027E-4,2.872227E-5,9.229654E-5,9.948597E-5,0E0,0E0,0E0,0E0,0E0,0E0,0E0,0E0],"parents":[2147483647,0,0,1,1,2,2,3,3,4,4,5,5,6,6],"right_children":[2,4,6,8,10,12,14,-1,-1,-1,-1,-1,-1,-1,-1],"split_conditions":[4.652243E-3,-5.479077E-3,1E0,1E0,-5.9486983E-6,1E0,-2.3015447E-2,-4.2036813E-6,-0E0,-1.0334765E-6,2.848914E-7,4.5106594E-6,-0E0,-2.3811515E-5,-0E0],"split_indices":[64,64,33,33,31,37,45,0,0,0,0,0,0,0,0],"split_type":[0,0,0,0,0,0,0,0,0,0,0,0,0,0,0],"sum_hessian":[1.2669E4,9.249E3,3.42E3,2.427E3,6.822E3,2.85E3,5.7E2,2.022E3,4.05E2,2.347E3,4.475E3,2.28E3,5.7E2,1.3E1,5.57E2],"tree_param":{"num_deleted":"0","num_feature":"70","num_nodes":"15","size_leaf_vector":"1"}},{"base_weights":[-0E0,-1.3031956E-4,1.9088908E-4,-3.454743E-4,-3.0404344E-5,2.5996225E-4,-3.701826E-5,-4.0723344E-6,6.1750493E-6,-1.5807403E-6,-0E0,1.5264858E-6,6.3614916E-6,2.3673941E-7,-5.967758E-6],"categories":[],"categories_nodes":[],"categories_segments":[],"categories_sizes":[],"default_left":[0,0,0,0,0,0,0,0,0,0,0,0,0,0,0],"id":35,"left_children":[1,3,5,7,9,11,13,-1,-1,-1,-1,-1,-1,-1,-1],"loss_changes":[3.1464992E-4,1.251797E-4,1.0270688E-4,1.0417137E-4,2.4555346E-5,9.240906E-5,8.642768E-5,0E0,0E0,0E0,0E0,0E0,0E0,0E0,0E0],"parents":[2147483647,0,0,1,1,2,2,3,3,4,4,5,5,6,6],"right_children":[2,4,6,8,10,12,14,-1,-1,-1,-1,-1,-1,-1,-1],"split_conditions":[1.6884726E-3,-6.6663558E-3,1E0,4.5110203E1,-4.5E-2,3.3282484E-3,1.09171625E-2,-4.0723344E-6,6.1750493E-6,-1.5807403E-6,-0E0,1.5264858E-6,6.3614916E-6,2.3673941E-7,-5.967758E-6],"split_indices":[64,64,33,13,49,39,64,0,0,0,0,0,0,0,0],"split_type":[0,0,0,0,0,0,0,0,0,0,0,0,0,0,0],"sum_hessian":[1.2669E4,7.569E3,5.1E3,2.079E3,5.49E3,4.25E3,8.5E2,2.054E3,2.5E1,1.181E3,4.309E3,3.519E3,7.31E2,6.1E2,2.4E2],"tree_param":{"num_deleted":"0","num_feature":"70","num_nodes":"15","size_leaf_vector":"1"}},{"base_weights":[-0E0,-9.603311E-5,2.5619907E-4,-3.178216E-4,-2.3067648E-6,3.5526234E-4,-6.39864E-5,-4.127712E-6,-0E0,-1.0250761E-6,2.797983E-7,4.4417025E-6,-0E0,-2.361368E-5,-0E0],"categories":[],"categories_nodes":[],"categories_segments":[],"categories_sizes":[],"default_left":[0,0,0,0,0,0,0,0,0,0,0,0,0,0,0],"id":36,"left_children":[1,3,5,7,9,11,13,-1,-1,-1,-1,-1,-1,-1,-1],"loss_changes":[3.1015373E-4,1.6035032E-4,1.3787753E-4,9.970277E-5,2.8185308E-5,9.046792E-5,9.801487E-5,0E0,0E0,0E0,0E0,0E0,0E0,0E0,0E0],"parents":[2147483647,0,0,1,1,2,2,3,3,4,4,5,5,6,6],"right_children":[2,4,6,8,10,12,14,-1,-1,-1,-1,-1,-1,-1,-1],"split_conditions":[4.652243E-3,-5.479077E-3,1E0,1E0,-5.9486983E-6,1E0,-2.3015447E-2,-4.127712E-6,-0E0,-1.0250761E-6,2.797983E-7,4.4417025E-6,-0E0,-2.361368E-5,-0E0],"split_indices":[64,64,33,33,31,37,45,0,0,0,0,0,0,0,0],"split_type":[0,0,0,0,0,0,0,0,0,0,0,0,0,0,0],"sum_hessian":[1.2669E4,9.249E3,3.42E3,2.427E3,6.822E3,2.85E3,5.7E2,2.022E3,4.05E2,2.347E3,4.475E3,2.28E3,5.7E2,1.3E1,5.57E2],"tree_param":{"num_deleted":"0","num_feature":"70","num_nodes":"15","size_leaf_vector":"1"}},{"base_weights":[-0E0,-9.500652E-5,2.533319E-4,-3.1438973E-4,-2.1377625E-6,3.5171522E-4,-6.345252E-5,-4.086537E-6,-0E0,-1.0148472E-6,2.7700344E-7,4.397383E-6,-0E0,-2.3443135E-5,-0E0],"categories":[],"categories_nodes":[],"categories_segments":[],"categories_sizes":[],"default_left":[0,0,0,0,0,0,0,0,0,0,0,0,0,0,0],"id":37,"left_children":[1,3,5,7,9,11,13,-1,-1,-1,-1,-1,-1,-1,-1],"loss_changes":[3.0333523E-4,1.5688347E-4,1.3568245E-4,9.812355E-5,2.7629942E-5,8.867608E-5,9.660943E-5,0E0,0E0,0E0,0E0,0E0,0E0,0E0,0E0],"parents":[2147483647,0,0,1,1,2,2,3,3,4,4,5,5,6,6],"right_children":[2,4,6,8,10,12,14,-1,-1,-1,-1,-1,-1,-1,-1],"split_conditions":[4.652243E-3,-5.479077E-3,1E0,1E0,-5.9486983E-6,1E0,-2.3015447E-2,-4.086537E-6,-0E0,-1.0148472E-6,2.7700344E-7,4.397383E-6,-0E0,-2.3443135E-5,-0E0],"split_indices":[64,64,33,33,31,37,45,0,0,0,0,0,0,0,0],"split_type":[0,0,0,0,0,0,0,0,0,0,0,0,0,0,0],"sum_hessian":[1.2669E4,9.249E3,3.42E3,2.427E3,6.822E3,2.85E3,5.7E2,2.022E3,4.05E2,2.347E3,4.475E3,2.28E3,5.7E2,1.3E1,5.57E2],"tree_param":{"num_deleted":"0","num_feature":"70","num_nodes":"15","size_leaf_vector":"1"}},{"base_weights":[-0E0,-1.2655738E-4,1.8544582E-4,-3.3470785E-4,-2.9301991E-5,2.5296447E-4,-3.4693367E-5,-3.96349E-6,6.183828E-6,-1.5588757E-6,-0E0,3.4288826E-6,-0E0,-0E0,-3.2934095E-5],"categories":[],"categories_nodes":[],"categories_segments":[],"categories_sizes":[],"default_left":[0,0,0,0,0,0,0,0,0,0,0,0,0,0,0],"id":38,"left_children":[1,3,5,7,9,11,13,-1,-1,-1,-1,-1,-1,-1,-1],"loss_changes":[2.9687275E-4,1.1687619E-4,9.774916E-5,1.0145633E-4,2.4102867E-5,9.1604656E-5,8.574326E-5,0E0,0E0,0E0,0E0,0E0,0E0,0E0,0E0],"parents":[2147483647,0,0,1,1,2,2,3,3,4,4,5,5,6,6],"right_children":[2,4,6,8,10,12,14,-1,-1,-1,-1,-1,-1,-1,-1],"split_conditions":[1.6884726E-3,-6.6663558E-3,1E0,4.5110203E1,-4.5E-2,2.0387897E-3,8.422003E-3,-3.96349E-6,6.183828E-6,-1.5588757E-6,-0E0,3.4288826E-6,-0E0,-0E0,-3.2934095E-5],"split_indices":[64,64,33,13,49,63,41,0,0,0,0,0,0,0,0],"split_type":[0,0,0,0,0,0,0,0,0,0,0,0,0,0,0],"sum_hessian":[1.2669E4,7.569E3,5.1E3,2.079E3,5.49E3,4.25E3,8.5E2,2.054E3,2.5E1,1.181E3,4.309E3,3.09E3,1.16E3,8.47E2,3E0],"tree_param":{"num_deleted":"0","num_feature":"70","num_nodes":"15","size_leaf_vector":"1"}},{"base_weights":[-0E0,-9.329134E-5,2.4841E-4,-3.0767368E-4,-2.205316E-6,3.4566934E-4,-6.275067E-5,-4.0126615E-6,-0E0,-1.0065964E-6,2.7164242E-7,4.328175E-6,-0E0,-2.323723E-5,-0E0],"categories":[],"categories_nodes":[],"categories_segments":[],"categories_sizes":[],"default_left":[0,0,0,0,0,0,0,0,0,0,0,0,0,0,0],"id":39,"left_children":[1,3,5,7,9,11,13,-1,-1,-1,-1,-1,-1,-1,-1],"loss_changes":[2.918884E-4,1.4971371E-4,1.3205204E-4,9.6155796E-5,2.7103895E-5,8.691504E-5,9.493025E-5,0E0,0E0,0E0,0E0,0E0,0E0,0E0,0E0],"parents":[2147483647,0,0,1,1,2,2,3,3,4,4,5,5,6,6],"right_children":[2,4,6,8,10,12,14,-1,-1,-1,-1,-1,-1,-1,-1],"split_conditions":[4.652243E-3,-5.479077E-3,1E0,1E0,-5.9486983E-6,1E0,-2.3015447E-2,-4.0126615E-6,-0E0,-1.0065964E-6,2.7164242E-7,4.328175E-6,-0E0,-2.323723E-5,-0E0],"split_indices":[64,64,33,33,31,37,45,0,0,0,0,0,0,0,0],"split_type":[0,0,0,0,0,0,0,0,0,0,0,0,0,0,0],"sum_hessian":[1.2669E4,9.249E3,3.42E3,2.427E3,6.822E3,2.85E3,5.7E2,2.022E3,4.05E2,2.347E3,4.475E3,2.28E3,5.7E2,1.3E1,5.57E2],"tree_param":{"num_deleted":"0","num_feature":"70","num_nodes":"15","size_leaf_vector":"1"}},{"base_weights":[-0E0,-9.229064E-5,2.4561698E-4,-3.0433747E-4,-2.0373293E-6,3.4221285E-4,-6.222531E-5,-3.9726333E-6,-0E0,-9.96552E-7,2.6892894E-7,4.284988E-6,-0E0,-2.3069404E-5,-0E0],"categories":[],"categories_nodes":[],"categories_segments":[],"categories_sizes":[],"default_left":[0,0,0,0,0,0,0,0,0,0,0,0,0,0,0],"id":40,"left_children":[1,3,5,7,9,11,13,-1,-1,-1,-1,-1,-1,-1,-1],"loss_changes":[2.8544388E-4,1.464618E-4,1.2995202E-4,9.4642484E-5,2.6569807E-5,8.520359E-5,9.356915E-5,0E0,0E0,0E0,0E0,0E0,0E0,0E0,0E0],"parents":[2147483647,0,0,1,1,2,2,3,3,4,4,5,5,6,6],"right_children":[2,4,6,8,10,12,14,-1,-1,-1,-1,-1,-1,-1,-1],"split_conditions":[4.652243E-3,-5.479077E-3,1E0,1E0,-5.9486983E-6,1E0,-2.3015447E-2,-3.9726333E-6,-0E0,-9.96552E-7,2.6892894E-7,4.284988E-6,-0E0,-2.3069404E-5,-0E0],"split_indices":[64,64,33,33,31,37,45,0,0,0,0,0,0,0,0],"split_type":[0,0,0,0,0,0,0,0,0,0,0,0,0,0,0],"sum_hessian":[1.2669E4,9.249E3,3.42E3,2.427E3,6.822E3,2.85E3,5.7E2,2.022E3,4.05E2,2.347E3,4.475E3,2.28E3,5.7E2,1.3E1,5.57E2],"tree_param":{"num_deleted":"0","num_feature":"70","num_nodes":"15","size_leaf_vector":"1"}},{"base_weights":[-0E0,-1.881176E-4,1.1696561E-4,-0E0,-2.6798507E-4,4.64161E-5,4.1117638E-4,-1.3928228E-6,1.8878294E-6,-3.513266E-6,-0E0,7.4527554E-7,-1.0525491E-5,5.0725616E-6,-0E0],"categories":[],"categories_nodes":[],"categories_segments":[],"categories_sizes":[],"default_left":[0,0,0,0,0,0,0,0,0,0,0,0,0,0,0],"id":41,"left_children":[1,3,5,7,9,11,13,-1,-1,-1,-1,-1,-1,-1,-1],"loss_changes":[2.799133E-4,9.203164E-5,1.15526535E-4,3.5363453E-5,1.14836905E-4,1.04973435E-4,3.7690494E-5,0E0,0E0,0E0,0E0,0E0,0E0,0E0,0E0],"parents":[2147483647,0,0,1,1,2,2,3,3,4,4,5,5,6,6],"right_children":[2,4,6,8,10,12,14,-1,-1,-1,-1,-1,-1,-1,-1],"split_conditions":[-7.7734014E-4,-2.285173E-3,1E0,-6.1274245E-3,1E0,1.9002917E-1,8.0525314E1,-1.3928228E-6,1.8878294E-6,-3.513266E-6,-0E0,7.4527554E-7,-1.0525491E-5,5.0725616E-6,-0E0],"split_indices":[64,63,36,65,33,43,18,0,0,0,0,0,0,0,0],"split_type":[0,0,0,0,0,0,0,0,0,0,0,0,0,0,0],"sum_hessian":[1.2669E4,4.899E3,7.77E3,1.206E3,3.693E3,6.546E3,1.224E3,4.86E2,7.2E2,3.077E3,6.16E2,6.476E3,7E1,9.49E2,2.75E2],"tree_param":{"num_deleted":"0","num_feature":"70","num_nodes":"15","size_leaf_vector":"1"}},{"base_weights":[-0E0,-9.076016E-5,2.417512E-4,-2.98857E-4,-1.9150846E-6,3.3757955E-4,-6.224652E-5,-3.9068077E-6,-0E0,-9.878014E-7,2.661978E-7,5.0880217E-6,5.036448E-7,-2.2889391E-5,-0E0],"categories":[],"categories_nodes":[],"categories_segments":[],"categories_sizes":[],"default_left":[0,0,0,0,0,0,0,0,0,0,0,0,0,0,0],"id":42,"left_children":[1,3,5,7,9,11,13,-1,-1,-1,-1,-1,-1,-1,-1],"loss_changes":[2.7639844E-4,1.4101139E-4,1.2741408E-4,9.216869E-5,2.6099224E-5,8.435763E-5,9.2078444E-5,0E0,0E0,0E0,0E0,0E0,0E0,0E0,0E0],"parents":[2147483647,0,0,1,1,2,2,3,3,4,4,5,5,6,6],"right_children":[2,4,6,8,10,12,14,-1,-1,-1,-1,-1,-1,-1,-1],"split_conditions":[4.652243E-3,-5.479077E-3,1E0,1E0,-5.9486983E-6,1.0286031E-4,-2.3015447E-2,-3.9068077E-6,-0E0,-9.878014E-7,2.661978E-7,5.0880217E-6,5.036448E-7,-2.2889391E-5,-0E0],"split_indices":[64,64,33,33,31,63,45,0,0,0,0,0,0,0,0],"split_type":[0,0,0,0,0,0,0,0,0,0,0,0,0,0,0],"sum_hessian":[1.2669E4,9.249E3,3.42E3,2.427E3,6.822E3,2.85E3,5.7E2,2.022E3,4.05E2,2.347E3,4.475E3,1.565E3,1.285E3,1.3E1,5.57E2],"tree_param":{"num_deleted":"0","num_feature":"70","num_nodes":"15","size_leaf_vector":"1"}},{"base_weights":[-0E0,-8.978471E-5,2.3932423E-4,-2.985537E-4,-2.7804715E-6,3.345638E-4,-6.172903E-5,-3.9124643E-6,-0E0,1.2868987E-6,-4.1334172E-7,4.1983676E-6,-0E0,-2.272408E-5,-0E0],"categories":[],"categories_nodes":[],"categories_segments":[],"categories_sizes":[],"default_left":[0,0,0,0,0,0,0,0,0,0,0,0,0,0,0],"id":43,"left_children":[1,3,5,7,9,11,13,-1,-1,-1,-1,-1,-1,-1,-1],"loss_changes":[2.7076981E-4,1.3795012E-4,1.2558898E-4,9.166142E-5,2.6138121E-5,8.319222E-5,9.075806E-5,0E0,0E0,0E0,0E0,0E0,0E0,0E0,0E0],"parents":[2147483647,0,0,1,1,2,2,3,3,4,4,5,5,6,6],"right_children":[2,4,6,8,10,12,14,-1,-1,-1,-1,-1,-1,-1,-1],"split_conditions":[4.652243E-3,-5.643606E-3,1E0,1E0,-2.0417226E-3,1E0,-2.3015447E-2,-3.9124643E-6,-0E0,1.2868987E-6,-4.1334172E-7,4.1983676E-6,-0E0,-2.272408E-5,-0E0],"split_indices":[64,64,33,33,30,37,45,0,0,0,0,0,0,0,0],"split_type":[0,0,0,0,0,0,0,0,0,0,0,0,0,0,0],"sum_hessian":[1.2669E4,9.249E3,3.42E3,2.379E3,6.87E3,2.85E3,5.7E2,1.982E3,3.97E2,9.67E2,5.903E3,2.28E3,5.7E2,1.3E1,5.57E2],"tree_param":{"num_deleted":"0","num_feature":"70","num_nodes":"15","size_leaf_vector":"1"}},{"base_weights":[-0E0,-1.19666125E-4,1.7528738E-4,-1.3777782E-5,-2.907823E-4,2.4053309E-4,-3.348094E-5,-1.8110557E-6,3.0924656E-7,-3.7525608E-6,-0E0,1.5251886E-6,7.263928E-6,-0E0,-3.0684616E-5],"categories":[],"categories_nodes":[],"categories_segments":[],"categories_sizes":[],"default_left":[0,0,0,0,0,0,0,0,0,0,0,0,0,0,0],"id":44,"left_children":[1,3,5,7,9,11,13,-1,-1,-1,-1,-1,-1,-1,-1],"loss_changes":[2.6531407E-4,1.0675883E-4,9.02819E-5,5.2782492E-5,8.314506E-5,9.350959E-5,8.3780666E-5,0E0,0E0,0E0,0E0,0E0,0E0,0E0,0E0],"parents":[2147483647,0,0,1,1,2,2,3,3,4,4,5,5,6,6],"right_children":[2,4,6,8,10,12,14,-1,-1,-1,-1,-1,-1,-1,-1],"split_conditions":[1.6884726E-3,1.4075949E-3,1E0,-8.300785E-3,1E0,2.9501445E0,1.6560957E0,-1.8110557E-6,3.0924656E-7,-3.7525608E-6,-0E0,1.5251886E-6,7.263928E-6,-0E0,-3.0684616E-5],"split_indices":[64,63,33,65,33,22,24,0,0,0,0,0,0,0,0],"split_type":[0,0,0,0,0,0,0,0,0,0,0,0,0,0,0],"sum_hessian":[1.2669E4,7.569E3,5.1E3,5.04E3,2.529E3,4.25E3,8.5E2,1.531E3,3.509E3,2.107E3,4.22E2,3.778E3,4.72E2,8.46E2,4E0],"tree_param":{"num_deleted":"0","num_feature":"70","num_nodes":"15","size_leaf_vector":"1"}},{"base_weights":[-0E0,-8.809153E-5,2.3480764E-4,-3.1383728E-4,-8.524345E-6,3.28999E-4,-6.100181E-5,-3.7536454E-6,6.2795784E-6,5.064376E-7,-7.8868663E-7,4.980469E-6,4.4464002E-7,-2.2525868E-5,-0E0],"categories":[],"categories_nodes":[],"categories_segments":[],"categories_sizes":[],"default_left":[0,0,0,0,0,0,0,0,0,0,0,0,0,0,0],"id":45,"left_children":[1,3,5,7,9,11,13,-1,-1,-1,-1,-1,-1,-1,-1],"loss_changes":[2.6064826E-4,1.339704E-4,1.2232982E-4,9.667888E-5,3.270582E-5,8.2963845E-5,8.919496E-5,0E0,0E0,0E0,0E0,0E0,0E0,0E0,0E0],"parents":[2147483647,0,0,1,1,2,2,3,3,4,4,5,5,6,6],"right_children":[2,4,6,8,10,12,14,-1,-1,-1,-1,-1,-1,-1,-1],"split_conditions":[4.652243E-3,-6.6663558E-3,1E0,4.5110203E1,-2.021073E-4,1.0286031E-4,-2.3015447E-2,-3.7536454E-6,6.2795784E-6,5.064376E-7,-7.8868663E-7,4.980469E-6,4.4464002E-7,-2.2525868E-5,-0E0],"split_indices":[64,64,33,13,30,63,45,0,0,0,0,0,0,0,0],"split_type":[0,0,0,0,0,0,0,0,0,0,0,0,0,0,0],"sum_hessian":[1.2669E4,9.249E3,3.42E3,2.079E3,7.17E3,2.85E3,5.7E2,2.054E3,2.5E1,3.123E3,4.047E3,1.565E3,1.285E3,1.3E1,5.57E2],"tree_param":{"num_deleted":"0","num_feature":"70","num_nodes":"15","size_leaf_vector":"1"}},{"base_weights":[-0E0,-1.7957219E-4,1.1199093E-4,-0E0,-2.5823148E-4,4.2296393E-5,4.0166458E-4,-1.3002406E-6,1.9056524E-6,-3.4007053E-6,-0E0,7.0298694E-7,-1.0469625E-5,4.969026E-6,-0E0],"categories":[],"categories_nodes":[],"categories_segments":[],"categories_sizes":[],"default_left":[0,0,0,0,0,0,0,0,0,0,0,0,0,0,0],"id":46,"left_children":[1,3,5,7,9,11,13,-1,-1,-1,-1,-1,-1,-1,-1],"loss_changes":[2.5564904E-4,8.846035E-5,1.1248588E-4,3.4629425E-5,1.0983148E-4,1.02518636E-4,3.7274192E-5,0E0,0E0,0E0,0E0,0E0,0E0,0E0,0E0],"parents":[2147483647,0,0,1,1,2,2,3,3,4,4,5,5,6,6],"right_children":[2,4,6,8,10,12,14,-1,-1,-1,-1,-1,-1,-1,-1],"split_conditions":[-7.7734014E-4,-2.285173E-3,1E0,-6.1274245E-3,1E0,1.9002917E-1,8.0525314E1,-1.3002406E-6,1.9056524E-6,-3.4007053E-6,-0E0,7.0298694E-7,-1.0469625E-5,4.969026E-6,-0E0],"split_indices":[64,63,36,65,33,43,18,0,0,0,0,0,0,0,0],"split_type":[0,0,0,0,0,0,0,0,0,0,0,0,0,0,0],"sum_hessian":[1.2669E4,4.899E3,7.77E3,1.206E3,3.693E3,6.546E3,1.224E3,4.86E2,7.2E2,3.077E3,6.16E2,6.476E3,7E1,9.49E2,2.75E2],"tree_param":{"num_deleted":"0","num_feature":"70","num_nodes":"15","size_leaf_vector":"1"}},{"base_weights":[-0E0,-8.65828E-5,2.3139654E-4,-3.0814926E-4,-8.230537E-6,3.2490553E-4,-6.099508E-5,-3.695514E-6,6.2410777E-6,5.0317027E-7,-7.809619E-7,4.0918903E-6,-0E0,-2.2349637E-5,-0E0],"categories":[],"categories_nodes":[],"categories_segments":[],"categories_sizes":[],"default_left":[0,0,0,0,0,0,0,0,0,0,0,0,0,0,0],"id":47,"left_children":[1,3,5,7,9,11,13,-1,-1,-1,-1,-1,-1,-1,-1],"loss_changes":[2.5276278E-4,1.2900094E-4,1.20133904E-4,9.4991046E-5,3.2146643E-5,8.120644E-5,8.77719E-5,0E0,0E0,0E0,0E0,0E0,0E0,0E0,0E0],"parents":[2147483647,0,0,1,1,2,2,3,3,4,4,5,5,6,6],"right_children":[2,4,6,8,10,12,14,-1,-1,-1,-1,-1,-1,-1,-1],"split_conditions":[4.652243E-3,-6.6663558E-3,1E0,4.5110203E1,-2.021073E-4,1E0,-2.3015447E-2,-3.695514E-6,6.2410777E-6,5.0317027E-7,-7.809619E-7,4.0918903E-6,-0E0,-2.2349637E-5,-0E0],"split_indices":[64,64,33,13,30,37,45,0,0,0,0,0,0,0,0],"split_type":[0,0,0,0,0,0,0,0,0,0,0,0,0,0,0],"sum_hessian":[1.2669E4,9.249E3,3.42E3,2.079E3,7.17E3,2.85E3,5.7E2,2.054E3,2.5E1,3.123E3,4.047E3,2.28E3,5.7E2,1.3E1,5.57E2],"tree_param":{"num_deleted":"0","num_feature":"70","num_nodes":"15","size_leaf_vector":"1"}},{"base_weights":[-0E0,-8.560768E-5,2.2875742E-4,-2.8240064E-4,-7.931907E-7,3.2163775E-4,-6.048979E-5,-3.3459307E-6,6.189069E-6,-9.690417E-7,2.7344532E-7,4.8870143E-6,3.9546106E-7,-2.2188224E-5,-0E0],"categories":[],"categories_nodes":[],"categories_segments":[],"categories_sizes":[],"default_left":[0,0,0,0,0,0,0,0,0,0,0,0,0,0,0],"id":48,"left_children":[1,3,5,7,9,11,13,-1,-1,-1,-1,-1,-1,-1,-1],"loss_changes":[2.4704967E-4,1.2613702E-4,1.18226E-4,8.700884E-5,2.5431773E-5,8.162699E-5,8.651319E-5,0E0,0E0,0E0,0E0,0E0,0E0,0E0,0E0],"parents":[2147483647,0,0,1,1,2,2,3,3,4,4,5,5,6,6],"right_children":[2,4,6,8,10,12,14,-1,-1,-1,-1,-1,-1,-1,-1],"split_conditions":[4.652243E-3,-5.479077E-3,1E0,4.5110203E1,-5.9486983E-6,1.0286031E-4,-2.3015447E-2,-3.3459307E-6,6.189069E-6,-9.690417E-7,2.7344532E-7,4.8870143E-6,3.9546106E-7,-2.2188224E-5,-0E0],"split_indices":[64,64,33,13,31,63,45,0,0,0,0,0,0,0,0],"split_type":[0,0,0,0,0,0,0,0,0,0,0,0,0,0,0],"sum_hessian":[1.2669E4,9.249E3,3.42E3,2.427E3,6.822E3,2.85E3,5.7E2,2.402E3,2.5E1,2.347E3,4.475E3,1.565E3,1.285E3,1.3E1,5.57E2],"tree_param":{"num_deleted":"0","num_feature":"70","num_nodes":"15","size_leaf_vector":"1"}},{"base_weights":[-0E0,-1.14061295E-4,1.6772692E-4,-9.852698E-6,-2.8184426E-4,2.3128818E-4,-3.261443E-5,-1.7316283E-6,3.3088006E-7,-3.6534998E-6,-0E0,1.3086153E-6,6.311083E-6,2.4627263E-7,-5.838004E-6],"categories":[],"categories_nodes":[],"categories_segments":[],"categories_sizes":[],"default_left":[0,0,0,0,0,0,0,0,0,0,0,0,0,0,0],"id":49,"left_children":[1,3,5,7,9,11,13,-1,-1,-1,-1,-1,-1,-1,-1],"loss_changes":[2.4215307E-4,1.0324347E-4,8.4911924E-5,4.9414964E-5,8.061975E-5,9.4239396E-5,8.296516E-5,0E0,0E0,0E0,0E0,0E0,0E0,0E0,0E0],"parents":[2147483647,0,0,1,1,2,2,3,3,4,4,5,5,6,6],"right_children":[2,4,6,8,10,12,14,-1,-1,-1,-1,-1,-1,-1,-1],"split_conditions":[1.6884726E-3,1.4075949E-3,1E0,-8.300785E-3,1E0,3.440649E-3,1.09171625E-2,-1.7316283E-6,3.3088006E-7,-3.6534998E-6,-0E0,1.3086153E-6,6.311083E-6,2.4627263E-7,-5.838004E-6],"split_indices":[64,63,33,65,33,42,64,0,0,0,0,0,0,0,0],"split_type":[0,0,0,0,0,0,0,0,0,0,0,0,0,0,0],"sum_hessian":[1.2669E4,7.569E3,5.1E3,5.04E3,2.529E3,4.25E3,8.5E2,1.531E3,3.509E3,2.107E3,4.22E2,3.602E3,6.48E2,6.1E2,2.4E2],"tree_param":{"num_deleted":"0","num_feature":"70","num_nodes":"15","size_leaf_vector":"1"}},{"base_weights":[-0E0,-8.396035E-5,2.2509502E-4,-2.9966742E-4,-7.311803E-6,3.1668082E-4,-5.7692745E-5,-3.6083927E-6,6.1537207E-6,5.0638886E-7,-7.671783E-7,4.8171305E-6,3.7080812E-7,-2.2002712E-5,-0E0],"categories":[],"categories_nodes":[],"categories_segments":[],"categories_sizes":[],"default_left":[0,0,0,0,0,0,0,0,0,0,0,0,0,0,0],"id":50,"left_children":[1,3,5,7,9,11,13,-1,-1,-1,-1,-1,-1,-1,-1],"loss_changes":[2.387717E-4,1.2229336E-4,1.1469542E-4,9.230817E-5,3.1486084E-5,7.976964E-5,8.522763E-5,0E0,0E0,0E0,0E0,0E0,0E0,0E0,0E0],"parents":[2147483647,0,0,1,1,2,2,3,3,4,4,5,5,6,6],"right_children":[2,4,6,8,10,12,14,-1,-1,-1,-1,-1,-1,-1,-1],"split_conditions":[4.652243E-3,-6.6663558E-3,1E0,4.5110203E1,-2.021073E-4,1.0286031E-4,-2.3015447E-2,-3.6083927E-6,6.1537207E-6,5.0638886E-7,-7.671783E-7,4.8171305E-6,3.7080812E-7,-2.2002712E-5,-0E0],"split_indices":[64,64,33,13,30,63,45,0,0,0,0,0,0,0,0],"split_type":[0,0,0,0,0,0,0,0,0,0,0,0,0,0,0],"sum_hessian":[1.2669E4,9.249E3,3.42E3,2.079E3,7.17E3,2.85E3,5.7E2,2.054E3,2.5E1,3.123E3,4.047E3,1.565E3,1.285E3,1.3E1,5.57E2],"tree_param":{"num_deleted":"0","num_feature":"70","num_nodes":"15","size_leaf_vector":"1"}},{"base_weights":[-0E0,-8.301145E-5,2.228383E-4,-2.744985E-4,-8.899304E-8,3.1387337E-4,-5.71953E-5,-3.641384E-6,-0E0,-9.541917E-7,2.7638023E-7,3.973504E-6,-0E0,-0E0,-1.1787165E-5],"categories":[],"categories_nodes":[],"categories_segments":[],"categories_sizes":[],"default_left":[0,0,0,0,0,0,0,0,0,0,0,0,0,0,0],"id":51,"left_children":[1,3,5,7,9,11,13,-1,-1,-1,-1,-1,-1,-1,-1],"loss_changes":[2.338433E-4,1.1948148E-4,1.1307071E-4,8.552382E-5,2.4836574E-5,7.950797E-5,8.42601E-5,0E0,0E0,0E0,0E0,0E0,0E0,0E0,0E0],"parents":[2147483647,0,0,1,1,2,2,3,3,4,4,5,5,6,6],"right_children":[2,4,6,8,10,12,14,-1,-1,-1,-1,-1,-1,-1,-1],"split_conditions":[4.652243E-3,-5.479077E-3,1E0,1E0,-5.9486983E-6,1E0,4.2225486E-3,-3.641384E-6,-0E0,-9.541917E-7,2.7638023E-7,3.973504E-6,-0E0,-0E0,-1.1787165E-5],"split_indices":[64,64,33,33,31,37,29,0,0,0,0,0,0,0,0],"split_type":[0,0,0,0,0,0,0,0,0,0,0,0,0,0,0],"sum_hessian":[1.2669E4,9.249E3,3.42E3,2.427E3,6.822E3,2.85E3,5.7E2,2.022E3,4.05E2,2.347E3,4.475E3,2.28E3,5.7E2,5.13E2,5.7E1],"tree_param":{"num_deleted":"0","num_feature":"70","num_nodes":"15","size_leaf_vector":"1"}},{"base_weights":[-0E0,-1.6971029E-4,1.0640131E-4,-0E0,-2.471491E-4,3.7712896E-5,3.907348E-4,-1.1929995E-6,1.934819E-6,-3.278521E-6,-0E0,6.561862E-7,-1.0428954E-5,4.8513775E-6,-0E0],"categories":[],"categories_nodes":[],"categories_segments":[],"categories_sizes":[],"default_left":[0,0,0,0,0,0,0,0,0,0,0,0,0,0,0],"id":52,"left_children":[1,3,5,7,9,11,13,-1,-1,-1,-1,-1,-1,-1,-1],"loss_changes":[2.292656E-4,8.4640764E-5,1.08930544E-4,3.41287E-5,1.0539127E-4,1.0016097E-4,3.6896177E-5,0E0,0E0,0E0,0E0,0E0,0E0,0E0,0E0],"parents":[2147483647,0,0,1,1,2,2,3,3,4,4,5,5,6,6],"right_children":[2,4,6,8,10,12,14,-1,-1,-1,-1,-1,-1,-1,-1],"split_conditions":[-7.7734014E-4,-2.285173E-3,1E0,-6.1274245E-3,1E0,1.9002917E-1,8.0525314E1,-1.1929995E-6,1.934819E-6,-3.278521E-6,-0E0,6.561862E-7,-1.0428954E-5,4.8513775E-6,-0E0],"split_indices":[64,63,36,65,33,43,18,0,0,0,0,0,0,0,0],"split_type":[0,0,0,0,0,0,0,0,0,0,0,0,0,0,0],"sum_hessian":[1.2669E4,4.899E3,7.77E3,1.206E3,3.693E3,6.546E3,1.224E3,4.86E2,7.2E2,3.077E3,6.16E2,6.476E3,7E1,9.49E2,2.75E2],"tree_param":{"num_deleted":"0","num_feature":"70","num_nodes":"15","size_leaf_vector":"1"}},{"base_weights":[-0E0,-8.161235E-5,2.1938776E-4,-2.9118842E-4,-6.7462065E-6,3.0959077E-4,-5.648452E-5,-3.5224048E-6,6.1421642E-6,5.0603444E-7,-7.568895E-7,4.7267804E-6,3.2385364E-7,-2.1790778E-5,-0E0],"categories":[],"categories_nodes":[],"categories_segments":[],"categories_sizes":[],"default_left":[0,0,0,0,0,0,0,0,0,0,0,0,0,0,0],"id":53,"left_children":[1,3,5,7,9,11,13,-1,-1,-1,-1,-1,-1,-1,-1],"loss_changes":[2.2648563E-4,1.1539339E-4,1.10627516E-4,9.00811E-5,3.0896517E-5,7.848788E-5,8.3636296E-5,0E0,0E0,0E0,0E0,0E0,0E0,0E0,0E0],"parents":[2147483647,0,0,1,1,2,2,3,3,4,4,5,5,6,6],"right_children":[2,4,6,8,10,12,14,-1,-1,-1,-1,-1,-1,-1,-1],"split_conditions":[4.652243E-3,-6.6663558E-3,1E0,4.5110203E1,-2.021073E-4,1.0286031E-4,-2.3015447E-2,-3.5224048E-6,6.1421642E-6,5.0603444E-7,-7.568895E-7,4.7267804E-6,3.2385364E-7,-2.1790778E-5,-0E0],"split_indices":[64,64,33,13,30,63,45,0,0,0,0,0,0,0,0],"split_type":[0,0,0,0,0,0,0,0,0,0,0,0,0,0,0],"sum_hessian":[1.2669E4,9.249E3,3.42E3,2.079E3,7.17E3,2.85E3,5.7E2,2.054E3,2.5E1,3.123E3,4.047E3,1.565E3,1.285E3,1.3E1,5.57E2],"tree_param":{"num_deleted":"0","num_feature":"70","num_nodes":"15","size_leaf_vector":"1"}},{"base_weights":[-0E0,-8.068689E-5,2.1718914E-4,-2.877904E-4,-6.539547E-6,3.0685397E-4,-5.5991855E-5,-3.4872662E-6,6.090979E-6,5.009822E-7,-7.493299E-7,3.903383E-6,-0E0,-2.1633397E-5,-0E0],"categories":[],"categories_nodes":[],"categories_segments":[],"categories_sizes":[],"default_left":[0,0,0,0,0,0,0,0,0,0,0,0,0,0,0],"id":54,"left_children":[1,3,5,7,9,11,13,-1,-1,-1,-1,-1,-1,-1,-1],"loss_changes":[2.2180809E-4,1.12663656E-4,1.0906655E-4,8.892175E-5,3.0295703E-5,7.765074E-5,8.243803E-5,0E0,0E0,0E0,0E0,0E0,0E0,0E0,0E0],"parents":[2147483647,0,0,1,1,2,2,3,3,4,4,5,5,6,6],"right_children":[2,4,6,8,10,12,14,-1,-1,-1,-1,-1,-1,-1,-1],"split_conditions":[4.652243E-3,-6.6663558E-3,1E0,4.5110203E1,-2.021073E-4,1.21038956E2,-2.3015447E-2,-3.4872662E-6,6.090979E-6,5.009822E-7,-7.493299E-7,3.903383E-6,-0E0,-2.1633397E-5,-0E0],"split_indices":[64,64,33,13,30,20,45,0,0,0,0,0,0,0,0],"split_type":[0,0,0,0,0,0,0,0,0,0,0,0,0,0,0],"sum_hessian":[1.2669E4,9.249E3,3.42E3,2.079E3,7.17E3,2.85E3,5.7E2,2.054E3,2.5E1,3.123E3,4.047E3,2.269E3,5.81E2,1.3E1,5.57E2],"tree_param":{"num_deleted":"0","num_feature":"70","num_nodes":"15","size_leaf_vector":"1"}},{"base_weights":[-0E0,-1.0765691E-4,1.5915628E-4,-5.178914E-6,-2.7200705E-4,2.2038928E-4,-2.9548066E-5,-1.6414053E-6,3.5854367E-7,-3.54351E-6,-0E0,1.1484602E-6,5.8836813E-6,-0E0,-3.2018386E-5],"categories":[],"categories_nodes":[],"categories_segments":[],"categories_sizes":[],"default_left":[0,0,0,0,0,0,0,0,0,0,0,0,0,0,0],"id":55,"left_children":[1,3,5,7,9,11,13,-1,-1,-1,-1,-1,-1,-1,-1],"loss_changes":[2.170961E-4,9.983773E-5,7.810461E-5,4.576516E-5,7.7707344E-5,9.459506E-5,8.1267666E-5,0E0,0E0,0E0,0E0,0E0,0E0,0E0,0E0],"parents":[2147483647,0,0,1,1,2,2,3,3,4,4,5,5,6,6],"right_children":[2,4,6,8,10,12,14,-1,-1,-1,-1,-1,-1,-1,-1],"split_conditions":[1.6884726E-3,1.4075949E-3,1E0,-8.300785E-3,1E0,3.3282484E-3,8.422003E-3,-1.6414053E-6,3.5854367E-7,-3.54351E-6,-0E0,1.1484602E-6,5.8836813E-6,-0E0,-3.2018386E-5],"split_indices":[64,63,33,65,33,39,41,0,0,0,0,0,0,0,0],"split_type":[0,0,0,0,0,0,0,0,0,0,0,0,0,0,0],"sum_hessian":[1.2669E4,7.569E3,5.1E3,5.04E3,2.529E3,4.25E3,8.5E2,1.531E3,3.509E3,2.107E3,4.22E2,3.519E3,7.31E2,8.47E2,3E0],"tree_param":{"num_deleted":"0","num_feature":"70","num_nodes":"15","size_leaf_vector":"1"}},{"base_weights":[-0E0,-7.911152E-5,2.1304295E-4,-2.6205406E-4,-0E0,3.0174784E-4,-5.5335702E-5,-3.5045337E-6,-0E0,-9.385296E-7,2.8115988E-7,3.842324E-6,-0E0,-0E0,-1.1628704E-5],"categories":[],"categories_nodes":[],"categories_segments":[],"categories_sizes":[],"default_left":[0,0,0,0,0,0,0,0,0,0,0,0,0,0,0],"id":56,"left_children":[1,3,5,7,9,11,13,-1,-1,-1,-1,-1,-1,-1,-1],"loss_changes":[2.1336888E-4,1.0909373E-4,1.0626197E-4,8.19401E-5,2.4258787E-5,7.739221E-5,8.207992E-5,0E0,0E0,0E0,0E0,0E0,0E0,0E0,0E0],"parents":[2147483647,0,0,1,1,2,2,3,3,4,4,5,5,6,6],"right_children":[2,4,6,8,10,12,14,-1,-1,-1,-1,-1,-1,-1,-1],"split_conditions":[4.652243E-3,-5.479077E-3,1E0,1E0,-5.9486983E-6,1E0,4.2225486E-3,-3.5045337E-6,-0E0,-9.385296E-7,2.8115988E-7,3.842324E-6,-0E0,-0E0,-1.1628704E-5],"split_indices":[64,64,33,33,31,37,29,0,0,0,0,0,0,0,0],"split_type":[0,0,0,0,0,0,0,0,0,0,0,0,0,0,0],"sum_hessian":[1.2669E4,9.249E3,3.42E3,2.427E3,6.822E3,2.85E3,5.7E2,2.022E3,4.05E2,2.347E3,4.475E3,2.28E3,5.7E2,5.13E2,5.7E1],"tree_param":{"num_deleted":"0","num_feature":"70","num_nodes":"15","size_leaf_vector":"1"}},{"base_weights":[-0E0,-1.618714E-4,1.0177806E-4,-0E0,-2.3813489E-4,3.391171E-5,3.817484E-4,-1.109923E-6,1.9490024E-6,-3.1773463E-6,-0E0,6.1717896E-7,-1.037841E-5,-0E0,5.451077E-6],"categories":[],"categories_nodes":[],"categories_segments":[],"categories_sizes":[],"default_left":[0,0,0,0,0,0,0,0,0,0,0,0,0,0,0],"id":57,"left_children":[1,3,5,7,9,11,13,-1,-1,-1,-1,-1,-1,-1,-1],"loss_changes":[2.0903579E-4,8.1210674E-5,1.0609864E-4,3.3588698E-5,1.01437225E-4,9.793662E-5,3.7215214E-5,0E0,0E0,0E0,0E0,0E0,0E0,0E0,0E0],"parents":[2147483647,0,0,1,1,2,2,3,3,4,4,5,5,6,6],"right_children":[2,4,6,8,10,12,14,-1,-1,-1,-1,-1,-1,-1,-1],"split_conditions":[-7.7734014E-4,-2.285173E-3,1E0,-6.1274245E-3,1E0,1.9002917E-1,5.0073737E-1,-1.109923E-6,1.9490024E-6,-3.1773463E-6,-0E0,6.1717896E-7,-1.037841E-5,-0E0,5.451077E-6],"split_indices":[64,63,36,65,33,43,24,0,0,0,0,0,0,0,0],"split_type":[0,0,0,0,0,0,0,0,0,0,0,0,0,0,0],"sum_hessian":[1.2669E4,4.899E3,7.77E3,1.206E3,3.693E3,6.546E3,1.224E3,4.86E2,7.2E2,3.077E3,6.16E2,6.476E3,7E1,5.01E2,7.23E2],"tree_param":{"num_deleted":"0","num_feature":"70","num_nodes":"15","size_leaf_vector":"1"}},{"base_weights":[-0E0,-7.77124E-5,2.0973984E-4,-2.7800145E-4,-5.5464093E-6,2.9763783E-4,-5.4603544E-5,-3.38823E-6,6.0938396E-6,5.064939E-7,-7.35999E-7,4.5880292E-6,2.2818114E-7,-2.1388954E-5,-0E0],"categories":[],"categories_nodes":[],"categories_segments":[],"categories_sizes":[],"default_left":[0,0,0,0,0,0,0,0,0,0,0,0,0,0,0],"id":58,"left_children":[1,3,5,7,9,11,13,-1,-1,-1,-1,-1,-1,-1,-1],"loss_changes":[2.065554E-4,1.0539536E-4,1.0396543E-4,8.645422E-5,2.975319E-5,7.823735E-5,8.0633334E-5,0E0,0E0,0E0,0E0,0E0,0E0,0E0,0E0],"parents":[2147483647,0,0,1,1,2,2,3,3,4,4,5,5,6,6],"right_children":[2,4,6,8,10,12,14,-1,-1,-1,-1,-1,-1,-1,-1],"split_conditions":[4.652243E-3,-6.6663558E-3,1E0,4.5110203E1,-2.021073E-4,1.0286031E-4,-2.3015447E-2,-3.38823E-6,6.0938396E-6,5.064939E-7,-7.35999E-7,4.5880292E-6,2.2818114E-7,-2.1388954E-5,-0E0],"split_indices":[64,64,33,13,30,63,45,0,0,0,0,0,0,0,0],"split_type":[0,0,0,0,0,0,0,0,0,0,0,0,0,0,0],"sum_hessian":[1.2669E4,9.249E3,3.42E3,2.079E3,7.17E3,2.85E3,5.7E2,2.054E3,2.5E1,3.123E3,4.047E3,1.565E3,1.285E3,1.3E1,5.57E2],"tree_param":{"num_deleted":"0","num_feature":"70","num_nodes":"15","size_leaf_vector":"1"}},{"base_weights":[-0E0,-7.6825876E-5,2.07639E-4,-2.8336392E-4,-6.9673392E-6,2.9502015E-4,-5.4119966E-5,-4.063327E-6,6.0358684E-7,1.2627378E-6,-6.306377E-7,4.5422953E-6,2.259082E-7,-0E0,-1.1497903E-5],"categories":[],"categories_nodes":[],"categories_segments":[],"categories_sizes":[],"default_left":[0,0,0,0,0,0,0,0,0,0,0,0,0,0,0],"id":59,"left_children":[1,3,5,7,9,11,13,-1,-1,-1,-1,-1,-1,-1,-1],"loss_changes":[2.0228438E-4,1.0447783E-4,1.02509206E-4,1.18282216E-4,4.814704E-5,7.6097436E-5,8.028094E-5,0E0,0E0,0E0,0E0,0E0,0E0,0E0,0E0],"parents":[2147483647,0,0,1,1,2,2,3,3,4,4,5,5,6,6],"right_children":[2,4,6,8,10,12,14,-1,-1,-1,-1,-1,-1,-1,-1],"split_conditions":[4.652243E-3,-1.6260147E-2,1E0,1.3788886E0,-2.285173E-3,1.0286031E-4,4.2225486E-3,-4.063327E-6,6.0358684E-7,1.2627378E-6,-6.306377E-7,4.5422953E-6,2.259082E-7,-0E0,-1.1497903E-5],"split_indices":[64,65,33,44,63,63,29,0,0,0,0,0,0,0,0],"split_type":[0,0,0,0,0,0,0,0,0,0,0,0,0,0,0],"sum_hessian":[1.2669E4,9.249E3,3.42E3,1.972E3,7.277E3,2.85E3,5.7E2,1.666E3,3.06E2,1.626E3,5.651E3,1.565E3,1.285E3,5.13E2,5.7E1],"tree_param":{"num_deleted":"0","num_feature":"70","num_nodes":"15","size_leaf_vector":"1"}},{"base_weights":[-0E0,-1.5752314E-4,9.955784E-5,-0E0,-2.3259185E-4,3.2250715E-5,3.7655633E-4,-1.0640301E-6,1.92931E-6,-3.1166605E-6,6.9265473E-9,5.9941726E-7,-1.0294387E-5,7.1411937E-6,9.1747734E-7],"categories":[],"categories_nodes":[],"categories_segments":[],"categories_sizes":[],"default_left":[0,0,0,0,0,0,0,0,0,0,0,0,0,0,0],"id":60,"left_children":[1,3,5,7,9,11,13,-1,-1,-1,-1,-1,-1,-1,-1],"loss_changes":[1.9874958E-4,7.8372366E-5,1.04015446E-4,3.254513E-5,9.931461E-5,9.595334E-5,3.7242804E-5,0E0,0E0,0E0,0E0,0E0,0E0,0E0,0E0],"parents":[2147483647,0,0,1,1,2,2,3,3,4,4,5,5,6,6],"right_children":[2,4,6,8,10,12,14,-1,-1,-1,-1,-1,-1,-1,-1],"split_conditions":[-7.7734014E-4,-2.285173E-3,1E0,-6.1274245E-3,1E0,1.9002917E-1,-7.2917026E-3,-1.0640301E-6,1.92931E-6,-3.1166605E-6,6.9265473E-9,5.9941726E-7,-1.0294387E-5,7.1411937E-6,9.1747734E-7],"split_indices":[64,63,36,65,33,43,45,0,0,0,0,0,0,0,0],"split_type":[0,0,0,0,0,0,0,0,0,0,0,0,0,0,0],"sum_hessian":[1.2669E4,4.899E3,7.77E3,1.206E3,3.693E3,6.546E3,1.224E3,4.86E2,7.2E2,3.077E3,6.16E2,6.476E3,7E1,3.96E2,8.28E2],"tree_param":{"num_deleted":"0","num_feature":"70","num_nodes":"15","size_leaf_vector":"1"}},{"base_weights":[-0E0,-7.54319E-5,2.0484098E-4,-2.663816E-4,-2.8582665E-6,2.915155E-4,-5.338493E-5,-3.830864E-6,6.63285E-7,1.345226E-6,-6.087794E-7,3.7420214E-6,-0E0,-2.118232E-5,-0E0],"categories":[],"categories_nodes":[],"categories_segments":[],"categories_sizes":[],"default_left":[0,0,0,0,0,0,0,0,0,0,0,0,0,0,0],"id":61,"left_children":[1,3,5,7,9,11,13,-1,-1,-1,-1,-1,-1,-1,-1],"loss_changes":[1.9636741E-4,1.0131333E-4,1.00547855E-4,1.1602267E-4,4.9189402E-5,7.580043E-5,7.9125624E-5,0E0,0E0,0E0,0E0,0E0,0E0,0E0,0E0],"parents":[2147483647,0,0,1,1,2,2,3,3,4,4,5,5,6,6],"right_children":[2,4,6,8,10,12,14,-1,-1,-1,-1,-1,-1,-1,-1],"split_conditions":[4.652243E-3,-1.4997801E-2,1E0,1.3788886E0,-2.285173E-3,1.21038956E2,-2.3015447E-2,-3.830864E-6,6.63285E-7,1.345226E-6,-6.087794E-7,3.7420214E-6,-0E0,-2.118232E-5,-0E0],"split_indices":[64,65,33,44,63,20,45,0,0,0,0,0,0,0,0],"split_type":[0,0,0,0,0,0,0,0,0,0,0,0,0,0,0],"sum_hessian":[1.2669E4,9.249E3,3.42E3,2.164E3,7.085E3,2.85E3,5.7E2,1.824E3,3.4E2,1.59E3,5.495E3,2.269E3,5.81E2,1.3E1,5.57E2],"tree_param":{"num_deleted":"0","num_feature":"70","num_nodes":"15","size_leaf_vector":"1"}},{"base_weights":[-0E0,-1.0087787E-4,1.503106E-4,-8.004555E-7,-2.60462E-4,2.0938837E-4,-2.7616254E-5,-1.5256679E-6,3.7081475E-7,-3.4126995E-6,-0E0,1.101553E-6,6.0278303E-6,-0E0,-3.1685457E-5],"categories":[],"categories_nodes":[],"categories_segments":[],"categories_sizes":[],"default_left":[0,0,0,0,0,0,0,0,0,0,0,0,0,0,0],"id":62,"left_children":[1,3,5,7,9,11,13,-1,-1,-1,-1,-1,-1,-1,-1],"loss_changes":[1.9241431E-4,9.483529E-5,7.186745E-5,4.058154E-5,7.406676E-5,9.447984E-5,7.966538E-5,0E0,0E0,0E0,0E0,0E0,0E0,0E0,0E0],"parents":[2147483647,0,0,1,1,2,2,3,3,4,4,5,5,6,6],"right_children":[2,4,6,8,10,12,14,-1,-1,-1,-1,-1,-1,-1,-1],"split_conditions":[1.6884726E-3,1.4075949E-3,1E0,-8.300785E-3,1E0,3.440649E-3,8.422003E-3,-1.5256679E-6,3.7081475E-7,-3.4126995E-6,-0E0,1.101553E-6,6.0278303E-6,-0E0,-3.1685457E-5],"split_indices":[64,63,33,65,33,42,41,0,0,0,0,0,0,0,0],"split_type":[0,0,0,0,0,0,0,0,0,0,0,0,0,0,0],"sum_hessian":[1.2669E4,7.569E3,5.1E3,5.04E3,2.529E3,4.25E3,8.5E2,1.531E3,3.509E3,2.107E3,4.22E2,3.602E3,6.48E2,8.47E2,3E0],"tree_param":{"num_deleted":"0","num_feature":"70","num_nodes":"15","size_leaf_vector":"1"}},{"base_weights":[-0E0,-1.5338988E-4,9.722919E-5,-0E0,-2.269492E-4,3.0407526E-5,3.716495E-4,-1.0227322E-6,1.893108E-6,-3.052087E-6,2.2467137E-8,5.800453E-7,-1.0230355E-5,-0E0,5.3171266E-6],"categories":[],"categories_nodes":[],"categories_segments":[],"categories_sizes":[],"default_left":[0,0,0,0,0,0,0,0,0,0,0,0,0,0,0],"id":63,"left_children":[1,3,5,7,9,11,13,-1,-1,-1,-1,-1,-1,-1,-1],"loss_changes":[1.8888462E-4,7.508541E-5,1.02309714E-4,3.111874E-5,9.662981E-5,9.424344E-5,3.6065336E-5,0E0,0E0,0E0,0E0,0E0,0E0,0E0,0E0],"parents":[2147483647,0,0,1,1,2,2,3,3,4,4,5,5,6,6],"right_children":[2,4,6,8,10,12,14,-1,-1,-1,-1,-1,-1,-1,-1],"split_conditions":[-7.7734014E-4,-2.285173E-3,1E0,-6.1274245E-3,1E0,1.9002917E-1,5.0073737E-1,-1.0227322E-6,1.893108E-6,-3.052087E-6,2.2467137E-8,5.800453E-7,-1.0230355E-5,-0E0,5.3171266E-6],"split_indices":[64,63,36,65,33,43,24,0,0,0,0,0,0,0,0],"split_type":[0,0,0,0,0,0,0,0,0,0,0,0,0,0,0],"sum_hessian":[1.2669E4,4.899E3,7.77E3,1.206E3,3.693E3,6.546E3,1.224E3,4.86E2,7.2E2,3.077E3,6.16E2,6.476E3,7E1,5.01E2,7.23E2],"tree_param":{"num_deleted":"0","num_feature":"70","num_nodes":"15","size_leaf_vector":"1"}},{"base_weights":[-0E0,-7.344493E-5,2.0000563E-4,-2.6680605E-4,-3.2941514E-6,2.8566294E-4,-5.31277E-5,-3.274886E-6,6.091735E-6,5.255581E-7,-7.108344E-7,4.4310605E-6,1.5419553E-7,-0E0,-1.1359927E-5],"categories":[],"categories_nodes":[],"categories_segments":[],"categories_sizes":[],"default_left":[0,0,0,0,0,0,0,0,0,0,0,0,0,0,0],"id":64,"left_children":[1,3,5,7,9,11,13,-1,-1,-1,-1,-1,-1,-1,-1],"loss_changes":[1.8692524E-4,9.851085E-5,9.7592725E-5,8.360749E-5,2.9036206E-5,7.558771E-5,7.838675E-5,0E0,0E0,0E0,0E0,0E0,0E0,0E0,0E0],"parents":[2147483647,0,0,1,1,2,2,3,3,4,4,5,5,6,6],"right_children":[2,4,6,8,10,12,14,-1,-1,-1,-1,-1,-1,-1,-1],"split_conditions":[4.652243E-3,-6.6663558E-3,1E0,4.5110203E1,-2.021073E-4,1.0286031E-4,4.2225486E-3,-3.274886E-6,6.091735E-6,5.255581E-7,-7.108344E-7,4.4310605E-6,1.5419553E-7,-0E0,-1.1359927E-5],"split_indices":[64,64,33,13,30,63,29,0,0,0,0,0,0,0,0],"split_type":[0,0,0,0,0,0,0,0,0,0,0,0,0,0,0],"sum_hessian":[1.2669E4,9.249E3,3.42E3,2.079E3,7.17E3,2.85E3,5.7E2,2.054E3,2.5E1,3.123E3,4.047E3,1.565E3,1.285E3,5.13E2,5.7E1],"tree_param":{"num_deleted":"0","num_feature":"70","num_nodes":"15","size_leaf_vector":"1"}},{"base_weights":[-0E0,-7.2601E-5,1.9811213E-4,-2.7128038E-4,-4.8789193E-6,2.831646E-4,-5.2001582E-5,-3.92772E-6,6.4311024E-7,1.2179296E-6,-5.908285E-7,3.6442864E-6,-0E0,-0E0,-3.1514068E-5],"categories":[],"categories_nodes":[],"categories_segments":[],"categories_sizes":[],"default_left":[0,0,0,0,0,0,0,0,0,0,0,0,0,0,0],"id":65,"left_children":[1,3,5,7,9,11,13,-1,-1,-1,-1,-1,-1,-1,-1],"loss_changes":[1.8320278E-4,9.688984E-5,9.604925E-5,1.13577786E-4,4.3764016E-5,7.454667E-5,7.7896024E-5,0E0,0E0,0E0,0E0,0E0,0E0,0E0,0E0],"parents":[2147483647,0,0,1,1,2,2,3,3,4,4,5,5,6,6],"right_children":[2,4,6,8,10,12,14,-1,-1,-1,-1,-1,-1,-1,-1],"split_conditions":[4.652243E-3,-1.6260147E-2,1E0,1.3788886E0,-2.285173E-3,1E0,9.417871E-3,-3.92772E-6,6.4311024E-7,1.2179296E-6,-5.908285E-7,3.6442864E-6,-0E0,-0E0,-3.1514068E-5],"split_indices":[64,65,33,44,63,37,38,0,0,0,0,0,0,0,0],"split_type":[0,0,0,0,0,0,0,0,0,0,0,0,0,0,0],"sum_hessian":[1.2669E4,9.249E3,3.42E3,1.972E3,7.277E3,2.85E3,5.7E2,1.666E3,3.06E2,1.626E3,5.651E3,2.28E3,5.7E2,5.67E2,3E0],"tree_param":{"num_deleted":"0","num_feature":"70","num_nodes":"15","size_leaf_vector":"1"}},{"base_weights":[-0E0,-1.4923129E-4,9.492032E-5,-0E0,-2.2163776E-4,2.8713068E-5,3.66075E-4,-9.790404E-7,1.8738905E-6,-2.9938892E-6,4.9923553E-8,5.618945E-7,-1.0141937E-5,6.985536E-6,8.37769E-7],"categories":[],"categories_nodes":[],"categories_segments":[],"categories_sizes":[],"default_left":[0,0,0,0,0,0,0,0,0,0,0,0,0,0,0],"id":66,"left_children":[1,3,5,7,9,11,13,-1,-1,-1,-1,-1,-1,-1,-1],"loss_changes":[1.7926369E-4,7.2445975E-5,1.000486E-4,3.0164465E-5,9.460871E-5,9.220544E-5,3.6825906E-5,0E0,0E0,0E0,0E0,0E0,0E0,0E0,0E0],"parents":[2147483647,0,0,1,1,2,2,3,3,4,4,5,5,6,6],"right_children":[2,4,6,8,10,12,14,-1,-1,-1,-1,-1,-1,-1,-1],"split_conditions":[-7.7734014E-4,-2.285173E-3,1E0,-6.1274245E-3,1E0,1.9002917E-1,-7.2917026E-3,-9.790404E-7,1.8738905E-6,-2.9938892E-6,4.9923553E-8,5.618945E-7,-1.0141937E-5,6.985536E-6,8.37769E-7],"split_indices":[64,63,36,65,33,43,45,0,0,0,0,0,0,0,0],"split_type":[0,0,0,0,0,0,0,0,0,0,0,0,0,0,0],"sum_hessian":[1.2669E4,4.899E3,7.77E3,1.206E3,3.693E3,6.546E3,1.224E3,4.86E2,7.2E2,3.077E3,6.16E2,6.476E3,7E1,3.96E2,8.28E2],"tree_param":{"num_deleted":"0","num_feature":"70","num_nodes":"15","size_leaf_vector":"1"}},{"base_weights":[-0E0,-7.12711E-5,1.9493057E-4,-2.6055385E-4,-2.3064135E-6,2.7938944E-4,-5.2208E-5,-3.211107E-6,6.0575685E-6,5.293174E-7,-6.962463E-7,4.350182E-6,1.13784594E-7,2.720105E-7,-5.678855E-6],"categories":[],"categories_nodes":[],"categories_segments":[],"categories_sizes":[],"default_left":[0,0,0,0,0,0,0,0,0,0,0,0,0,0,0],"id":67,"left_children":[1,3,5,7,9,11,13,-1,-1,-1,-1,-1,-1,-1,-1],"loss_changes":[1.7714924E-4,9.4511066E-5,9.428125E-5,8.1836784E-5,2.8368195E-5,7.441829E-5,7.769162E-5,0E0,0E0,0E0,0E0,0E0,0E0,0E0,0E0],"parents":[2147483647,0,0,1,1,2,2,3,3,4,4,5,5,6,6],"right_children":[2,4,6,8,10,12,14,-1,-1,-1,-1,-1,-1,-1,-1],"split_conditions":[4.652243E-3,-6.6663558E-3,1E0,4.5110203E1,-2.021073E-4,1.0286031E-4,1.09171625E-2,-3.211107E-6,6.0575685E-6,5.293174E-7,-6.962463E-7,4.350182E-6,1.13784594E-7,2.720105E-7,-5.678855E-6],"split_indices":[64,64,33,13,30,63,64,0,0,0,0,0,0,0,0],"split_type":[0,0,0,0,0,0,0,0,0,0,0,0,0,0,0],"sum_hessian":[1.2669E4,9.249E3,3.42E3,2.079E3,7.17E3,2.85E3,5.7E2,2.054E3,2.5E1,3.123E3,4.047E3,1.565E3,1.285E3,3.3E2,2.4E2],"tree_param":{"num_deleted":"0","num_feature":"70","num_nodes":"15","size_leaf_vector":"1"}},{"base_weights":[-0E0,-7.044888E-5,1.9327186E-4,-2.6546975E-4,-3.7215364E-6,2.7695362E-4,-4.999382E-5,-3.862278E-6,6.6086807E-7,1.2021964E-6,-5.7139044E-7,3.58881E-6,-0E0,-0E0,-3.1336564E-5],"categories":[],"categories_nodes":[],"categories_segments":[],"categories_sizes":[],"default_left":[0,0,0,0,0,0,0,0,0,0,0,0,0,0,0],"id":68,"left_children":[1,3,5,7,9,11,13,-1,-1,-1,-1,-1,-1,-1,-1],"loss_changes":[1.738655E-4,9.3500305E-5,9.248759E-5,1.1129709E-4,4.1937707E-5,7.389317E-5,7.712127E-5,0E0,0E0,0E0,0E0,0E0,0E0,0E0,0E0],"parents":[2147483647,0,0,1,1,2,2,3,3,4,4,5,5,6,6],"right_children":[2,4,6,8,10,12,14,-1,-1,-1,-1,-1,-1,-1,-1],"split_conditions":[4.652243E-3,-1.6260147E-2,1E0,1.3788886E0,-2.285173E-3,1.21038956E2,9.417871E-3,-3.862278E-6,6.6086807E-7,1.2021964E-6,-5.7139044E-7,3.58881E-6,-0E0,-0E0,-3.1336564E-5],"split_indices":[64,65,33,44,63,20,38,0,0,0,0,0,0,0,0],"split_type":[0,0,0,0,0,0,0,0,0,0,0,0,0,0,0],"sum_hessian":[1.2669E4,9.249E3,3.42E3,1.972E3,7.277E3,2.85E3,5.7E2,1.666E3,3.06E2,1.626E3,5.651E3,2.269E3,5.81E2,5.67E2,3E0],"tree_param":{"num_deleted":"0","num_feature":"70","num_nodes":"15","size_leaf_vector":"1"}},{"base_weights":[-0E0,-9.444812E-5,1.4198429E-4,-0E0,-2.4944375E-4,1.9894233E-4,-2.534487E-5,-1.9879324E-6,2.471883E-7,-3.2900434E-6,-0E0,1.7098169E-7,3.7184352E-6,-0E0,-3.121905E-5],"categories":[],"categories_nodes":[],"categories_segments":[],"categories_sizes":[],"default_left":[0,0,0,0,0,0,0,0,0,0,0,0,0,0,0],"id":69,"left_children":[1,3,5,7,9,11,13,-1,-1,-1,-1,-1,-1,-1,-1],"loss_changes":[1.7047791E-4,9.0107525E-5,6.60394E-5,3.9308754E-5,7.0940034E-5,9.48558E-5,7.7421115E-5,0E0,0E0,0E0,0E0,0E0,0E0,0E0,0E0],"parents":[2147483647,0,0,1,1,2,2,3,3,4,4,5,5,6,6],"right_children":[2,4,6,8,10,12,14,-1,-1,-1,-1,-1,-1,-1,-1],"split_conditions":[1.6884726E-3,1.4075949E-3,1E0,-5E-2,1E0,3.51076E-2,8.422003E-3,-1.9879324E-6,2.471883E-7,-3.2900434E-6,-0E0,1.7098169E-7,3.7184352E-6,-0E0,-3.121905E-5],"split_indices":[64,63,33,49,33,43,41,0,0,0,0,0,0,0,0],"split_type":[0,0,0,0,0,0,0,0,0,0,0,0,0,0,0],"sum_hessian":[1.2669E4,7.569E3,5.1E3,5.04E3,2.529E3,4.25E3,8.5E2,9.26E2,4.114E3,2.107E3,4.22E2,2.356E3,1.894E3,8.47E2,3E0],"tree_param":{"num_deleted":"0","num_feature":"70","num_nodes":"15","size_leaf_vector":"1"}},{"base_weights":[-0E0,-2.3568107E-4,5.690057E-5,-3.219582E-4,-0E0,3.724689E-4,1.672114E-5,-4.4647845E-6,-0E0,6.7720903E-6,-0E0,-0E0,7.0806773E-6,-1.893088E-6,6.9105033E-7],"categories":[],"categories_nodes":[],"categories_segments":[],"categories_sizes":[],"default_left":[0,0,0,0,0,0,0,0,0,0,0,0,0,0,0],"id":70,"left_children":[1,3,5,7,9,11,13,-1,-1,-1,-1,-1,-1,-1,-1],"loss_changes":[1.6826327E-4,7.512978E-5,9.097521E-5,8.879791E-5,3.760619E-5,1.1511168E-4,8.923694E-5,0E0,0E0,0E0,0E0,0E0,0E0,0E0,0E0],"parents":[2147483647,0,0,1,1,2,2,3,3,4,4,5,5,6,6],"right_children":[2,4,6,8,10,12,14,-1,-1,-1,-1,-1,-1,-1,-1],"split_conditions":[-5.479077E-3,1.3788886E0,1.341118E2,6.943097E1,2.8090092E1,3.6618027E-3,-5E-2,-4.4647845E-6,-0E0,6.7720903E-6,-0E0,-0E0,7.0806773E-6,-1.893088E-6,6.9105033E-7],"split_indices":[64,44,5,18,16,29,49,0,0,0,0,0,0,0,0],"split_type":[0,0,0,0,0,0,0,0,0,0,0,0,0,0,0],"sum_hessian":[1.2669E4,2.427E3,1.0242E4,2.023E3,4.04E2,8.71E2,9.371E3,1.495E3,5.28E2,7.7E1,3.27E2,4.04E2,4.67E2,1.51E3,7.861E3],"tree_param":{"num_deleted":"0","num_feature":"70","num_nodes":"15","size_leaf_vector":"1"}},{"base_weights":[-0E0,-6.8749585E-5,1.8871983E-4,-2.4865134E-4,-0E0,2.715324E-4,-5.019047E-5,-3.6297286E-6,7.116691E-7,1.2925619E-6,-5.5099554E-7,4.2522242E-6,5.911456E-8,-0E0,-1.1222426E-5],"categories":[],"categories_nodes":[],"categories_segments":[],"categories_sizes":[],"default_left":[0,0,0,0,0,0,0,0,0,0,0,0,0,0,0],"id":71,"left_children":[1,3,5,7,9,11,13,-1,-1,-1,-1,-1,-1,-1,-1],"loss_changes":[1.6572105E-4,9.036476E-5,8.996517E-5,1.0861296E-4,4.334571E-5,7.3424526E-5,7.66361E-5,0E0,0E0,0E0,0E0,0E0,0E0,0E0,0E0],"parents":[2147483647,0,0,1,1,2,2,3,3,4,4,5,5,6,6],"right_children":[2,4,6,8,10,12,14,-1,-1,-1,-1,-1,-1,-1,-1],"split_conditions":[4.652243E-3,-1.4997801E-2,1E0,1.3788886E0,-2.285173E-3,1.0286031E-4,4.2225486E-3,-3.6297286E-6,7.116691E-7,1.2925619E-6,-5.5099554E-7,4.2522242E-6,5.911456E-8,-0E0,-1.1222426E-5],"split_indices":[64,65,33,44,63,63,29,0,0,0,0,0,0,0,0],"split_type":[0,0,0,0,0,0,0,0,0,0,0,0,0,0,0],"sum_hessian":[1.2669E4,9.249E3,3.42E3,2.164E3,7.085E3,2.85E3,5.7E2,1.824E3,3.4E2,1.59E3,5.495E3,1.565E3,1.285E3,5.13E2,5.7E1],"tree_param":{"num_deleted":"0","num_feature":"70","num_nodes":"15","size_leaf_vector":"1"}},{"base_weights":[-0E0,-1.42056E-4,9.106876E-5,-0E0,-2.1253666E-4,2.5506713E-5,3.5879994E-4,-9.0642095E-7,1.8458371E-6,-2.8952245E-6,1.0221668E-7,5.287026E-7,-1.0074357E-5,6.873706E-6,7.8426757E-7],"categories":[],"categories_nodes":[],"categories_segments":[],"categories_sizes":[],"default_left":[0,0,0,0,0,0,0,0,0,0,0,0,0,0,0],"id":72,"left_children":[1,3,5,7,9,11,13,-1,-1,-1,-1,-1,-1,-1,-1],"loss_changes":[1.6344438E-4,6.8083165E-5,9.799818E-5,2.873563E-5,9.13627E-5,8.9973575E-5,3.6369165E-5,0E0,0E0,0E0,0E0,0E0,0E0,0E0,0E0],"parents":[2147483647,0,0,1,1,2,2,3,3,4,4,5,5,6,6],"right_children":[2,4,6,8,10,12,14,-1,-1,-1,-1,-1,-1,-1,-1],"split_conditions":[-7.7734014E-4,-2.285173E-3,1E0,-6.1274245E-3,1E0,1.9002917E-1,-7.2917026E-3,-9.0642095E-7,1.8458371E-6,-2.8952245E-6,1.0221668E-7,5.287026E-7,-1.0074357E-5,6.873706E-6,7.8426757E-7],"split_indices":[64,63,36,65,33,43,45,0,0,0,0,0,0,0,0],"split_type":[0,0,0,0,0,0,0,0,0,0,0,0,0,0,0],"sum_hessian":[1.2669E4,4.899E3,7.77E3,1.206E3,3.693E3,6.546E3,1.224E3,4.86E2,7.2E2,3.077E3,6.16E2,6.476E3,7E1,3.96E2,8.28E2],"tree_param":{"num_deleted":"0","num_feature":"70","num_nodes":"15","size_leaf_vector":"1"}},{"base_weights":[-0E0,-2.3022274E-4,5.5936936E-5,-3.1559024E-4,-0E0,3.6844367E-4,1.6044063E-5,-4.406904E-6,-0E0,1.2448628E-6,-0E0,-0E0,7.00708E-6,-1.87271E-6,6.79055E-7],"categories":[],"categories_nodes":[],"categories_segments":[],"categories_sizes":[],"default_left":[0,0,0,0,0,0,0,0,0,0,0,0,0,0,0],"id":73,"left_children":[1,3,5,7,9,11,13,-1,-1,-1,-1,-1,-1,-1,-1],"loss_changes":[1.6096435E-4,7.2981435E-5,8.9268884E-5,1.1312189E-4,5.795815E-6,1.1283045E-4,8.698956E-5,0E0,0E0,0E0,0E0,0E0,0E0,0E0,0E0],"parents":[2147483647,0,0,1,1,2,2,3,3,4,4,5,5,6,6],"right_children":[2,4,6,8,10,12,14,-1,-1,-1,-1,-1,-1,-1,-1],"split_conditions":[-5.479077E-3,1E0,1.341118E2,1E0,4.1608745E-3,3.6618027E-3,-5E-2,-4.406904E-6,-0E0,1.2448628E-6,-0E0,-0E0,7.00708E-6,-1.87271E-6,6.79055E-7],"split_indices":[64,33,5,37,42,29,49,0,0,0,0,0,0,0,0],"split_type":[0,0,0,0,0,0,0,0,0,0,0,0,0,0,0],"sum_hessian":[1.2669E4,2.427E3,1.0242E4,2.022E3,4.05E2,8.71E2,9.371E3,1.617E3,4.05E2,3.69E2,3.6E1,4.04E2,4.67E2,1.51E3,7.861E3],"tree_param":{"num_deleted":"0","num_feature":"70","num_nodes":"15","size_leaf_vector":"1"}},{"base_weights":[-0E0,-6.7117966E-5,1.8548257E-4,-2.552225E-4,-2.2706438E-6,2.6759668E-4,-4.9931703E-5,-3.7422521E-6,6.6737954E-7,1.1680088E-6,-5.428519E-7,3.488716E-6,-0E0,-2.074823E-5,-0E0],"categories":[],"categories_nodes":[],"categories_segments":[],"categories_sizes":[],"default_left":[0,0,0,0,0,0,0,0,0,0,0,0,0,0,0],"id":74,"left_children":[1,3,5,7,9,11,13,-1,-1,-1,-1,-1,-1,-1,-1],"loss_changes":[1.5952058E-4,8.7128756E-5,8.804142E-5,1.0662073E-4,3.888085E-5,7.233086E-5,7.605446E-5,0E0,0E0,0E0,0E0,0E0,0E0,0E0,0E0],"parents":[2147483647,0,0,1,1,2,2,3,3,4,4,5,5,6,6],"right_children":[2,4,6,8,10,12,14,-1,-1,-1,-1,-1,-1,-1,-1],"split_conditions":[4.652243E-3,-1.6260147E-2,1E0,1.3788886E0,-2.285173E-3,1.21038956E2,-2.3015447E-2,-3.7422521E-6,6.6737954E-7,1.1680088E-6,-5.428519E-7,3.488716E-6,-0E0,-2.074823E-5,-0E0],"split_indices":[64,65,33,44,63,20,45,0,0,0,0,0,0,0,0],"split_type":[0,0,0,0,0,0,0,0,0,0,0,0,0,0,0],"sum_hessian":[1.2669E4,9.249E3,3.42E3,1.972E3,7.277E3,2.85E3,5.7E2,1.666E3,3.06E2,1.626E3,5.651E3,2.269E3,5.81E2,1.3E1,5.57E2],"tree_param":{"num_deleted":"0","num_feature":"70","num_nodes":"15","size_leaf_vector":"1"}},{"base_weights":[-0E0,-8.995871E-5,1.3615438E-4,-0E0,-2.4109276E-4,1.9189173E-4,-2.5065705E-5,-1.9210713E-6,2.6325193E-7,-0E0,-3.4222442E-6,1.0590702E-6,6.621656E-6,2.593874E-7,-5.60749E-6],"categories":[],"categories_nodes":[],"categories_segments":[],"categories_sizes":[],"default_left":[0,0,0,0,0,0,0,0,0,0,0,0,0,0,0],"id":75,"left_children":[1,3,5,7,9,11,13,-1,-1,-1,-1,-1,-1,-1,-1],"loss_changes":[1.559297E-4,8.599743E-5,6.258007E-5,3.721323E-5,6.9025584E-5,9.48988E-5,7.6914264E-5,0E0,0E0,0E0,0E0,0E0,0E0,0E0,0E0],"parents":[2147483647,0,0,1,1,2,2,3,3,4,4,5,5,6,6],"right_children":[2,4,6,8,10,12,14,-1,-1,-1,-1,-1,-1,-1,-1],"split_conditions":[1.6884726E-3,1.4075949E-3,1E0,-5E-2,8.066679E-2,2.9501445E0,1.09171625E-2,-1.9210713E-6,2.6325193E-7,-0E0,-3.4222442E-6,1.0590702E-6,6.621656E-6,2.593874E-7,-5.60749E-6],"split_indices":[64,63,33,49,66,22,64,0,0,0,0,0,0,0,0],"split_type":[0,0,0,0,0,0,0,0,0,0,0,0,0,0,0],"sum_hessian":[1.2669E4,7.569E3,5.1E3,5.04E3,2.529E3,4.25E3,8.5E2,9.26E2,4.114E3,6.87E2,1.842E3,3.778E3,4.72E2,6.1E2,2.4E2],"tree_param":{"num_deleted":"0","num_feature":"70","num_nodes":"15","size_leaf_vector":"1"}},{"base_weights":[-0E0,-2.2509746E-4,5.4866643E-5,-2.765352E-4,6.061057E-4,3.6405865E-4,1.5284035E-5,-0E0,-4.655192E-6,-0E0,1.2698617E-5,-0E0,6.9247108E-6,-1.8524499E-6,6.660936E-7],"categories":[],"categories_nodes":[],"categories_segments":[],"categories_sizes":[],"default_left":[0,0,0,0,0,0,0,0,0,0,0,0,0,0,0],"id":76,"left_children":[1,3,5,7,9,11,13,-1,-1,-1,-1,-1,-1,-1,-1],"loss_changes":[1.5407373E-4,7.186165E-5,8.744712E-5,9.59195E-5,2.9292787E-5,1.1022776E-4,8.469797E-5,0E0,0E0,0E0,0E0,0E0,0E0,0E0,0E0],"parents":[2147483647,0,0,1,1,2,2,3,3,4,4,5,5,6,6],"right_children":[2,4,6,8,10,12,14,-1,-1,-1,-1,-1,-1,-1,-1],"split_conditions":[-5.479077E-3,4.5110203E1,1.341118E2,2.3147147E-3,-5.5028513E-2,3.6618027E-3,-5E-2,-0E0,-4.655192E-6,-0E0,1.2698617E-5,-0E0,6.9247108E-6,-1.8524499E-6,6.660936E-7],"split_indices":[64,13,5,38,65,29,49,0,0,0,0,0,0,0,0],"split_type":[0,0,0,0,0,0,0,0,0,0,0,0,0,0,0],"sum_hessian":[1.2669E4,2.427E3,1.0242E4,2.402E3,2.5E1,8.71E2,9.371E3,1.115E3,1.287E3,5E0,2E1,4.04E2,4.67E2,1.51E3,7.861E3],"tree_param":{"num_deleted":"0","num_feature":"70","num_nodes":"15","size_leaf_vector":"1"}},{"base_weights":[-0E0,-6.5562686E-5,1.8147824E-4,-2.3888738E-4,-0E0,2.6235852E-4,-4.777494E-5,-3.5187622E-6,7.372422E-7,1.2578316E-6,-5.258081E-7,4.140387E-6,-0E0,-0E0,-3.0965773E-5],"categories":[],"categories_nodes":[],"categories_segments":[],"categories_sizes":[],"default_left":[0,0,0,0,0,0,0,0,0,0,0,0,0,0,0],"id":77,"left_children":[1,3,5,7,9,11,13,-1,-1,-1,-1,-1,-1,-1,-1],"loss_changes":[1.5257816E-4,8.400073E-5,8.50276E-5,1.0455749E-4,4.044122E-5,7.262672E-5,7.5397926E-5,0E0,0E0,0E0,0E0,0E0,0E0,0E0,0E0],"parents":[2147483647,0,0,1,1,2,2,3,3,4,4,5,5,6,6],"right_children":[2,4,6,8,10,12,14,-1,-1,-1,-1,-1,-1,-1,-1],"split_conditions":[4.652243E-3,-1.4997801E-2,1E0,1.3788886E0,-2.285173E-3,1.0286031E-4,9.417871E-3,-3.5187622E-6,7.372422E-7,1.2578316E-6,-5.258081E-7,4.140387E-6,-0E0,-0E0,-3.0965773E-5],"split_indices":[64,65,33,44,63,63,38,0,0,0,0,0,0,0,0],"split_type":[0,0,0,0,0,0,0,0,0,0,0,0,0,0,0],"sum_hessian":[1.2669E4,9.249E3,3.42E3,2.164E3,7.085E3,2.85E3,5.7E2,1.824E3,3.4E2,1.59E3,5.495E3,1.565E3,1.285E3,5.67E2,3E0],"tree_param":{"num_deleted":"0","num_feature":"70","num_nodes":"15","size_leaf_vector":"1"}},{"base_weights":[-0E0,-1.3546925E-4,8.744145E-5,-0E0,-2.041875E-4,2.2489245E-5,3.519367E-4,-8.3455035E-7,1.8168357E-6,-2.8030875E-6,1.4212796E-7,4.975364E-7,-1.0016841E-5,6.7679616E-6,7.339129E-7],"categories":[],"categories_nodes":[],"categories_segments":[],"categories_sizes":[],"default_left":[0,0,0,0,0,0,0,0,0,0,0,0,0,0,0],"id":78,"left_children":[1,3,5,7,9,11,13,-1,-1,-1,-1,-1,-1,-1,-1],"loss_changes":[1.494455E-4,6.418118E-5,9.608883E-5,2.7351154E-5,8.810841E-5,8.798278E-5,3.594281E-5,0E0,0E0,0E0,0E0,0E0,0E0,0E0,0E0],"parents":[2147483647,0,0,1,1,2,2,3,3,4,4,5,5,6,6],"right_children":[2,4,6,8,10,12,14,-1,-1,-1,-1,-1,-1,-1,-1],"split_conditions":[-7.7734014E-4,-2.285173E-3,1E0,-6.1274245E-3,1E0,1.9002917E-1,-7.2917026E-3,-8.3455035E-7,1.8168357E-6,-2.8030875E-6,1.4212796E-7,4.975364E-7,-1.0016841E-5,6.7679616E-6,7.339129E-7],"split_indices":[64,63,36,65,33,43,45,0,0,0,0,0,0,0,0],"split_type":[0,0,0,0,0,0,0,0,0,0,0,0,0,0,0],"sum_hessian":[1.2669E4,4.899E3,7.77E3,1.206E3,3.693E3,6.546E3,1.224E3,4.86E2,7.2E2,3.077E3,6.16E2,6.476E3,7E1,3.96E2,8.28E2],"tree_param":{"num_deleted":"0","num_feature":"70","num_nodes":"15","size_leaf_vector":"1"}},{"base_weights":[-0E0,-6.434034E-5,1.789045E-4,-2.462104E-4,-1.1875259E-6,2.593009E-4,-4.7923746E-5,-3.638679E-6,6.83772E-7,1.1329038E-6,-5.187839E-7,-0E0,4.0680334E-6,-0E0,-1.1086686E-5],"categories":[],"categories_nodes":[],"categories_segments":[],"categories_sizes":[],"default_left":[0,0,0,0,0,0,0,0,0,0,0,0,0,0,0],"id":79,"left_children":[1,3,5,7,9,11,13,-1,-1,-1,-1,-1,-1,-1,-1],"loss_changes":[1.4793196E-4,8.154653E-5,8.365874E-5,1.0284935E-4,3.6145513E-5,7.199342E-5,7.488646E-5,0E0,0E0,0E0,0E0,0E0,0E0,0E0,0E0],"parents":[2147483647,0,0,1,1,2,2,3,3,4,4,5,5,6,6],"right_children":[2,4,6,8,10,12,14,-1,-1,-1,-1,-1,-1,-1,-1],"split_conditions":[4.652243E-3,-1.6260147E-2,1E0,1.3788886E0,-2.285173E-3,5.420084E-3,4.2225486E-3,-3.638679E-6,6.83772E-7,1.1329038E-6,-5.187839E-7,-0E0,4.0680334E-6,-0E0,-1.1086686E-5],"split_indices":[64,65,33,44,63,65,29,0,0,0,0,0,0,0,0],"split_type":[0,0,0,0,0,0,0,0,0,0,0,0,0,0,0],"sum_hessian":[1.2669E4,9.249E3,3.42E3,1.972E3,7.277E3,2.85E3,5.7E2,1.666E3,3.06E2,1.626E3,5.651E3,1.26E3,1.59E3,5.13E2,5.7E1],"tree_param":{"num_deleted":"0","num_feature":"70","num_nodes":"15","size_leaf_vector":"1"}},{"base_weights":[-0E0,-2.1877231E-4,5.372331E-5,-2.7006213E-4,5.99509E-4,3.597485E-4,1.4437189E-5,-0E0,-4.5684055E-6,-0E0,1.2601499E-5,-0E0,6.846698E-6,-1.8329218E-6,6.5223844E-7],"categories":[],"categories_nodes":[],"categories_segments":[],"categories_sizes":[],"default_left":[0,0,0,0,0,0,0,0,0,0,0,0,0,0,0],"id":80,"left_children":[1,3,5,7,9,11,13,-1,-1,-1,-1,-1,-1,-1,-1],"loss_changes":[1.4597356E-4,6.993465E-5,8.575045E-5,9.40936E-5,2.891712E-5,1.07889704E-4,8.2406856E-5,0E0,0E0,0E0,0E0,0E0,0E0,0E0,0E0],"parents":[2147483647,0,0,1,1,2,2,3,3,4,4,5,5,6,6],"right_children":[2,4,6,8,10,12,14,-1,-1,-1,-1,-1,-1,-1,-1],"split_conditions":[-5.479077E-3,4.5110203E1,1.341118E2,2.3147147E-3,-5.5028513E-2,3.6618027E-3,-5E-2,-0E0,-4.5684055E-6,-0E0,1.2601499E-5,-0E0,6.846698E-6,-1.8329218E-6,6.5223844E-7],"split_indices":[64,13,5,38,65,29,49,0,0,0,0,0,0,0,0],"split_type":[0,0,0,0,0,0,0,0,0,0,0,0,0,0,0],"sum_hessian":[1.2669E4,2.427E3,1.0242E4,2.402E3,2.5E1,8.71E2,9.371E3,1.115E3,1.287E3,5E0,2E1,4.04E2,4.67E2,1.51E3,7.861E3],"tree_param":{"num_deleted":"0","num_feature":"70","num_nodes":"15","size_leaf_vector":"1"}},{"base_weights":[-0E0,-2.0949726E-4,5.527554E-5,-3.01233E-4,4.097336E-5,-4.7119636E-7,2.293922E-4,-0E0,-4.366559E-6,8.86499E-6,-0E0,1.2004458E-6,-5.290967E-7,3.2195178E-6,-2.5768222E-7],"categories":[],"categories_nodes":[],"categories_segments":[],"categories_sizes":[],"default_left":[0,0,0,0,0,0,0,0,0,0,0,0,0,0,0],"id":81,"left_children":[1,3,5,7,9,11,13,-1,-1,-1,-1,-1,-1,-1,-1],"loss_changes":[1.4396773E-4,8.529967E-5,1.2094705E-4,8.637058E-5,5.1977437E-5,3.895888E-5,9.779645E-5,0E0,0E0,0E0,0E0,0E0,0E0,0E0,0E0],"parents":[2147483647,0,0,1,1,2,2,3,3,4,4,5,5,6,6],"right_children":[2,4,6,8,10,12,14,-1,-1,-1,-1,-1,-1,-1,-1],"split_conditions":[-1.594665E-2,1.3788886E0,4.652243E-3,1.515E1,-1.4405274E0,-2.285173E-3,1E0,-0E0,-4.366559E-6,8.86499E-6,-0E0,1.2004458E-6,-5.290967E-7,3.2195178E-6,-2.5768222E-7],"split_indices":[65,44,64,59,21,63,33,0,0,0,0,0,0,0,0],"split_type":[0,0,0,0,0,0,0,0,0,0,0,0,0,0,0],"sum_hessian":[1.2669E4,2.572E3,1.0097E4,2.174E3,3.98E2,7.217E3,2.88E3,6.89E2,1.485E3,6.2E1,3.36E2,1.608E3,5.609E3,2.4E3,4.8E2],"tree_param":{"num_deleted":"0","num_feature":"70","num_nodes":"15","size_leaf_vector":"1"}},{"base_weights":[-0E0,-2.1532246E-4,5.2849835E-5,-2.9947696E-4,-0E0,3.5575026E-4,1.3856122E-5,-4.2363927E-6,-0E0,1.3247515E-6,-0E0,-0E0,6.77401E-6,-1.8185547E-6,6.4254516E-7],"categories":[],"categories_nodes":[],"categories_segments":[],"categories_sizes":[],"default_left":[0,0,0,0,0,0,0,0,0,0,0,0,0,0,0],"id":82,"left_children":[1,3,5,7,9,11,13,-1,-1,-1,-1,-1,-1,-1,-1],"loss_changes":[1.4137762E-4,6.903776E-5,8.40442E-5,1.09306246E-4,6.563575E-6,1.0572263E-4,8.077898E-5,0E0,0E0,0E0,0E0,0E0,0E0,0E0,0E0],"parents":[2147483647,0,0,1,1,2,2,3,3,4,4,5,5,6,6],"right_children":[2,4,6,8,10,12,14,-1,-1,-1,-1,-1,-1,-1,-1],"split_conditions":[-5.479077E-3,1E0,1.341118E2,1E0,4.1608745E-3,3.6618027E-3,-5E-2,-4.2363927E-6,-0E0,1.3247515E-6,-0E0,-0E0,6.77401E-6,-1.8185547E-6,6.4254516E-7],"split_indices":[64,33,5,37,42,29,49,0,0,0,0,0,0,0,0],"split_type":[0,0,0,0,0,0,0,0,0,0,0,0,0,0,0],"sum_hessian":[1.2669E4,2.427E3,1.0242E4,2.022E3,4.05E2,8.71E2,9.371E3,1.617E3,4.05E2,3.69E2,3.6E1,4.04E2,4.67E2,1.51E3,7.861E3],"tree_param":{"num_deleted":"0","num_feature":"70","num_nodes":"15","size_leaf_vector":"1"}},{"base_weights":[-0E0,-2.066572E-4,5.4576965E-5,-2.9771982E-4,4.0138566E-5,-1.3660288E-7,2.2610852E-4,-0E0,-5.0194717E-6,8.798169E-6,-0E0,1.1907385E-6,-5.220033E-7,3.1805166E-6,-2.5961148E-7],"categories":[],"categories_nodes":[],"categories_segments":[],"categories_sizes":[],"default_left":[0,0,0,0,0,0,0,0,0,0,0,0,0,0,0],"id":83,"left_children":[1,3,5,7,9,11,13,-1,-1,-1,-1,-1,-1,-1,-1],"loss_changes":[1.4014672E-4,8.373304E-5,1.1740565E-4,8.551759E-5,5.1213934E-5,3.8167367E-5,9.611332E-5,0E0,0E0,0E0,0E0,0E0,0E0,0E0,0E0],"parents":[2147483647,0,0,1,1,2,2,3,3,4,4,5,5,6,6],"right_children":[2,4,6,8,10,12,14,-1,-1,-1,-1,-1,-1,-1,-1],"split_conditions":[-1.594665E-2,1.3788886E0,4.652243E-3,4.758162E-3,-1.4405274E0,-2.285173E-3,1E0,-0E0,-5.0194717E-6,8.798169E-6,-0E0,1.1907385E-6,-5.220033E-7,3.1805166E-6,-2.5961148E-7],"split_indices":[65,44,64,60,21,63,33,0,0,0,0,0,0,0,0],"split_type":[0,0,0,0,0,0,0,0,0,0,0,0,0,0,0],"sum_hessian":[1.2669E4,2.572E3,1.0097E4,2.174E3,3.98E2,7.217E3,2.88E3,1.073E3,1.101E3,6.2E1,3.36E2,1.608E3,5.609E3,2.4E3,4.8E2],"tree_param":{"num_deleted":"0","num_feature":"70","num_nodes":"15","size_leaf_vector":"1"}},{"base_weights":[-0E0,-2.0472435E-4,5.3933985E-5,-2.9518356E-4,3.8785E-5,-0E0,2.2350588E-4,-0E0,-4.2866063E-6,8.351786E-6,-0E0,1.178868E-6,-5.1678796E-7,3.1487773E-6,-2.570421E-7],"categories":[],"categories_nodes":[],"categories_segments":[],"categories_sizes":[],"default_left":[0,0,0,0,0,0,0,0,0,0,0,0,0,0,0],"id":84,"left_children":[1,3,5,7,9,11,13,-1,-1,-1,-1,-1,-1,-1,-1],"loss_changes":[1.3739282E-4,8.246239E-5,1.1473436E-4,8.392389E-5,5.0312978E-5,3.740964E-5,9.4651565E-5,0E0,0E0,0E0,0E0,0E0,0E0,0E0,0E0],"parents":[2147483647,0,0,1,1,2,2,3,3,4,4,5,5,6,6],"right_children":[2,4,6,8,10,12,14,-1,-1,-1,-1,-1,-1,-1,-1],"split_conditions":[-1.594665E-2,1.3788886E0,4.652243E-3,1.515E1,2.8942982E1,-2.285173E-3,1E0,-0E0,-4.2866063E-6,8.351786E-6,-0E0,1.178868E-6,-5.1678796E-7,3.1487773E-6,-2.570421E-7],"split_indices":[65,44,64,59,16,63,33,0,0,0,0,0,0,0,0],"split_type":[0,0,0,0,0,0,0,0,0,0,0,0,0,0,0],"sum_hessian":[1.2669E4,2.572E3,1.0097E4,2.174E3,3.98E2,7.217E3,2.88E3,6.89E2,1.485E3,6.8E1,3.3E2,1.608E3,5.609E3,2.4E3,4.8E2],"tree_param":{"num_deleted":"0","num_feature":"70","num_nodes":"15","size_leaf_vector":"1"}},{"base_weights":[-0E0,-1.2847189E-4,8.317166E-5,-2.1831517E-4,-0E0,1.8886412E-5,3.441292E-4,-2.9120138E-6,-0E0,2.1163416E-6,-5.892363E-7,4.6054618E-7,-9.967344E-6,6.6570756E-6,6.721011E-7],"categories":[],"categories_nodes":[],"categories_segments":[],"categories_sizes":[],"default_left":[0,0,0,0,0,0,0,0,0,0,0,0,0,0,0],"id":85,"left_children":[1,3,5,7,9,11,13,-1,-1,-1,-1,-1,-1,-1,-1],"loss_changes":[1.3472441E-4,6.180558E-5,9.409715E-5,6.9079775E-5,2.7569175E-5,8.592064E-5,3.592846E-5,0E0,0E0,0E0,0E0,0E0,0E0,0E0,0E0],"parents":[2147483647,0,0,1,1,2,2,3,3,4,4,5,5,6,6],"right_children":[2,4,6,8,10,12,14,-1,-1,-1,-1,-1,-1,-1,-1],"split_conditions":[-7.7734014E-4,5.790698E1,1E0,1.3788886E0,-2.3795955E-3,1.9002917E-1,-7.2917026E-3,-2.9120138E-6,-0E0,2.1163416E-6,-5.892363E-7,4.6054618E-7,-9.967344E-6,6.6570756E-6,6.721011E-7],"split_indices":[64,18,36,44,63,43,45,0,0,0,0,0,0,0,0],"split_type":[0,0,0,0,0,0,0,0,0,0,0,0,0,0,0],"sum_hessian":[1.2669E4,4.899E3,7.77E3,2.99E3,1.909E3,6.546E3,1.224E3,2.493E3,4.97E2,5.01E2,1.408E3,6.476E3,7E1,3.96E2,8.28E2],"tree_param":{"num_deleted":"0","num_feature":"70","num_nodes":"15","size_leaf_vector":"1"}},{"base_weights":[-0E0,-2.019118E-4,5.330744E-5,-2.9153048E-4,3.7017864E-5,2.3641778E-4,-0E0,-9.101211E-6,-1.5086362E-6,8.669404E-6,-0E0,-0E0,3.396725E-6,1.7963291E-8,-1.721719E-5],"categories":[],"categories_nodes":[],"categories_segments":[],"categories_sizes":[],"default_left":[0,0,0,0,0,0,0,0,0,0,0,0,0,0,0],"id":86,"left_children":[1,3,5,7,9,11,13,-1,-1,-1,-1,-1,-1,-1,-1],"loss_changes":[1.3376678E-4,8.068541E-5,1.12088695E-4,8.282112E-5,4.9804E-5,8.557513E-5,1.2156134E-4,0E0,0E0,0E0,0E0,0E0,0E0,0E0,0E0],"parents":[2147483647,0,0,1,1,2,2,3,3,4,4,5,5,6,6],"right_children":[2,4,6,8,10,12,14,-1,-1,-1,-1,-1,-1,-1,-1],"split_conditions":[-1.594665E-2,1.3788886E0,-2.285173E-3,-5.5223787E-1,-1.4405274E0,9.822817E-1,2.3927985E-1,-9.101211E-6,