{"learner":{"attributes":{"scikit_learn":"{\"_estimator_type\": \"regressor\"}"},"feature_names":[],"feature_types":[],"gradient_booster":{"model":{"cats":{"enc":[],"feature_segments":[],"sorted_idx":[]},"gbtree_model_param":{"num_parallel_tree":"1","num_trees":"300"},"iteration_indptr":[0,1,2,3,4,5,6,7,8,9,10,11,12,13,14,15,16,17,18,19,20,21,22,23,24,25,26,27,28,29,30,31,32,33,34,35,36,37,38,39,40,41,42,43,44,45,46,47,48,49,50,51,52,53,54,55,56,57,58,59,60,61,62,63,64,65,66,67,68,69,70,71,72,73,74,75,76,77,78,79,80,81,82,83,84,85,86,87,88,89,90,91,92,93,94,95,96,97,98,99,100,101,102,103,104,105,106,107,108,109,110,111,112,113,114,115,116,117,118,119,120,121,122,123,124,125,126,127,128,129,130,131,132,133,134,135,136,137,138,139,140,141,142,143,144,145,146,147,148,149,150,151,152,153,154,155,156,157,158,159,160,161,162,163,164,165,166,167,168,169,170,171,172,173,174,175,176,177,178,179,180,181,182,183,184,185,186,187,188,189,190,191,192,193,194,195,196,197,198,199,200,201,202,203,204,205,206,207,208,209,210,211,212,213,214,215,216,217,218,219,220,221,222,223,224,225,226,227,228,229,230,231,232,233,234,235,236,237,238,239,240,241,242,243,244,245,246,247,248,249,250,251,252,253,254,255,256,257,258,259,260,261,262,263,264,265,266,267,268,269,270,271,272,273,274,275,276,277,278,279,280,281,282,283,284,285,286,287,288,289,290,291,292,293,294,295,296,297,298,299,300],"tree_info":[0,0,0,0,0,0,0,0,0,0,0,0,0,0,0,0,0,0,0,0,0,0,0,0,0,0,0,0,0,0,0,0,0,0,0,0,0,0,0,0,0,0,0,0,0,0,0,0,0,0,0,0,0,0,0,0,0,0,0,0,0,0,0,0,0,0,0,0,0,0,0,0,0,0,0,0,0,0,0,0,0,0,0,0,0,0,0,0,0,0,0,0,0,0,0,0,0,0,0,0,0,0,0,0,0,0,0,0,0,0,0,0,0,0,0,0,0,0,0,0,0,0,0,0,0,0,0,0,0,0,0,0,0,0,0,0,0,0,0,0,0,0,0,0,0,0,0,0,0,0,0,0,0,0,0,0,0,0,0,0,0,0,0,0,0,0,0,0,0,0,0,0,0,0,0,0,0,0,0,0,0,0,0,0,0,0,0,0,0,0,0,0,0,0,0,0,0,0,0,0,0,0,0,0,0,0,0,0,0,0,0,0,0,0,0,0,0,0,0,0,0,0,0,0,0,0,0,0,0,0,0,0,0,0,0,0,0,0,0,0,0,0,0,0,0,0,0,0,0,0,0,0,0,0,0,0,0,0,0,0,0,0,0,0,0,0,0,0,0,0,0,0,0,0,0,0,0,0,0,0,0,0,0,0,0,0,0,0,0,0,0,0,0,0,0,0,0,0,0,0],"trees":[{"base_weights":[-0E0,5.70502E-4,-3.7784732E-4,3.2073905E-4,1.6887033E-3,-1.9692401E-4,-1.256593E-3,3.4860313E-5,5.195485E-4,7.646689E-4,3.2769437E-3,-0E0,-3.9676685E-4,-7.2295894E-4,-3.0197196E-3,-6.3839817E-4,9.997364E-5,6.256285E-4,-0E0,1.192899E-3,-0E0,3.7533017E-3,-0E0,7.274997E-5,-9.2159185E-5,-5.328358E-4,-0E0,-0E0,-1.0070708E-3,-4.4034026E-3,-0E0,-1.0789573E-5,-0E0,2.9554703E-6,-0E0,7.409048E-6,-0E0,7.1184934E-7,-0E0,1.3909108E-5,-0E0,3.901395E-5,-0E0,1.9568658E-6,-6.63638E-7,-2.0719378E-6,5.5747403E-8,-7.197409E-6,-0E0,1.5180086E-6,-0E0,9.189999E-6,-2.1651736E-6,-6.0945126E-6,-2.7401344E-5,-0E0,-5.401252E-5,-0E0,-5.8442697E-6],"categories":[],"categories_nodes":[],"categories_segments":[],"categories_sizes":[],"default_left":[0,0,0,0,0,0,0,0,0,0,1,0,0,0,0,0,0,0,0,0,0,0,0,0,0,0,0,0,0,0,0,0,0,0,0,0,0,0,0,0,0,0,0,0,0,0,0,0,0,0,0,0,0,0,0,0,0,0,0],"id":0,"left_children":[1,3,5,7,9,11,13,15,17,19,21,23,25,27,29,31,33,35,37,39,-1,41,-1,43,45,47,49,51,53,55,57,-1,-1,-1,-1,-1,-1,-1,-1,-1,-1,-1,-1,-1,-1,-1,-1,-1,-1,-1,-1,-1,-1,-1,-1,-1,-1,-1,-1],"loss_changes":[2.7122092E-3,1.1964043E-3,1.0567729E-3,1.8186995E-4,8.17552E-4,2.5661988E-4,7.4103125E-4,3.0864994E-5,8.082419E-5,2.0989071E-4,5.453271E-4,2.108389E-5,2.2318977E-4,2.2375106E-4,7.06275E-4,1.9495992E-5,4.429998E-5,8.44968E-5,1.5404578E-6,1.0991725E-4,0E0,1.3847952E-4,0E0,4.4926972E-5,3.4996912E-5,2.6906218E-4,7.69653E-6,6.8777226E-5,1.5284342E-4,3.1980663E-4,8.880427E-6,0E0,0E0,0E0,0E0,0E0,0E0,0E0,0E0,0E0,0E0,0E0,0E0,0E0,0E0,0E0,0E0,0E0,0E0,0E0,0E0,0E0,0E0,0E0,0E0,0E0,0E0,0E0,0E0],"parents":[2147483647,0,0,1,1,2,2,3,3,4,4,5,5,6,6,7,7,8,8,9,9,10,10,11,11,12,12,13,13,14,14,15,15,16,16,17,17,18,18,19,19,21,21,23,23,24,24,25,25,26,26,27,27,28,28,29,29,30,30],"right_children":[2,4,6,8,10,12,14,16,18,20,22,24,26,28,30,32,34,36,38,40,-1,42,-1,44,46,48,50,52,54,56,58,-1,-1,-1,-1,-1,-1,-1,-1,-1,-1,-1,-1,-1,-1,-1,-1,-1,-1,-1,-1,-1,-1,-1,-1,-1,-1,-1,-1],"split_conditions":[-6.651614E-4,1E0,1E0,-6.793997E-2,2.2809967E-1,1.7622649E-3,3.9450136E-1,-7.974595E-2,-1.6529304E-3,-2.8966577E-3,-6.6268705E-2,3.4017317E-4,1E0,2.251194E1,5.2052677E1,1E0,4.3953518E1,1E0,7.979863E-3,4.1153927E1,-0E0,5.092991E1,-0E0,1.286259E-1,3.694963E-2,1E0,-3.7613326E-1,3E-4,5.6474754E-3,1.2966014E-3,8.315316E-3,-1.0789573E-5,-0E0,2.9554703E-6,-0E0,7.409048E-6,-0E0,7.1184934E-7,-0E0,1.3909108E-5,-0E0,3.901395E-5,-0E0,1.9568658E-6,-6.63638E-7,-2.0719378E-6,5.5747403E-8,-7.197409E-6,-0E0,1.5180086E-6,-0E0,9.189999E-6,-2.1651736E-6,-6.0945126E-6,-2.7401344E-5,-0E0,-5.401252E-5,-0E0,-5.8442697E-6],"split_indices":[63,35,35,74,74,63,74,65,63,45,67,30,37,17,17,36,18,37,65,11,0,11,0,74,60,33,21,68,63,63,66,0,0,0,0,0,0,0,0,0,0,0,0,0,0,0,0,0,0,0,0,0,0,0,0,0,0,0,0],"split_type":[0,0,0,0,0,0,0,0,0,0,0,0,0,0,0,0,0,0,0,0,0,0,0,0,0,0,0,0,0,0,0,0,0,0,0,0,0,0,0,0,0,0,0,0,0,0,0,0,0,0,0,0,0,0,0,0,0,0,0],"sum_hessian":[1.2572E4,5.008E3,7.564E3,4.172E3,8.36E2,6.372E3,1.192E3,1.92E3,2.252E3,5.73E2,2.63E2,3.176E3,3.196E3,9.64E2,2.28E2,3E1,1.89E3,1.758E3,4.94E2,3.8E2,1.93E2,2.38E2,2.5E1,1.862E3,1.314E3,2.556E3,6.4E2,2.49E2,7.15E2,1.41E2,8.7E1,2.4E1,6E0,7.19E2,1.171E3,1.406E3,3.52E2,2.99E2,1.95E2,3.35E2,4.5E1,2.29E2,9E0,1.369E3,4.93E2,1.071E3,2.43E2,1.918E3,6.38E2,3.29E2,3.11E2,6.6E1,1.83E2,6.34E2,8.1E1,3.8E1,1.03E2,6.6E1,2.1E1],"tree_param":{"num_deleted":"0","num_feature":"76","num_nodes":"59","size_leaf_vector":"1"}},{"base_weights":[-0E0,5.6529755E-4,-3.7458164E-4,3.177474E-4,1.6725395E-3,-1.9486053E-4,-1.2469363E-3,3.389094E-5,5.1483867E-4,7.5660733E-4,3.243607E-3,-0E0,-3.9261027E-4,-7.1689795E-4,-2.9953162E-3,-6.3099957E-4,9.885227E-5,5.617375E-4,-0E0,1.1807962E-3,-0E0,3.7165352E-3,-0E0,7.149029E-5,-9.048714E-5,-5.274455E-4,-0E0,-0E0,-9.986216E-4,-4.365298E-3,-0E0,-1.0700281E-5,-0E0,2.9261198E-6,-0E0,9.426454E-6,2.9608775E-6,1.3772063E-5,-0E0,3.8632148E-5,-0E0,1.937368E-6,-6.570682E-7,-2.0513153E-6,5.5200815E-8,-7.1256222E-6,-0E0,1.5030558E-6,-0E0,9.104571E-6,-2.1440987E-6,-6.034045E-6,-2.7143264E-5,-0E0,-4.686648E-5,-0E0,-5.797067E-6],"categories":[],"categories_nodes":[],"categories_segments":[],"categories_sizes":[],"default_left":[0,0,0,0,0,0,0,0,0,0,1,0,0,0,0,0,0,0,0,0,0,0,0,0,0,0,0,0,0,0,0,0,0,0,0,0,0,0,0,0,0,0,0,0,0,0,0,0,0,0,0,0,0,0,0,0,0],"id":1,"left_children":[1,3,5,7,9,11,13,15,17,19,21,23,25,27,29,31,33,35,-1,37,-1,39,-1,41,43,45,47,49,51,53,55,-1,-1,-1,-1,-1,-1,-1,-1,-1,-1,-1,-1,-1,-1,-1,-1,-1,-1,-1,-1,-1,-1,-1,-1,-1,-1],"loss_changes":[2.6639781E-3,1.1723669E-3,1.0412772E-3,1.7872476E-4,7.978997E-4,2.5127252E-4,7.2731206E-4,3.0242078E-5,7.9876976E-5,2.059188E-4,5.3684576E-4,2.034185E-5,2.190558E-4,2.2000592E-4,6.916935E-4,1.9268224E-5,4.3472646E-5,9.2184404E-5,0E0,1.08079344E-4,0E0,1.358462E-4,0E0,4.417973E-5,3.4484627E-5,2.6392657E-4,7.54565E-6,6.749684E-5,1.4825235E-4,3.1486782E-4,8.737555E-6,0E0,0E0,0E0,0E0,0E0,0E0,0E0,0E0,0E0,0E0,0E0,0E0,0E0,0E0,0E0,0E0,0E0,0E0,0E0,0E0,0E0,0E0,0E0,0E0,0E0,0E0],"parents":[2147483647,0,0,1,1,2,2,3,3,4,4,5,5,6,6,7,7,8,8,9,9,10,10,11,11,12,12,13,13,14,14,15,15,16,16,17,17,19,19,21,21,23,23,24,24,25,25,26,26,27,27,28,28,29,29,30,30],"right_children":[2,4,6,8,10,12,14,16,18,20,22,24,26,28,30,32,34,36,-1,38,-1,40,-1,42,44,46,48,50,52,54,56,-1,-1,-1,-1,-1,-1,-1,-1,-1,-1,-1,-1,-1,-1,-1,-1,-1,-1,-1,-1,-1,-1,-1,-1,-1,-1],"split_conditions":[-6.651614E-4,1E0,1E0,-6.793997E-2,2.2809967E-1,1.7622649E-3,3.9450136E-1,-7.974595E-2,2.3346863E0,-2.8966577E-3,-6.6268705E-2,3.4017317E-4,1E0,2.251194E1,5.2052677E1,1E0,4.3953518E1,-4.422364E-3,-0E0,4.1153927E1,-0E0,5.092991E1,-0E0,1.286259E-1,3.694963E-2,1E0,-3.7613326E-1,3E-4,5.6474754E-3,7E-2,8.315316E-3,-1.0700281E-5,-0E0,2.9261198E-6,-0E0,9.426454E-6,2.9608775E-6,1.3772063E-5,-0E0,3.8632148E-5,-0E0,1.937368E-6,-6.570682E-7,-2.0513153E-6,5.5200815E-8,-7.1256222E-6,-0E0,1.5030558E-6,-0E0,9.104571E-6,-2.1440987E-6,-6.034045E-6,-2.7143264E-5,-0E0,-4.686648E-5,-0E0,-5.797067E-6],"split_indices":[63,35,35,74,74,63,74,65,21,45,67,30,37,17,17,36,18,63,0,11,0,11,0,74,60,33,21,68,63,49,66,0,0,0,0,0,0,0,0,0,0,0,0,0,0,0,0,0,0,0,0,0,0,0,0,0,0],"split_type":[0,0,0,0,0,0,0,0,0,0,0,0,0,0,0,0,0,0,0,0,0,0,0,0,0,0,0,0,0,0,0,0,0,0,0,0,0,0,0,0,0,0,0,0,0,0,0,0,0,0,0,0,0,0,0,0,0],"sum_hessian":[1.2572E4,5.008E3,7.564E3,4.172E3,8.36E2,6.372E3,1.192E3,1.92E3,2.252E3,5.73E2,2.63E2,3.176E3,3.196E3,9.64E2,2.28E2,3E1,1.89E3,2.144E3,1.08E2,3.8E2,1.93E2,2.38E2,2.5E1,1.862E3,1.314E3,2.556E3,6.4E2,2.49E2,7.15E2,1.41E2,8.7E1,2.4E1,6E0,7.19E2,1.171E3,7.21E2,1.423E3,3.35E2,4.5E1,2.29E2,9E0,1.369E3,4.93E2,1.071E3,2.43E2,1.918E3,6.38E2,3.29E2,3.11E2,6.6E1,1.83E2,6.34E2,8.1E1,5E0,1.36E2,6.6E1,2.1E1],"tree_param":{"num_deleted":"0","num_feature":"76","num_nodes":"57","size_leaf_vector":"1"}},{"base_weights":[-0E0,5.600478E-4,-3.712339E-4,3.146694E-4,1.6565344E-3,-1.9281762E-4,-1.2366512E-3,3.2931413E-5,5.0996064E-4,7.486253E-4,3.210597E-3,-0E0,-3.884952E-4,-7.108963E-4,-2.967438E-3,-6.2366226E-4,9.774203E-5,5.566143E-4,-0E0,1.1688127E-3,-0E0,3.680129E-3,-0E0,4.177304E-5,-1.6218891E-4,-5.221089E-4,-0E0,-0E0,-9.902547E-4,-4.3216418E-3,-0E0,-1.0611726E-5,-0E0,2.89706E-6,-0E0,9.332839E-6,2.9313724E-6,1.3636368E-5,-0E0,-0E0,4.0206192E-5,1.4905643E-6,-1.7360465E-7,-0E0,-3.3013296E-6,-7.054551E-6,-0E0,1.4882501E-6,-0E0,9.019936E-6,-2.1232274E-6,-5.9741765E-6,-2.688761E-5,-0E0,-5.306345E-5,-0E0,-5.7502434E-6],"categories":[],"categories_nodes":[],"categories_segments":[],"categories_sizes":[],"default_left":[0,0,0,0,0,0,0,0,0,0,1,0,0,0,0,0,0,0,0,0,0,0,0,0,0,0,0,0,0,0,0,0,0,0,0,0,0,0,0,0,0,0,0,0,0,0,0,0,0,0,0,0,0,0,0,0,0],"id":2,"left_children":[1,3,5,7,9,11,13,15,17,19,21,23,25,27,29,31,33,35,-1,37,-1,39,-1,41,43,45,47,49,51,53,55,-1,-1,-1,-1,-1,-1,-1,-1,-1,-1,-1,-1,-1,-1,-1,-1,-1,-1,-1,-1,-1,-1,-1,-1,-1,-1],"loss_changes":[2.615464E-3,1.1490415E-3,1.0245488E-3,1.7544936E-4,7.7866693E-4,2.46034E-4,7.108528E-4,2.962968E-5,7.884705E-5,2.0202316E-4,5.285081E-4,1.9902718E-5,2.1500065E-4,2.1632813E-4,6.750559E-4,1.904312E-5,4.266113E-5,8.926488E-5,0E0,1.0627438E-4,0E0,1.3602641E-4,0E0,2.9689738E-5,2.8123859E-5,2.588908E-4,7.3977267E-6,6.624029E-5,1.4376064E-4,3.1420682E-4,8.596979E-6,0E0,0E0,0E0,0E0,0E0,0E0,0E0,0E0,0E0,0E0,0E0,0E0,0E0,0E0,0E0,0E0,0E0,0E0,0E0,0E0,0E0,0E0,0E0,0E0,0E0,0E0],"parents":[2147483647,0,0,1,1,2,2,3,3,4,4,5,5,6,6,7,7,8,8,9,9,10,10,11,11,12,12,13,13,14,14,15,15,16,16,17,17,19,19,21,21,23,23,24,24,25,25,26,26,27,27,28,28,29,29,30,30],"right_children":[2,4,6,8,10,12,14,16,18,20,22,24,26,28,30,32,34,36,-1,38,-1,40,-1,42,44,46,48,50,52,54,56,-1,-1,-1,-1,-1,-1,-1,-1,-1,-1,-1,-1,-1,-1,-1,-1,-1,-1,-1,-1,-1,-1,-1,-1,-1,-1],"split_conditions":[-6.651614E-4,1E0,1E0,-6.793997E-2,2.2809967E-1,1.7622649E-3,3.9450136E-1,-7.974595E-2,2.3346863E0,-2.8966577E-3,-6.6268705E-2,4.2478356E0,1E0,2.251194E1,5.2052677E1,1E0,4.3953518E1,-4.422364E-3,-0E0,4.1153927E1,-0E0,1.149E1,-0E0,3.4017317E-4,-1.7392792E-1,1E0,-3.7613326E-1,3E-4,5.6474754E-3,1.2966014E-3,8.315316E-3,-1.0611726E-5,-0E0,2.89706E-6,-0E0,9.332839E-6,2.9313724E-6,1.3636368E-5,-0E0,-0E0,4.0206192E-5,1.4905643E-6,-1.7360465E-7,-0E0,-3.3013296E-6,-7.054551E-6,-0E0,1.4882501E-6,-0E0,9.019936E-6,-2.1232274E-6,-5.9741765E-6,-2.688761E-5,-0E0,-5.306345E-5,-0E0,-5.7502434E-6],"split_indices":[63,35,35,74,74,63,74,65,21,45,67,9,37,17,17,36,18,63,0,11,0,59,0,30,74,33,21,68,63,63,66,0,0,0,0,0,0,0,0,0,0,0,0,0,0,0,0,0,0,0,0,0,0,0,0,0,0],"split_type":[0,0,0,0,0,0,0,0,0,0,0,0,0,0,0,0,0,0,0,0,0,0,0,0,0,0,0,0,0,0,0,0,0,0,0,0,0,0,0,0,0,0,0,0,0,0,0,0,0,0,0,0,0,0,0,0,0],"sum_hessian":[1.2572E4,5.008E3,7.564E3,4.172E3,8.36E2,6.372E3,1.192E3,1.92E3,2.252E3,5.73E2,2.63E2,3.176E3,3.196E3,9.64E2,2.28E2,3E1,1.89E3,2.144E3,1.08E2,3.8E2,1.93E2,2.38E2,2.5E1,2.597E3,5.79E2,2.556E3,6.4E2,2.49E2,7.15E2,1.41E2,8.7E1,2.4E1,6E0,7.19E2,1.171E3,7.21E2,1.423E3,3.35E2,4.5E1,3.1E1,2.07E2,1.521E3,1.076E3,1.85E2,3.94E2,1.918E3,6.38E2,3.29E2,3.11E2,6.6E1,1.83E2,6.34E2,8.1E1,3.8E1,1.03E2,6.6E1,2.1E1],"tree_param":{"num_deleted":"0","num_feature":"76","num_nodes":"57","size_leaf_vector":"1"}},{"base_weights":[-0E0,5.5493717E-4,-3.6811508E-4,3.116221E-4,1.6412063E-3,-1.9089486E-4,-1.2271734E-3,3.198166E-5,5.05131E-4,7.407219E-4,3.179542E-3,-0E0,-3.8442112E-4,-7.049533E-4,-2.9434625E-3,-6.1638566E-4,9.664285E-5,5.5154203E-4,-0E0,1.1569472E-3,-0E0,3.6458792E-3,-0E0,4.0973508E-5,-1.5996165E-4,-5.168256E-4,-0E0,-0E0,-9.819692E-4,-3.997017E-3,-0E0,-1.0523905E-5,-0E0,2.86829E-6,-0E0,9.240153E-6,2.9021612E-6,1.3502008E-5,-0E0,3.807307E-5,-0E0,1.4757076E-6,-1.7187692E-7,-0E0,-3.26873E-6,-6.9841885E-6,-0E0,1.4735904E-6,-0E0,8.936089E-6,-2.1025603E-6,-5.9149024E-6,-2.6634367E-5,-0E0,-4.258948E-5],"categories":[],"categories_nodes":[],"categories_segments":[],"categories_sizes":[],"default_left":[0,0,0,0,0,0,0,0,0,0,1,0,0,0,0,0,0,0,0,0,0,0,0,0,0,0,0,0,0,0,0,0,0,0,0,0,0,0,0,0,0,0,0,0,0,0,0,0,0,0,0,0,0,0,0],"id":3,"left_children":[1,3,5,7,9,11,13,15,17,19,21,23,25,27,29,31,33,35,-1,37,-1,39,-1,41,43,45,47,49,51,53,-1,-1,-1,-1,-1,-1,-1,-1,-1,-1,-1,-1,-1,-1,-1,-1,-1,-1,-1,-1,-1,-1,-1,-1,-1],"loss_changes":[2.569445E-3,1.1271243E-3,1.0093454E-3,1.7223763E-4,7.6119066E-4,2.406592E-4,6.9763116E-4,2.902765E-5,7.783261E-5,1.9820224E-4,5.207192E-4,1.9311545E-5,2.1102285E-4,2.1271632E-4,6.65287E-4,1.8820654E-5,4.186513E-5,8.6413056E-5,0E0,1.0450161E-4,0E0,1.3291417E-4,0E0,2.9182927E-5,2.7688307E-5,2.539528E-4,7.252705E-6,6.500716E-5,1.3936625E-4,2.544669E-4,0E0,0E0,0E0,0E0,0E0,0E0,0E0,0E0,0E0,0E0,0E0,0E0,0E0,0E0,0E0,0E0,0E0,0E0,0E0,0E0,0E0,0E0,0E0,0E0,0E0],"parents":[2147483647,0,0,1,1,2,2,3,3,4,4,5,5,6,6,7,7,8,8,9,9,10,10,11,11,12,12,13,13,14,14,15,15,16,16,17,17,19,19,21,21,23,23,24,24,25,25,26,26,27,27,28,28,29,29],"right_children":[2,4,6,8,10,12,14,16,18,20,22,24,26,28,30,32,34,36,-1,38,-1,40,-1,42,44,46,48,50,52,54,-1,-1,-1,-1,-1,-1,-1,-1,-1,-1,-1,-1,-1,-1,-1,-1,-1,-1,-1,-1,-1,-1,-1,-1,-1],"split_conditions":[-6.651614E-4,1E0,1E0,-6.793997E-2,2.2809967E-1,1.7622649E-3,3.9450136E-1,-7.974595E-2,2.3346863E0,-2.8966577E-3,-6.6268705E-2,4.2478356E0,1E0,2.251194E1,-3.6532711E-3,1E0,4.3953518E1,-4.422364E-3,-0E0,4.1153927E1,-0E0,4.954709E1,-0E0,3.4017317E-4,-1.7392792E-1,1E0,-3.7613326E-1,3E-4,5.6474754E-3,7E-2,-0E0,-1.0523905E-5,-0E0,2.86829E-6,-0E0,9.240153E-6,2.9021612E-6,1.3502008E-5,-0E0,3.807307E-5,-0E0,1.4757076E-6,-1.7187692E-7,-0E0,-3.26873E-6,-6.9841885E-6,-0E0,1.4735904E-6,-0E0,8.936089E-6,-2.1025603E-6,-5.9149024E-6,-2.6634367E-5,-0E0,-4.258948E-5],"split_indices":[63,35,35,74,74,63,74,65,21,45,67,9,37,17,45,36,18,63,0,11,0,11,0,30,74,33,21,68,63,49,0,0,0,0,0,0,0,0,0,0,0,0,0,0,0,0,0,0,0,0,0,0,0,0,0],"split_type":[0,0,0,0,0,0,0,0,0,0,0,0,0,0,0,0,0,0,0,0,0,0,0,0,0,0,0,0,0,0,0,0,0,0,0,0,0,0,0,0,0,0,0,0,0,0,0,0,0,0,0,0,0,0,0],"sum_hessian":[1.2572E4,5.008E3,7.564E3,4.172E3,8.36E2,6.372E3,1.192E3,1.92E3,2.252E3,5.73E2,2.63E2,3.176E3,3.196E3,9.64E2,2.28E2,3E1,1.89E3,2.144E3,1.08E2,3.8E2,1.93E2,2.38E2,2.5E1,2.597E3,5.79E2,2.556E3,6.4E2,2.49E2,7.15E2,1.63E2,6.5E1,2.4E1,6E0,7.19E2,1.171E3,7.21E2,1.423E3,3.35E2,4.5E1,2.27E2,1.1E1,1.521E3,1.076E3,1.85E2,3.94E2,1.918E3,6.38E2,3.29E2,3.11E2,6.6E1,1.83E2,6.34E2,8.1E1,6E0,1.57E2],"tree_param":{"num_deleted":"0","num_feature":"76","num_nodes":"55","size_leaf_vector":"1"}},{"base_weights":[-0E0,5.49797E-4,-3.648745E-4,3.0860517E-4,1.6255515E-3,-1.889913E-4,-1.2168234E-3,3.1041527E-5,5.003495E-4,7.328963E-4,3.1472936E-3,-0E0,-3.8038776E-4,-6.990684E-4,-2.914765E-3,-6.0916925E-4,9.555455E-5,6.0355506E-4,-0E0,1.1451987E-3,-0E0,3.6103132E-3,-0E0,6.862901E-5,-8.772297E-5,-5.11595E-4,-0E0,-0E0,-9.737644E-4,-4.2459927E-3,-0E0,-1.043681E-5,-0E0,2.8398051E-6,-0E0,7.171556E-6,-0E0,6.2182124E-7,-0E0,1.2821929E-5,-0E0,-0E0,3.945623E-5,1.9015689E-6,-6.655665E-7,-2.020031E-6,6.6481284E-8,-6.9145294E-6,-0E0,1.4590751E-6,-0E0,8.853021E-6,-2.082093E-6,-5.8562164E-6,-2.6383508E-5,-0E0,-5.217881E-5,-0E0,-5.621896E-6],"categories":[],"categories_nodes":[],"categories_segments":[],"categories_sizes":[],"default_left":[0,0,0,0,0,0,0,0,0,0,1,0,0,0,0,0,0,0,0,0,0,0,0,0,0,0,0,0,0,0,0,0,0,0,0,0,0,0,0,0,0,0,0,0,0,0,0,0,0,0,0,0,0,0,0,0,0,0,0],"id":4,"left_children":[1,3,5,7,9,11,13,15,17,19,21,23,25,27,29,31,33,35,37,39,-1,41,-1,43,45,47,49,51,53,55,57,-1,-1,-1,-1,-1,-1,-1,-1,-1,-1,-1,-1,-1,-1,-1,-1,-1,-1,-1,-1,-1,-1,-1,-1,-1,-1,-1,-1],"loss_changes":[2.5230001E-3,1.1047651E-3,9.924341E-4,1.6908851E-4,7.428548E-4,2.353964E-4,6.807323E-4,2.8435788E-5,7.7184115E-5,1.9445474E-4,5.12687E-4,1.8943585E-5,2.0712081E-4,2.0916935E-4,6.526201E-4,1.8600786E-5,4.10843E-5,8.347118E-5,1.1754514E-6,1.0336697E-4,0E0,1.3305387E-4,0E0,4.3095926E-5,3.3767283E-5,2.4911104E-4,7.1105264E-6,6.3796964E-5,1.3506738E-4,3.0828407E-4,8.2174865E-6,0E0,0E0,0E0,0E0,0E0,0E0,0E0,0E0,0E0,0E0,0E0,0E0,0E0,0E0,0E0,0E0,0E0,0E0,0E0,0E0,0E0,0E0,0E0,0E0,0E0,0E0,0E0,0E0],"parents":[2147483647,0,0,1,1,2,2,3,3,4,4,5,5,6,6,7,7,8,8,9,9,10,10,11,11,12,12,13,13,14,14,15,15,16,16,17,17,18,18,19,19,21,21,23,23,24,24,25,25,26,26,27,27,28,28,29,29,30,30],"right_children":[2,4,6,8,10,12,14,16,18,20,22,24,26,28,30,32,34,36,38,40,-1,42,-1,44,46,48,50,52,54,56,58,-1,-1,-1,-1,-1,-1,-1,-1,-1,-1,-1,-1,-1,-1,-1,-1,-1,-1,-1,-1,-1,-1,-1,-1,-1,-1,-1,-1],"split_conditions":[-6.651614E-4,1E0,1E0,-6.793997E-2,2.2809967E-1,1.7622649E-3,3.9450136E-1,-7.974595E-2,-1.6529304E-3,-2.8966577E-3,-6.6268705E-2,3.4017317E-4,1E0,2.251194E1,5.2052677E1,1E0,4.3953518E1,1E0,7.979863E-3,1.9883256E-2,-0E0,1.149E1,-0E0,1.286259E-1,3.694963E-2,1E0,-3.7613326E-1,3E-4,5.6474754E-3,1.2966014E-3,8.315316E-3,-1.043681E-5,-0E0,2.8398051E-6,-0E0,7.171556E-6,-0E0,6.2182124E-7,-0E0,1.2821929E-5,-0E0,-0E0,3.945623E-5,1.9015689E-6,-6.655665E-7,-2.020031E-6,6.6481284E-8,-6.9145294E-6,-0E0,1.4590751E-6,-0E0,8.853021E-6,-2.082093E-6,-5.8562164E-6,-2.6383508E-5,-0E0,-5.217881E-5,-0E0,-5.621896E-6],"split_indices":[63,35,35,74,74,63,74,65,63,45,67,30,37,17,17,36,18,37,65,64,0,59,0,74,60,33,21,68,63,63,66,0,0,0,0,0,0,0,0,0,0,0,0,0,0,0,0,0,0,0,0,0,0,0,0,0,0,0,0],"split_type":[0,0,0,0,0,0,0,0,0,0,0,0,0,0,0,0,0,0,0,0,0,0,0,0,0,0,0,0,0,0,0,0,0,0,0,0,0,0,0,0,0,0,0,0,0,0,0,0,0,0,0,0,0,0,0,0,0,0,0],"sum_hessian":[1.2572E4,5.008E3,7.564E3,4.172E3,8.36E2,6.372E3,1.192E3,1.92E3,2.252E3,5.73E2,2.63E2,3.176E3,3.196E3,9.64E2,2.28E2,3E1,1.89E3,1.758E3,4.94E2,3.8E2,1.93E2,2.38E2,2.5E1,1.862E3,1.314E3,2.556E3,6.4E2,2.49E2,7.15E2,1.41E2,8.7E1,2.4E1,6E0,7.19E2,1.171E3,1.406E3,3.52E2,2.99E2,1.95E2,3.65E2,1.5E1,3.1E1,2.07E2,1.369E3,4.93E2,1.071E3,2.43E2,1.918E3,6.38E2,3.29E2,3.11E2,6.6E1,1.83E2,6.34E2,8.1E1,3.8E1,1.03E2,6.6E1,2.1E1],"tree_param":{"num_deleted":"0","num_feature":"76","num_nodes":"59","size_leaf_vector":"1"}},{"base_weights":[-0E0,5.4482836E-4,-3.6173096E-4,3.057178E-4,1.610275E-3,-1.8700694E-4,-1.2075175E-3,3.0110961E-5,4.9579964E-4,7.2479947E-4,3.1168181E-3,-0E0,-3.7639463E-4,-6.9324113E-4,-2.891192E-3,-6.020126E-4,9.4477065E-5,5.41952E-4,-0E0,1.133043E-3,-0E0,3.5767022E-3,-0E0,4.0156152E-5,-1.578603E-4,-5.064165E-4,-0E0,-0E0,-9.656396E-4,-3.9262674E-3,-0E0,-1.0350437E-5,-0E0,2.8116028E-6,-0E0,9.090404E-6,2.8339743E-6,1.324792E-5,-0E0,3.7362104E-5,-0E0,1.4490771E-6,-1.5395791E-7,-0E0,-3.235867E-6,-6.845564E-6,-0E0,1.4447028E-6,-0E0,8.770727E-6,-2.061826E-6,-5.798112E-6,-2.6135014E-5,-0E0,-4.1865784E-5],"categories":[],"categories_nodes":[],"categories_segments":[],"categories_sizes":[],"default_left":[0,0,0,0,0,0,0,0,0,0,1,0,0,0,0,0,0,0,0,0,0,0,0,0,0,0,0,0,0,0,0,0,0,0,0,0,0,0,0,0,0,0,0,0,0,0,0,0,0,0,0,0,0,0,0],"id":5,"left_children":[1,3,5,7,9,11,13,15,17,19,21,23,25,27,29,31,33,35,-1,37,-1,39,-1,41,43,45,47,49,51,53,-1,-1,-1,-1,-1,-1,-1,-1,-1,-1,-1,-1,-1,-1,-1,-1,-1,-1,-1,-1,-1,-1,-1,-1,-1],"loss_changes":[2.478447E-3,1.0830489E-3,9.779594E-4,1.6615837E-4,7.264428E-4,2.3048112E-4,6.679862E-4,2.7853943E-5,7.6377415E-5,1.9061455E-4,5.0514936E-4,1.8748973E-5,2.0329305E-4,2.0568582E-4,6.4217125E-4,1.8383482E-5,4.03184E-5,8.343486E-5,0E0,1.02467486E-4,0E0,1.299004E-4,0E0,2.810378E-5,2.722543E-5,2.4436327E-4,6.9711355E-6,6.2609324E-5,1.3086223E-4,2.4962914E-4,0E0,0E0,0E0,0E0,0E0,0E0,0E0,0E0,0E0,0E0,0E0,0E0,0E0,0E0,0E0,0E0,0E0,0E0,0E0,0E0,0E0,0E0,0E0,0E0,0E0],"parents":[2147483647,0,0,1,1,2,2,3,3,4,4,5,5,6,6,7,7,8,8,9,9,10,10,11,11,12,12,13,13,14,14,15,15,16,16,17,17,19,19,21,21,23,23,24,24,25,25,26,26,27,27,28,28,29,29],"right_children":[2,4,6,8,10,12,14,16,18,20,22,24,26,28,30,32,34,36,-1,38,-1,40,-1,42,44,46,48,50,52,54,-1,-1,-1,-1,-1,-1,-1,-1,-1,-1,-1,-1,-1,-1,-1,-1,-1,-1,-1,-1,-1,-1,-1,-1,-1],"split_conditions":[-6.651614E-4,1E0,1E0,-6.793997E-2,2.2809967E-1,1.7622649E-3,3.9450136E-1,-7.974595E-2,2.3346863E0,-2.8966577E-3,-6.6268705E-2,4.2478356E0,1E0,2.251194E1,-3.6532711E-3,1E0,4.3953518E1,-4.422364E-3,-0E0,4.1153927E1,-0E0,4.954709E1,-0E0,3.4017317E-4,-1.7392792E-1,1E0,-3.7613326E-1,3E-4,5.6474754E-3,7E-2,-0E0,-1.0350437E-5,-0E0,2.8116028E-6,-0E0,9.090404E-6,2.8339743E-6,1.324792E-5,-0E0,3.7362104E-5,-0E0,1.4490771E-6,-1.5395791E-7,-0E0,-3.235867E-6,-6.845564E-6,-0E0,1.4447028E-6,-0E0,8.770727E-6,-2.061826E-6,-5.798112E-6,-2.6135014E-5,-0E0,-4.1865784E-5],"split_indices":[63,35,35,74,74,63,74,65,21,45,67,9,37,17,45,36,18,63,0,11,0,11,0,30,74,33,21,68,63,49,0,0,0,0,0,0,0,0,0,0,0,0,0,0,0,0,0,0,0,0,0,0,0,0,0],"split_type":[0,0,0,0,0,0,0,0,0,0,0,0,0,0,0,0,0,0,0,0,0,0,0,0,0,0,0,0,0,0,0,0,0,0,0,0,0,0,0,0,0,0,0,0,0,0,0,0,0,0,0,0,0,0,0],"sum_hessian":[1.2572E4,5.008E3,7.564E3,4.172E3,8.36E2,6.372E3,1.192E3,1.92E3,2.252E3,5.73E2,2.63E2,3.176E3,3.196E3,9.64E2,2.28E2,3E1,1.89E3,2.144E3,1.08E2,3.8E2,1.93E2,2.38E2,2.5E1,2.597E3,5.79E2,2.556E3,6.4E2,2.49E2,7.15E2,1.63E2,6.5E1,2.4E1,6E0,7.19E2,1.171E3,7.21E2,1.423E3,3.35E2,4.5E1,2.27E2,1.1E1,1.521E3,1.076E3,1.85E2,3.94E2,1.918E3,6.38E2,3.29E2,3.11E2,6.6E1,1.83E2,6.34E2,8.1E1,6E0,1.57E2],"tree_param":{"num_deleted":"0","num_feature":"76","num_nodes":"55","size_leaf_vector":"1"}},{"base_weights":[-0E0,5.397856E-4,-3.5855282E-4,3.0275874E-4,1.5949133E-3,-1.8514226E-4,-1.1973551E-3,2.9189863E-5,4.911089E-4,7.171211E-4,3.0851718E-3,-0E0,-3.724413E-4,-8.101551E-4,-3.6181833E-3,-5.9491507E-4,9.34103E-5,5.3702557E-4,-0E0,1.2048895E-3,-0E0,3.5418002E-3,-0E0,3.9372768E-5,-1.5567717E-4,-5.012896E-4,-0E0,-0E0,-1.3010104E-3,-4.3362393E-3,-0E0,-1.0264777E-5,-0E0,2.783681E-6,-0E0,9.000125E-6,2.8057339E-6,1.4449539E-5,-0E0,-0E0,3.872026E-5,1.4346339E-6,-1.5242536E-7,-0E0,-3.2039138E-6,-6.7772853E-6,-0E0,1.4304721E-6,-0E0,2.0665211E-6,-4.815204E-6,-1.4492046E-5,-0E0,-5.414212E-5,-0E0],"categories":[],"categories_nodes":[],"categories_segments":[],"categories_sizes":[],"default_left":[0,0,0,0,0,0,0,0,0,0,1,0,0,0,0,0,0,0,0,0,0,0,0,0,0,0,0,0,0,0,0,0,0,0,0,0,0,0,0,0,0,0,0,0,0,0,0,0,0,0,0,0,0,0,0],"id":6,"left_children":[1,3,5,7,9,11,13,15,17,19,21,23,25,27,29,31,33,35,-1,37,-1,39,-1,41,43,45,47,49,51,53,-1,-1,-1,-1,-1,-1,-1,-1,-1,-1,-1,-1,-1,-1,-1,-1,-1,-1,-1,-1,-1,-1,-1,-1,-1],"loss_changes":[2.433702E-3,1.0615378E-3,9.616072E-4,1.6312563E-4,7.0885173E-4,2.2543018E-4,6.6451123E-4,2.728194E-5,7.540267E-5,1.8764357E-4,4.973763E-4,1.8187122E-5,1.9953822E-4,3.85131E-4,4.8666145E-4,1.8168703E-5,3.9567112E-5,8.072669E-5,0E0,1.26865E-4,0E0,1.3015163E-4,0E0,2.7625236E-5,2.6804142E-5,2.397077E-4,6.834477E-6,5.2649313E-5,1.7006404E-4,3.5863626E-4,0E0,0E0,0E0,0E0,0E0,0E0,0E0,0E0,0E0,0E0,0E0,0E0,0E0,0E0,0E0,0E0,0E0,0E0,0E0,0E0,0E0,0E0,0E0,0E0,0E0],"parents":[2147483647,0,0,1,1,2,2,3,3,4,4,5,5,6,6,7,7,8,8,9,9,10,10,11,11,12,12,13,13,14,14,15,15,16,16,17,17,19,19,21,21,23,23,24,24,25,25,26,26,27,27,28,28,29,29],"right_children":[2,4,6,8,10,12,14,16,18,20,22,24,26,28,30,32,34,36,-1,38,-1,40,-1,42,44,46,48,50,52,54,-1,-1,-1,-1,-1,-1,-1,-1,-1,-1,-1,-1,-1,-1,-1,-1,-1,-1,-1,-1,-1,-1,-1,-1,-1],"split_conditions":[-6.651614E-4,1E0,1E0,-6.793997E-2,2.2809967E-1,1.7622649E-3,2.1006499E9,-7.974595E-2,2.3346863E0,-4.297658E-3,-6.6268705E-2,4.2478356E0,1E0,1.3559124E-3,4E0,1E0,4.3953518E1,-4.422364E-3,-0E0,4.1153927E1,-0E0,1.149E1,-0E0,3.4017317E-4,-1.7392792E-1,1E0,-3.7613326E-1,5.663748E-4,2.9186632E-2,6.8651235E-1,-0E0,-1.0264777E-5,-0E0,2.783681E-6,-0E0,9.000125E-6,2.8057339E-6,1.4449539E-5,-0E0,-0E0,3.872026E-5,1.4346339E-6,-1.5242536E-7,-0E0,-3.2039138E-6,-6.7772853E-6,-0E0,1.4304721E-6,-0E0,2.0665211E-6,-4.815204E-6,-1.4492046E-5,-0E0,-5.414212E-5,-0E0],"split_indices":[63,35,35,74,74,63,70,65,21,45,67,9,37,63,54,36,18,63,0,11,0,59,0,30,74,33,21,27,65,23,0,0,0,0,0,0,0,0,0,0,0,0,0,0,0,0,0,0,0,0,0,0,0,0,0],"split_type":[0,0,0,0,0,0,0,0,0,0,0,0,0,0,0,0,0,0,0,0,0,0,0,0,0,0,0,0,0,0,0,0,0,0,0,0,0,0,0,0,0,0,0,0,0,0,0,0,0,0,0,0,0,0,0],"sum_hessian":[1.2572E4,5.008E3,7.564E3,4.172E3,8.36E2,6.372E3,1.192E3,1.92E3,2.252E3,5.73E2,2.63E2,3.176E3,3.196E3,1.069E3,1.23E2,3E1,1.89E3,2.144E3,1.08E2,3.29E2,2.44E2,2.38E2,2.5E1,2.597E3,5.79E2,2.556E3,6.4E2,4.3E2,6.39E2,1.1E2,1.3E1,2.4E1,6E0,7.19E2,1.171E3,7.21E2,1.423E3,2.88E2,4.1E1,3.1E1,2.07E2,1.521E3,1.076E3,1.85E2,3.94E2,1.918E3,6.38E2,3.29E2,3.11E2,2.56E2,1.74E2,5.95E2,4.4E1,8.1E1,2.9E1],"tree_param":{"num_deleted":"0","num_feature":"76","num_nodes":"55","size_leaf_vector":"1"}},{"base_weights":[-0E0,5.349156E-4,-3.5523804E-4,2.998292E-4,1.5804346E-3,-1.8329617E-4,-1.1862298E-3,2.8278117E-5,4.8646485E-4,7.0992135E-4,3.0552647E-3,-0E0,-3.6852746E-4,-8.01839E-4,-3.5839214E-3,-5.878764E-4,9.2354116E-5,5.321481E-4,-0E0,1.1107065E-3,-0E0,3.5088162E-3,-0E0,3.859718E-5,-1.5351563E-4,-4.9621396E-4,-0E0,-0E0,-1.287621E-3,-4.2981044E-3,-0E0,-1.0179828E-5,-0E0,2.7560366E-6,-0E0,8.910744E-6,2.7777746E-6,1.2472722E-5,-0E0,3.666441E-5,-0E0,1.4203347E-6,-1.5090859E-7,-0E0,-3.1722761E-6,-6.709689E-6,-0E0,1.4163816E-6,-0E0,2.0462517E-6,-4.7683975E-6,-1.4348334E-5,-0E0,-5.363218E-5,-0E0],"categories":[],"categories_nodes":[],"categories_segments":[],"categories_sizes":[],"default_left":[0,0,0,0,0,0,0,0,0,0,1,0,0,0,0,0,0,0,0,0,0,0,0,0,0,0,0,0,0,0,0,0,0,0,0,0,0,0,0,0,0,0,0,0,0,0,0,0,0,0,0,0,0,0,0],"id":7,"left_children":[1,3,5,7,9,11,13,15,17,19,21,23,25,27,29,31,33,35,-1,37,-1,39,-1,41,43,45,47,49,51,53,-1,-1,-1,-1,-1,-1,-1,-1,-1,-1,-1,-1,-1,-1,-1,-1,-1,-1,-1,-1,-1,-1,-1,-1,-1],"loss_changes":[2.3895563E-3,1.0417361E-3,9.43436E-4,1.6015186E-4,6.9236197E-4,2.2048462E-4,6.502712E-4,2.6719616E-5,7.444265E-5,1.836573E-4,4.9008103E-4,1.7639466E-5,1.9585487E-4,3.772074E-4,4.803805E-4,1.795643E-5,3.8830163E-5,7.808156E-5,0E0,1.00642006E-4,0E0,1.2696208E-4,0E0,2.7154641E-5,2.6389553E-5,2.3514254E-4,6.7004967E-6,5.1628784E-5,1.6751688E-4,3.4923758E-4,0E0,0E0,0E0,0E0,0E0,0E0,0E0,0E0,0E0,0E0,0E0,0E0,0E0,0E0,0E0,0E0,0E0,0E0,0E0,0E0,0E0,0E0,0E0,0E0,0E0],"parents":[2147483647,0,0,1,1,2,2,3,3,4,4,5,5,6,6,7,7,8,8,9,9,10,10,11,11,12,12,13,13,14,14,15,15,16,16,17,17,19,19,21,21,23,23,24,24,25,25,26,26,27,27,28,28,29,29],"right_children":[2,4,6,8,10,12,14,16,18,20,22,24,26,28,30,32,34,36,-1,38,-1,40,-1,42,44,46,48,50,52,54,-1,-1,-1,-1,-1,-1,-1,-1,-1,-1,-1,-1,-1,-1,-1,-1,-1,-1,-1,-1,-1,-1,-1,-1,-1],"split_conditions":[-6.651614E-4,1E0,1E0,-6.793997E-2,2.2809967E-1,1.7622649E-3,2.1006499E9,-7.974595E-2,2.3346863E0,-2.8966577E-3,-6.6268705E-2,4.2478356E0,1E0,1.3559124E-3,4E0,1E0,4.3953518E1,-4.422364E-3,-0E0,1.9883256E-2,-0E0,4.954709E1,-0E0,3.4017317E-4,-1.7392792E-1,1E0,-3.7613326E-1,5.663748E-4,2.9186632E-2,6.8651235E-1,-0E0,-1.0179828E-5,-0E0,2.7560366E-6,-0E0,8.910744E-6,2.7777746E-6,1.2472722E-5,-0E0,3.666441E-5,-0E0,1.4203347E-6,-1.5090859E-7,-0E0,-3.1722761E-6,-6.709689E-6,-0E0,1.4163816E-6,-0E0,2.0462517E-6,-4.7683975E-6,-1.4348334E-5,-0E0,-5.363218E-5,-0E0],"split_indices":[63,35,35,74,74,63,70,65,21,45,67,9,37,63,54,36,18,63,0,64,0,11,0,30,74,33,21,27,65,23,0,0,0,0,0,0,0,0,0,0,0,0,0,0,0,0,0,0,0,0,0,0,0,0,0],"split_type":[0,0,0,0,0,0,0,0,0,0,0,0,0,0,0,0,0,0,0,0,0,0,0,0,0,0,0,0,0,0,0,0,0,0,0,0,0,0,0,0,0,0,0,0,0,0,0,0,0,0,0,0,0,0,0],"sum_hessian":[1.2572E4,5.008E3,7.564E3,4.172E3,8.36E2,6.372E3,1.192E3,1.92E3,2.252E3,5.73E2,2.63E2,3.176E3,3.196E3,1.069E3,1.23E2,3E1,1.89E3,2.144E3,1.08E2,3.8E2,1.93E2,2.38E2,2.5E1,2.597E3,5.79E2,2.556E3,6.4E2,4.3E2,6.39E2,1.1E2,1.3E1,2.4E1,6E0,7.19E2,1.171E3,7.21E2,1.423E3,3.65E2,1.5E1,2.27E2,1.1E1,1.521E3,1.076E3,1.85E2,3.94E2,1.918E3,6.38E2,3.29E2,3.11E2,2.56E2,1.74E2,5.95E2,4.4E1,8.1E1,2.9E1],"tree_param":{"num_deleted":"0","num_feature":"76","num_nodes":"55","size_leaf_vector":"1"}},{"base_weights":[-0E0,5.299306E-4,-3.519559E-4,2.9692886E-4,1.565125E-3,-1.814685E-4,-1.1752128E-3,2.7375634E-5,4.8186697E-4,7.02045E-4,3.0242095E-3,-0E0,-3.646527E-4,-6.6720555E-4,-2.8335084E-3,1.2879455E-4,-8.4736384E-5,5.822813E-4,-0E0,1.1805921E-3,-0E0,3.474566E-3,-0E0,6.507783E-5,-8.4512234E-5,-4.911889E-4,-0E0,-0E0,-9.3859865E-4,-4.137539E-3,-0E0,3.4611148E-6,-0E0,-1.846619E-6,-0E0,6.942605E-6,-0E0,1.419002E-5,-0E0,-0E0,3.7998027E-5,1.8587743E-6,-6.8062815E-7,-1.9844183E-6,8.273261E-8,-6.6427665E-6,-0E0,1.4024297E-6,-0E0,8.87381E-6,-1.7944268E-6,-5.568933E-6,-2.5573976E-5,-0E0,-4.453962E-5,-0E0,-5.2134565E-6],"categories":[],"categories_nodes":[],"categories_segments":[],"categories_sizes":[],"default_left":[0,0,0,0,0,0,0,0,0,0,1,0,0,0,0,0,0,0,0,0,0,0,0,0,0,0,0,0,0,0,0,0,0,0,0,0,0,0,0,0,0,0,0,0,0,0,0,0,0,0,0,0,0,0,0,0,0],"id":8,"left_children":[1,3,5,7,9,11,13,15,17,19,21,23,25,27,29,31,33,35,-1,37,-1,39,-1,41,43,45,47,49,51,53,55,-1,-1,-1,-1,-1,-1,-1,-1,-1,-1,-1,-1,-1,-1,-1,-1,-1,-1,-1,-1,-1,-1,-1,-1,-1,-1],"loss_changes":[2.345377E-3,1.0206169E-3,9.256121E-4,1.5723598E-4,6.7583565E-4,2.1564224E-4,6.4886E-4,2.6348174E-5,7.368199E-5,1.8065126E-4,4.8255804E-4,1.7327695E-5,1.9224154E-4,2.029333E-4,6.28704E-4,3.5090103E-5,8.711074E-6,8.23508E-5,0E0,1.2444658E-4,0E0,1.2731878E-4,0E0,4.1872314E-5,3.2968233E-5,2.3066613E-4,6.5691424E-6,6.196214E-5,1.2634101E-4,2.9771915E-4,7.066833E-6,0E0,0E0,0E0,0E0,0E0,0E0,0E0,0E0,0E0,0E0,0E0,0E0,0E0,0E0,0E0,0E0,0E0,0E0,0E0,0E0,0E0,0E0,0E0,0E0,0E0,0E0],"parents":[2147483647,0,0,1,1,2,2,3,3,4,4,5,5,6,6,7,7,8,8,9,9,10,10,11,11,12,12,13,13,14,14,15,15,16,16,17,17,19,19,21,21,23,23,24,24,25,25,26,26,27,27,28,28,29,29,30,30],"right_children":[2,4,6,8,10,12,14,16,18,20,22,24,26,28,30,32,34,36,-1,38,-1,40,-1,42,44,46,48,50,52,54,56,-1,-1,-1,-1,-1,-1,-1,-1,-1,-1,-1,-1,-1,-1,-1,-1,-1,-1,-1,-1,-1,-1,-1,-1,-1,-1],"split_conditions":[-6.651614E-4,1E0,1E0,-6.793997E-2,2.2809967E-1,1.7622649E-3,3.9450136E-1,3.694963E-2,-1.6529304E-3,-4.297658E-3,-6.6268705E-2,3.4017317E-4,1E0,2.251194E1,5.2052677E1,-5.0454435E-4,1.665475E3,1E0,-0E0,4.1153927E1,-0E0,1.149E1,-0E0,1.286259E-1,3.694963E-2,1E0,-3.7613326E-1,3E-4,5.6474754E-3,7E-2,8.315316E-3,3.4611148E-6,-0E0,-1.846619E-6,-0E0,6.942605E-6,-0E0,1.419002E-5,-0E0,-0E0,3.7998027E-5,1.8587743E-6,-6.8062815E-7,-1.9844183E-6,8.273261E-8,-6.6427665E-6,-0E0,1.4024297E-6,-0E0,8.87381E-6,-1.7944268E-6,-5.568933E-6,-2.5573976E-5,-0E0,-4.453962E-5,-0E0,-5.2134565E-6],"split_indices":[63,35,35,74,74,63,74,60,63,45,67,30,37,17,17,27,0,37,0,11,0,59,0,74,60,33,21,68,63,49,66,0,0,0,0,0,0,0,0,0,0,0,0,0,0,0,0,0,0,0,0,0,0,0,0,0,0],"split_type":[0,0,0,0,0,0,0,0,0,0,0,0,0,0,0,0,0,0,0,0,0,0,0,0,0,0,0,0,0,0,0,0,0,0,0,0,0,0,0,0,0,0,0,0,0,0,0,0,0,0,0,0,0,0,0,0,0],"sum_hessian":[1.2572E4,5.008E3,7.564E3,4.172E3,8.36E2,6.372E3,1.192E3,1.92E3,2.252E3,5.73E2,2.63E2,3.176E3,3.196E3,9.64E2,2.28E2,1.476E3,4.44E2,1.758E3,4.94E2,3.29E2,2.44E2,2.38E2,2.5E1,1.862E3,1.314E3,2.556E3,6.4E2,2.49E2,7.15E2,1.41E2,8.7E1,4.93E2,9.83E2,3.45E2,9.9E1,1.406E3,3.52E2,2.88E2,4.1E1,3.1E1,2.07E2,1.369E3,4.93E2,1.071E3,2.43E2,1.918E3,6.38E2,3.29E2,3.11E2,6.6E1,1.83E2,6.34E2,8.1E1,5E0,1.36E2,6.6E1,2.1E1],"tree_param":{"num_deleted":"0","num_feature":"76","num_nodes":"57","size_leaf_vector":"1"}},{"base_weights":[-0E0,5.2538584E-4,-3.4882638E-4,2.9433594E-4,1.550913E-3,-1.7955921E-4,-1.1655956E-3,2.682017E-5,4.7754208E-4,6.949745E-4,2.9948603E-3,-0E0,-3.6081657E-4,-3.3135226E-4,-2.0463283E-3,-5.8176613E-4,9.076024E-5,5.229772E-4,-0E0,1.0882668E-3,-0E0,3.442197E-3,-0E0,3.7810874E-5,-1.5147106E-4,-4.8621398E-4,-0E0,-0E0,-6.507987E-4,-1.1642603E-3,-3.9416063E-3,-1.0104332E-5,-0E0,2.7250253E-6,-0E0,8.7661165E-6,2.7132908E-6,1.224383E-5,-0E0,3.5979734E-5,-0E0,1.3946069E-6,-1.3351647E-7,-0E0,-3.1403047E-6,-6.576512E-6,-0E0,1.3886155E-6,-0E0,2.8447118E-6,-2.6081557E-6,-8.317211E-6,-0E0,-0E0,-1.3451445E-5,-0E0,-4.2481268E-5],"categories":[],"categories_nodes":[],"categories_segments":[],"categories_sizes":[],"default_left":[0,0,0,0,0,0,0,0,0,0,1,0,0,0,0,0,0,0,0,0,0,0,0,0,0,0,0,0,0,0,0,0,0,0,0,0,0,0,0,0,0,0,0,0,0,0,0,0,0,0,0,0,0,0,0,0,0],"id":9,"left_children":[1,3,5,7,9,11,13,15,17,19,21,23,25,27,29,31,33,35,-1,37,-1,39,-1,41,43,45,47,49,51,53,55,-1,-1,-1,-1,-1,-1,-1,-1,-1,-1,-1,-1,-1,-1,-1,-1,-1,-1,-1,-1,-1,-1,-1,-1,-1,-1],"loss_changes":[2.3047344E-3,1.0010124E-3,9.108691E-4,1.5421677E-4,6.600269E-4,2.111296E-4,6.3833187E-4,2.6071033E-5,7.306173E-5,1.7679701E-4,4.7549699E-4,1.7118975E-5,1.8869698E-4,8.300614E-5,3.408005E-4,1.7762475E-5,3.815262E-5,7.525936E-5,0E0,9.8707125E-5,0E0,1.2409664E-4,0E0,2.6152336E-5,2.5948444E-5,2.2627658E-4,6.440365E-6,2.3924385E-5,7.487487E-5,1.6347045E-4,2.67182E-4,0E0,0E0,0E0,0E0,0E0,0E0,0E0,0E0,0E0,0E0,0E0,0E0,0E0,0E0,0E0,0E0,0E0,0E0,0E0,0E0,0E0,0E0,0E0,0E0,0E0,0E0],"parents":[2147483647,0,0,1,1,2,2,3,3,4,4,5,5,6,6,7,7,8,8,9,9,10,10,11,11,12,12,13,13,14,14,15,15,16,16,17,17,19,19,21,21,23,23,24,24,25,25,26,26,27,27,28,28,29,29,30,30],"right_children":[2,4,6,8,10,12,14,16,18,20,22,24,26,28,30,32,34,36,-1,38,-1,40,-1,42,44,46,48,50,52,54,56,-1,-1,-1,-1,-1,-1,-1,-1,-1,-1,-1,-1,-1,-1,-1,-1,-1,-1,-1,-1,-1,-1,-1,-1,-1,-1],"split_conditions":[-6.651614E-4,1E0,1E0,-6.793997E-2,2.2809967E-1,1.7622649E-3,2.4271393E-3,-7.974595E-2,2.3346863E0,-2.8966577E-3,-6.6268705E-2,4.2478356E0,1E0,7E-4,3.9450136E-1,1E0,4.3953518E1,-4.422364E-3,-0E0,1.9883256E-2,-0E0,4.954709E1,-0E0,3.4017317E-4,-1.7392792E-1,1E0,-3.7613326E-1,3.4804756E-4,2.5245821E-2,-7.784533E-3,1.1101117E3,-1.0104332E-5,-0E0,2.7250253E-6,-0E0,8.7661165E-6,2.7132908E-6,1.224383E-5,-0E0,3.5979734E-5,-0E0,1.3946069E-6,-1.3351647E-7,-0E0,-3.1403047E-6,-6.576512E-6,-0E0,1.3886155E-6,-0E0,2.8447118E-6,-2.6081557E-6,-8.317211E-6,-0E0,-0E0,-1.3451445E-5,-0E0,-4.2481268E-5],"split_indices":[63,35,35,74,74,63,63,65,21,45,67,9,37,68,74,36,18,63,0,64,0,11,0,30,74,33,21,27,65,27,5,0,0,0,0,0,0,0,0,0,0,0,0,0,0,0,0,0,0,0,0,0,0,0,0,0,0],"split_type":[0,0,0,0,0,0,0,0,0,0,0,0,0,0,0,0,0,0,0,0,0,0,0,0,0,0,0,0,0,0,0,0,0,0,0,0,0,0,0,0,0,0,0,0,0,0,0,0,0,0,0,0,0,0,0,0,0],"sum_hessian":[1.2572E4,5.008E3,7.564E3,4.172E3,8.36E2,6.372E3,1.192E3,1.92E3,2.252E3,5.73E2,2.63E2,3.176E3,3.196E3,6.74E2,5.18E2,3E1,1.89E3,2.144E3,1.08E2,3.8E2,1.93E2,2.38E2,2.5E1,2.597E3,5.79E2,2.556E3,6.4E2,3.07E2,3.67E2,3.95E2,1.23E2,2.4E1,6E0,7.19E2,1.171E3,7.21E2,1.423E3,3.65E2,1.5E1,2.27E2,1.1E1,1.521E3,1.076E3,1.85E2,3.94E2,1.918E3,6.38E2,3.29E2,3.11E2,1.78E2,1.29E2,3.31E2,3.6E1,1E1,3.85E2,3E0,1.2E2],"tree_param":{"num_deleted":"0","num_feature":"76","num_nodes":"57","size_leaf_vector":"1"}},{"base_weights":[-0E0,5.204916E-4,-3.4561908E-4,2.9148746E-4,1.5358875E-3,-1.7776893E-4,-1.1548523E-3,2.5928332E-5,4.7303105E-4,6.8724266E-4,2.9643849E-3,-0E0,-3.5701873E-4,-7.7464274E-4,-3.5186869E-3,1.2679477E-4,-8.4345236E-5,5.1823945E-4,-0E0,1.1567358E-3,-0E0,3.4085864E-3,-0E0,3.7050857E-5,-1.4935243E-4,-4.8128865E-4,-0E0,-0E0,-1.2498044E-3,-4.2296783E-3,-0E0,3.42007E-6,-0E0,-1.8393529E-6,-0E0,6.5137997E-6,2.5373816E-7,1.3935207E-5,-0E0,-0E0,3.7289275E-5,1.3807065E-6,-1.3218758E-7,-0E0,-3.1092952E-6,-6.510918E-6,-0E0,1.3749371E-6,-0E0,2.1225824E-6,-4.6084742E-6,-1.3958432E-5,-0E0,-5.2792144E-5,-0E0],"categories":[],"categories_nodes":[],"categories_segments":[],"categories_sizes":[],"default_left":[0,0,0,0,0,0,0,0,0,0,1,0,0,0,0,0,0,0,0,0,0,0,0,0,0,0,0,0,0,0,0,0,0,0,0,0,0,0,0,0,0,0,0,0,0,0,0,0,0,0,0,0,0,0,0],"id":10,"left_children":[1,3,5,7,9,11,13,15,17,19,21,23,25,27,29,31,33,35,-1,37,-1,39,-1,41,43,45,47,49,51,53,-1,-1,-1,-1,-1,-1,-1,-1,-1,-1,-1,-1,-1,-1,-1,-1,-1,-1,-1,-1,-1,-1,-1,-1,-1],"loss_changes":[2.2622156E-3,9.806964E-4,8.9380797E-4,1.5141821E-4,6.441844E-4,2.0648244E-4,6.3284533E-4,2.5710011E-5,7.213891E-5,1.7391375E-4,4.682152E-4,1.659873E-5,1.852198E-4,3.6145846E-4,4.725823E-4,3.4440556E-5,8.647028E-6,7.326016E-5,0E0,1.2207209E-4,0E0,1.2455299E-4,0E0,2.570786E-5,2.5547397E-5,2.2197224E-4,6.3141106E-6,4.977507E-5,1.6309181E-4,3.394587E-4,0E0,0E0,0E0,0E0,0E0,0E0,0E0,0E0,0E0,0E0,0E0,0E0,0E0,0E0,0E0,0E0,0E0,0E0,0E0,0E0,0E0,0E0,0E0,0E0,0E0],"parents":[2147483647,0,0,1,1,2,2,3,3,4,4,5,5,6,6,7,7,8,8,9,9,10,10,11,11,12,12,13,13,14,14,15,15,16,16,17,17,19,19,21,21,23,23,24,24,25,25,26,26,27,27,28,28,29,29],"right_children":[2,4,6,8,10,12,14,16,18,20,22,24,26,28,30,32,34,36,-1,38,-1,40,-1,42,44,46,48,50,52,54,-1,-1,-1,-1,-1,-1,-1,-1,-1,-1,-1,-1,-1,-1,-1,-1,-1,-1,-1,-1,-1,-1,-1,-1,-1],"split_conditions":[-6.651614E-4,1E0,1E0,-6.793997E-2,2.2809967E-1,1.7622649E-3,2.1006499E9,3.694963E-2,2.3346863E0,-4.297658E-3,-6.6268705E-2,4.2478356E0,1E0,1.3559124E-3,4E0,-5.0454435E-4,1.665475E3,-1.9981712E-3,-0E0,4.1153927E1,-0E0,1.149E1,-0E0,3.4017317E-4,-1.7392792E-1,1E0,-3.7613326E-1,5.663748E-4,2.9186632E-2,6.8651235E-1,-0E0,3.42007E-6,-0E0,-1.8393529E-6,-0E0,6.5137997E-6,2.5373816E-7,1.3935207E-5,-0E0,-0E0,3.7289275E-5,1.3807065E-6,-1.3218758E-7,-0E0,-3.1092952E-6,-6.510918E-6,-0E0,1.3749371E-6,-0E0,2.1225824E-6,-4.6084742E-6,-1.3958432E-5,-0E0,-5.2792144E-5,-0E0],"split_indices":[63,35,35,74,74,63,70,60,21,45,67,9,37,63,54,27,0,63,0,11,0,59,0,30,74,33,21,27,65,23,0,0,0,0,0,0,0,0,0,0,0,0,0,0,0,0,0,0,0,0,0,0,0,0,0],"split_type":[0,0,0,0,0,0,0,0,0,0,0,0,0,0,0,0,0,0,0,0,0,0,0,0,0,0,0,0,0,0,0,0,0,0,0,0,0,0,0,0,0,0,0,0,0,0,0,0,0,0,0,0,0,0,0],"sum_hessian":[1.2572E4,5.008E3,7.564E3,4.172E3,8.36E2,6.372E3,1.192E3,1.92E3,2.252E3,5.73E2,2.63E2,3.176E3,3.196E3,1.069E3,1.23E2,1.476E3,4.44E2,2.144E3,1.08E2,3.29E2,2.44E2,2.38E2,2.5E1,2.597E3,5.79E2,2.556E3,6.4E2,4.3E2,6.39E2,1.1E2,1.3E1,4.93E2,9.83E2,3.45E2,9.9E1,1.527E3,6.17E2,2.88E2,4.1E1,3.1E1,2.07E2,1.521E3,1.076E3,1.85E2,3.94E2,1.918E3,6.38E2,3.29E2,3.11E2,2.56E2,1.74E2,5.95E2,4.4E1,8.1E1,2.9E1],"tree_param":{"num_deleted":"0","num_feature":"76","num_nodes":"55","size_leaf_vector":"1"}},{"base_weights":[-0E0,4.54081E-4,-3.8902048E-4,2.6351016E-4,1.296229E-3,-2.078333E-4,-1.265951E-3,3.5669804E-5,4.1807187E-4,4.4925496E-4,2.8210066E-3,-0E0,-3.532588E-4,-6.6910946E-4,-3.2434452E-3,-5.650021E-4,9.659008E-5,5.660433E-4,-0E0,9.7535545E-4,-0E0,3.174497E-3,-0E0,2.420544E-5,-2.321217E-4,-4.7641245E-4,-0E0,-0E0,-1.0073989E-3,-4.462536E-3,-0E0,-0E0,-8.763419E-6,2.961441E-6,-0E0,6.7652795E-6,-0E0,1.3204613E-6,-0E0,1.1853019E-5,-0E0,-0E0,-2.556647E-6,-0E0,3.3031614E-5,1.4578026E-6,-3.0978865E-7,-0E0,-3.9038755E-6,-6.4459778E-6,-0E0,1.3613936E-6,-0E0,-0E0,-1.1434414E-5,-4.8078335E-5,-0E0,-3.3324525E-6,-0E0],"categories":[],"categories_nodes":[],"categories_segments":[],"categories_sizes":[],"default_left":[0,0,0,0,0,0,0,0,0,0,1,0,0,0,0,0,0,0,0,0,0,0,0,0,0,0,0,0,0,0,0,0,0,0,0,0,0,0,0,0,0,0,0,0,0,0,0,0,0,0,0,0,0,0,0,0,0,0,0],"id":11,"left_children":[1,3,5,7,9,11,13,15,17,19,21,23,25,27,29,31,33,35,37,39,41,43,-1,45,47,49,51,-1,53,55,57,-1,-1,-1,-1,-1,-1,-1,-1,-1,-1,-1,-1,-1,-1,-1,-1,-1,-1,-1,-1,-1,-1,-1,-1,-1,-1,-1,-1],"loss_changes":[2.2222116E-3,7.7299285E-4,9.290471E-4,1.247121E-4,9.2192355E-4,1.5229851E-4,8.560405E-4,3.4668352E-5,1.0746412E-4,2.342312E-4,3.5203807E-4,2.6371492E-5,1.8180869E-4,1.8860213E-4,4.908799E-4,1.9624533E-5,4.525824E-5,8.092658E-5,1.1804295E-5,9.497255E-5,1.4053356E-5,1.5282119E-4,0E0,2.5350142E-5,2.5587824E-5,2.1775154E-4,6.1903315E-6,0E0,1.5152543E-4,2.4401653E-4,7.662616E-6,0E0,0E0,0E0,0E0,0E0,0E0,0E0,0E0,0E0,0E0,0E0,0E0,0E0,0E0,0E0,0E0,0E0,0E0,0E0,0E0,0E0,0E0,0E0,0E0,0E0,0E0,0E0,0E0],"parents":[2147483647,0,0,1,1,2,2,3,3,4,4,5,5,6,6,7,7,8,8,9,9,10,10,11,11,12,12,13,13,14,14,15,15,16,16,17,17,18,18,19,19,20,20,21,21,23,23,24,24,25,25,26,26,28,28,29,29,30,30],"right_children":[2,4,6,8,10,12,14,16,18,20,22,24,26,28,30,32,34,36,38,40,42,44,-1,46,48,50,52,-1,54,56,58,-1,-1,-1,-1,-1,-1,-1,-1,-1,-1,-1,-1,-1,-1,-1,-1,-1,-1,-1,-1,-1,-1,-1,-1,-1,-1,-1,-1],"split_conditions":[-1.02733524E-4,1E0,1E0,-6.793997E-2,2.3452273E-1,1.7622649E-3,3.9450136E-1,-5.6893043E-2,-1.6529304E-3,-4.297658E-3,-6.6268705E-2,4.2478356E0,1E0,1.3559124E-3,5.2052677E1,3.407396E-1,-5.0454435E-4,1E0,2.833758E1,-7.142826E-4,-3E-2,-2.6538372E-1,-0E0,3.4017317E-4,-7.277073E-3,1E0,-3.7613326E-1,-0E0,-7.784533E-3,2.83707E1,2.407082E1,-0E0,-8.763419E-6,2.961441E-6,-0E0,6.7652795E-6,-0E0,1.3204613E-6,-0E0,1.1853019E-5,-0E0,-0E0,-2.556647E-6,-0E0,3.3031614E-5,1.4578026E-6,-3.0978865E-7,-0E0,-3.9038755E-6,-6.4459778E-6,-0E0,1.3613936E-6,-0E0,-0E0,-1.1434414E-5,-4.8078335E-5,-0E0,-3.3324525E-6,-0E0],"split_indices":[63,35,35,74,74,63,74,65,63,45,67,9,37,63,17,44,27,37,12,63,53,66,0,30,60,33,21,0,27,68,13,0,0,0,0,0,0,0,0,0,0,0,0,0,0,0,0,0,0,0,0,0,0,0,0,0,0,0,0],"split_type":[0,0,0,0,0,0,0,0,0,0,0,0,0,0,0,0,0,0,0,0,0,0,0,0,0,0,0,0,0,0,0,0,0,0,0,0,0,0,0,0,0,0,0,0,0,0,0,0,0,0,0,0,0,0,0,0,0,0,0],"sum_hessian":[1.2572E4,5.794E3,6.778E3,4.827E3,9.67E2,5.717E3,1.061E3,2.215E3,2.612E3,6.68E2,2.99E2,2.521E3,3.196E3,8.59E2,2.02E2,4.9E1,2.166E3,1.758E3,8.54E2,3.84E2,2.84E2,2.7E2,2.9E1,2.059E3,4.62E2,2.556E3,6.4E2,2.97E2,5.62E2,1.29E2,7.3E1,6E0,4.3E1,7.42E2,1.424E3,1.406E3,3.52E2,6.72E2,1.82E2,3.26E2,5.8E1,7.4E1,2.1E2,7E0,2.63E2,1.206E3,8.53E2,1.34E2,3.28E2,1.918E3,6.38E2,3.29E2,3.11E2,1.1E1,5.51E2,1.21E2,8E0,6.4E1,9E0],"tree_param":{"num_deleted":"0","num_feature":"76","num_nodes":"59","size_leaf_vector":"1"}},{"base_weights":[-0E0,5.1142805E-4,-3.3947683E-4,2.86053E-4,1.5088532E-3,-1.7426725E-4,-1.1346684E-3,2.4585886E-5,4.641185E-4,6.744218E-4,2.9072005E-3,-0E0,-3.4953633E-4,-7.5758283E-4,-3.4730781E-3,1.2484648E-4,-8.36744E-5,5.090754E-4,-0E0,1.0564415E-3,-0E0,3.3455188E-3,-0E0,6.156351E-5,-8.140672E-5,-4.7158485E-4,-0E0,-0E0,-1.2221885E-3,-4.1794926E-3,-0E0,3.3603703E-6,-0E0,-1.8290409E-6,-0E0,8.559669E-6,2.609041E-6,1.1920831E-5,-0E0,-0E0,3.6614678E-5,1.816709E-6,-6.9632006E-7,-1.9498375E-6,9.7865644E-8,-6.381685E-6,-0E0,1.3479834E-6,-0E0,2.115092E-6,-4.567513E-6,-1.3670842E-5,-0E0,-5.2146148E-5,-0E0],"categories":[],"categories_nodes":[],"categories_segments":[],"categories_sizes":[],"default_left":[0,0,0,0,0,0,0,0,0,0,1,0,0,0,0,0,0,0,0,0,0,0,0,0,0,0,0,0,0,0,0,0,0,0,0,0,0,0,0,0,0,0,0,0,0,0,0,0,0,0,0,0,0,0,0],"id":12,"left_children":[1,3,5,7,9,11,13,15,17,19,21,23,25,27,29,31,33,35,-1,37,-1,39,-1,41,43,45,47,49,51,53,-1,-1,-1,-1,-1,-1,-1,-1,-1,-1,-1,-1,-1,-1,-1,-1,-1,-1,-1,-1,-1,-1,-1,-1,-1],"loss_changes":[2.1834793E-3,9.4524724E-4,8.62482E-4,1.455464E-4,6.133341E-4,1.9742068E-4,6.192693E-4,2.5063853E-5,7.0758804E-5,1.6678617E-4,4.5469054E-4,1.5817137E-5,1.7846236E-4,3.4556893E-4,4.6486757E-4,3.3150784E-5,8.565237E-6,7.220055E-5,0E0,9.610661E-5,0E0,1.2236903E-4,0E0,4.0686486E-5,3.2190757E-5,2.1361263E-4,6.068978E-6,4.9019425E-5,1.5937997E-4,3.2969168E-4,0E0,0E0,0E0,0E0,0E0,0E0,0E0,0E0,0E0,0E0,0E0,0E0,0E0,0E0,0E0,0E0,0E0,0E0,0E0,0E0,0E0,0E0,0E0,0E0,0E0],"parents":[2147483647,0,0,1,1,2,2,3,3,4,4,5,5,6,6,7,7,8,8,9,9,10,10,11,11,12,12,13,13,14,14,15,15,16,16,17,17,19,19,21,21,23,23,24,24,25,25,26,26,27,27,28,28,29,29],"right_children":[2,4,6,8,10,12,14,16,18,20,22,24,26,28,30,32,34,36,-1,38,-1,40,-1,42,44,46,48,50,52,54,-1,-1,-1,-1,-1,-1,-1,-1,-1,-1,-1,-1,-1,-1,-1,-1,-1,-1,-1,-1,-1,-1,-1,-1,-1],"split_conditions":[-6.651614E-4,1E0,1E0,-6.793997E-2,2.2809967E-1,1.7622649E-3,2.1006499E9,3.694963E-2,2.3346863E0,-2.8966577E-3,-6.6268705E-2,3.4017317E-4,1E0,1.3559124E-3,4E0,-5.0454435E-4,1.665475E3,-4.422364E-3,-0E0,1.9883256E-2,-0E0,1.149E1,-0E0,1.286259E-1,3.694963E-2,1E0,-3.7613326E-1,5.663748E-4,2.9186632E-2,6.8651235E-1,-0E0,3.3603703E-6,-0E0,-1.8290409E-6,-0E0,8.559669E-6,2.609041E-6,1.1920831E-5,-0E0,-0E0,3.6614678E-5,1.816709E-6,-6.9632006E-7,-1.9498375E-6,9.7865644E-8,-6.381685E-6,-0E0,1.3479834E-6,-0E0,2.115092E-6,-4.567513E-6,-1.3670842E-5,-0E0,-5.2146148E-5,-0E0],"split_indices":[63,35,35,74,74,63,70,60,21,45,67,30,37,63,54,27,0,63,0,64,0,59,0,74,60,33,21,27,65,23,0,0,0,0,0,0,0,0,0,0,0,0,0,0,0,0,0,0,0,0,0,0,0,0,0],"split_type":[0,0,0,0,0,0,0,0,0,0,0,0,0,0,0,0,0,0,0,0,0,0,0,0,0,0,0,0,0,0,0,0,0,0,0,0,0,0,0,0,0,0,0,0,0,0,0,0,0,0,0,0,0,0,0],"sum_hessian":[1.2572E4,5.008E3,7.564E3,4.172E3,8.36E2,6.372E3,1.192E3,1.92E3,2.252E3,5.73E2,2.63E2,3.176E3,3.196E3,1.069E3,1.23E2,1.476E3,4.44E2,2.144E3,1.08E2,3.8E2,1.93E2,2.38E2,2.5E1,1.862E3,1.314E3,2.556E3,6.4E2,4.3E2,6.39E2,1.1E2,1.3E1,4.93E2,9.83E2,3.45E2,9.9E1,7.21E2,1.423E3,3.65E2,1.5E1,3.1E1,2.07E2,1.369E3,4.93E2,1.071E3,2.43E2,1.918E3,6.38E2,3.29E2,3.11E2,2.56E2,1.74E2,5.95E2,4.4E1,8.1E1,2.9E1],"tree_param":{"num_deleted":"0","num_feature":"76","num_nodes":"55","size_leaf_vector":"1"}},{"base_weights":[-0E0,5.0687185E-4,-3.362626E-4,2.834411E-4,1.4946673E-3,-1.7242982E-4,-1.1241325E-3,2.4053079E-5,4.5973918E-4,6.668939E-4,2.8789197E-3,-0E0,-3.4585106E-4,-6.284025E-4,-2.7324662E-3,-5.6927215E-4,8.7718574E-5,5.04476E-4,-0E0,1.0451399E-3,-0E0,3.3143286E-3,-0E0,3.5500674E-5,-1.4535688E-4,-4.6680548E-4,-0E0,-0E0,-8.9907733E-4,-4.000526E-3,-0E0,-9.9652425E-6,-0E0,2.6815335E-6,-0E0,8.4746625E-6,2.583042E-6,1.231403E-5,-0E0,3.4680146E-5,-0E0,1.3414495E-6,-1.1408365E-7,-0E0,-3.0524548E-6,-6.3180346E-6,-0E0,1.3347054E-6,-0E0,9.030411E-6,-1.3671439E-6,-5.228396E-6,-2.4795485E-5,-0E0,-4.93013E-5,-0E0,-4.724643E-6],"categories":[],"categories_nodes":[],"categories_segments":[],"categories_sizes":[],"default_left":[0,0,0,0,0,0,0,0,0,0,1,0,0,0,0,0,0,0,0,0,0,0,0,0,0,0,0,0,0,0,0,0,0,0,0,0,0,0,0,0,0,0,0,0,0,0,0,0,0,0,0,0,0,0,0,0,0],"id":13,"left_children":[1,3,5,7,9,11,13,15,17,19,21,23,25,27,29,31,33,35,-1,37,-1,39,-1,41,43,45,47,49,51,53,55,-1,-1,-1,-1,-1,-1,-1,-1,-1,-1,-1,-1,-1,-1,-1,-1,-1,-1,-1,-1,-1,-1,-1,-1,-1,-1],"loss_changes":[2.1437814E-3,9.2645944E-4,8.463731E-4,1.425781E-4,5.994766E-4,1.9327986E-4,6.0969486E-4,2.4809939E-5,6.9872185E-5,1.6347817E-4,4.4806837E-4,1.561841E-5,1.7517962E-4,1.9935661E-4,5.9694983E-4,1.7456276E-5,3.747894E-5,6.977824E-5,0E0,9.501784E-5,0E0,1.2099254E-4,0E0,2.4321567E-5,2.4837638E-5,2.0955398E-4,5.9500044E-6,6.1413186E-5,1.21414836E-4,2.8845342E-4,5.803786E-6,0E0,0E0,0E0,0E0,0E0,0E0,0E0,0E0,0E0,0E0,0E0,0E0,0E0,0E0,0E0,0E0,0E0,0E0,0E0,0E0,0E0,0E0,0E0,0E0,0E0,0E0],"parents":[2147483647,0,0,1,1,2,2,3,3,4,4,5,5,6,6,7,7,8,8,9,9,10,10,11,11,12,12,13,13,14,14,15,15,16,16,17,17,19,19,21,21,23,23,24,24,25,25,26,26,27,27,28,28,29,29,30,30],"right_children":[2,4,6,8,10,12,14,16,18,20,22,24,26,28,30,32,34,36,-1,38,-1,40,-1,42,44,46,48,50,52,54,56,-1,-1,-1,-1,-1,-1,-1,-1,-1,-1,-1,-1,-1,-1,-1,-1,-1,-1,-1,-1,-1,-1,-1,-1,-1,-1],"split_conditions":[-6.651614E-4,1E0,1E0,-6.793997E-2,2.2809967E-1,1.7622649E-3,3.9450136E-1,-7.974595E-2,2.3346863E0,-2.8966577E-3,-6.6268705E-2,4.2478356E0,1E0,2.251194E1,5.2052677E1,1E0,4.3953518E1,-4.422364E-3,-0E0,4.1153927E1,-0E0,4.954709E1,-0E0,3.4017317E-4,-1.7392792E-1,1E0,-3.7613326E-1,3E-4,5.6474754E-3,1.2966014E-3,8.315316E-3,-9.9652425E-6,-0E0,2.6815335E-6,-0E0,8.4746625E-6,2.583042E-6,1.231403E-5,-0E0,3.4680146E-5,-0E0,1.3414495E-6,-1.1408365E-7,-0E0,-3.0524548E-6,-6.3180346E-6,-0E0,1.3347054E-6,-0E0,9.030411E-6,-1.3671439E-6,-5.228396E-6,-2.4795485E-5,-0E0,-4.93013E-5,-0E0,-4.724643E-6],"split_indices":[63,35,35,74,74,63,74,65,21,45,67,9,37,17,17,36,18,63,0,11,0,11,0,30,74,33,21,68,63,63,66,0,0,0,0,0,0,0,0,0,0,0,0,0,0,0,0,0,0,0,0,0,0,0,0,0,0],"split_type":[0,0,0,0,0,0,0,0,0,0,0,0,0,0,0,0,0,0,0,0,0,0,0,0,0,0,0,0,0,0,0,0,0,0,0,0,0,0,0,0,0,0,0,0,0,0,0,0,0,0,0,0,0,0,0,0,0],"sum_hessian":[1.2572E4,5.008E3,7.564E3,4.172E3,8.36E2,6.372E3,1.192E3,1.92E3,2.252E3,5.73E2,2.63E2,3.176E3,3.196E3,9.64E2,2.28E2,3E1,1.89E3,2.144E3,1.08E2,3.8E2,1.93E2,2.38E2,2.5E1,2.597E3,5.79E2,2.556E3,6.4E2,2.49E2,7.15E2,1.41E2,8.7E1,2.4E1,6E0,7.19E2,1.171E3,7.21E2,1.423E3,3.35E2,4.5E1,2.27E2,1.1E1,1.521E3,1.076E3,1.85E2,3.94E2,1.918E3,6.38E2,3.29E2,3.11E2,6.6E1,1.83E2,6.34E2,8.1E1,3.8E1,1.03E2,6.6E1,2.1E1],"tree_param":{"num_deleted":"0","num_feature":"76","num_nodes":"57","size_leaf_vector":"1"}},{"base_weights":[-0E0,4.4203544E-4,-3.788796E-4,2.5631624E-4,1.2601269E-3,-2.0179701E-4,-1.2338255E-3,3.3500288E-5,4.0662952E-4,4.3244063E-4,2.742799E-3,-0E0,-3.4220258E-4,-6.4609526E-4,-3.1740658E-3,-5.545097E-4,9.411063E-5,5.508985E-4,-0E0,9.4728015E-4,-0E0,3.0879863E-3,-0E0,2.2717355E-5,-2.2736755E-4,-4.6207375E-4,-0E0,-0E0,-9.761012E-4,-4.363824E-3,-0E0,-0E0,-8.64328E-6,2.9013966E-6,-0E0,6.599145E-6,-0E0,1.2787012E-6,-0E0,1.1312586E-5,-0E0,-0E0,-2.5574984E-6,-0E0,3.2156633E-5,1.4181212E-6,-2.8957874E-7,-0E0,-3.8410203E-6,-6.255019E-6,-0E0,1.3215581E-6,-0E0,-0E0,-1.1118235E-5,-4.7070575E-5,-0E0,-3.1862357E-6,-0E0],"categories":[],"categories_nodes":[],"categories_segments":[],"categories_sizes":[],"default_left":[0,0,0,0,0,0,0,0,0,0,1,0,0,0,0,0,0,0,0,0,0,0,0,0,0,0,0,0,0,0,0,0,0,0,0,0,0,0,0,0,0,0,0,0,0,0,0,0,0,0,0,0,0,0,0,0,0,0,0],"id":14,"left_children":[1,3,5,7,9,11,13,15,17,19,21,23,25,27,29,31,33,35,37,39,41,43,-1,45,47,49,51,-1,53,55,57,-1,-1,-1,-1,-1,-1,-1,-1,-1,-1,-1,-1,-1,-1,-1,-1,-1,-1,-1,-1,-1,-1,-1,-1,-1,-1,-1,-1],"loss_changes":[2.1067956E-3,7.2781346E-4,8.8211225E-4,1.17753196E-4,8.693718E-4,1.4183395E-4,8.2333037E-4,3.334067E-5,1.0233681E-4,2.2321085E-4,3.353306E-4,2.5207219E-5,1.7195914E-4,1.7955524E-4,4.6629505E-4,1.9255047E-5,4.3655094E-5,7.942098E-5,1.1069471E-5,9.1167574E-5,1.4062716E-5,1.4894526E-4,0E0,2.4008328E-5,2.498691E-5,2.0557415E-4,5.833362E-6,0E0,1.4707778E-4,2.3994851E-4,7.004948E-6,0E0,0E0,0E0,0E0,0E0,0E0,0E0,0E0,0E0,0E0,0E0,0E0,0E0,0E0,0E0,0E0,0E0,0E0,0E0,0E0,0E0,0E0,0E0,0E0,0E0,0E0,0E0,0E0],"parents":[2147483647,0,0,1,1,2,2,3,3,4,4,5,5,6,6,7,7,8,8,9,9,10,10,11,11,12,12,13,13,14,14,15,15,16,16,17,17,18,18,19,19,20,20,21,21,23,23,24,24,25,25,26,26,28,28,29,29,30,30],"right_children":[2,4,6,8,10,12,14,16,18,20,22,24,26,28,30,32,34,36,38,40,42,44,-1,46,48,50,52,-1,54,56,58,-1,-1,-1,-1,-1,-1,-1,-1,-1,-1,-1,-1,-1,-1,-1,-1,-1,-1,-1,-1,-1,-1,-1,-1,-1,-1,-1,-1],"split_conditions":[-1.02733524E-4,1E0,1E0,-6.793997E-2,2.3452273E-1,1.7622649E-3,3.9450136E-1,-5.6893043E-2,-1.6529304E-3,-4.297658E-3,-6.6268705E-2,4.2478356E0,1E0,1.3559124E-3,5.2052677E1,3.407396E-1,-5.0454435E-4,1E0,2.833758E1,4.1153927E1,-3E-2,-2.6538372E-1,-0E0,3.4017317E-4,-7.277073E-3,1E0,-3.7613326E-1,-0E0,-7.784533E-3,2.83707E1,2.407082E1,-0E0,-8.64328E-6,2.9013966E-6,-0E0,6.599145E-6,-0E0,1.2787012E-6,-0E0,1.1312586E-5,-0E0,-0E0,-2.5574984E-6,-0E0,3.2156633E-5,1.4181212E-6,-2.8957874E-7,-0E0,-3.8410203E-6,-6.255019E-6,-0E0,1.3215581E-6,-0E0,-0E0,-1.1118235E-5,-4.7070575E-5,-0E0,-3.1862357E-6,-0E0],"split_indices":[63,35,35,74,74,63,74,65,63,45,67,9,37,63,17,44,27,37,12,11,53,66,0,30,60,33,21,0,27,68,13,0,0,0,0,0,0,0,0,0,0,0,0,0,0,0,0,0,0,0,0,0,0,0,0,0,0,0,0],"split_type":[0,0,0,0,0,0,0,0,0,0,0,0,0,0,0,0,0,0,0,0,0,0,0,0,0,0,0,0,0,0,0,0,0,0,0,0,0,0,0,0,0,0,0,0,0,0,0,0,0,0,0,0,0,0,0,0,0,0,0],"sum_hessian":[1.2572E4,5.794E3,6.778E3,4.827E3,9.67E2,5.717E3,1.061E3,2.215E3,2.612E3,6.68E2,2.99E2,2.521E3,3.196E3,8.59E2,2.02E2,4.9E1,2.166E3,1.758E3,8.54E2,3.84E2,2.84E2,2.7E2,2.9E1,2.059E3,4.62E2,2.556E3,6.4E2,2.97E2,5.62E2,1.29E2,7.3E1,6E0,4.3E1,7.42E2,1.424E3,1.406E3,3.52E2,6.72E2,1.82E2,3.39E2,4.5E1,7.4E1,2.1E2,7E0,2.63E2,1.206E3,8.53E2,1.34E2,3.28E2,1.918E3,6.38E2,3.29E2,3.11E2,1.1E1,5.51E2,1.21E2,8E0,6.4E1,9E0],"tree_param":{"num_deleted":"0","num_feature":"76","num_nodes":"59","size_leaf_vector":"1"}},{"base_weights":[-0E0,4.979067E-4,-3.306741E-4,2.7799766E-4,1.4682639E-3,-1.6903221E-4,-1.1068955E-3,1.3108805E-4,6.272061E-4,6.549078E-4,2.821915E-3,-0E0,-3.3859044E-4,-7.3367823E-4,-3.413934E-3,1.8959545E-4,-3.8174223E-4,7.9286384E-4,-0E0,1.0261752E-3,-0E0,3.2514594E-3,-0E0,5.8888465E-5,-7.887425E-5,-4.5738916E-4,-0E0,-0E0,-1.1845216E-3,-4.116041E-3,-0E0,2.7129604E-6,-0E0,-7.140715E-6,-0E0,8.781085E-6,-0E0,1.1614019E-5,-0E0,-0E0,3.562937E-5,1.783272E-6,-7.0435385E-7,-1.9209192E-6,1.0708834E-7,-6.1926307E-6,-0E0,1.3085404E-6,-0E0,2.1209123E-6,-4.496888E-6,-1.3280786E-5,-0E0,-5.1347066E-5,-0E0],"categories":[],"categories_nodes":[],"categories_segments":[],"categories_sizes":[],"default_left":[0,0,0,0,0,0,0,0,0,0,1,0,0,0,0,0,0,0,0,0,0,0,0,0,0,0,0,0,0,0,0,0,0,0,0,0,0,0,0,0,0,0,0,0,0,0,0,0,0,0,0,0,0,0,0],"id":15,"left_children":[1,3,5,7,9,11,13,15,17,19,21,23,25,27,29,31,33,35,-1,37,-1,39,-1,41,43,45,47,49,51,53,-1,-1,-1,-1,-1,-1,-1,-1,-1,-1,-1,-1,-1,-1,-1,-1,-1,-1,-1,-1,-1,-1,-1,-1,-1],"loss_changes":[2.0704134E-3,8.930585E-4,8.2115346E-4,1.3804829E-4,5.6901877E-4,1.8477089E-4,6.033642E-4,7.560098E-5,9.237198E-5,1.5751211E-4,4.348543E-4,1.468017E-5,1.6879974E-4,3.2547413E-4,4.564731E-4,6.314047E-5,4.559321E-5,6.6834094E-5,0E0,9.3657465E-5,0E0,1.222454E-4,0E0,3.969019E-5,3.152641E-5,2.016715E-4,5.7190077E-6,4.7937865E-5,1.5468494E-4,3.191022E-4,0E0,0E0,0E0,0E0,0E0,0E0,0E0,0E0,0E0,0E0,0E0,0E0,0E0,0E0,0E0,0E0,0E0,0E0,0E0,0E0,0E0,0E0,0E0,0E0,0E0],"parents":[2147483647,0,0,1,1,2,2,3,3,4,4,5,5,6,6,7,7,8,8,9,9,10,10,11,11,12,12,13,13,14,14,15,15,16,16,17,17,19,19,21,21,23,23,24,24,25,25,26,26,27,27,28,28,29,29],"right_children":[2,4,6,8,10,12,14,16,18,20,22,24,26,28,30,32,34,36,-1,38,-1,40,-1,42,44,46,48,50,52,54,-1,-1,-1,-1,-1,-1,-1,-1,-1,-1,-1,-1,-1,-1,-1,-1,-1,-1,-1,-1,-1,-1,-1,-1,-1],"split_conditions":[-6.651614E-4,1E0,1E0,3.014905E-1,2.2809967E-1,1.7622649E-3,2.1006499E9,5.840477E-3,-1.9981712E-3,-2.8966577E-3,-6.6268705E-2,3.4017317E-4,1E0,1.3559124E-3,4E0,1.10930405E2,1.5168388E2,2.3346863E0,-0E0,1.9883256E-2,-0E0,1.149E1,-0E0,1.286259E-1,3.694963E-2,1E0,-3.7613326E-1,5.663748E-4,2.9186632E-2,6.8651235E-1,-0E0,2.7129604E-6,-0E0,-7.140715E-6,-0E0,8.781085E-6,-0E0,1.1614019E-5,-0E0,-0E0,3.562937E-5,1.783272E-6,-7.0435385E-7,-1.9209192E-6,1.0708834E-7,-6.1926307E-6,-0E0,1.3085404E-6,-0E0,2.1209123E-6,-4.496888E-6,-1.3280786E-5,-0E0,-5.1347066E-5,-0E0],"split_indices":[63,35,35,74,74,63,70,42,63,45,67,30,37,63,54,20,20,21,0,64,0,59,0,74,60,33,21,27,65,23,0,0,0,0,0,0,0,0,0,0,0,0,0,0,0,0,0,0,0,0,0,0,0,0,0],"split_type":[0,0,0,0,0,0,0,0,0,0,0,0,0,0,0,0,0,0,0,0,0,0,0,0,0,0,0,0,0,0,0,0,0,0,0,0,0,0,0,0,0,0,0,0,0,0,0,0,0,0,0,0,0,0,0],"sum_hessian":[1.2572E4,5.008E3,7.564E3,4.172E3,8.36E2,6.372E3,1.192E3,3.143E3,1.029E3,5.73E2,2.63E2,3.176E3,3.196E3,1.069E3,1.23E2,2.999E3,1.44E2,7.89E2,2.4E2,3.8E2,1.93E2,2.38E2,2.5E1,1.862E3,1.314E3,2.556E3,6.4E2,4.3E2,6.39E2,1.1E2,1.3E1,2.32E3,6.79E2,1.27E2,1.7E1,7.29E2,6E1,3.65E2,1.5E1,3.1E1,2.07E2,1.369E3,4.93E2,1.071E3,2.43E2,1.918E3,6.38E2,3.29E2,3.11E2,2.56E2,1.74E2,5.95E2,4.4E1,8.1E1,2.9E1],"tree_param":{"num_deleted":"0","num_feature":"76","num_nodes":"55","size_leaf_vector":"1"}},{"base_weights":[-0E0,4.932382E-4,-3.2754493E-4,2.751754E-4,1.4544537E-3,-1.6724704E-4,-1.0966193E-3,2.0670022E-5,4.4732736E-4,6.475736E-4,2.7943954E-3,-0E0,-3.350144E-4,-7.260976E-4,-3.381441E-3,1.2040118E-4,-8.5800326E-5,4.916246E-4,-0E0,1.0904765E-3,-0E0,3.2211086E-3,-0E0,3.398867E-5,-1.4142417E-4,-4.5275135E-4,-0E0,-0E0,-1.1722513E-3,-4.0798746E-3,-0E0,3.2769215E-6,-0E0,-1.849481E-6,-0E0,8.2833385E-6,2.48691E-6,1.3229414E-5,-0E0,-0E0,3.5631245E-5,1.239686E-6,-2.0455428E-7,-0E0,-2.9965286E-6,-6.1308656E-6,-0E0,1.2956507E-6,-0E0,2.10011E-6,-4.4531753E-6,-1.3149086E-5,-0E0,-5.086345E-5,-0E0],"categories":[],"categories_nodes":[],"categories_segments":[],"categories_sizes":[],"default_left":[0,0,0,0,0,0,0,0,0,0,1,0,0,0,0,0,0,0,0,0,0,0,0,0,0,0,0,0,0,0,0,0,0,0,0,0,0,0,0,0,0,0,0,0,0,0,0,0,0,0,0,0,0,0,0],"id":16,"left_children":[1,3,5,7,9,11,13,15,17,19,21,23,25,27,29,31,33,35,-1,37,-1,39,-1,41,43,45,47,49,51,53,-1,-1,-1,-1,-1,-1,-1,-1,-1,-1,-1,-1,-1,-1,-1,-1,-1,-1,-1,-1,-1,-1,-1,-1,-1],"loss_changes":[2.0316278E-3,8.757877E-4,8.0581027E-4,1.3616343E-4,5.5602123E-4,1.8088841E-4,5.9032126E-4,2.395218E-5,6.777223E-5,1.5478724E-4,4.2853924E-4,1.4686371E-5,1.6570036E-4,3.1873572E-4,4.5064813E-4,3.200708E-5,8.66663E-6,6.705144E-5,0E0,1.15628645E-4,0E0,1.1948147E-4,0E0,2.3110872E-5,2.4146482E-5,1.9784446E-4,5.606895E-6,4.7008383E-5,1.5242322E-4,3.106792E-4,0E0,0E0,0E0,0E0,0E0,0E0,0E0,0E0,0E0,0E0,0E0,0E0,0E0,0E0,0E0,0E0,0E0,0E0,0E0,0E0,0E0,0E0,0E0,0E0,0E0],"parents":[2147483647,0,0,1,1,2,2,3,3,4,4,5,5,6,6,7,7,8,8,9,9,10,10,11,11,12,12,13,13,14,14,15,15,16,16,17,17,19,19,21,21,23,23,24,24,25,25,26,26,27,27,28,28,29,29],"right_children":[2,4,6,8,10,12,14,16,18,20,22,24,26,28,30,32,34,36,-1,38,-1,40,-1,42,44,46,48,50,52,54,-1,-1,-1,-1,-1,-1,-1,-1,-1,-1,-1,-1,-1,-1,-1,-1,-1,-1,-1,-1,-1,-1,-1,-1,-1],"split_conditions":[-6.651614E-4,1E0,1E0,-6.793997E-2,2.2809967E-1,1.7622649E-3,2.1006499E9,3.694963E-2,2.3346863E0,-4.297658E-3,-6.6268705E-2,4.2478356E0,1E0,1.3559124E-3,4E0,-5.0454435E-4,1.665475E3,-4.422364E-3,-0E0,4.1153927E1,-0E0,8.088725E8,-0E0,6.0855964E-4,-1.7392792E-1,1E0,-3.7613326E-1,5.663748E-4,2.9186632E-2,6.8651235E-1,-0E0,3.2769215E-6,-0E0,-1.849481E-6,-0E0,8.2833385E-6,2.48691E-6,1.3229414E-5,-0E0,-0E0,3.5631245E-5,1.239686E-6,-2.0455428E-7,-0E0,-2.9965286E-6,-6.1308656E-6,-0E0,1.2956507E-6,-0E0,2.10011E-6,-4.4531753E-6,-1.3149086E-5,-0E0,-5.086345E-5,-0E0],"split_indices":[63,35,35,74,74,63,70,60,21,45,67,9,37,63,54,27,0,63,0,11,0,70,0,27,74,33,21,27,65,23,0,0,0,0,0,0,0,0,0,0,0,0,0,0,0,0,0,0,0,0,0,0,0,0,0],"split_type":[0,0,0,0,0,0,0,0,0,0,0,0,0,0,0,0,0,0,0,0,0,0,0,0,0,0,0,0,0,0,0,0,0,0,0,0,0,0,0,0,0,0,0,0,0,0,0,0,0,0,0,0,0,0,0],"sum_hessian":[1.2572E4,5.008E3,7.564E3,4.172E3,8.36E2,6.372E3,1.192E3,1.92E3,2.252E3,5.73E2,2.63E2,3.176E3,3.196E3,1.069E3,1.23E2,1.476E3,4.44E2,2.144E3,1.08E2,3.29E2,2.44E2,2.38E2,2.5E1,2.597E3,5.79E2,2.556E3,6.4E2,4.3E2,6.39E2,1.1E2,1.3E1,4.93E2,9.83E2,3.45E2,9.9E1,7.21E2,1.423E3,2.88E2,4.1E1,3.5E1,2.03E2,1.669E3,9.28E2,1.85E2,3.94E2,1.918E3,6.38E2,3.29E2,3.11E2,2.56E2,1.74E2,5.95E2,4.4E1,8.1E1,2.9E1],"tree_param":{"num_deleted":"0","num_feature":"76","num_nodes":"55","size_leaf_vector":"1"}},{"base_weights":[-0E0,4.4424823E-4,-3.5718887E-4,2.5845566E-4,1.2588091E-3,-1.907922E-4,-1.155907E-3,4.259344E-5,4.008936E-4,4.531344E-4,2.6560398E-3,-0E0,-3.3147403E-4,-6.0096505E-4,-2.9918915E-3,-5.467604E-4,1.0553564E-4,5.364334E-4,-0E0,9.416683E-4,-0E0,3.0008198E-3,-0E0,1.5480962E-5,-1.882092E-4,-4.481598E-4,-0E0,-0E0,-9.3814207E-4,-4.1869073E-3,-0E0,-0E0,-8.560925E-6,3.0552308E-6,-0E0,6.0825737E-6,-0E0,-0E0,9.603535E-7,1.137102E-5,-0E0,-0E0,-1.8022064E-6,-0E0,3.1306932E-5,1.3073525E-6,-6.4404827E-7,-0E0,-3.36889E-6,-6.0697166E-6,-0E0,1.2828882E-6,-0E0,1.4197353E-6,-2.246604E-6,-0E0,-1.0738615E-5,-0E0,-5.2388565E-5,-2.4198591E-6,-0E0],"categories":[],"categories_nodes":[],"categories_segments":[],"categories_sizes":[],"default_left":[0,0,0,0,0,0,0,0,0,0,1,0,0,0,0,0,0,0,0,0,0,0,0,0,0,0,0,0,0,0,0,0,0,0,0,0,0,0,0,0,0,0,0,0,0,0,0,0,0,0,0,0,0,0,0,0,0,0,0,0,0],"id":17,"left_children":[1,3,5,7,9,11,13,15,17,19,21,23,25,27,29,31,33,35,37,39,41,43,-1,45,47,49,51,53,55,57,59,-1,-1,-1,-1,-1,-1,-1,-1,-1,-1,-1,-1,-1,-1,-1,-1,-1,-1,-1,-1,-1,-1,-1,-1,-1,-1,-1,-1,-1,-1],"loss_changes":[1.9960566E-3,6.9429853E-4,7.9203054E-4,9.906202E-5,7.401098E-4,1.374134E-4,7.5145694E-4,3.5549827E-5,1.00390316E-4,1.9524446E-4,3.181179E-4,1.8589479E-5,1.6265965E-4,1.768689E-4,4.8640638E-4,1.90358E-5,4.363882E-5,7.798133E-5,3.7628981E-6,9.213187E-5,6.7882106E-6,1.4480553E-4,0E0,2.6802038E-5,2.1430405E-5,1.9409158E-4,5.4969796E-6,1.1026952E-5,1.421445E-4,2.7811876E-4,3.220645E-6,0E0,0E0,0E0,0E0,0E0,0E0,0E0,0E0,0E0,0E0,0E0,0E0,0E0,0E0,0E0,0E0,0E0,0E0,0E0,0E0,0E0,0E0,0E0,0E0,0E0,0E0,0E0,0E0,0E0,0E0],"parents":[2147483647,0,0,1,1,2,2,3,3,4,4,5,5,6,6,7,7,8,8,9,9,10,10,11,11,12,12,13,13,14,14,15,15,16,16,17,17,18,18,19,19,20,20,21,21,23,23,24,24,25,25,26,26,27,27,28,28,29,29,30,30],"right_children":[2,4,6,8,10,12,14,16,18,20,22,24,26,28,30,32,34,36,38,40,42,44,-1,46,48,50,52,54,56,58,60,-1,-1,-1,-1,-1,-1,-1,-1,-1,-1,-1,-1,-1,-1,-1,-1,-1,-1,-1,-1,-1,-1,-1,-1,-1,-1,-1,-1,-1,-1],"split_conditions":[-2.1485594E-4,1E0,1E0,-6.793997E-2,2.3452273E-1,1.7622649E-3,3.9450136E-1,-5.6893043E-2,-1.6529304E-3,-4.297658E-3,-6.6268705E-2,4.2478356E0,1E0,1.3559124E-3,5.2052677E1,3.407396E-1,-5.0454435E-4,9.535701E1,2.0412468E1,4.1153927E1,-3E-2,-2.6538372E-1,-0E0,6.0855964E-4,-7.277073E-3,1E0,-3.7613326E-1,3.8858727E-4,-7.784533E-3,1.0537704E0,-1.434326E-1,-0E0,-8.560925E-6,3.0552308E-6,-0E0,6.0825737E-6,-0E0,-0E0,9.603535E-7,1.137102E-5,-0E0,-0E0,-1.8022064E-6,-0E0,3.1306932E-5,1.3073525E-6,-6.4404827E-7,-0E0,-3.36889E-6,-6.0697166E-6,-0E0,1.2828882E-6,-0E0,1.4197353E-6,-2.246604E-6,-0E0,-1.0738615E-5,-0E0,-5.2388565E-5,-2.4198591E-6,-0E0],"split_indices":[63,35,35,74,74,63,74,65,63,45,67,9,37,63,17,44,27,17,13,11,53,66,0,27,60,33,21,27,27,22,67,0,0,0,0,0,0,0,0,0,0,0,0,0,0,0,0,0,0,0,0,0,0,0,0,0,0,0,0,0,0],"split_type":[0,0,0,0,0,0,0,0,0,0,0,0,0,0,0,0,0,0,0,0,0,0,0,0,0,0,0,0,0,0,0,0,0,0,0,0,0,0,0,0,0,0,0,0,0,0,0,0,0,0,0,0,0,0,0,0,0,0,0,0,0],"sum_hessian":[1.2572E4,5.596E3,6.976E3,4.662E3,9.34E2,5.882E3,1.094E3,2.135E3,2.527E3,6.42E2,2.92E2,2.686E3,3.196E3,8.87E2,2.07E2,4.9E1,2.086E3,1.758E3,7.69E2,3.65E2,2.77E2,2.63E2,2.9E1,2.181E3,5.05E2,2.556E3,6.4E2,3.25E2,5.62E2,1.31E2,7.6E1,6E0,4.3E1,7.12E2,1.374E3,1.577E3,1.81E2,3.66E2,4.03E2,3.2E2,4.5E1,7.3E1,2.04E2,7E0,2.56E2,1.404E3,7.77E2,1.62E2,3.43E2,1.918E3,6.38E2,3.29E2,3.11E2,1.89E2,1.36E2,1.1E1,5.51E2,3.9E1,9.2E1,5E1,2.6E1],"tree_param":{"num_deleted":"0","num_feature":"76","num_nodes":"61","size_leaf_vector":"1"}},{"base_weights":[-0E0,4.8463713E-4,-3.2182905E-4,2.6993005E-4,1.4292367E-3,-1.6390548E-4,-1.0782782E-3,1.2535103E-4,6.1208196E-4,6.35871E-4,2.7405026E-3,-0E0,-3.2796897E-4,-4.3604567E-4,-2.1764426E-3,2.0340442E-4,-1.5101368E-4,7.744003E-4,-0E0,9.969119E-4,-0E0,3.161671E-3,-0E0,3.2639666E-5,-1.3754271E-4,-4.43614E-4,-0E0,-5.6976924E-4,-0E0,-2.42036E-3,-0E0,2.565166E-6,-0E0,-0E0,-4.6489563E-6,-0E0,9.074442E-6,1.1317355E-5,-0E0,-0E0,3.468631E-5,1.3009438E-6,-6.753567E-8,-0E0,-2.943619E-6,-6.009177E-6,-0E0,1.2702515E-6,-0E0,-0E0,-6.870132E-6,-0E0,-2.593161E-5],"categories":[],"categories_nodes":[],"categories_segments":[],"categories_sizes":[],"default_left":[0,0,0,0,0,0,0,0,0,0,1,0,0,0,0,0,0,0,0,0,0,0,0,0,0,0,0,0,0,0,0,0,0,0,0,0,0,0,0,0,0,0,0,0,0,0,0,0,0,0,0,0,0],"id":18,"left_children":[1,3,5,7,9,11,13,15,17,19,21,23,25,27,29,31,33,35,-1,37,-1,39,-1,41,43,45,47,49,-1,51,-1,-1,-1,-1,-1,-1,-1,-1,-1,-1,-1,-1,-1,-1,-1,-1,-1,-1,-1,-1,-1,-1,-1],"loss_changes":[1.9613702E-3,8.4485195E-4,7.790994E-4,1.3250086E-4,5.2855315E-4,1.729931E-4,5.7822256E-4,7.329881E-5,8.877623E-5,1.4892202E-4,4.162928E-4,1.3820146E-5,1.5967665E-4,8.3860854E-5,2.8883968E-4,5.453611E-5,5.0642255E-5,6.649835E-5,0E0,9.127951E-5,0E0,1.21589284E-4,0E0,2.2327698E-5,2.3524817E-5,1.904114E-4,5.38922E-6,8.5145046E-5,0E0,1.7652684E-4,0E0,0E0,0E0,0E0,0E0,0E0,0E0,0E0,0E0,0E0,0E0,0E0,0E0,0E0,0E0,0E0,0E0,0E0,0E0,0E0,0E0,0E0,0E0],"parents":[2147483647,0,0,1,1,2,2,3,3,4,4,5,5,6,6,7,7,8,8,9,9,10,10,11,11,12,12,13,13,14,14,15,15,16,16,17,17,19,19,21,21,23,23,24,24,25,25,26,26,27,27,29,29],"right_children":[2,4,6,8,10,12,14,16,18,20,22,24,26,28,30,32,34,36,-1,38,-1,40,-1,42,44,46,48,50,-1,52,-1,-1,-1,-1,-1,-1,-1,-1,-1,-1,-1,-1,-1,-1,-1,-1,-1,-1,-1,-1,-1,-1,-1],"split_conditions":[-6.651614E-4,1E0,1E0,3.014905E-1,2.2809967E-1,1.7622649E-3,3.5500298E-3,2.67E1,-1.9981712E-3,-2.8966577E-3,-6.6268705E-2,4.2478356E0,1E0,7.281009E-3,1.51626095E-2,4.446383E-3,3.8371773E-3,5.6E-1,-0E0,1.9883256E-2,-0E0,1.149E1,-0E0,2.8360062E-4,-1.7392792E-1,1E0,-3.7613326E-1,-1.3143422E2,-0E0,-1.9963454E2,-0E0,2.565166E-6,-0E0,-0E0,-4.6489563E-6,-0E0,9.074442E-6,1.1317355E-5,-0E0,-0E0,3.468631E-5,1.3009438E-6,-6.753567E-8,-0E0,-2.943619E-6,-6.009177E-6,-0E0,1.2702515E-6,-0E0,-0E0,-6.870132E-6,-0E0,-2.593161E-5],"split_indices":[63,35,35,74,74,63,63,59,63,45,67,9,37,29,64,30,29,50,0,64,0,59,0,30,74,33,21,20,0,20,0,0,0,0,0,0,0,0,0,0,0,0,0,0,0,0,0,0,0,0,0,0,0],"split_type":[0,0,0,0,0,0,0,0,0,0,0,0,0,0,0,0,0,0,0,0,0,0,0,0,0,0,0,0,0,0,0,0,0,0,0,0,0,0,0,0,0,0,0,0,0,0,0,0,0,0,0,0,0],"sum_hessian":[1.2572E4,5.008E3,7.564E3,4.172E3,8.36E2,6.372E3,1.192E3,3.143E3,1.029E3,5.73E2,2.63E2,3.176E3,3.196E3,8.14E2,3.78E2,2.734E3,4.09E2,7.89E2,2.4E2,3.8E2,1.93E2,2.38E2,2.5E1,2.597E3,5.79E2,2.556E3,6.4E2,7.33E2,8.1E1,3.54E2,2.4E1,2.546E3,1.88E2,1.36E2,2.73E2,1.35E2,6.54E2,3.65E2,1.5E1,3.1E1,2.07E2,1.475E3,1.122E3,1.85E2,3.94E2,1.918E3,6.38E2,3.29E2,3.11E2,5E1,6.83E2,2E1,3.34E2],"tree_param":{"num_deleted":"0","num_feature":"76","num_nodes":"53","size_leaf_vector":"1"}},{"base_weights":[-0E0,4.225881E-4,-3.6204574E-4,2.4441103E-4,1.2032865E-3,-1.9215199E-4,-1.1784828E-3,2.8208111E-5,3.8913722E-4,4.059928E-4,2.6196095E-3,-0E0,-3.2449892E-4,-6.005354E-4,-3.0792272E-3,-5.370906E-4,8.826573E-5,5.2689394E-4,-0E0,9.011809E-4,-0E0,2.9516965E-3,-0E0,1.9944338E-5,-2.1828203E-4,-4.391136E-4,-0E0,-0E0,-9.133703E-4,-4.2394623E-3,-0E0,-0E0,-8.4579515E-6,2.7870155E-6,-0E0,6.343675E-6,-0E0,1.2315073E-6,-0E0,1.0817929E-5,-0E0,-0E0,-2.5360964E-6,-0E0,3.077646E-5,1.3553072E-6,-2.676292E-7,-0E0,-3.7217012E-6,-5.9492418E-6,-0E0,1.2577392E-6,-0E0,-0E0,-1.0487861E-5,-4.581916E-5,-0E0,-2.805487E-6,-0E0],"categories":[],"categories_nodes":[],"categories_segments":[],"categories_sizes":[],"default_left":[0,0,0,0,0,0,0,0,0,0,1,0,0,0,0,0,0,0,0,0,0,0,0,0,0,0,0,0,0,0,0,0,0,0,0,0,0,0,0,0,0,0,0,0,0,0,0,0,0,0,0,0,0,0,0,0,0,0,0],"id":19,"left_children":[1,3,5,7,9,11,13,15,17,19,21,23,25,27,29,31,33,35,37,39,41,43,-1,45,47,49,51,-1,53,55,57,-1,-1,-1,-1,-1,-1,-1,-1,-1,-1,-1,-1,-1,-1,-1,-1,-1,-1,-1,-1,-1,-1,-1,-1,-1,-1,-1,-1],"loss_changes":[1.9246858E-3,6.604155E-4,8.026577E-4,1.09404966E-4,7.897294E-4,1.2579399E-4,7.9381117E-4,3.0724645E-5,9.315269E-5,2.049867E-4,3.0978536E-4,2.3072183E-5,1.5675006E-4,1.6142175E-4,4.456879E-4,1.8760551E-5,4.1108993E-5,7.837848E-5,1.0267452E-5,8.6657616E-5,1.3828337E-5,1.4252914E-4,0E0,2.2037879E-5,2.3872855E-5,1.8680264E-4,5.2835726E-6,0E0,1.3855641E-4,2.3685093E-4,5.4308225E-6,0E0,0E0,0E0,0E0,0E0,0E0,0E0,0E0,0E0,0E0,0E0,0E0,0E0,0E0,0E0,0E0,0E0,0E0,0E0,0E0,0E0,0E0,0E0,0E0,0E0,0E0,0E0,0E0],"parents":[2147483647,0,0,1,1,2,2,3,3,4,4,5,5,6,6,7,7,8,8,9,9,10,10,11,11,12,12,13,13,14,14,15,15,16,16,17,17,18,18,19,19,20,20,21,21,23,23,24,24,25,25,26,26,28,28,29,29,30,30],"right_children":[2,4,6,8,10,12,14,16,18,20,22,24,26,28,30,32,34,36,38,40,42,44,-1,46,48,50,52,-1,54,56,58,-1,-1,-1,-1,-1,-1,-1,-1,-1,-1,-1,-1,-1,-1,-1,-1,-1,-1,-1,-1,-1,-1,-1,-1,-1,-1,-1,-1],"split_conditions":[-1.02733524E-4,1E0,1E0,-6.793997E-2,2.3452273E-1,1.7622649E-3,3.9450136E-1,-5.6893043E-2,-1.6529304E-3,-4.297658E-3,-6.6268705E-2,4.2478356E0,1E0,1.3559124E-3,5.2052677E1,3.407396E-1,-5.0454435E-4,1E0,2.833758E1,4.1153927E1,-3E-2,-2.6538372E-1,-0E0,3.4017317E-4,-7.277073E-3,1E0,-3.7613326E-1,-0E0,-7.784533E-3,2.83707E1,2.407082E1,-0E0,-8.4579515E-6,2.7870155E-6,-0E0,6.343675E-6,-0E0,1.2315073E-6,-0E0,1.0817929E-5,-0E0,-0E0,-2.5360964E-6,-0E0,3.077646E-5,1.3553072E-6,-2.676292E-7,-0E0,-3.7217012E-6,-5.9492418E-6,-0E0,1.2577392E-6,-0E0,-0E0,-1.0487861E-5,-4.581916E-5,-0E0,-2.805487E-6,-0E0],"split_indices":[63,35,35,74,74,63,74,65,63,45,67,9,37,63,17,44,27,37,12,11,53,66,0,30,60,33,21,0,27,68,13,0,0,0,0,0,0,0,0,0,0,0,0,0,0,0,0,0,0,0,0,0,0,0,0,0,0,0,0],"split_type":[0,0,0,0,0,0,0,0,0,0,0,0,0,0,0,0,0,0,0,0,0,0,0,0,0,0,0,0,0,0,0,0,0,0,0,0,0,0,0,0,0,0,0,0,0,0,0,0,0,0,0,0,0,0,0,0,0,0,0],"sum_hessian":[1.2572E4,5.794E3,6.778E3,4.827E3,9.67E2,5.717E3,1.061E3,2.215E3,2.612E3,6.68E2,2.99E2,2.521E3,3.196E3,8.59E2,2.02E2,4.9E1,2.166E3,1.758E3,8.54E2,3.84E2,2.84E2,2.7E2,2.9E1,2.059E3,4.62E2,2.556E3,6.4E2,2.97E2,5.62E2,1.29E2,7.3E1,6E0,4.3E1,7.42E2,1.424E3,1.406E3,3.52E2,6.72E2,1.82E2,3.39E2,4.5E1,7.4E1,2.1E2,7E0,2.63E2,1.206E3,8.53E2,1.34E2,3.28E2,1.918E3,6.38E2,3.29E2,3.11E2,1.1E1,5.51E2,1.21E2,8E0,6.4E1,9E0],"tree_param":{"num_deleted":"0","num_feature":"76","num_nodes":"59","size_leaf_vector":"1"}},{"base_weights":[-0E0,4.7604373E-4,-3.1601812E-4,2.646591E-4,1.4041929E-3,-1.6067433E-4,-1.0587476E-3,1.2165499E-4,6.020416E-4,6.24115E-4,2.6872677E-3,-0E0,-3.2106347E-4,-6.922832E-4,-3.3110054E-3,1.7953425E-4,-3.7819453E-4,7.618845E-4,-0E0,9.783009E-4,-0E0,3.1029594E-3,-0E0,7.8222096E-5,-5.3247815E-5,-4.3465802E-4,-0E0,-0E0,-1.1198493E-3,-4.0045143E-3,-0E0,2.6088335E-6,-0E0,-7.0883616E-6,-0E0,-0E0,8.934041E-6,1.1127003E-5,-0E0,-0E0,3.439912E-5,2.2873646E-6,-2.6210887E-7,-0E0,-2.1328217E-6,-5.889904E-6,-0E0,1.2453501E-6,-0E0,2.1338785E-6,-4.3588516E-6,-0E0,-1.4064625E-5,-4.9951188E-5,-0E0],"categories":[],"categories_nodes":[],"categories_segments":[],"categories_sizes":[],"default_left":[0,0,0,0,0,0,0,0,0,0,1,0,0,0,0,0,0,0,0,0,0,0,0,0,0,0,0,0,0,0,0,0,0,0,0,0,0,0,0,0,0,0,0,0,0,0,0,0,0,0,0,0,0,0,0],"id":20,"left_children":[1,3,5,7,9,11,13,15,17,19,21,23,25,27,29,31,33,35,-1,37,-1,39,-1,41,43,45,47,49,51,53,-1,-1,-1,-1,-1,-1,-1,-1,-1,-1,-1,-1,-1,-1,-1,-1,-1,-1,-1,-1,-1,-1,-1,-1,-1],"loss_changes":[1.8919308E-3,8.1478956E-4,7.505064E-4,1.2879219E-4,5.022314E-4,1.653345E-4,5.761809E-4,7.154801E-5,8.6113985E-5,1.4333072E-4,4.043535E-4,1.3347704E-5,1.5387894E-4,2.928952E-4,4.4092268E-4,6.141323E-5,4.5011606E-5,6.510306E-5,0E0,8.962478E-5,0E0,1.2157229E-4,0E0,4.0936862E-5,2.7126123E-5,1.8326368E-4,5.1799957E-6,4.589374E-5,1.4980201E-4,3.0164863E-4,0E0,0E0,0E0,0E0,0E0,0E0,0E0,0E0,0E0,0E0,0E0,0E0,0E0,0E0,0E0,0E0,0E0,0E0,0E0,0E0,0E0,0E0,0E0,0E0,0E0],"parents":[2147483647,0,0,1,1,2,2,3,3,4,4,5,5,6,6,7,7,8,8,9,9,10,10,11,11,12,12,13,13,14,14,15,15,16,16,17,17,19,19,21,21,23,23,24,24,25,25,26,26,27,27,28,28,29,29],"right_children":[2,4,6,8,10,12,14,16,18,20,22,24,26,28,30,32,34,36,-1,38,-1,40,-1,42,44,46,48,50,52,54,-1,-1,-1,-1,-1,-1,-1,-1,-1,-1,-1,-1,-1,-1,-1,-1,-1,-1,-1,-1,-1,-1,-1,-1,-1],"split_conditions":[-6.651614E-4,1E0,1E0,3.014905E-1,2.2809967E-1,1.7622649E-3,2.1006499E9,5.840477E-3,-1.9981712E-3,-2.8966577E-3,-6.6268705E-2,-3.9489227E-4,1E0,1.3559124E-3,4E0,1.10930405E2,1.5168388E2,5.6E-1,-0E0,1.9883256E-2,-0E0,8.088725E8,-0E0,1.0838649E-1,6.9937015E0,1E0,-3.7613326E-1,5.663748E-4,-2.4261534E-1,6.8651235E-1,-0E0,2.6088335E-6,-0E0,-7.0883616E-6,-0E0,-0E0,8.934041E-6,1.1127003E-5,-0E0,-0E0,3.439912E-5,2.2873646E-6,-2.6210887E-7,-0E0,-2.1328217E-6,-5.889904E-6,-0E0,1.2453501E-6,-0E0,2.1338785E-6,-4.3588516E-6,-0E0,-1.4064625E-5,-4.9951188E-5,-0E0],"split_indices":[63,35,35,74,74,63,70,42,63,45,67,30,37,63,54,20,20,50,0,64,0,70,0,74,24,33,21,27,74,23,0,0,0,0,0,0,0,0,0,0,0,0,0,0,0,0,0,0,0,0,0,0,0,0,0],"split_type":[0,0,0,0,0,0,0,0,0,0,0,0,0,0,0,0,0,0,0,0,0,0,0,0,0,0,0,0,0,0,0,0,0,0,0,0,0,0,0,0,0,0,0,0,0,0,0,0,0,0,0,0,0,0,0],"sum_hessian":[1.2572E4,5.008E3,7.564E3,4.172E3,8.36E2,6.372E3,1.192E3,3.143E3,1.029E3,5.73E2,2.63E2,3.176E3,3.196E3,1.069E3,1.23E2,2.999E3,1.44E2,7.89E2,2.4E2,3.8E2,1.93E2,2.38E2,2.5E1,1.309E3,1.867E3,2.556E3,6.4E2,4.3E2,6.39E2,1.1E2,1.3E1,2.32E3,6.79E2,1.27E2,1.7E1,1.35E2,6.54E2,3.65E2,1.5E1,3.5E1,2.03E2,9.26E2,3.83E2,1.159E3,7.08E2,1.918E3,6.38E2,3.29E2,3.11E2,2.56E2,1.74E2,1.6E2,4.79E2,8.1E1,2.9E1],"tree_param":{"num_deleted":"0","num_feature":"76","num_nodes":"55","size_leaf_vector":"1"}},{"base_weights":[-0E0,4.7164728E-4,-3.1319415E-4,2.620268E-4,1.3910604E-3,-1.590467E-4,-1.049562E-3,1.5149171E-5,4.2770212E-4,6.1708846E-4,2.6612116E-3,-0E0,-3.176623E-4,-5.696437E-4,-2.593738E-3,1.1424059E-4,-8.914958E-5,4.7179472E-4,-0E0,9.67752E-4,-0E0,3.0742227E-3,-0E0,3.0996776E-5,-1.336599E-4,-4.3024693E-4,-0E0,-0E0,-8.397084E-4,-3.5520922E-3,-0E0,3.156919E-6,-0E0,-1.883483E-6,-0E0,8.007247E-6,2.3288565E-6,1.1017238E-5,-0E0,-0E0,3.3767898E-5,1.184342E-6,-1.8869484E-7,-0E0,-2.888916E-6,-5.831158E-6,-0E0,1.2330828E-6,-0E0,9.331754E-6,-7.260704E-7,-4.7184035E-6,-2.361442E-5,-0E0,-3.8090227E-5],"categories":[],"categories_nodes":[],"categories_segments":[],"categories_sizes":[],"default_left":[0,0,0,0,0,0,0,0,0,0,1,0,0,0,0,0,0,0,0,0,0,0,0,0,0,0,0,0,0,0,0,0,0,0,0,0,0,0,0,0,0,0,0,0,0,0,0,0,0,0,0,0,0,0,0],"id":21,"left_children":[1,3,5,7,9,11,13,15,17,19,21,23,25,27,29,31,33,35,-1,37,-1,39,-1,41,43,45,47,49,51,53,-1,-1,-1,-1,-1,-1,-1,-1,-1,-1,-1,-1,-1,-1,-1,-1,-1,-1,-1,-1,-1,-1,-1,-1,-1],"loss_changes":[1.8575952E-3,7.990134E-4,7.374557E-4,1.265282E-4,4.9071375E-4,1.6169916E-4,5.6334527E-4,2.2455113E-5,6.547544E-5,1.4046805E-4,3.985666E-4,1.2933144E-5,1.510621E-4,1.9324475E-4,5.522142E-4,3.0302976E-5,8.847786E-6,6.458434E-5,0E0,8.853481E-5,0E0,1.2081931E-4,0E0,2.1312826E-5,2.2866741E-5,1.7979325E-4,5.078448E-6,6.281905E-5,1.14154594E-4,2.3068557E-4,0E0,0E0,0E0,0E0,0E0,0E0,0E0,0E0,0E0,0E0,0E0,0E0,0E0,0E0,0E0,0E0,0E0,0E0,0E0,0E0,0E0,0E0,0E0,0E0,0E0],"parents":[2147483647,0,0,1,1,2,2,3,3,4,4,5,5,6,6,7,7,8,8,9,9,10,10,11,11,12,12,13,13,14,14,15,15,16,16,17,17,19,19,21,21,23,23,24,24,25,25,26,26,27,27,28,28,29,29],"right_children":[2,4,6,8,10,12,14,16,18,20,22,24,26,28,30,32,34,36,-1,38,-1,40,-1,42,44,46,48,50,52,54,-1,-1,-1,-1,-1,-1,-1,-1,-1,-1,-1,-1,-1,-1,-1,-1,-1,-1,-1,-1,-1,-1,-1,-1,-1],"split_conditions":[-6.651614E-4,1E0,1E0,-6.793997E-2,2.2809967E-1,1.7622649E-3,3.9450136E-1,3.694963E-2,2.3346863E0,-2.8966577E-3,-6.6268705E-2,4.2478356E0,1E0,2.251194E1,-3.6532711E-3,-5.0454435E-4,1.665475E3,-4.422364E-3,-0E0,1.9883256E-2,-0E0,1.149E1,-0E0,6.0855964E-4,-1.7392792E-1,1E0,-3.7613326E-1,3E-4,5.6474754E-3,7E-2,-0E0,3.156919E-6,-0E0,-1.883483E-6,-0E0,8.007247E-6,2.3288565E-6,1.1017238E-5,-0E0,-0E0,3.3767898E-5,1.184342E-6,-1.8869484E-7,-0E0,-2.888916E-6,-5.831158E-6,-0E0,1.2330828E-6,-0E0,9.331754E-6,-7.260704E-7,-4.7184035E-6,-2.361442E-5,-0E0,-3.8090227E-5],"split_indices":[63,35,35,74,74,63,74,60,21,45,67,9,37,17,45,27,0,63,0,64,0,59,0,27,74,33,21,68,63,49,0,0,0,0,0,0,0,0,0,0,0,0,0,0,0,0,0,0,0,0,0,0,0,0,0],"split_type":[0,0,0,0,0,0,0,0,0,0,0,0,0,0,0,0,0,0,0,0,0,0,0,0,0,0,0,0,0,0,0,0,0,0,0,0,0,0,0,0,0,0,0,0,0,0,0,0,0,0,0,0,0,0,0],"sum_hessian":[1.2572E4,5.008E3,7.564E3,4.172E3,8.36E2,6.372E3,1.192E3,1.92E3,2.252E3,5.73E2,2.63E2,3.176E3,3.196E3,9.64E2,2.28E2,1.476E3,4.44E2,2.144E3,1.08E2,3.8E2,1.93E2,2.38E2,2.5E1,2.597E3,5.79E2,2.556E3,6.4E2,2.49E2,7.15E2,1.63E2,6.5E1,4.93E2,9.83E2,3.45E2,9.9E1,7.21E2,1.423E3,3.65E2,1.5E1,3.1E1,2.07E2,1.669E3,9.28E2,1.85E2,3.94E2,1.918E3,6.38E2,3.29E2,3.11E2,6.6E1,1.83E2,6.34E2,8.1E1,6E0,1.57E2],"tree_param":{"num_deleted":"0","num_feature":"76","num_nodes":"55","size_leaf_vector":"1"}},{"base_weights":[-0E0,4.1142918E-4,-3.5272964E-4,2.3764749E-4,1.1703345E-3,-1.8663863E-4,-1.1487982E-3,2.5486774E-5,3.7895757E-4,3.8996036E-4,2.5497428E-3,-0E0,-3.1429512E-4,-5.80628E-4,-3.0094506E-3,-5.293772E-4,8.529111E-5,5.131813E-4,-0E0,8.7430025E-4,-0E0,2.874273E-3,-0E0,1.836197E-5,-2.1367591E-4,-4.2587984E-4,-0E0,-0E0,-8.86428E-4,-4.1460176E-3,-0E0,-0E0,-8.376042E-6,2.7224128E-6,-0E0,6.1929345E-6,-0E0,1.4193101E-6,-0E0,1.0540681E-5,-0E0,-0E0,-2.535103E-6,-0E0,2.9992694E-5,1.3210197E-6,-2.5730037E-7,-0E0,-3.6605136E-6,-5.7729985E-6,-0E0,1.2209366E-6,-0E0,-0E0,-1.0215734E-5,-4.4867487E-5,-0E0,-2.5760196E-6,-0E0],"categories":[],"categories_nodes":[],"categories_segments":[],"categories_sizes":[],"default_left":[0,0,0,0,0,0,0,0,0,0,1,0,0,0,0,0,0,0,0,0,0,0,0,0,0,0,0,0,0,0,0,0,0,0,0,0,0,0,0,0,0,0,0,0,0,0,0,0,0,0,0,0,0,0,0,0,0,0,0],"id":22,"left_children":[1,3,5,7,9,11,13,15,17,19,21,23,25,27,29,31,33,35,37,39,41,43,-1,45,47,49,51,-1,53,55,57,-1,-1,-1,-1,-1,-1,-1,-1,-1,-1,-1,-1,-1,-1,-1,-1,-1,-1,-1,-1,-1,-1,-1,-1,-1,-1,-1,-1],"loss_changes":[1.8255482E-3,6.226057E-4,7.6223136E-4,1.04372826E-4,7.473723E-4,1.1687928E-4,7.591954E-4,2.9484014E-5,8.847067E-5,1.9500949E-4,2.9553636E-4,2.2017906E-5,1.482986E-4,1.5424352E-4,4.286319E-4,1.8542914E-5,3.9571045E-5,7.685792E-5,9.729751E-6,8.485254E-5,1.3817506E-5,1.3892772E-4,0E0,2.10052E-5,2.3297867E-5,1.7639017E-4,4.978893E-6,0E0,1.347255E-4,2.3310748E-4,4.5787556E-6,0E0,0E0,0E0,0E0,0E0,0E0,0E0,0E0,0E0,0E0,0E0,0E0,0E0,0E0,0E0,0E0,0E0,0E0,0E0,0E0,0E0,0E0,0E0,0E0,0E0,0E0,0E0,0E0],"parents":[2147483647,0,0,1,1,2,2,3,3,4,4,5,5,6,6,7,7,8,8,9,9,10,10,11,11,12,12,13,13,14,14,15,15,16,16,17,17,18,18,19,19,20,20,21,21,23,23,24,24,25,25,26,26,28,28,29,29,30,30],"right_children":[2,4,6,8,10,12,14,16,18,20,22,24,26,28,30,32,34,36,38,40,42,44,-1,46,48,50,52,-1,54,56,58,-1,-1,-1,-1,-1,-1,-1,-1,-1,-1,-1,-1,-1,-1,-1,-1,-1,-1,-1,-1,-1,-1,-1,-1,-1,-1,-1,-1],"split_conditions":[-1.02733524E-4,1E0,1E0,-6.793997E-2,2.3452273E-1,1.7622649E-3,3.9450136E-1,-5.6893043E-2,-1.6529304E-3,-4.297658E-3,-6.6268705E-2,4.2478356E0,1E0,1.3559124E-3,5.2052677E1,3.407396E-1,-5.0454435E-4,1E0,5.2457935E1,4.1153927E1,-3E-2,-2.6538372E-1,-0E0,3.4017317E-4,-7.277073E-3,1E0,-3.7613326E-1,-0E0,-7.784533E-3,2.83707E1,2.407082E1,-0E0,-8.376042E-6,2.7224128E-6,-0E0,6.1929345E-6,-0E0,1.4193101E-6,-0E0,1.0540681E-5,-0E0,-0E0,-2.535103E-6,-0E0,2.9992694E-5,1.3210197E-6,-2.5730037E-7,-0E0,-3.6605136E-6,-5.7729985E-6,-0E0,1.2209366E-6,-0E0,-0E0,-1.0215734E-5,-4.4867487E-5,-0E0,-2.5760196E-6,-0E0],"split_indices":[63,35,35,74,74,63,74,65,63,45,67,9,37,63,17,44,27,37,20,11,53,66,0,30,60,33,21,0,27,68,13,0,0,0,0,0,0,0,0,0,0,0,0,0,0,0,0,0,0,0,0,0,0,0,0,0,0,0,0],"split_type":[0,0,0,0,0,0,0,0,0,0,0,0,0,0,0,0,0,0,0,0,0,0,0,0,0,0,0,0,0,0,0,0,0,0,0,0,0,0,0,0,0,0,0,0,0,0,0,0,0,0,0,0,0,0,0,0,0,0,0],"sum_hessian":[1.2572E4,5.794E3,6.778E3,4.827E3,9.67E2,5.717E3,1.061E3,2.215E3,2.612E3,6.68E2,2.99E2,2.521E3,3.196E3,8.59E2,2.02E2,4.9E1,2.166E3,1.758E3,8.54E2,3.84E2,2.84E2,2.7E2,2.9E1,2.059E3,4.62E2,2.556E3,6.4E2,2.97E2,5.62E2,1.29E2,7.3E1,6E0,4.3E1,7.42E2,1.424E3,1.406E3,3.52E2,4.78E2,3.76E2,3.39E2,4.5E1,7.4E1,2.1E2,7E0,2.63E2,1.206E3,8.53E2,1.34E2,3.28E2,1.918E3,6.38E2,3.29E2,3.11E2,1.1E1,5.51E2,1.21E2,8E0,6.4E1,9E0],"tree_param":{"num_deleted":"0","num_feature":"76","num_nodes":"59","size_leaf_vector":"1"}},{"base_weights":[-0E0,4.6347303E-4,-3.078784E-4,2.5712483E-4,1.3666822E-3,-1.5590273E-4,-1.0326983E-3,1.16299714E-4,5.8791006E-4,6.056598E-4,2.6093598E-3,-0E0,-3.1096148E-4,-6.7000964E-4,-3.254293E-3,1.9351902E-4,-1.5443747E-4,7.4468396E-4,-0E0,9.496328E-4,-0E0,3.0170362E-3,-0E0,7.5267795E-5,-5.2193318E-5,-4.2155627E-4,-0E0,-0E0,-1.086588E-3,-3.9439234E-3,-0E0,-0E0,2.9882042E-6,-0E0,-4.65557E-6,-0E0,8.74838E-6,1.0831912E-5,-0E0,-0E0,3.348979E-5,2.2500624E-6,-2.7265315E-7,-0E0,-2.1035623E-6,-5.7154184E-6,-0E0,1.20891E-6,-0E0,2.1735686E-6,-4.2769707E-6,-0E0,-1.367184E-5,-0E0,-4.3931883E-5],"categories":[],"categories_nodes":[],"categories_segments":[],"categories_sizes":[],"default_left":[0,0,0,0,0,0,0,0,0,0,1,0,0,0,0,0,0,0,0,0,0,0,0,0,0,0,0,0,0,0,0,0,0,0,0,0,0,0,0,0,0,0,0,0,0,0,0,0,0,0,0,0,0,0,0],"id":23,"left_children":[1,3,5,7,9,11,13,15,17,19,21,23,25,27,29,31,33,35,-1,37,-1,39,-1,41,43,45,47,49,51,53,-1,-1,-1,-1,-1,-1,-1,-1,-1,-1,-1,-1,-1,-1,-1,-1,-1,-1,-1,-1,-1,-1,-1,-1,-1],"loss_changes":[1.7942874E-3,7.70163E-4,7.140981E-4,1.238138E-4,4.659345E-4,1.5453002E-4,5.61147E-4,6.987012E-5,8.292607E-5,1.3516983E-4,3.871621E-4,1.2543722E-5,1.4558731E-4,2.7822133E-4,4.331969E-4,5.467161E-5,5.0380368E-5,6.40442E-5,0E0,8.692828E-5,0E0,1.20947836E-4,0E0,3.9978808E-5,2.6450478E-5,1.7305271E-4,4.881288E-6,4.507423E-5,1.4433521E-4,2.956402E-4,0E0,0E0,0E0,0E0,0E0,0E0,0E0,0E0,0E0,0E0,0E0,0E0,0E0,0E0,0E0,0E0,0E0,0E0,0E0,0E0,0E0,0E0,0E0,0E0,0E0],"parents":[2147483647,0,0,1,1,2,2,3,3,4,4,5,5,6,6,7,7,8,8,9,9,10,10,11,11,12,12,13,13,14,14,15,15,16,16,17,17,19,19,21,21,23,23,24,24,25,25,26,26,27,27,28,28,29,29],"right_children":[2,4,6,8,10,12,14,16,18,20,22,24,26,28,30,32,34,36,-1,38,-1,40,-1,42,44,46,48,50,52,54,-1,-1,-1,-1,-1,-1,-1,-1,-1,-1,-1,-1,-1,-1,-1,-1,-1,-1,-1,-1,-1,-1,-1,-1,-1],"split_conditions":[-6.651614E-4,1E0,1E0,3.014905E-1,2.2809967E-1,1.7622649E-3,2.1006499E9,2.67E1,-1.9981712E-3,-2.8966577E-3,-6.6268705E-2,-3.9489227E-4,1E0,1.3559124E-3,4E0,2.8946213E-3,3.8371773E-3,5.6E-1,-0E0,1.9883256E-2,-0E0,8.088725E8,-0E0,1.0838649E-1,6.9937015E0,1E0,-3.7613326E-1,5.663748E-4,-2.4261534E-1,7E-2,-0E0,-0E0,2.9882042E-6,-0E0,-4.65557E-6,-0E0,8.74838E-6,1.0831912E-5,-0E0,-0E0,3.348979E-5,2.2500624E-6,-2.7265315E-7,-0E0,-2.1035623E-6,-5.7154184E-6,-0E0,1.20891E-6,-0E0,2.1735686E-6,-4.2769707E-6,-0E0,-1.367184E-5,-0E0,-4.3931883E-5],"split_indices":[63,35,35,74,74,63,70,59,63,45,67,30,37,63,54,29,29,50,0,64,0,70,0,74,24,33,21,27,74,49,0,0,0,0,0,0,0,0,0,0,0,0,0,0,0,0,0,0,0,0,0,0,0,0,0],"split_type":[0,0,0,0,0,0,0,0,0,0,0,0,0,0,0,0,0,0,0,0,0,0,0,0,0,0,0,0,0,0,0,0,0,0,0,0,0,0,0,0,0,0,0,0,0,0,0,0,0,0,0,0,0,0,0],"sum_hessian":[1.2572E4,5.008E3,7.564E3,4.172E3,8.36E2,6.372E3,1.192E3,3.143E3,1.029E3,5.73E2,2.63E2,3.176E3,3.196E3,1.069E3,1.23E2,2.734E3,4.09E2,7.89E2,2.4E2,3.8E2,1.93E2,2.38E2,2.5E1,1.309E3,1.867E3,2.556E3,6.4E2,4.3E2,6.39E2,1.1E2,1.3E1,9.78E2,1.756E3,1.36E2,2.73E2,1.35E2,6.54E2,3.65E2,1.5E1,3.5E1,2.03E2,9.26E2,3.83E2,1.159E3,7.08E2,1.918E3,6.38E2,3.29E2,3.11E2,2.56E2,1.74E2,1.6E2,4.79E2,7E0,1.03E2],"tree_param":{"num_deleted":"0","num_feature":"76","num_nodes":"55","size_leaf_vector":"1"}},{"base_weights":[-0E0,4.5939366E-4,-3.0505948E-4,2.5480313E-4,1.3538974E-3,-1.5432289E-4,-1.0232901E-3,1.15036586E-4,5.823767E-4,5.988196E-4,2.5839927E-3,-0E0,-3.076611E-4,-6.637372E-4,-3.2189416E-3,1.7241054E-4,-3.7440335E-4,7.374781E-4,-0E0,1.0088083E-3,-0E0,2.9890593E-3,-0E0,3.0742616E-5,-1.2459252E-4,-4.1727585E-4,-0E0,-0E0,-1.076419E-3,-3.9045755E-3,-0E0,2.534373E-6,-0E0,-7.0360056E-6,-0E0,8.2102715E-6,-0E0,1.2360432E-5,-0E0,-0E0,3.28735E-5,1.2921807E-6,-0E0,-0E0,-3.7157433E-6,-5.6584126E-6,-0E0,1.197002E-6,-0E0,2.1522494E-6,-4.235396E-6,-1.2174042E-5,-0E0,-4.879615E-5,-0E0],"categories":[],"categories_nodes":[],"categories_segments":[],"categories_sizes":[],"default_left":[0,0,0,0,0,0,0,0,0,0,1,0,0,0,0,0,0,0,0,0,0,0,0,0,0,0,0,0,0,0,0,0,0,0,0,0,0,0,0,0,0,0,0,0,0,0,0,0,0,0,0,0,0,0,0],"id":24,"left_children":[1,3,5,7,9,11,13,15,17,19,21,23,25,27,29,31,33,35,-1,37,-1,39,-1,41,43,45,47,49,51,53,-1,-1,-1,-1,-1,-1,-1,-1,-1,-1,-1,-1,-1,-1,-1,-1,-1,-1,-1,-1,-1,-1,-1,-1,-1],"loss_changes":[1.7623373E-3,7.54819E-4,7.0089666E-4,1.211628E-4,4.5511755E-4,1.5112004E-4,5.4602465E-4,6.85228E-5,8.114168E-5,1.3264774E-4,3.8163678E-4,1.2137062E-5,1.4292731E-4,2.7304108E-4,4.269738E-4,6.0040722E-5,4.446059E-5,6.294294E-5,0E0,1.0773647E-4,0E0,1.1993712E-4,0E0,1.8802804E-5,3.0874256E-5,1.697799E-4,4.785598E-6,4.420004E-5,1.4305534E-4,2.944586E-4,0E0,0E0,0E0,0E0,0E0,0E0,0E0,0E0,0E0,0E0,0E0,0E0,0E0,0E0,0E0,0E0,0E0,0E0,0E0,0E0,0E0,0E0,0E0,0E0,0E0],"parents":[2147483647,0,0,1,1,2,2,3,3,4,4,5,5,6,6,7,7,8,8,9,9,10,10,11,11,12,12,13,13,14,14,15,15,16,16,17,17,19,19,21,21,23,23,24,24,25,25,26,26,27,27,28,28,29,29],"right_children":[2,4,6,8,10,12,14,16,18,20,22,24,26,28,30,32,34,36,-1,38,-1,40,-1,42,44,46,48,50,52,54,-1,-1,-1,-1,-1,-1,-1,-1,-1,-1,-1,-1,-1,-1,-1,-1,-1,-1,-1,-1,-1,-1,-1,-1,-1],"split_conditions":[-6.651614E-4,1E0,1E0,3.014905E-1,2.2809967E-1,1.7622649E-3,2.1006499E9,5.840477E-3,-1.9981712E-3,-4.297658E-3,-6.6268705E-2,3.781633E-3,1E0,1.3559124E-3,4E0,1.10930405E2,1.5168388E2,2.3346863E0,-0E0,4.1153927E1,-0E0,1.149E1,-0E0,-2.9050892E-2,2.0601994E1,1E0,-3.7613326E-1,5.663748E-4,2.9186632E-2,6.8651235E-1,-0E0,2.534373E-6,-0E0,-7.0360056E-6,-0E0,8.2102715E-6,-0E0,1.2360432E-5,-0E0,-0E0,3.28735E-5,1.2921807E-6,-0E0,-0E0,-3.7157433E-6,-5.6584126E-6,-0E0,1.197002E-6,-0E0,2.1522494E-6,-4.235396E-6,-1.2174042E-5,-0E0,-4.879615E-5,-0E0],"split_indices":[63,35,35,74,74,63,70,42,63,45,67,41,37,63,54,20,20,21,0,11,0,59,0,66,12,33,21,27,65,23,0,0,0,0,0,0,0,0,0,0,0,0,0,0,0,0,0,0,0,0,0,0,0,0,0],"split_type":[0,0,0,0,0,0,0,0,0,0,0,0,0,0,0,0,0,0,0,0,0,0,0,0,0,0,0,0,0,0,0,0,0,0,0,0,0,0,0,0,0,0,0,0,0,0,0,0,0,0,0,0,0,0,0],"sum_hessian":[1.2572E4,5.008E3,7.564E3,4.172E3,8.36E2,6.372E3,1.192E3,3.143E3,1.029E3,5.73E2,2.63E2,3.176E3,3.196E3,1.069E3,1.23E2,2.999E3,1.44E2,7.89E2,2.4E2,3.29E2,2.44E2,2.38E2,2.5E1,2.555E3,6.21E2,2.556E3,6.4E2,4.3E2,6.39E2,1.1E2,1.3E1,2.32E3,6.79E2,1.27E2,1.7E1,7.29E2,6E1,2.88E2,4.1E1,3.1E1,2.07E2,1.266E3,1.289E3,3.32E2,2.89E2,1.918E3,6.38E2,3.29E2,3.11E2,2.56E2,1.74E2,5.95E2,4.4E1,8.1E1,2.9E1],"tree_param":{"num_deleted":"0","num_feature":"76","num_nodes":"55","size_leaf_vector":"1"}},{"base_weights":[-0E0,4.0056562E-4,-3.433572E-4,2.3103972E-4,1.1383704E-3,-1.8127628E-4,-1.1179447E-3,2.2114971E-5,3.696174E-4,3.7502332E-4,2.4806096E-3,-0E0,-3.043937E-4,-5.561519E-4,-2.952724E-3,-5.180801E-4,8.156221E-5,5.002436E-4,-0E0,8.4808125E-4,-0E0,2.797819E-3,-0E0,1.7218485E-5,-2.1078704E-4,-4.1303813E-4,-0E0,-0E0,-8.5223577E-4,-4.073586E-3,-0E0,-0E0,-8.261571E-6,2.6631255E-6,-0E0,5.7148704E-6,-0E0,1.3945579E-6,-0E0,1.0257233E-5,-0E0,-0E0,-2.5212835E-6,-0E0,2.921833E-5,1.29573E-6,-2.4911373E-7,-0E0,-3.6211238E-6,-5.6019758E-6,-0E0,1.1852112E-6,-0E0,-0E0,-1.0871551E-5,-4.413038E-5,-0E0,-2.3233615E-6,-0E0],"categories":[],"categories_nodes":[],"categories_segments":[],"categories_sizes":[],"default_left":[0,0,0,0,0,0,0,0,0,0,1,0,0,0,0,0,0,0,0,0,0,0,0,0,0,0,0,0,0,0,0,0,0,0,0,0,0,0,0,0,0,0,0,0,0,0,0,0,0,0,0,0,0,0,0,0,0,0,0],"id":25,"left_children":[1,3,5,7,9,11,13,15,17,19,21,23,25,27,29,31,33,35,37,39,41,43,-1,45,47,49,51,-1,53,55,57,-1,-1,-1,-1,-1,-1,-1,-1,-1,-1,-1,-1,-1,-1,-1,-1,-1,-1,-1,-1,-1,-1,-1,-1,-1,-1,-1,-1],"loss_changes":[1.730142E-3,5.8706535E-4,7.206423E-4,1.0068345E-4,7.0569117E-4,1.0855922E-4,7.3969795E-4,2.7850585E-5,8.365285E-5,1.8513268E-4,2.8200168E-4,2.1361284E-5,1.4031751E-4,1.445759E-4,4.1886396E-4,1.8267729E-5,3.8536673E-5,7.5497635E-5,9.393345E-6,8.214015E-5,1.3667272E-5,1.3530278E-4,0E0,2.0252206E-5,2.2915392E-5,1.6657053E-4,4.691784E-6,0E0,1.3186163E-4,2.302283E-4,3.7246264E-6,0E0,0E0,0E0,0E0,0E0,0E0,0E0,0E0,0E0,0E0,0E0,0E0,0E0,0E0,0E0,0E0,0E0,0E0,0E0,0E0,0E0,0E0,0E0,0E0,0E0,0E0,0E0,0E0],"parents":[2147483647,0,0,1,1,2,2,3,3,4,4,5,5,6,6,7,7,8,8,9,9,10,10,11,11,12,12,13,13,14,14,15,15,16,16,17,17,18,18,19,19,20,20,21,21,23,23,24,24,25,25,26,26,28,28,29,29,30,30],"right_children":[2,4,6,8,10,12,14,16,18,20,22,24,26,28,30,32,34,36,38,40,42,44,-1,46,48,50,52,-1,54,56,58,-1,-1,-1,-1,-1,-1,-1,-1,-1,-1,-1,-1,-1,-1,-1,-1,-1,-1,-1,-1,-1,-1,-1,-1,-1,-1,-1,-1],"split_conditions":[-1.02733524E-4,1E0,1E0,-6.793997E-2,2.3452273E-1,1.7622649E-3,3.9450136E-1,-5.6893043E-2,-1.6529304E-3,-4.297658E-3,-6.6268705E-2,4.2478356E0,1E0,1.3559124E-3,5.2052677E1,3.407396E-1,-5.0454435E-4,9.535701E1,5.2457935E1,4.1153927E1,-3E-2,-2.6538372E-1,-0E0,3.4017317E-4,-7.277073E-3,1E0,-3.7613326E-1,-0E0,-2.9290842E-3,2.83707E1,2.407082E1,-0E0,-8.261571E-6,2.6631255E-6,-0E0,5.7148704E-6,-0E0,1.3945579E-6,-0E0,1.0257233E-5,-0E0,-0E0,-2.5212835E-6,-0E0,2.921833E-5,1.29573E-6,-2.4911373E-7,-0E0,-3.6211238E-6,-5.6019758E-6,-0E0,1.1852112E-6,-0E0,-0E0,-1.0871551E-5,-4.413038E-5,-0E0,-2.3233615E-6,-0E0],"split_indices":[63,35,35,74,74,63,74,65,63,45,67,9,37,63,17,44,27,17,20,11,53,66,0,30,60,33,21,0,30,68,13,0,0,0,0,0,0,0,0,0,0,0,0,0,0,0,0,0,0,0,0,0,0,0,0,0,0,0,0],"split_type":[0,0,0,0,0,0,0,0,0,0,0,0,0,0,0,0,0,0,0,0,0,0,0,0,0,0,0,0,0,0,0,0,0,0,0,0,0,0,0,0,0,0,0,0,0,0,0,0,0,0,0,0,0,0,0,0,0,0,0],"sum_hessian":[1.2572E4,5.794E3,6.778E3,4.827E3,9.67E2,5.717E3,1.061E3,2.215E3,2.612E3,6.68E2,2.99E2,2.521E3,3.196E3,8.59E2,2.02E2,4.9E1,2.166E3,1.758E3,8.54E2,3.84E2,2.84E2,2.7E2,2.9E1,2.059E3,4.62E2,2.556E3,6.4E2,2.97E2,5.62E2,1.29E2,7.3E1,6E0,4.3E1,7.42E2,1.424E3,1.577E3,1.81E2,4.78E2,3.76E2,3.39E2,4.5E1,7.4E1,2.1E2,7E0,2.63E2,1.206E3,8.53E2,1.34E2,3.28E2,1.918E3,6.38E2,3.29E2,3.11E2,1.07E2,4.55E2,1.21E2,8E0,6.4E1,9E0],"tree_param":{"num_deleted":"0","num_feature":"76","num_nodes":"59","size_leaf_vector":"1"}},{"base_weights":[-0E0,4.511518E-4,-2.9978075E-4,2.4960356E-4,1.3305944E-3,-1.5125929E-4,-1.0062323E-3,1.11432244E-4,5.723456E-4,5.883263E-4,2.5334973E-3,-0E0,-3.0115887E-4,-6.4963225E-4,-3.1777741E-3,1.878832E-4,-1.5416271E-4,7.2498084E-4,-0E0,9.22654E-4,-0E0,2.933369E-3,-0E0,7.283604E-5,-5.1430263E-5,-4.0884264E-4,-0E0,-0E0,-1.0529079E-3,-3.8592988E-3,-0E0,-0E0,2.9223822E-6,-0E0,-4.629552E-6,-0E0,8.537351E-6,1.05583185E-5,-0E0,-0E0,3.2604345E-5,2.2181682E-6,-2.784774E-7,-0E0,-2.0741036E-6,-5.5461014E-6,-0E0,1.1735364E-6,-0E0,2.133054E-6,-4.2069837E-6,-0E0,-1.3289121E-5,-0E0,-4.30546E-5],"categories":[],"categories_nodes":[],"categories_segments":[],"categories_sizes":[],"default_left":[0,0,0,0,0,0,0,0,0,0,1,0,0,0,0,0,0,0,0,0,0,0,0,0,0,0,0,0,0,0,0,0,0,0,0,0,0,0,0,0,0,0,0,0,0,0,0,0,0,0,0,0,0,0,0],"id":26,"left_children":[1,3,5,7,9,11,13,15,17,19,21,23,25,27,29,31,33,35,-1,37,-1,39,-1,41,43,45,47,49,51,53,-1,-1,-1,-1,-1,-1,-1,-1,-1,-1,-1,-1,-1,-1,-1,-1,-1,-1,-1,-1,-1,-1,-1,-1,-1],"loss_changes":[1.7005504E-3,7.2887435E-4,6.776537E-4,1.1757121E-4,4.3127406E-4,1.4441829E-4,5.3386076E-4,6.743697E-5,7.8606914E-5,1.276849E-4,3.7074368E-4,1.19224605E-5,1.3775704E-4,2.6069648E-4,4.202556E-4,5.370804E-5,4.9743874E-5,6.2997016E-5,0E0,8.472212E-5,0E0,1.2019905E-4,0E0,3.913773E-5,2.572101E-5,1.6342313E-4,4.599807E-6,4.3555992E-5,1.4079938E-4,2.8916285E-4,0E0,0E0,0E0,0E0,0E0,0E0,0E0,0E0,0E0,0E0,0E0,0E0,0E0,0E0,0E0,0E0,0E0,0E0,0E0,0E0,0E0,0E0,0E0,0E0,0E0],"parents":[2147483647,0,0,1,1,2,2,3,3,4,4,5,5,6,6,7,7,8,8,9,9,10,10,11,11,12,12,13,13,14,14,15,15,16,16,17,17,19,19,21,21,23,23,24,24,25,25,26,26,27,27,28,28,29,29],"right_children":[2,4,6,8,10,12,14,16,18,20,22,24,26,28,30,32,34,36,-1,38,-1,40,-1,42,44,46,48,50,52,54,-1,-1,-1,-1,-1,-1,-1,-1,-1,-1,-1,-1,-1,-1,-1,-1,-1,-1,-1,-1,-1,-1,-1,-1,-1],"split_conditions":[-6.651614E-4,1E0,1E0,3.014905E-1,2.2809967E-1,1.7622649E-3,2.1006499E9,2.67E1,-1.9981712E-3,-2.8966577E-3,-6.6268705E-2,-3.9489227E-4,1E0,1.3559124E-3,4E0,2.8946213E-3,3.8371773E-3,5.6E-1,-0E0,1.9883256E-2,-0E0,8.088725E8,-0E0,1.0838649E-1,6.9937015E0,1E0,-3.7613326E-1,5.663748E-4,-2.4261534E-1,7E-2,-0E0,-0E0,2.9223822E-6,-0E0,-4.629552E-6,-0E0,8.537351E-6,1.05583185E-5,-0E0,-0E0,3.2604345E-5,2.2181682E-6,-2.784774E-7,-0E0,-2.0741036E-6,-5.5461014E-6,-0E0,1.1735364E-6,-0E0,2.133054E-6,-4.2069837E-6,-0E0,-1.3289121E-5,-0E0,-4.30546E-5],"split_indices":[63,35,35,74,74,63,70,59,63,45,67,30,37,63,54,29,29,50,0,64,0,70,0,74,24,33,21,27,74,49,0,0,0,0,0,0,0,0,0,0,0,0,0,0,0,0,0,0,0,0,0,0,0,0,0],"split_type":[0,0,0,0,0,0,0,0,0,0,0,0,0,0,0,0,0,0,0,0,0,0,0,0,0,0,0,0,0,0,0,0,0,0,0,0,0,0,0,0,0,0,0,0,0,0,0,0,0,0,0,0,0,0,0],"sum_hessian":[1.2572E4,5.008E3,7.564E3,4.172E3,8.36E2,6.372E3,1.192E3,3.143E3,1.029E3,5.73E2,2.63E2,3.176E3,3.196E3,1.069E3,1.23E2,2.734E3,4.09E2,7.89E2,2.4E2,3.8E2,1.93E2,2.38E2,2.5E1,1.309E3,1.867E3,2.556E3,6.4E2,4.3E2,6.39E2,1.1E2,1.3E1,9.78E2,1.756E3,1.36E2,2.73E2,1.35E2,6.54E2,3.65E2,1.5E1,3.5E1,2.03E2,9.26E2,3.83E2,1.159E3,7.08E2,1.918E3,6.38E2,3.29E2,3.11E2,2.56E2,1.74E2,1.6E2,4.79E2,7E0,1.03E2],"tree_param":{"num_deleted":"0","num_feature":"76","num_nodes":"55","size_leaf_vector":"1"}},{"base_weights":[-0E0,4.471774E-4,-2.970382E-4,2.4734088E-4,1.318142E-3,-1.4972684E-4,-9.970544E-4,9.002895E-6,4.0576528E-4,5.816589E-4,2.5088007E-3,-0E0,-2.9795634E-4,-3.8082866E-4,-2.0406668E-3,1.07397966E-4,-9.293054E-5,2.912583E-5,5.520893E-4,9.1264414E-4,-0E0,2.9061316E-3,-0E0,5.66141E-5,-6.4738626E-5,-4.0468902E-4,-0E0,-0E0,-5.592894E-4,-2.2820137E-3,-0E0,2.7246326E-6,-0E0,-1.9221732E-6,-0E0,-0E0,2.4150886E-6,6.27062E-6,-0E0,1.0454162E-5,-0E0,-0E0,3.2002597E-5,1.5350548E-6,-1.7422722E-7,-0E0,-2.034618E-6,-5.4907846E-6,-0E0,1.1619767E-6,-0E0,3.1660484E-6,-0E0,-0E0,-7.487356E-6,-0E0,-2.45552E-5],"categories":[],"categories_nodes":[],"categories_segments":[],"categories_sizes":[],"default_left":[0,0,0,0,0,0,0,0,0,0,1,0,0,0,0,0,0,0,0,0,0,0,0,0,0,0,0,0,1,0,0,0,0,0,0,0,0,0,0,0,0,0,0,0,0,0,0,0,0,0,0,0,0,0,0,0,0],"id":27,"left_children":[1,3,5,7,9,11,13,15,17,19,21,23,25,27,29,31,33,35,37,39,-1,41,-1,43,45,47,49,51,53,55,-1,-1,-1,-1,-1,-1,-1,-1,-1,-1,-1,-1,-1,-1,-1,-1,-1,-1,-1,-1,-1,-1,-1,-1,-1,-1,-1],"loss_changes":[1.6702632E-3,7.14337E-4,6.6509325E-4,1.1622242E-4,4.2113056E-4,1.4121794E-4,5.237564E-4,2.080391E-5,6.61845E-5,1.251209E-4,3.654674E-4,1.1685597E-5,1.3524486E-4,7.985103E-5,2.745886E-4,2.9018374E-5,9.054023E-6,2.781927E-5,7.014975E-5,8.36972E-5,0E0,1.1895178E-4,0E0,2.5752088E-5,2.7058673E-5,1.6033664E-4,4.5096344E-6,1.06252955E-5,7.214125E-5,1.7450366E-4,0E0,0E0,0E0,0E0,0E0,0E0,0E0,0E0,0E0,0E0,0E0,0E0,0E0,0E0,0E0,0E0,0E0,0E0,0E0,0E0,0E0,0E0,0E0,0E0,0E0,0E0,0E0],"parents":[2147483647,0,0,1,1,2,2,3,3,4,4,5,5,6,6,7,7,8,8,9,9,10,10,11,11,12,12,13,13,14,14,15,15,16,16,17,17,18,18,19,19,21,21,23,23,24,24,25,25,26,26,27,27,28,28,29,29],"right_children":[2,4,6,8,10,12,14,16,18,20,22,24,26,28,30,32,34,36,38,40,-1,42,-1,44,46,48,50,52,54,56,-1,-1,-1,-1,-1,-1,-1,-1,-1,-1,-1,-1,-1,-1,-1,-1,-1,-1,-1,-1,-1,-1,-1,-1,-1,-1,-1],"split_conditions":[-6.651614E-4,1E0,1E0,-6.793997E-2,2.2809967E-1,1.7622649E-3,3.5500298E-3,3.694963E-2,6E-1,-2.8966577E-3,-6.6268705E-2,2.1117216E1,1E0,1E-1,1.51626095E-2,4.9761013E1,1.665475E3,1.8060097E1,9.535701E1,1.9883256E-2,-0E0,1.149E1,-0E0,1.779975E3,0E0,1E0,-3.7613326E-1,5.011533E-3,-1.5554012E-1,-1.9963454E2,-0E0,2.7246326E-6,-0E0,-1.9221732E-6,-0E0,-0E0,2.4150886E-6,6.27062E-6,-0E0,1.0454162E-5,-0E0,-0E0,3.2002597E-5,1.5350548E-6,-1.7422722E-7,-0E0,-2.034618E-6,-5.4907846E-6,-0E0,1.1619767E-6,-0E0,3.1660484E-6,-0E0,-0E0,-7.487356E-6,-0E0,-2.45552E-5],"split_indices":[63,35,35,74,74,63,63,60,50,45,67,12,37,49,64,16,0,13,17,64,0,59,0,3,30,33,21,65,66,20,0,0,0,0,0,0,0,0,0,0,0,0,0,0,0,0,0,0,0,0,0,0,0,0,0,0,0],"split_type":[0,0,0,0,0,0,0,0,0,0,0,0,0,0,0,0,0,0,0,0,0,0,0,0,0,0,0,0,0,0,0,0,0,0,0,0,0,0,0,0,0,0,0,0,0,0,0,0,0,0,0,0,0,0,0,0,0],"sum_hessian":[1.2572E4,5.008E3,7.564E3,4.172E3,8.36E2,6.372E3,1.192E3,1.92E3,2.252E3,5.73E2,2.63E2,3.176E3,3.196E3,8.14E2,3.78E2,1.476E3,4.44E2,8.23E2,1.429E3,3.8E2,1.93E2,2.38E2,2.5E1,1.686E3,1.49E3,2.556E3,6.4E2,1.84E2,6.3E2,3.54E2,2.4E1,6.16E2,8.6E2,3.45E2,9.9E1,3.39E2,4.84E2,1.285E3,1.44E2,3.65E2,1.5E1,3.1E1,2.07E2,1.313E3,3.73E2,6.9E2,8E2,1.918E3,6.38E2,3.29E2,3.11E2,1.01E2,8.3E1,1.52E2,4.78E2,2E1,3.34E2],"tree_param":{"num_deleted":"0","num_feature":"76","num_nodes":"57","size_leaf_vector":"1"}},{"base_weights":[-0E0,3.899153E-4,-3.3423206E-4,2.2458959E-4,1.106895E-3,-1.7603945E-4,-1.0879909E-3,1.9695199E-5,3.5976063E-4,3.600349E-4,2.413153E-3,-0E0,-2.9478577E-4,-5.3211174E-4,-2.8988104E-3,-5.084761E-4,7.884894E-5,4.8738474E-4,-0E0,8.2289684E-4,-0E0,2.7642834E-3,-0E0,1.6110322E-5,-2.0758086E-4,-4.0057686E-4,-0E0,-0E0,-8.1931095E-4,-4.0061567E-3,-0E0,-0E0,-8.158745E-6,2.613118E-6,-0E0,5.9211743E-6,-0E0,1.3488508E-6,-0E0,9.9968975E-6,-0E0,-0E0,-2.5187412E-6,-0E0,2.9201217E-5,1.267368E-6,-2.3574083E-7,-0E0,-3.576645E-6,-5.43602E-6,-0E0,1.1505308E-6,-0E0,-0E0,-1.0522886E-5,-4.327153E-5,-0E0,-2.0502468E-6,-0E0],"categories":[],"categories_nodes":[],"categories_segments":[],"categories_sizes":[],"default_left":[0,0,0,0,0,0,0,0,0,0,0,0,0,0,0,0,0,0,0,0,0,0,0,0,0,0,0,0,0,0,0,0,0,0,0,0,0,0,0,0,0,0,0,0,0,0,0,0,0,0,0,0,0,0,0,0,0,0,0],"id":28,"left_children":[1,3,5,7,9,11,13,15,17,19,21,23,25,27,29,31,33,35,37,39,41,43,-1,45,47,49,51,-1,53,55,57,-1,-1,-1,-1,-1,-1,-1,-1,-1,-1,-1,-1,-1,-1,-1,-1,-1,-1,-1,-1,-1,-1,-1,-1,-1,-1,-1,-1],"loss_changes":[1.639381E-3,5.5299414E-4,6.8143796E-4,9.5845055E-5,6.666125E-4,1.0083841E-4,7.2222773E-4,2.6597894E-5,8.007759E-5,1.7617721E-4,2.6993174E-4,2.065864E-5,1.3278014E-4,1.3597487E-4,4.1116273E-4,1.7989672E-5,3.751061E-5,7.5911026E-5,8.787696E-6,8.037171E-5,1.3639725E-5,2.1094037E-4,0E0,1.9392472E-5,2.2475719E-5,1.5730975E-4,4.4212284E-6,0E0,1.2875284E-4,2.2737542E-4,2.9004234E-6,0E0,0E0,0E0,0E0,0E0,0E0,0E0,0E0,0E0,0E0,0E0,0E0,0E0,0E0,0E0,0E0,0E0,0E0,0E0,0E0,0E0,0E0,0E0,0E0,0E0,0E0,0E0,0E0],"parents":[2147483647,0,0,1,1,2,2,3,3,4,4,5,5,6,6,7,7,8,8,9,9,10,10,11,11,12,12,13,13,14,14,15,15,16,16,17,17,18,18,19,19,20,20,21,21,23,23,24,24,25,25,26,26,28,28,29,29,30,30],"right_children":[2,4,6,8,10,12,14,16,18,20,22,24,26,28,30,32,34,36,38,40,42,44,-1,46,48,50,52,-1,54,56,58,-1,-1,-1,-1,-1,-1,-1,-1,-1,-1,-1,-1,-1,-1,-1,-1,-1,-1,-1,-1,-1,-1,-1,-1,-1,-1,-1,-1],"split_conditions":[-1.02733524E-4,1E0,1E0,-6.793997E-2,2.3452273E-1,1.7622649E-3,3.9450136E-1,-5.6893043E-2,-1.6529304E-3,-4.297658E-3,1.6E0,4.2478356E0,1E0,1.3559124E-3,5.2052677E1,3.407396E-1,-5.0454435E-4,1E0,5.2457935E1,4.1153927E1,-3E-2,-3.1194785E0,-0E0,3.4017317E-4,-7.277073E-3,1E0,-3.7613326E-1,-0E0,-2.9290842E-3,7E0,2.407082E1,-0E0,-8.158745E-6,2.613118E-6,-0E0,5.9211743E-6,-0E0,1.3488508E-6,-0E0,9.9968975E-6,-0E0,-0E0,-2.5187412E-6,-0E0,2.9201217E-5,1.267368E-6,-2.3574083E-7,-0E0,-3.576645E-6,-5.43602E-6,-0E0,1.1505308E-6,-0E0,-0E0,-1.0522886E-5,-4.327153E-5,-0E0,-2.0502468E-6,-0E0],"split_indices":[63,35,35,74,74,63,74,65,63,45,53,9,37,63,17,44,27,37,20,11,53,10,0,30,60,33,21,0,30,55,13,0,0,0,0,0,0,0,0,0,0,0,0,0,0,0,0,0,0,0,0,0,0,0,0,0,0,0,0],"split_type":[0,0,0,0,0,0,0,0,0,0,0,0,0,0,0,0,0,0,0,0,0,0,0,0,0,0,0,0,0,0,0,0,0,0,0,0,0,0,0,0,0,0,0,0,0,0,0,0,0,0,0,0,0,0,0,0,0,0,0],"sum_hessian":[1.2572E4,5.794E3,6.778E3,4.827E3,9.67E2,5.717E3,1.061E3,2.215E3,2.612E3,6.68E2,2.99E2,2.521E3,3.196E3,8.59E2,2.02E2,4.9E1,2.166E3,1.758E3,8.54E2,3.84E2,2.84E2,2.62E2,3.7E1,2.059E3,4.62E2,2.556E3,6.4E2,2.97E2,5.62E2,1.29E2,7.3E1,6E0,4.3E1,7.42E2,1.424E3,1.406E3,3.52E2,4.78E2,3.76E2,3.39E2,4.5E1,7.4E1,2.1E2,3E0,2.59E2,1.206E3,8.53E2,1.34E2,3.28E2,1.918E3,6.38E2,3.29E2,3.11E2,1.07E2,4.55E2,1.22E2,7E0,6.4E1,9E0],"tree_param":{"num_deleted":"0","num_feature":"76","num_nodes":"59","size_leaf_vector":"1"}},{"base_weights":[-0E0,4.392267E-4,-2.9181002E-4,2.4249002E-4,1.2948426E-3,-1.4671886E-4,-9.800199E-4,1.0647961E-4,5.586876E-4,5.7085167E-4,2.4589936E-3,-0E0,-2.9164684E-4,-6.2718574E-4,-3.1209867E-3,1.8218874E-4,-1.5414767E-4,7.0901687E-4,-0E0,8.954642E-4,-0E0,2.853724E-3,-0E0,2.924493E-5,-1.2289413E-4,-3.9650567E-4,-0E0,-0E0,-1.0183286E-3,-3.7981907E-3,-0E0,-0E0,2.855554E-6,-0E0,-4.609872E-6,-0E0,8.357424E-6,1.0278435E-5,-0E0,-0E0,3.176328E-5,1.26891E-6,-0E0,-0E0,-3.6610516E-6,-5.381801E-6,-0E0,1.1391978E-6,-0E0,2.1528879E-6,-4.1331955E-6,-0E0,-1.2897275E-5,-4.7585338E-5,-0E0],"categories":[],"categories_nodes":[],"categories_segments":[],"categories_sizes":[],"default_left":[0,0,0,0,0,0,0,0,0,0,1,0,0,0,0,0,0,0,0,0,0,0,0,0,0,0,0,0,0,0,0,0,0,0,0,0,0,0,0,0,0,0,0,0,0,0,0,0,0,0,0,0,0,0,0],"id":29,"left_children":[1,3,5,7,9,11,13,15,17,19,21,23,25,27,29,31,33,35,-1,37,-1,39,-1,41,43,45,47,49,51,53,-1,-1,-1,-1,-1,-1,-1,-1,-1,-1,-1,-1,-1,-1,-1,-1,-1,-1,-1,-1,-1,-1,-1,-1,-1],"loss_changes":[1.6116321E-3,6.8854017E-4,6.4239575E-4,1.128226E-4,3.9882096E-4,1.3499623E-4,5.1961676E-4,6.5060434E-5,7.6403405E-5,1.203608E-4,3.584266E-4,1.1643937E-5,1.3036188E-4,2.4535292E-4,4.122277E-4,5.268037E-5,4.924031E-5,6.114101E-5,0E0,8.217647E-5,0E0,1.1959602E-4,0E0,1.8275303E-5,2.9951243E-5,1.543414E-4,4.3345576E-6,4.2676278E-5,1.3726053E-4,2.8833444E-4,0E0,0E0,0E0,0E0,0E0,0E0,0E0,0E0,0E0,0E0,0E0,0E0,0E0,0E0,0E0,0E0,0E0,0E0,0E0,0E0,0E0,0E0,0E0,0E0,0E0],"parents":[2147483647,0,0,1,1,2,2,3,3,4,4,5,5,6,6,7,7,8,8,9,9,10,10,11,11,12,12,13,13,14,14,15,15,16,16,17,17,19,19,21,21,23,23,24,24,25,25,26,26,27,27,28,28,29,29],"right_children":[2,4,6,8,10,12,14,16,18,20,22,24,26,28,30,32,34,36,-1,38,-1,40,-1,42,44,46,48,50,52,54,-1,-1,-1,-1,-1,-1,-1,-1,-1,-1,-1,-1,-1,-1,-1,-1,-1,-1,-1,-1,-1,-1,-1,-1,-1],"split_conditions":[-6.651614E-4,1E0,1E0,3.014905E-1,2.2809967E-1,1.7622649E-3,2.1006499E9,2.67E1,-1.9981712E-3,-2.8966577E-3,-6.6268705E-2,3.781633E-3,1E0,1.3559124E-3,4E0,2.8946213E-3,3.8371773E-3,5.6E-1,-0E0,1.9883256E-2,-0E0,8.088725E8,-0E0,-2.9050892E-2,2.0601994E1,1E0,-3.7613326E-1,5.663748E-4,-2.4261534E-1,6.8651235E-1,-0E0,-0E0,2.855554E-6,-0E0,-4.609872E-6,-0E0,8.357424E-6,1.0278435E-5,-0E0,-0E0,3.176328E-5,1.26891E-6,-0E0,-0E0,-3.6610516E-6,-5.381801E-6,-0E0,1.1391978E-6,-0E0,2.1528879E-6,-4.1331955E-6,-0E0,-1.2897275E-5,-4.7585338E-5,-0E0],"split_indices":[63,35,35,74,74,63,70,59,63,45,67,41,37,63,54,29,29,50,0,64,0,70,0,66,12,33,21,27,74,23,0,0,0,0,0,0,0,0,0,0,0,0,0,0,0,0,0,0,0,0,0,0,0,0,0],"split_type":[0,0,0,0,0,0,0,0,0,0,0,0,0,0,0,0,0,0,0,0,0,0,0,0,0,0,0,0,0,0,0,0,0,0,0,0,0,0,0,0,0,0,0,0,0,0,0,0,0,0,0,0,0,0,0],"sum_hessian":[1.2572E4,5.008E3,7.564E3,4.172E3,8.36E2,6.372E3,1.192E3,3.143E3,1.029E3,5.73E2,2.63E2,3.176E3,3.196E3,1.069E3,1.23E2,2.734E3,4.09E2,7.89E2,2.4E2,3.8E2,1.93E2,2.38E2,2.5E1,2.555E3,6.21E2,2.556E3,6.4E2,4.3E2,6.39E2,1.1E2,1.3E1,9.78E2,1.756E3,1.36E2,2.73E2,1.35E2,6.54E2,3.65E2,1.5E1,3.5E1,2.03E2,1.266E3,1.289E3,3.32E2,2.89E2,1.918E3,6.38E2,3.29E2,3.11E2,2.56E2,1.74E2,1.6E2,4.79E2,8.1E1,2.9E1],"tree_param":{"num_deleted":"0","num_feature":"76","num_nodes":"55","size_leaf_vector":"1"}},{"base_weights":[-0E0,4.3535253E-4,-2.8922057E-4,2.402823E-4,1.2827147E-3,-1.4524495E-4,-9.714984E-4,6.511801E-6,3.9482673E-4,5.64361E-4,2.434934E-3,-0E0,-2.885392E-4,-5.1030837E-4,-2.4394623E-3,1.0423222E-4,-9.316859E-5,2.2522749E-5,5.386856E-4,9.509872E-4,-0E0,2.8271892E-3,-0E0,2.8617413E-5,-1.2120396E-4,-3.9247508E-4,-0E0,-0E0,-7.7906135E-4,-3.3583697E-3,-0E0,2.6743744E-6,-0E0,-1.921817E-6,-0E0,-0E0,2.3387156E-6,6.1310448E-6,-0E0,1.1745098E-5,-0E0,3.0679155E-5,-0E0,1.2562707E-6,-0E0,-0E0,-3.6250635E-6,-5.3281224E-6,-0E0,1.1279764E-6,-0E0,9.578638E-6,-8.366893E-8,-4.200733E-6,-2.2383409E-5,-0E0,-3.6116162E-5],"categories":[],"categories_nodes":[],"categories_segments":[],"categories_sizes":[],"default_left":[0,0,0,0,0,0,0,0,0,0,1,0,0,0,0,0,0,0,0,0,0,