{"learner":{"attributes":{"scikit_learn":"{\"_estimator_type\": \"regressor\"}"},"feature_names":[],"feature_types":[],"gradient_booster":{"model":{"cats":{"enc":[],"feature_segments":[],"sorted_idx":[]},"gbtree_model_param":{"num_parallel_tree":"1","num_trees":"200"},"iteration_indptr":[0,1,2,3,4,5,6,7,8,9,10,11,12,13,14,15,16,17,18,19,20,21,22,23,24,25,26,27,28,29,30,31,32,33,34,35,36,37,38,39,40,41,42,43,44,45,46,47,48,49,50,51,52,53,54,55,56,57,58,59,60,61,62,63,64,65,66,67,68,69,70,71,72,73,74,75,76,77,78,79,80,81,82,83,84,85,86,87,88,89,90,91,92,93,94,95,96,97,98,99,100,101,102,103,104,105,106,107,108,109,110,111,112,113,114,115,116,117,118,119,120,121,122,123,124,125,126,127,128,129,130,131,132,133,134,135,136,137,138,139,140,141,142,143,144,145,146,147,148,149,150,151,152,153,154,155,156,157,158,159,160,161,162,163,164,165,166,167,168,169,170,171,172,173,174,175,176,177,178,179,180,181,182,183,184,185,186,187,188,189,190,191,192,193,194,195,196,197,198,199,200],"tree_info":[0,0,0,0,0,0,0,0,0,0,0,0,0,0,0,0,0,0,0,0,0,0,0,0,0,0,0,0,0,0,0,0,0,0,0,0,0,0,0,0,0,0,0,0,0,0,0,0,0,0,0,0,0,0,0,0,0,0,0,0,0,0,0,0,0,0,0,0,0,0,0,0,0,0,0,0,0,0,0,0,0,0,0,0,0,0,0,0,0,0,0,0,0,0,0,0,0,0,0,0,0,0,0,0,0,0,0,0,0,0,0,0,0,0,0,0,0,0,0,0,0,0,0,0,0,0,0,0,0,0,0,0,0,0,0,0,0,0,0,0,0,0,0,0,0,0,0,0,0,0,0,0,0,0,0,0,0,0,0,0,0,0,0,0,0,0,0,0,0,0,0,0,0,0,0,0,0,0,0,0,0,0,0,0,0,0,0,0,0,0,0,0,0,0,0,0,0,0,0,0],"trees":[{"base_weights":[-0E0,5.785761E-4,-3.70968E-4,3.3876934E-4,1.5690123E-3,-1.879184E-4,-1.2109359E-3,-0E0,5.157683E-4,2.2363501E-4,2.44197E-3,-0E0,-4.1948995E-4,-2.586348E-4,-1.8800825E-3,1.4999424E-4,-0E0,-0E0,6.321714E-4,7.5804134E-4,-0E0,-0E0,2.5863464E-3,8.768631E-5,-8.9398825E-5,-5.5344624E-4,-0E0,-0E0,-5.2558264E-4,-2.0834848E-3,-0E0,-0E0,1.0603152E-5,-4.137887E-6,-0E0,3.70207E-5,-0E0,-0E0,5.534683E-5,1.3633636E-4,-0E0,1.0877986E-5,-0E0,-0E0,-8.739383E-6,-3.5248995E-5,-0E0,-5.4202723E-5,-0E0,-0E0,-1.1204259E-4],"categories":[],"categories_nodes":[],"categories_segments":[],"categories_sizes":[],"default_left":[0,0,0,0,0,0,0,0,0,0,0,0,0,0,0,0,0,0,0,0,0,0,1,0,0,0,0,0,0,0,0,0,0,0,0,0,0,0,0,0,0,0,0,0,0,0,0,0,0,0,0],"id":0,"left_children":[1,3,5,7,9,11,13,15,17,19,21,23,25,27,29,31,33,-1,35,37,-1,-1,39,41,43,45,-1,-1,47,49,-1,-1,-1,-1,-1,-1,-1,-1,-1,-1,-1,-1,-1,-1,-1,-1,-1,-1,-1,-1,-1],"loss_changes":[1.7041878E-3,5.4333056E-4,6.028472E-4,1.1406347E-4,3.4377573E-4,2.0730268E-4,2.7245178E-4,9.584263E-6,7.243545E-5,7.6838536E-5,1.4991371E-4,1.626144E-5,1.379257E-4,5.7184625E-5,1.7389574E-4,7.0549077E-6,3.1573165E-6,0E0,4.7504494E-5,6.842305E-5,0E0,0E0,1.3742456E-4,2.215882E-5,1.0590933E-5,1.07230386E-4,0E0,0E0,1.02806385E-4,1.4183263E-4,0E0,0E0,0E0,0E0,0E0,0E0,0E0,0E0,0E0,0E0,0E0,0E0,0E0,0E0,0E0,0E0,0E0,0E0,0E0,0E0,0E0],"parents":[2147483647,0,0,1,1,2,2,3,3,4,4,5,5,6,6,7,7,8,8,9,9,10,10,11,11,12,12,13,13,14,14,15,15,16,16,18,18,19,19,22,22,23,23,24,24,25,25,28,28,29,29],"right_children":[2,4,6,8,10,12,14,16,18,20,22,24,26,28,30,32,34,-1,36,38,-1,-1,40,42,44,46,-1,-1,48,50,-1,-1,-1,-1,-1,-1,-1,-1,-1,-1,-1,-1,-1,-1,-1,-1,-1,-1,-1,-1,-1],"split_conditions":[-7.2523515E-4,1E0,1E0,-1.391314E-1,-5.2018337E-2,1.8014004E-3,1.8933975E-3,4.3807777E1,3.1E-1,6.2834286E1,-2.294915E-2,3.08321E1,1E0,-2E-2,1.15686E-2,1.7701623E-3,2.5426874E-2,-0E0,1E0,-4.467145E0,-0E0,-0E0,1.137792E-3,-7.65646E-5,-5.845174E0,1E0,-0E0,-0E0,2.5282665E1,-4.813802E-3,-0E0,-0E0,1.0603152E-5,-4.137887E-6,-0E0,3.70207E-5,-0E0,-0E0,5.534683E-5,1.3633636E-4,-0E0,1.0877986E-5,-0E0,-0E0,-8.739383E-6,-3.5248995E-5,-0E0,-5.4202723E-5,-0E0,-0E0,-1.1204259E-4],"split_indices":[63,35,35,74,74,63,63,18,48,17,45,11,37,53,64,29,66,0,37,9,0,0,67,30,8,33,0,0,11,30,0,0,0,0,0,0,0,0,0,0,0,0,0,0,0,0,0,0,0,0,0],"split_type":[0,0,0,0,0,0,0,0,0,0,0,0,0,0,0,0,0,0,0,0,0,0,0,0,0,0,0,0,0,0,0,0,0,0,0,0,0,0,0,0,0,0,0,0,0,0,0,0,0,0,0],"sum_hessian":[7.93E3,3.097E3,4.833E3,2.58E3,5.17E2,4.071E3,7.62E2,1.041E3,1.539E3,2.51E2,2.66E2,2.08E3,1.991E3,3.79E2,3.83E2,4.21E2,6.2E2,3.35E2,1.204E3,1.51E2,1E2,7E0,2.59E2,1.453E3,6.27E2,1.592E3,3.99E2,8.4E1,2.95E2,3.51E2,3.2E1,5.6E1,3.65E2,4.56E2,1.64E2,9.63E2,2.41E2,2.7E1,1.24E2,2.51E2,8E0,7E2,7.53E2,1.2E2,5.07E2,1.195E3,3.97E2,1.53E2,1.42E2,2E1,3.31E2],"tree_param":{"num_deleted":"0","num_feature":"76","num_nodes":"51","size_leaf_vector":"1"}},{"base_weights":[-0E0,5.5319973E-4,-3.5353974E-4,3.2421068E-4,1.4903084E-3,-1.783652E-4,-1.1517714E-3,-0E0,4.926783E-4,1.968264E-4,2.3156952E-3,-0E0,-3.9838647E-4,-2.3703842E-4,-1.7844999E-3,1.409094E-4,-0E0,-0E0,6.0268346E-4,7.1404775E-4,-0E0,-0E0,2.4567235E-3,8.246368E-5,-8.238797E-5,-5.270702E-4,-0E0,-0E0,-4.979393E-4,-1.9793103E-3,-0E0,-0E0,1.08511695E-5,-3.933237E-6,-0E0,3.258866E-5,-0E0,-0E0,5.2686748E-5,1.334469E-4,-0E0,1.0337944E-5,-0E0,-0E0,-8.306682E-6,-3.378635E-5,-0E0,-5.1578358E-5,-0E0,-0E0,-1.06523825E-4],"categories":[],"categories_nodes":[],"categories_segments":[],"categories_sizes":[],"default_left":[0,0,0,0,0,0,0,0,0,0,0,0,0,0,0,0,0,0,0,0,0,0,1,0,0,0,0,0,0,0,0,0,0,0,0,0,0,0,0,0,0,0,0,0,0,0,0,0,0,0,0],"id":1,"left_children":[1,3,5,7,9,11,13,15,17,19,21,23,25,27,29,31,33,-1,35,37,-1,-1,39,41,43,45,-1,-1,47,49,-1,-1,-1,-1,-1,-1,-1,-1,-1,-1,-1,-1,-1,-1,-1,-1,-1,-1,-1,-1,-1],"loss_changes":[1.5540081E-3,4.8178312E-4,5.42456E-4,1.03062164E-4,3.037681E-4,1.8711424E-4,2.3965363E-4,8.458425E-6,6.436376E-5,6.962121E-5,1.4014705E-4,1.4204652E-5,1.268627E-4,5.280717E-5,1.5912752E-4,6.7075016E-6,2.8527334E-6,0E0,4.5989145E-5,6.369729E-5,0E0,0E0,1.304521E-4,2.0223433E-5,9.841522E-6,1.0290719E-4,0E0,0E0,9.374959E-5,1.3039052E-4,0E0,0E0,0E0,0E0,0E0,0E0,0E0,0E0,0E0,0E0,0E0,0E0,0E0,0E0,0E0,0E0,0E0,0E0,0E0,0E0,0E0],"parents":[2147483647,0,0,1,1,2,2,3,3,4,4,5,5,6,6,7,7,8,8,9,9,10,10,11,11,12,12,13,13,14,14,15,15,16,16,18,18,19,19,22,22,23,23,24,24,25,25,28,28,29,29],"right_children":[2,4,6,8,10,12,14,16,18,20,22,24,26,28,30,32,34,-1,36,38,-1,-1,40,42,44,46,-1,-1,48,50,-1,-1,-1,-1,-1,-1,-1,-1,-1,-1,-1,-1,-1,-1,-1,-1,-1,-1,-1,-1,-1],"split_conditions":[-7.2523515E-4,1E0,1E0,-1.391314E-1,-5.2018337E-2,1.8014004E-3,1.8933975E-3,4.3807777E1,3.1E-1,6.2834286E1,-2.294915E-2,3.08321E1,1E0,-2E-2,1.15686E-2,4.3949146E0,2.5426874E-2,-0E0,1.9212425E0,-4.467145E0,-0E0,-0E0,-7.123998E-2,-7.65646E-5,-5.845174E0,3.3775085E1,-0E0,-0E0,2.5282665E1,-4.813802E-3,-0E0,-0E0,1.08511695E-5,-3.933237E-6,-0E0,3.258866E-5,-0E0,-0E0,5.2686748E-5,1.334469E-4,-0E0,1.0337944E-5,-0E0,-0E0,-8.306682E-6,-3.378635E-5,-0E0,-5.1578358E-5,-0E0,-0E0,-1.06523825E-4],"split_indices":[63,35,35,74,74,63,63,18,48,17,45,11,37,53,64,24,66,0,21,9,0,0,67,30,8,11,0,0,11,30,0,0,0,0,0,0,0,0,0,0,0,0,0,0,0,0,0,0,0,0,0],"split_type":[0,0,0,0,0,0,0,0,0,0,0,0,0,0,0,0,0,0,0,0,0,0,0,0,0,0,0,0,0,0,0,0,0,0,0,0,0,0,0,0,0,0,0,0,0,0,0,0,0,0,0],"sum_hessian":[7.93E3,3.097E3,4.833E3,2.58E3,5.17E2,4.071E3,7.62E2,1.041E3,1.539E3,2.51E2,2.66E2,2.08E3,1.991E3,3.79E2,3.83E2,4.21E2,6.2E2,3.35E2,1.204E3,1.51E2,1E2,7E0,2.59E2,1.453E3,6.27E2,1.592E3,3.99E2,8.4E1,2.95E2,3.51E2,3.2E1,1.04E2,3.17E2,4.56E2,1.64E2,1.137E3,6.7E1,2.7E1,1.24E2,2.37E2,2.2E1,7E2,7.53E2,1.2E2,5.07E2,1.192E3,4E2,1.53E2,1.42E2,2E1,3.31E2],"tree_param":{"num_deleted":"0","num_feature":"76","num_nodes":"51","size_leaf_vector":"1"}},{"base_weights":[-0E0,5.2842224E-4,-3.3692148E-4,3.0923984E-4,1.4172047E-3,-1.6922677E-4,-1.0955122E-3,1.2495704E-5,4.961948E-4,1.7130625E-4,2.1989907E-3,-0E0,-3.8311898E-4,-5.777389E-4,-2.4053375E-3,1.2920826E-4,-0E0,3.215116E-5,7.110889E-4,6.721685E-4,-0E0,-0E0,2.3369247E-3,8.9660636E-5,-6.587369E-5,-5.051341E-4,-0E0,-0E0,-9.400013E-4,-3.5601403E-3,-0E0,-0E0,9.78323E-6,-0E0,-5.511117E-6,7.8455905E-6,-0E0,4.0653853E-5,-0E0,-0E0,5.0154515E-5,1.2347555E-4,-0E0,-0E0,1.2339978E-5,-0E0,-1.154504E-5,-3.2452488E-5,-0E0,-0E0,-5.3074373E-6,-5.2157295E-5,-0E0,-0E0,-1.9850158E-4],"categories":[],"categories_nodes":[],"categories_segments":[],"categories_sizes":[],"default_left":[0,0,0,0,0,0,0,0,0,0,0,0,0,0,0,0,0,0,0,0,0,0,1,0,0,0,0,0,0,0,0,0,0,0,0,0,0,0,0,0,0,0,0,0,0,0,0,0,0,0,0,0,0,0,0],"id":2,"left_children":[1,3,5,7,9,11,13,15,17,19,21,23,25,27,29,31,33,35,37,39,-1,-1,41,43,45,47,-1,49,51,53,-1,-1,-1,-1,-1,-1,-1,-1,-1,-1,-1,-1,-1,-1,-1,-1,-1,-1,-1,-1,-1,-1,-1,-1,-1],"loss_changes":[1.4153626E-3,4.2945088E-4,4.88049E-4,9.251005E-5,2.6952836E-4,1.689069E-4,2.1491782E-4,1.3584102E-5,6.307586E-5,6.2969906E-5,1.3132428E-4,1.3966297E-5,1.11650705E-4,1.0531988E-4,3.3597037E-4,1.467229E-5,1.8466425E-6,8.821116E-6,6.672615E-5,5.9316102E-5,0E0,0E0,1.194505E-4,2.9300318E-5,1.9928328E-5,9.55959E-5,0E0,1.4309796E-6,5.853502E-5,1.82566E-4,0E0,0E0,0E0,0E0,0E0,0E0,0E0,0E0,0E0,0E0,0E0,0E0,0E0,0E0,0E0,0E0,0E0,0E0,0E0,0E0,0E0,0E0,0E0,0E0,0E0],"parents":[2147483647,0,0,1,1,2,2,3,3,4,4,5,5,6,6,7,7,8,8,9,9,10,10,11,11,12,12,13,13,14,14,15,15,16,16,17,17,18,18,19,19,22,22,23,23,24,24,25,25,27,27,28,28,29,29],"right_children":[2,4,6,8,10,12,14,16,18,20,22,24,26,28,30,32,34,36,38,40,-1,-1,42,44,46,48,-1,50,52,54,-1,-1,-1,-1,-1,-1,-1,-1,-1,-1,-1,-1,-1,-1,-1,-1,-1,-1,-1,-1,-1,-1,-1,-1,-1],"split_conditions":[-7.2523515E-4,1E0,1E0,-7.247917E-2,-5.2018337E-2,1.8753938E-3,3.9063448E-1,7.138848E1,9.7384966E8,6.2834286E1,-2.294915E-2,3.4365692E-4,1E0,4.723085E1,5.185871E1,1.1372856E-3,4.11703E-3,5.1466227E0,1.9212425E0,-4.467145E0,-0E0,-0E0,1.137792E-3,2.6199054E-3,2.218602E1,1E0,-0E0,2.2043446E-3,8.00215E-3,-1.0241794E-4,-0E0,-0E0,9.78323E-6,-0E0,-5.511117E-6,7.8455905E-6,-0E0,4.0653853E-5,-0E0,-0E0,5.0154515E-5,1.2347555E-4,-0E0,-0E0,1.2339978E-5,-0E0,-1.154504E-5,-3.2452488E-5,-0E0,-0E0,-5.3074373E-6,-5.2157295E-5,-0E0,-0E0,-1.9850158E-4],"split_indices":[63,35,35,74,74,63,74,17,70,17,45,30,37,16,17,40,29,24,21,9,0,0,67,38,12,33,0,63,29,63,0,0,0,0,0,0,0,0,0,0,0,0,0,0,0,0,0,0,0,0,0,0,0,0,0],"split_type":[0,0,0,0,0,0,0,0,0,0,0,0,0,0,0,0,0,0,0,0,0,0,0,0,0,0,0,0,0,0,0,0,0,0,0,0,0,0,0,0,0,0,0,0,0,0,0,0,0,0,0,0,0,0,0],"sum_hessian":[7.93E3,3.097E3,4.833E3,2.58E3,5.17E2,4.071E3,7.62E2,1.206E3,1.374E3,2.51E2,2.66E2,2.13E3,1.941E3,6.06E2,1.56E2,8.2E2,3.86E2,5.84E2,7.9E2,1.51E2,1E2,7E0,2.59E2,1.26E3,8.7E2,1.552E3,3.89E2,2.61E2,3.45E2,9.5E1,6.1E1,8.2E1,7.38E2,2.39E2,1.47E2,3.78E2,2.06E2,7.04E2,8.6E1,2.7E1,1.24E2,2.51E2,8E0,6.17E2,6.43E2,4.3E2,4.4E2,1.165E3,3.87E2,1.39E2,1.22E2,3.33E2,1.2E1,8E0,8.7E1],"tree_param":{"num_deleted":"0","num_feature":"76","num_nodes":"55","size_leaf_vector":"1"}},{"base_weights":[-0E0,5.041775E-4,-3.2240353E-4,2.9454127E-4,1.3459184E-3,-1.606516E-4,-1.0495075E-3,-0E0,4.476939E-4,9.901191E-5,2.0576955E-3,-0E0,-3.5928516E-4,-1.7827432E-4,-1.6405025E-3,1.2405482E-4,-0E0,1.6930053E-4,8.019791E-4,3.7230138E-4,-0E0,-0E0,2.236774E-3,7.612265E-5,-7.700888E-5,-4.78176E-4,-0E0,-0E0,-4.321146E-4,-1.8259642E-3,-0E0,-0E0,9.869938E-6,-3.8872504E-6,-0E0,1.4740945E-5,-0E0,4.7380843E-5,-0E0,2.7299544E-5,-0E0,1.2208927E-4,-0E0,7.0184356E-6,-0E0,-0E0,-7.917897E-6,-3.091771E-5,-0E0,-4.6822042E-5,-0E0,-0E0,-9.842593E-5],"categories":[],"categories_nodes":[],"categories_segments":[],"categories_sizes":[],"default_left":[0,0,0,0,0,0,0,0,0,0,0,0,0,0,0,0,0,0,0,0,0,0,1,0,0,0,0,0,0,0,0,0,0,0,0,0,0,0,0,0,0,0,0,0,0,0,0,0,0,0,0,0,0],"id":3,"left_children":[1,3,5,7,9,11,13,15,17,19,21,23,25,27,29,31,33,35,37,39,-1,-1,41,43,45,47,-1,-1,49,51,-1,-1,-1,-1,-1,-1,-1,-1,-1,-1,-1,-1,-1,-1,-1,-1,-1,-1,-1,-1,-1,-1,-1],"loss_changes":[1.2913938E-3,3.813489E-4,4.4714054E-4,8.520312E-5,2.4659582E-4,1.5245804E-4,2.1158403E-4,6.5559675E-6,5.447885E-5,2.5587255E-5,1.6106735E-4,1.2196604E-5,1.0750242E-4,4.3812724E-5,1.4275138E-4,5.991173E-6,2.7864157E-6,3.621626E-5,7.413127E-5,2.4765888E-5,0E0,0E0,1.1587748E-4,1.702785E-5,9.091554E-6,9.2529546E-5,0E0,0E0,8.253667E-5,1.15066185E-4,0E0,0E0,0E0,0E0,0E0,0E0,0E0,0E0,0E0,0E0,0E0,0E0,0E0,0E0,0E0,0E0,0E0,0E0,0E0,0E0,0E0,0E0,0E0],"parents":[2147483647,0,0,1,1,2,2,3,3,4,4,5,5,6,6,7,7,8,8,9,9,10,10,11,11,12,12,13,13,14,14,15,15,16,16,17,17,18,18,19,19,22,22,23,23,24,24,25,25,28,28,29,29],"right_children":[2,4,6,8,10,12,14,16,18,20,22,24,26,28,30,32,34,36,38,40,-1,-1,42,44,46,48,-1,-1,50,52,-1,-1,-1,-1,-1,-1,-1,-1,-1,-1,-1,-1,-1,-1,-1,-1,-1,-1,-1,-1,-1,-1,-1],"split_conditions":[-7.2523515E-4,1E0,1E0,-1.391314E-1,8.425581E8,1.8014004E-3,1.8933975E-3,4.3807777E1,1.2773292E9,1.0191383E0,-6.601403E0,3.08321E1,1E0,-2E-2,1.15686E-2,4.3949146E0,2.5426874E-2,2.8920279E1,2.0349824E0,1.1E0,-0E0,-0E0,-7.123998E-2,4.056038E-3,-5.845174E0,3.3775085E1,-0E0,-0E0,2.5282665E1,-4.813802E-3,-0E0,-0E0,9.869938E-6,-3.8872504E-6,-0E0,1.4740945E-5,-0E0,4.7380843E-5,-0E0,2.7299544E-5,-0E0,1.2208927E-4,-0E0,7.0184356E-6,-0E0,-0E0,-7.917897E-6,-3.091771E-5,-0E0,-4.6822042E-5,-0E0,-0E0,-9.842593E-5],"split_indices":[63,35,35,74,70,63,63,18,70,10,8,11,37,53,64,24,66,12,21,53,0,0,67,39,8,11,0,0,11,30,0,0,0,0,0,0,0,0,0,0,0,0,0,0,0,0,0,0,0,0,0,0,0],"split_type":[0,0,0,0,0,0,0,0,0,0,0,0,0,0,0,0,0,0,0,0,0,0,0,0,0,0,0,0,0,0,0,0,0,0,0,0,0,0,0,0,0,0,0,0,0,0,0,0,0,0,0,0,0],"sum_hessian":[7.93E3,3.097E3,4.833E3,2.58E3,5.17E2,4.071E3,7.62E2,1.041E3,1.539E3,2.41E2,2.76E2,2.08E3,1.991E3,3.79E2,3.83E2,4.21E2,6.2E2,1.024E3,5.15E2,1.97E2,4.4E1,1.1E1,2.65E2,1.453E3,6.27E2,1.592E3,3.99E2,8.4E1,2.95E2,3.51E2,3.2E1,1.04E2,3.17E2,4.56E2,1.64E2,7.51E2,2.73E2,4.5E2,6.5E1,1.72E2,2.5E1,2.41E2,2.4E1,1.288E3,1.65E2,1.2E2,5.07E2,1.192E3,4E2,1.53E2,1.42E2,2E1,3.31E2],"tree_param":{"num_deleted":"0","num_feature":"76","num_nodes":"53","size_leaf_vector":"1"}},{"base_weights":[-0E0,4.82299E-4,-3.0760994E-4,2.8148593E-4,1.2805562E-3,-1.5284283E-4,-9.976916E-4,3.7343486E-6,4.5186284E-4,9.998501E-5,2.003152E-3,-0E0,-3.4518153E-4,-4.9969024E-4,-2.2355204E-3,1.1548092E-4,-0E0,2.168217E-4,1.0133845E-3,5.9029314E-4,-0E0,-0E0,2.4887943E-3,8.145485E-5,-6.2062325E-5,-4.577184E-4,-0E0,-0E0,-8.3998544E-4,-3.321365E-3,-0E0,-0E0,1.2582262E-5,-0E0,-5.327032E-6,1.8566705E-5,-0E0,9.1784335E-5,-0E0,-0E0,4.545169E-5,-0E0,1.3055133E-4,-0E0,1.1632155E-5,-0E0,-1.10558985E-5,-2.9680687E-5,-0E0,-0E0,-4.7040958E-5,-0E0,-1.8562646E-4],"categories":[],"categories_nodes":[],"categories_segments":[],"categories_sizes":[],"default_left":[0,0,0,0,0,0,0,0,0,0,0,0,0,0,0,0,0,0,0,0,0,0,0,0,0,0,0,0,1,0,0,0,0,0,0,0,0,0,0,0,0,0,0,0,0,0,0,0,0,0,0,0,0],"id":4,"left_children":[1,3,5,7,9,11,13,15,17,19,21,23,25,27,29,31,33,35,37,39,-1,-1,41,43,45,47,-1,-1,49,51,-1,-1,-1,-1,-1,-1,-1,-1,-1,-1,-1,-1,-1,-1,-1,-1,-1,-1,-1,-1,-1,-1,-1],"loss_changes":[1.1793537E-3,3.3924554E-4,4.00892E-4,7.676039E-5,2.3399043E-4,1.366473E-4,1.9370345E-4,1.0985183E-5,5.7882135E-5,5.179835E-5,1.20429555E-4,1.17634045E-5,9.433458E-5,9.4390634E-5,2.985408E-4,1.4138082E-5,1.7253378E-6,4.2139436E-5,1.6063065E-4,5.224059E-5,0E0,0E0,1.1473824E-4,2.6678443E-5,1.8387187E-5,8.608037E-5,0E0,0E0,5.311123E-5,1.6487774E-4,0E0,0E0,0E0,0E0,0E0,0E0,0E0,0E0,0E0,0E0,0E0,0E0,0E0,0E0,0E0,0E0,0E0,0E0,0E0,0E0,0E0,0E0,0E0],"parents":[2147483647,0,0,1,1,2,2,3,3,4,4,5,5,6,6,7,7,8,8,9,9,10,10,11,11,12,12,13,13,14,14,15,15,16,16,17,17,18,18,19,19,22,22,23,23,24,24,25,25,28,28,29,29],"right_children":[2,4,6,8,10,12,14,16,18,20,22,24,26,28,30,32,34,36,38,40,-1,-1,42,44,46,48,-1,-1,50,52,-1,-1,-1,-1,-1,-1,-1,-1,-1,-1,-1,-1,-1,-1,-1,-1,-1,-1,-1,-1,-1,-1,-1],"split_conditions":[-7.2523515E-4,1E0,1E0,-7.247917E-2,-5.2018337E-2,1.8753938E-3,3.9063448E-1,7.138848E1,1E0,6.2834286E1,8.4163603E8,3.4365692E-4,1E0,4.723085E1,5.185871E1,3.0484577E-3,4.11703E-3,-1.902296E-1,-3.742599E-3,-4.467145E0,-0E0,-0E0,1.1E-1,2.6199054E-3,2.218602E1,1E0,-0E0,-0E0,-2.8390074E-1,-1.0241794E-4,-0E0,-0E0,1.2582262E-5,-0E0,-5.327032E-6,1.8566705E-5,-0E0,9.1784335E-5,-0E0,-0E0,4.545169E-5,-0E0,1.3055133E-4,-0E0,1.1632155E-5,-0E0,-1.10558985E-5,-2.9680687E-5,-0E0,-0E0,-4.7040958E-5,-0E0,-1.8562646E-4],"split_indices":[63,35,35,74,74,63,74,17,36,17,70,30,37,16,17,38,29,67,63,9,0,0,48,38,12,33,0,0,66,63,0,0,0,0,0,0,0,0,0,0,0,0,0,0,0,0,0,0,0,0,0,0,0],"split_type":[0,0,0,0,0,0,0,0,0,0,0,0,0,0,0,0,0,0,0,0,0,0,0,0,0,0,0,0,0,0,0,0,0,0,0,0,0,0,0,0,0,0,0,0,0,0,0,0,0,0,0,0,0],"sum_hessian":[7.93E3,3.097E3,4.833E3,2.58E3,5.17E2,4.071E3,7.62E2,1.206E3,1.374E3,2.51E2,2.66E2,2.13E3,1.941E3,6.06E2,1.56E2,8.2E2,3.86E2,1.099E3,2.75E2,1.51E2,1E2,7.6E1,1.9E2,1.26E3,8.7E2,1.552E3,3.89E2,2.61E2,3.45E2,9.5E1,6.1E1,4.28E2,3.92E2,2.39E2,1.47E2,6.77E2,4.22E2,1.28E2,1.47E2,2.7E1,1.24E2,1E0,1.89E2,6.17E2,6.43E2,4.3E2,4.4E2,1.165E3,3.87E2,1.1E1,3.34E2,8E0,8.7E1],"tree_param":{"num_deleted":"0","num_feature":"76","num_nodes":"53","size_leaf_vector":"1"}},{"base_weights":[-0E0,4.6335076E-4,-2.9441767E-4,2.7047348E-4,1.2224907E-3,-1.4500105E-4,-9.561517E-4,-0E0,4.1066448E-4,1.2541671E-4,1.9621698E-3,-0E0,-3.2351274E-4,-1.2498653E-4,-1.5086946E-3,1.10870154E-4,-0E0,-0E0,5.0772075E-4,4.969116E-4,-0E0,-0E0,2.2093253E-3,6.866034E-5,-7.183485E-5,-4.3344384E-4,-0E0,-0E0,-4.4958582E-4,-1.6851941E-3,-0E0,-0E0,8.48595E-6,-3.7989375E-6,-0E0,3.0337693E-5,-0E0,-0E0,3.9661412E-5,1.1796434E-4,-0E0,6.6263524E-6,-0E0,-0E0,-7.5450603E-6,-2.8293167E-5,-0E0,4.754155E-6,-0E0,-0E0,-3.545085E-5,-9.6017866E-5,-0E0],"categories":[],"categories_nodes":[],"categories_segments":[],"categories_sizes":[],"default_left":[0,0,0,0,0,0,0,0,0,0,0,0,0,0,0,0,0,0,0,0,0,0,1,0,0,0,0,0,0,0,0,0,0,0,0,0,0,0,0,0,0,0,0,0,0,0,0,0,0,0,0,0,0],"id":5,"left_children":[1,3,5,7,9,11,13,15,17,19,21,23,25,27,29,31,33,-1,35,37,-1,-1,39,41,43,45,-1,47,49,51,-1,-1,-1,-1,-1,-1,-1,-1,-1,-1,-1,-1,-1,-1,-1,-1,-1,-1,-1,-1,-1,-1,-1],"loss_changes":[1.0853469E-3,3.0324777E-4,3.6754424E-4,7.1280374E-5,2.1360489E-4,1.232032E-4,1.8793717E-4,5.236473E-6,5.1268085E-5,4.2421172E-5,9.9011115E-5,1.013464E-5,9.113176E-5,3.8469323E-5,1.2784707E-4,5.421206E-6,2.6612474E-6,0E0,4.4713E-5,6.21854E-5,0E0,0E0,1.249495E-4,1.5836134E-5,8.397566E-6,8.324691E-5,0E0,1.1662626E-6,5.4062173E-5,1.02710095E-4,0E0,0E0,0E0,0E0,0E0,0E0,0E0,0E0,0E0,0E0,0E0,0E0,0E0,0E0,0E0,0E0,0E0,0E0,0E0,0E0,0E0,0E0,0E0],"parents":[2147483647,0,0,1,1,2,2,3,3,4,4,5,5,6,6,7,7,8,8,9,9,10,10,11,11,12,12,13,13,14,14,15,15,16,16,18,18,19,19,22,22,23,23,24,24,25,25,27,27,28,28,29,29],"right_children":[2,4,6,8,10,12,14,16,18,20,22,24,26,28,30,32,34,-1,36,38,-1,-1,40,42,44,46,-1,48,50,52,-1,-1,-1,-1,-1,-1,-1,-1,-1,-1,-1,-1,-1,-1,-1,-1,-1,-1,-1,-1,-1,-1,-1],"split_conditions":[-7.2523515E-4,1E0,1E0,-1.391314E-1,9.956086E-4,1.8014004E-3,1.8933975E-3,4.3807777E1,3.1E-1,7.1069133E-1,-3.7867458E0,3.08321E1,1E0,1.8412E0,1.15686E-2,1.7701623E-3,2.5426874E-2,-0E0,1E0,-7.1718483E0,-0E0,-0E0,1.137792E-3,4.056038E-3,-5.845174E0,3.3775085E1,-0E0,1.7323296E-3,1.5872728E0,1.4486548E-2,-0E0,-0E0,8.48595E-6,-3.7989375E-6,-0E0,3.0337693E-5,-0E0,-0E0,3.9661412E-5,1.1796434E-4,-0E0,6.6263524E-6,-0E0,-0E0,-7.5450603E-6,-2.8293167E-5,-0E0,4.754155E-6,-0E0,-0E0,-3.545085E-5,-9.6017866E-5,-0E0],"split_indices":[63,35,35,74,74,63,63,18,48,23,9,11,37,68,64,29,66,0,37,8,0,0,67,39,8,11,0,30,52,65,0,0,0,0,0,0,0,0,0,0,0,0,0,0,0,0,0,0,0,0,0,0,0],"split_type":[0,0,0,0,0,0,0,0,0,0,0,0,0,0,0,0,0,0,0,0,0,0,0,0,0,0,0,0,0,0,0,0,0,0,0,0,0,0,0,0,0,0,0,0,0,0,0,0,0,0,0,0,0],"sum_hessian":[7.93E3,3.097E3,4.833E3,2.58E3,5.17E2,4.071E3,7.62E2,1.041E3,1.539E3,2.65E2,2.52E2,2.08E3,1.991E3,3.79E2,3.83E2,4.21E2,6.2E2,3.35E2,1.204E3,1.84E2,8.1E1,3.4E1,2.18E2,1.453E3,6.27E2,1.592E3,3.99E2,1.64E2,2.15E2,3.51E2,3.2E1,5.6E1,3.65E2,4.56E2,1.64E2,9.63E2,2.41E2,1.6E1,1.68E2,2.13E2,5E0,1.288E3,1.65E2,1.2E2,5.07E2,1.192E3,4E2,1.24E2,4E1,2.4E1,1.91E2,2.97E2,5.4E1],"tree_param":{"num_deleted":"0","num_feature":"76","num_nodes":"53","size_leaf_vector":"1"}},{"base_weights":[-0E0,4.4324444E-4,-2.8124798E-4,2.586436E-4,1.1615911E-3,-1.3788229E-4,-9.1091194E-4,-0E0,4.1533046E-4,-0E0,1.5670523E-3,-0E0,-3.0661622E-4,-4.3464996E-4,-2.0999643E-3,1.04401646E-4,-0E0,5.365847E-4,-0E0,-0E0,1.7519403E-3,9.305235E-5,-2.7550048E-5,-4.1232587E-4,-0E0,-0E0,-7.534412E-4,-3.1590788E-3,-0E0,-0E0,1.175476E-5,-0E0,-5.1387474E-6,1.1139763E-5,6.377228E-5,9.5028816E-5,-0E0,-0E0,1.162944E-5,-0E0,-2.7814598E-5,-2.7009333E-5,-0E0,-0E0,-4.526419E-5,-0E0,-1.7751368E-4],"categories":[],"categories_nodes":[],"categories_segments":[],"categories_sizes":[],"default_left":[0,0,0,0,0,0,0,0,0,0,0,0,0,0,0,0,0,0,0,0,1,0,0,0,0,0,0,0,0,0,0,0,0,0,0,0,0,0,0,0,0,0,0,0,0,0,0],"id":6,"left_children":[1,3,5,7,9,11,13,15,17,-1,19,21,23,25,27,29,31,33,-1,-1,35,37,39,41,-1,-1,43,45,-1,-1,-1,-1,-1,-1,-1,-1,-1,-1,-1,-1,-1,-1,-1,-1,-1,-1,-1],"loss_changes":[9.921242E-4,2.678226E-4,3.3122947E-4,6.49492E-5,1.9934872E-4,1.1015997E-4,1.763273E-4,8.992257E-6,5.5804936E-5,0E0,1.7978082E-4,8.632885E-6,8.385921E-5,8.32562E-5,2.7128216E-4,1.2949834E-5,1.6055287E-6,8.5238804E-5,0E0,0E0,1.12173846E-4,2.0353034E-5,1.487321E-5,7.865176E-5,0E0,0E0,4.824724E-5,1.5375676E-4,0E0,0E0,0E0,0E0,0E0,0E0,0E0,0E0,0E0,0E0,0E0,0E0,0E0,0E0,0E0,0E0,0E0,0E0,0E0],"parents":[2147483647,0,0,1,1,2,2,3,3,4,4,5,5,6,6,7,7,8,8,10,10,11,11,12,12,13,13,14,14,15,15,16,16,17,17,20,20,21,21,22,22,23,23,26,26,27,27],"right_children":[2,4,6,8,10,12,14,16,18,-1,20,22,24,26,28,30,32,34,-1,-1,36,38,40,42,-1,-1,44,46,-1,-1,-1,-1,-1,-1,-1,-1,-1,-1,-1,-1,-1,-1,-1,-1,-1,-1,-1],"split_conditions":[-7.2523515E-4,1E0,1E0,-7.247917E-2,6.549869E8,1.8014004E-3,3.9492163E-1,7.138848E1,-1.9986832E-3,-0E0,-6.601403E0,-3.1760815E-4,1E0,4.723085E1,5.185871E1,3.0484577E-3,4.11703E-3,1E0,-0E0,-0E0,-4.845843E-2,2.58363E-3,1.9185353E9,1E0,-0E0,-0E0,-7.6537734E-1,-1.0241794E-4,-0E0,-0E0,1.175476E-5,-0E0,-5.1387474E-6,1.1139763E-5,6.377228E-5,9.5028816E-5,-0E0,-0E0,1.162944E-5,-0E0,-2.7814598E-5,-2.7009333E-5,-0E0,-0E0,-4.526419E-5,-0E0,-1.7751368E-4],"split_indices":[63,35,35,74,70,63,74,17,63,0,8,30,37,16,17,38,29,36,0,0,67,38,70,33,0,0,10,63,0,0,0,0,0,0,0,0,0,0,0,0,0,0,0,0,0,0,0],"split_type":[0,0,0,0,0,0,0,0,0,0,0,0,0,0,0,0,0,0,0,0,0,0,0,0,0,0,0,0,0,0,0,0,0,0,0,0,0,0,0,0,0,0,0,0,0,0,0],"sum_hessian":[7.93E3,3.097E3,4.833E3,2.58E3,5.17E2,4.071E3,7.62E2,1.206E3,1.374E3,1.54E2,3.63E2,2.08E3,1.991E3,6.09E2,1.53E2,8.2E2,3.86E2,1.015E3,3.59E2,1.5E1,3.48E2,8.87E2,1.193E3,1.592E3,3.99E2,2.63E2,3.46E2,9.2E1,6.1E1,4.28E2,3.92E2,2.39E2,1.47E2,8.12E2,2.03E2,3.26E2,2.2E1,3.73E2,5.14E2,1.147E3,4.6E1,1.195E3,3.97E2,4.9E1,2.97E2,8E0,8.4E1],"tree_param":{"num_deleted":"0","num_feature":"76","num_nodes":"47","size_leaf_vector":"1"}},{"base_weights":[-0E0,4.2492623E-4,-2.6968686E-4,1.9969947E-4,9.3301834E-4,-1.3111632E-4,-8.7394373E-4,3.072338E-4,-1.3818012E-5,1.1660889E-3,-0E0,-0E0,-2.9430515E-4,-0E0,-1.2769978E-3,-0E0,3.6784136E-4,-1.9715146E-4,-0E0,1.4117158E-3,-0E0,6.940818E-5,-5.658703E-5,-3.9413112E-4,-0E0,-0E0,-2.0823219E-4,-0E0,-1.5603079E-3,-0E0,2.1077893E-5,-1.8693028E-5,-0E0,-0E0,7.8730154E-5,-0E0,1.0553961E-5,-0E0,-1.5960699E-5,-2.5800327E-5,-0E0,-0E0,-2.5444131E-5,-0E0,-8.528731E-5],"categories":[],"categories_nodes":[],"categories_segments":[],"categories_sizes":[],"default_left":[0,0,0,0,0,0,0,1,0,0,0,0,0,0,0,0,0,0,0,0,0,0,0,0,0,0,0,0,0,0,0,0,0,0,0,0,0,0,0,0,0,0,0,0,0],"id":7,"left_children":[1,3,5,7,9,11,13,15,17,19,-1,21,23,25,27,-1,29,31,-1,33,-1,35,37,39,-1,-1,41,-1,43,-1,-1,-1,-1,-1,-1,-1,-1,-1,-1,-1,-1,-1,-1,-1,-1],"loss_changes":[9.119768E-4,2.4077686E-4,3.0401742E-4,8.198819E-5,1.5397317E-4,9.848129E-5,1.7246895E-4,3.9804116E-5,1.2971861E-5,1.9280933E-4,0E0,8.895962E-6,7.330954E-5,8.672129E-6,1.254591E-4,0E0,3.888525E-5,2.5097797E-5,0E0,9.41708E-5,0E0,2.2777145E-5,1.6966296E-5,6.966412E-5,0E0,0E0,3.6905098E-5,0E0,1.1714676E-4,0E0,0E0,0E0,0E0,0E0,0E0,0E0,0E0,0E0,0E0,0E0,0E0,0E0,0E0,0E0,0E0],"parents":[2147483647,0,0,1,1,2,2,3,3,4,4,5,5,6,6,7,7,8,8,9,9,11,11,12,12,13,13,14,14,16,16,17,17,19,19,21,21,22,22,23,23,26,26,28,28],"right_children":[2,4,6,8,10,12,14,16,18,20,-1,22,24,26,28,-1,30,32,-1,34,-1,36,38,40,-1,-1,42,-1,44,-1,-1,-1,-1,-1,-1,-1,-1,-1,-1,-1,-1,-1,-1,-1,-1],"split_conditions":[-7.2523515E-4,3.4170815E-1,1E0,8.6013126E-1,-1.8467251E-3,1.8753938E-3,1.3469822E-3,-1E-2,1.2887083E-1,1E0,-0E0,3.4365692E-4,1E0,3.3618978E-1,-2.7031046E-1,-0E0,3.964532E-1,1.7772926E2,-0E0,-1.2883394E-5,-0E0,2.6199054E-3,9.7792333E-1,1E0,-0E0,-0E0,-5.3035016E-3,-0E0,1.5518181E0,-0E0,2.1077893E-5,-1.8693028E-5,-0E0,-0E0,7.8730154E-5,-0E0,1.0553961E-5,-0E0,-1.5960699E-5,-2.5800327E-5,-0E0,-0E0,-2.5444131E-5,-0E0,-8.528731E-5],"split_indices":[63,74,35,23,63,63,63,51,74,37,0,30,37,23,74,0,44,20,0,31,0,38,10,33,0,0,64,0,52,0,0,0,0,0,0,0,0,0,0,0,0,0,0,0,0],"split_type":[0,0,0,0,0,0,0,0,0,0,0,0,0,0,0,0,0,0,0,0,0,0,0,0,0,0,0,0,0,0,0,0,0,0,0,0,0,0,0,0,0,0,0,0,0],"sum_hessian":[7.93E3,3.097E3,4.833E3,2.287E3,8.1E2,4.071E3,7.62E2,1.831E3,4.56E2,6.3E2,1.8E2,2.13E3,1.941E3,3.02E2,4.6E2,2.61E2,1.57E3,3.31E2,1.25E2,5.25E2,1.05E2,1.26E3,8.7E2,1.552E3,3.89E2,1.07E2,1.95E2,1.02E2,3.58E2,1.57E2,1.413E3,2.68E2,6.3E1,6.6E1,4.59E2,6.17E2,6.43E2,6.81E2,1.89E2,1.165E3,3.87E2,2.4E1,1.71E2,1.9E1,3.39E2],"tree_param":{"num_deleted":"0","num_feature":"76","num_nodes":"45","size_leaf_vector":"1"}},{"base_weights":[-0E0,4.907368E-4,-2.1283743E-4,2.235642E-4,1.1337021E-3,-0E0,-4.9114355E-4,3.6797838E-4,-0E0,1.3510999E-3,-0E0,2.6116363E-4,-8.211399E-5,-2.7885943E-4,-1.2815996E-3,-0E0,4.274573E-4,-0E0,-1.5780734E-4,1.6468897E-3,-0E0,4.524194E-4,-0E0,-0E0,-3.2503915E-4,-3.7482643E-4,-0E0,-4.7202673E-4,-2.6086802E-3,2.56326E-5,-0E0,-0E0,-1.3370234E-5,9.089143E-5,-0E0,2.6654217E-5,-0E0,-3.482206E-6,2.5821525E-6,-2.7862261E-5,-0E0,-2.4640365E-5,-0E0,-0E0,-3.1379644E-5,-0E0,-1.4581972E-4],"categories":[],"categories_nodes":[],"categories_segments":[],"categories_sizes":[],"default_left":[0,0,0,0,0,0,0,1,0,0,0,1,0,0,0,0,0,0,0,0,0,0,0,0,0,0,0,0,0,0,0,0,0,0,0,0,0,0,0,0,0,0,0,0,0,0,0],"id":8,"left_children":[1,3,5,7,9,11,13,15,17,19,-1,21,23,25,27,-1,29,-1,31,33,-1,35,-1,37,39,41,-1,43,45,-1,-1,-1,-1,-1,-1,-1,-1,-1,-1,-1,-1,-1,-1,-1,-1,-1,-1],"loss_changes":[8.326499E-4,2.7854845E-4,3.129121E-4,9.212731E-5,1.4285243E-4,6.3413245E-5,2.3381534E-4,3.7565624E-5,7.545657E-6,1.7487502E-4,0E0,3.726688E-5,4.293915E-5,6.742451E-5,1.0799931E-4,0E0,4.6108908E-5,0E0,1.1403237E-5,1.3175013E-4,0E0,2.5125039E-5,0E0,7.447261E-6,5.3126292E-5,6.4180276E-5,0E0,3.6232603E-5,1.547038E-4,0E0,0E0,0E0,0E0,0E0,0E0,0E0,0E0,0E0,0E0,0E0,0E0,0E0,0E0,0E0,0E0,0E0,0E0],"parents":[2147483647,0,0,1,1,2,2,3,3,4,4,5,5,6,6,7,7,8,8,9,9,11,11,12,12,13,13,14,14,16,16,18,18,19,19,21,21,23,23,24,24,25,25,27,27,28,28],"right_children":[2,4,6,8,10,12,14,16,18,20,-1,22,24,26,28,-1,30,-1,32,34,-1,36,-1,38,40,42,-1,44,46,-1,-1,-1,-1,-1,-1,-1,-1,-1,-1,-1,-1,-1,-1,-1,-1,-1,-1],"split_conditions":[-1.6300291E-3,1.2736351E9,1.8753938E-3,9.6261376E-1,1E0,-9.1541145E1,1E0,-3.0975688E-1,2.1861698E-3,1E0,-0E0,-1.7718296E-1,1.7323296E-3,1E0,3.9492163E-1,-0E0,1E0,-0E0,-4.0829214E-1,9.45131E0,-0E0,1.7526747E0,-0E0,1.9398801E-1,2E-2,3.3491447E1,-0E0,2E-4,1.0672153E3,2.56326E-5,-0E0,-0E0,-1.3370234E-5,9.089143E-5,-0E0,2.6654217E-5,-0E0,-3.482206E-6,2.5821525E-6,-2.7862261E-5,-0E0,-2.4640365E-5,-0E0,-0E0,-3.1379644E-5,-0E0,-1.4581972E-4],"split_indices":[63,70,63,10,37,20,35,67,40,34,0,67,27,37,74,0,37,0,74,24,0,44,0,21,51,11,0,68,6,0,0,0,0,0,0,0,0,0,0,0,0,0,0,0,0,0,0],"split_type":[0,0,0,0,0,0,0,0,0,0,0,0,0,0,0,0,0,0,0,0,0,0,0,0,0,0,0,0,0,0,0,0,0,0,0,0,0,0,0,0,0,0,0,0,0,0,0],"sum_hessian":[7.93E3,2.414E3,5.516E3,1.82E3,5.94E2,3.187E3,2.329E3,1.349E3,4.71E2,4.95E2,9.9E1,6.76E2,2.511E3,1.941E3,3.88E2,1.45E2,1.204E3,1.73E2,2.98E2,3.96E2,9.9E1,4.04E2,2.72E2,1.949E3,5.62E2,1.552E3,3.89E2,2.92E2,9.6E1,1.011E3,1.93E2,3.8E1,2.6E2,3.64E2,3.2E1,3.78E2,2.6E1,1.013E3,9.36E2,3.59E2,2.03E2,1.16E3,3.92E2,3.7E1,2.55E2,2E0,9.4E1],"tree_param":{"num_deleted":"0","num_feature":"76","num_nodes":"47","size_leaf_vector":"1"}},{"base_weights":[-0E0,3.8186845E-4,-2.510767E-4,2.1154813E-4,1.0339073E-3,-1.20653356E-4,-8.109565E-4,-0E0,3.5798477E-4,5.3026434E-4,3.1961796E-3,-0E0,-2.5600148E-4,-0E0,-1.1679007E-3,8.9587775E-5,-0E0,4.6132284E-4,-0E0,8.2249683E-4,-0E0,-0E0,3.8069906E-3,-1.5910662E-4,4.1881365E-5,-3.5093326E-4,-0E0,-0E0,-1.8369181E-4,-0E0,-1.6389331E-3,-0E0,7.881524E-6,-7.1016193E-6,-0E0,-0E0,3.4312056E-5,-0E0,5.2656975E-5,2.0864765E-4,-0E0,-2.0203892E-5,-0E0,-0E0,8.910086E-6,-2.3243123E-5,-0E0,-2.2518847E-5,-0E0,-8.517251E-6,-0E0,-0E0,-9.048807E-5],"categories":[],"categories_nodes":[],"categories_segments":[],"categories_sizes":[],"default_left":[0,0,0,0,0,0,0,0,0,0,0,0,0,0,0,0,0,0,0,0,0,0,0,0,0,0,0,0,0,0,1,0,0,0,0,0,0,0,0,0,0,0,0,0,0,0,0,0,0,0,0,0,0],"id":9,"left_children":[1,3,5,7,9,11,13,15,17,19,21,23,25,27,29,31,33,35,-1,37,-1,-1,39,41,43,45,-1,-1,47,49,51,-1,-1,-1,-1,-1,-1,-1,-1,-1,-1,-1,-1,-1,-1,-1,-1,-1,-1,-1,-1,-1,-1],"loss_changes":[7.622967E-4,2.2551819E-4,2.5524604E-4,6.0081504E-5,1.9823655E-4,7.744689E-5,1.3641495E-4,3.956803E-6,5.1839626E-5,9.306724E-5,1.3477344E-4,7.702453E-6,6.850474E-5,4.723976E-6,1.0979379E-4,6.6778694E-6,6.515942E-6,6.683965E-5,0E0,1.2273945E-4,0E0,0E0,1.1995196E-4,1.37052375E-5,1.4726336E-5,6.513011E-5,0E0,0E0,2.1036627E-5,5.194119E-6,1.1078647E-4,0E0,0E0,0E0,0E0,0E0,0E0,0E0,0E0,0E0,0E0,0E0,0E0,0E0,0E0,0E0,0E0,0E0,0E0,0E0,0E0,0E0,0E0],"parents":[2147483647,0,0,1,1,2,2,3,3,4,4,5,5,6,6,7,7,8,8,9,9,10,10,11,11,12,12,13,13,14,14,15,15,16,16,17,17,19,19,22,22,23,23,24,24,25,25,28,28,29,29,30,30],"right_children":[2,4,6,8,10,12,14,16,18,20,22,24,26,28,30,32,34,36,-1,38,-1,-1,40,42,44,46,-1,-1,48,50,52,-1,-1,-1,-1,-1,-1,-1,-1,-1,-1,-1,-1,-1,-1,-1,-1,-1,-1,-1,-1,-1,-1],"split_conditions":[-6.675296E-4,1E0,1E0,-7.247917E-2,8.1482774E-1,1.6530224E-3,1.3469822E-3,4.3807777E1,1.2881532E0,7.931706E1,1.6243761E1,-4.4118515E-5,1E0,3.8743854E-4,-8.377553E-2,1.7701623E-3,5.529198E-4,3.1324648E-3,-0E0,-6.9033594E0,-0E0,-0E0,-1.9860804E-2,2.37E0,9.762E1,1E0,-0E0,-0E0,2.008E1,7.3208464E-3,-3.3724463E-1,-0E0,7.881524E-6,-7.1016193E-6,-0E0,-0E0,3.4312056E-5,-0E0,5.2656975E-5,2.0864765E-4,-0E0,-2.0203892E-5,-0E0,-0E0,8.910086E-6,-2.3243123E-5,-0E0,-2.2518847E-5,-0E0,-8.517251E-6,-0E0,-0E0,-9.048807E-5],"split_indices":[63,35,35,74,74,63,63,18,44,17,11,31,37,27,74,29,64,29,0,8,0,0,67,46,62,33,0,0,59,29,67,0,0,0,0,0,0,0,0,0,0,0,0,0,0,0,0,0,0,0,0,0,0],"split_type":[0,0,0,0,0,0,0,0,0,0,0,0,0,0,0,0,0,0,0,0,0,0,0,0,0,0,0,0,0,0,0,0,0,0,0,0,0,0,0,0,0,0,0,0,0,0,0,0,0,0,0,0,0],"sum_hessian":[7.93E3,3.157E3,4.773E3,2.63E3,5.27E2,4.021E3,7.52E2,1.246E3,1.384E3,4.7E2,5.7E1,1.95E3,2.071E3,2.92E2,4.6E2,4.88E2,7.58E2,1.075E3,3.09E2,3.3E2,1.4E2,9E0,4.8E1,1.76E2,1.774E3,1.656E3,4.15E2,1.57E2,1.35E2,1.88E2,2.72E2,6.5E1,4.23E2,3.18E2,4.4E2,4.5E2,6.25E2,2E1,3.1E2,4.6E1,2E0,1.07E2,6.9E1,1.217E3,5.57E2,1.243E3,4.13E2,1.22E2,1.3E1,1.74E2,1.4E1,1.6E1,2.56E2],"tree_param":{"num_deleted":"0","num_feature":"76","num_nodes":"53","size_leaf_vector":"1"}},{"base_weights":[-0E0,4.5202087E-4,-1.9572045E-4,1.790577E-4,1.0127428E-3,-0E0,-4.4901724E-4,2.5739975E-4,-1.1395229E-4,1.2270974E-3,-0E0,2.4502628E-4,-7.9264406E-5,-2.5025662E-4,-1.1730455E-3,-0E0,3.5055334E-4,-0E0,-2.2064544E-4,-0E0,1.3606575E-3,4.271776E-4,-0E0,-0E0,-3.083253E-4,-3.390775E-4,-0E0,-1.4849618E-3,-0E0,2.0687034E-5,-0E0,-1.6991231E-5,-0E0,7.501596E-5,-0E0,2.5314846E-5,-0E0,-3.5224418E-6,2.2397767E-6,-2.6553656E-5,-0E0,-0E0,-2.1730482E-5,-0E0,-8.9017754E-5],"categories":[],"categories_nodes":[],"categories_segments":[],"categories_sizes":[],"default_left":[0,0,0,0,0,0,0,1,0,0,0,1,0,0,0,0,0,0,0,0,0,0,0,0,0,0,0,0,0,0,0,0,0,0,0,0,0,0,0,0,0,0,0,0,0],"id":10,"left_children":[1,3,5,7,9,11,13,15,17,19,-1,21,23,25,27,-1,29,-1,31,-1,33,35,-1,37,39,41,-1,43,-1,-1,-1,-1,-1,-1,-1,-1,-1,-1,-1,-1,-1,-1,-1,-1,-1],"loss_changes":[7.0574717E-4,2.501568E-4,2.5908274E-4,5.473152E-5,1.5502039E-4,5.6693432E-5,1.9208394E-4,4.2426866E-5,3.5179878E-6,6.395043E-5,0E0,3.374882E-5,3.8093924E-5,5.7139005E-5,1.03110564E-4,0E0,2.4818306E-5,0E0,5.1783854E-6,0E0,7.198623E-5,2.35423E-5,0E0,6.813496E-6,4.8760514E-5,6.143746E-5,0E0,1.1365709E-4,0E0,0E0,0E0,0E0,0E0,0E0,0E0,0E0,0E0,0E0,0E0,0E0,0E0,0E0,0E0,0E0,0E0],"parents":[2147483647,0,0,1,1,2,2,3,3,4,4,5,5,6,6,7,7,8,8,9,9,11,11,12,12,13,13,14,14,16,16,18,18,20,20,21,21,23,23,24,24,25,25,27,27],"right_children":[2,4,6,8,10,12,14,16,18,20,-1,22,24,26,28,-1,30,-1,32,-1,34,36,-1,38,40,42,-1,44,-1,-1,-1,-1,-1,-1,-1,-1,-1,-1,-1,-1,-1,-1,-1,-1,-1],"split_conditions":[-1.6300291E-3,3.4170815E-1,1.8753938E-3,4.739032E-3,1E0,-9.1541145E1,1E0,3.4783304E-2,4.1505054E1,-1.2883394E-5,-0E0,-1.7718296E-1,1.7323296E-3,1E0,6E-2,-0E0,1E0,-0E0,1.7772926E2,-0E0,3.7840443E1,1.7526747E0,-0E0,9.664E1,2E-2,1.9E-1,-0E0,-2.7783135E-1,-0E0,2.0687034E-5,-0E0,-1.6991231E-5,-0E0,7.501596E-5,-0E0,2.5314846E-5,-0E0,-3.5224418E-6,2.2397767E-6,-2.6553656E-5,-0E0,-0E0,-2.1730482E-5,-0E0,-8.9017754E-5],"split_indices":[63,74,63,30,37,20,35,75,16,31,0,67,27,37,51,0,37,0,20,0,12,44,0,62,51,72,0,74,0,0,0,0,0,0,0,0,0,0,0,0,0,0,0,0,0],"split_type":[0,0,0,0,0,0,0,0,0,0,0,0,0,0,0,0,0,0,0,0,0,0,0,0,0,0,0,0,0,0,0,0,0,0,0,0,0,0,0,0,0,0,0,0,0],"sum_hessian":[7.93E3,2.414E3,5.516E3,1.748E3,6.66E2,3.187E3,2.329E3,1.649E3,9.9E1,5.55E2,1.11E2,6.76E2,2.511E3,1.941E3,3.88E2,4.17E2,1.232E3,4E0,9.5E1,7E1,4.85E2,4.04E2,2.72E2,1.949E3,5.62E2,1.552E3,3.89E2,2.87E2,1.01E2,1.028E3,2.04E2,8.2E1,1.3E1,4.3E2,5.5E1,3.78E2,2.6E1,9.7E2,9.79E2,3.59E2,2.03E2,2.84E2,1.268E3,5.3E1,2.34E2],"tree_param":{"num_deleted":"0","num_feature":"76","num_nodes":"45","size_leaf_vector":"1"}},{"base_weights":[-0E0,3.5614677E-4,-2.262214E-4,1.8933487E-4,9.87235E-4,-1.04814644E-4,-7.395497E-4,-0E0,2.9927338E-4,-0E0,1.5952957E-3,-0E0,-2.2880147E-4,-3.0157156E-4,-1.7223071E-3,5.534915E-5,-0E0,3.8965314E-4,-0E0,3.9095152E-4,-0E0,-0E0,2.011311E-3,9.033252E-5,-2.5013182E-5,-3.1691784E-4,-0E0,-0E0,-6.2810647E-4,-2.692877E-3,-0E0,-0E0,6.135451E-6,-4.9721407E-6,-0E0,-0E0,2.6730882E-5,-0E0,3.4570214E-5,-0E0,1.0660469E-4,-0E0,9.879341E-6,-7.4344E-6,-0E0,-2.1651773E-5,-0E0,-0E0,-3.954316E-5,-0E0,-1.5164715E-4],"categories":[],"categories_nodes":[],"categories_segments":[],"categories_sizes":[],"default_left":[0,0,0,0,0,0,0,0,0,0,0,0,0,0,0,0,0,0,0,0,0,0,0,0,0,0,0,0,0,0,0,0,0,0,0,0,0,0,0,0,0,0,0,0,0,0,0,0,0,0,0],"id":11,"left_children":[1,3,5,7,9,11,13,15,17,19,21,23,25,27,29,31,33,35,-1,37,-1,-1,39,41,43,45,-1,-1,47,49,-1,-1,-1,-1,-1,-1,-1,-1,-1,-1,-1,-1,-1,-1,-1,-1,-1,-1,-1,-1,-1],"loss_changes":[6.410494E-4,2.0796532E-4,2.1668748E-4,4.5621397E-5,1.8092804E-4,6.389945E-5,1.2515209E-4,1.3050633E-6,4.6640722E-5,2.384352E-5,9.916123E-5,7.661735E-6,5.8146885E-5,7.340892E-5,2.3571227E-4,3.5434525E-6,4.5587703E-6,4.6010944E-5,0E0,3.782362E-5,0E0,0E0,9.3042094E-5,1.3404155E-5,1.3246566E-5,6.419855E-5,0E0,0E0,4.7768233E-5,1.21125835E-4,0E0,0E0,0E0,0E0,0E0,0E0,0E0,0E0,0E0,0E0,0E0,0E0,0E0,0E0,0E0,0E0,0E0,0E0,0E0,0E0,0E0],"parents":[2147483647,0,0,1,1,2,2,3,3,4,4,5,5,6,6,7,7,8,8,9,9,10,10,11,11,12,12,13,13,14,14,15,15,16,16,17,17,19,19,22,22,23,23,24,24,25,25,28,28,29,29],"right_children":[2,4,6,8,10,12,14,16,18,20,22,24,26,28,30,32,34,36,-1,38,-1,-1,40,42,44,46,-1,-1,48,50,-1,-1,-1,-1,-1,-1,-1,-1,-1,-1,-1,-1,-1,-1,-1,-1,-1,-1,-1,-1,-1],"split_conditions":[-7.2523515E-4,1E0,1E0,-1.391314E-1,-5.2018337E-2,1.6530224E-3,3.861489E-1,4.3807777E1,1.3983151E0,6.2834286E1,8.4163603E8,-3.1760815E-4,1E0,4.833115E1,5.185871E1,4.3949146E0,2.5426874E-2,2.760261E-3,-0E0,-4.467145E0,-0E0,-0E0,1.1E-1,2.5443065E-3,2.171E0,3.3340595E1,-0E0,-0E0,-7.6537734E-1,-1.0241794E-4,-0E0,-0E0,6.135451E-6,-4.9721407E-6,-0E0,-0E0,2.6730882E-5,-0E0,3.4570214E-5,-0E0,1.0660469E-4,-0E0,9.879341E-6,-7.4344E-6,-0E0,-2.1651773E-5,-0E0,-0E0,-3.954316E-5,-0E0,-1.5164715E-4],"split_indices":[63,35,35,74,74,63,74,18,10,17,70,30,37,16,17,24,66,29,0,9,0,0,48,38,52,11,0,0,10,63,0,0,0,0,0,0,0,0,0,0,0,0,0,0,0,0,0,0,0,0,0],"split_type":[0,0,0,0,0,0,0,0,0,0,0,0,0,0,0,0,0,0,0,0,0,0,0,0,0,0,0,0,0,0,0,0,0,0,0,0,0,0,0,0,0,0,0,0,0,0,0,0,0,0,0],"sum_hessian":[7.93E3,3.097E3,4.833E3,2.58E3,5.17E2,4.071E3,7.62E2,1.041E3,1.539E3,2.51E2,2.66E2,2E3,2.071E3,6.02E2,1.6E2,4.21E2,6.2E2,1.213E3,3.26E2,1.51E2,1E2,7.6E1,1.9E2,8.45E2,1.155E3,1.656E3,4.15E2,2.81E2,3.21E2,9.5E1,6.5E1,1.04E2,3.17E2,4.56E2,1.64E2,4.1E2,8.03E2,2.7E1,1.24E2,1E0,1.89E2,3.29E2,5.16E2,6.27E2,5.28E2,1.227E3,4.29E2,4.4E1,2.77E2,8E0,8.7E1],"tree_param":{"num_deleted":"0","num_feature":"76","num_nodes":"51","size_leaf_vector":"1"}},{"base_weights":[-0E0,4.1552895E-4,-1.7934374E-4,1.6751034E-4,1.0007649E-3,-0E0,-4.114368E-4,3.015948E-4,-5.573497E-6,1.196072E-3,-0E0,2.3026763E-4,-7.419538E-5,-2.232352E-4,-1.0836585E-3,-0E0,3.583593E-4,-0E0,-1.7238819E-4,1.4696019E-3,-0E0,4.032773E-4,-0E0,-0E0,-2.893957E-4,-0E0,-3.6513712E-4,-1.2432327E-3,-0E0,2.1684013E-5,-0E0,-1.4819428E-5,-0E0,8.147589E-5,-0E0,2.404431E-5,-0E0,-3.363928E-6,2.4389685E-6,-2.5135887E-5,-0E0,1.0456806E-6,-3.1623615E-6,-2.3494833E-5,-0E0,-0E0,-8.493929E-5],"categories":[],"categories_nodes":[],"categories_segments":[],"categories_sizes":[],"default_left":[0,0,0,0,0,0,0,1,0,0,0,1,0,0,0,0,0,0,0,0,0,0,0,0,0,0,0,0,0,0,0,0,0,0,0,0,0,0,0,0,0,0,0,0,0,0,0],"id":12,"left_children":[1,3,5,7,9,11,13,15,17,19,-1,21,23,25,27,-1,29,-1,31,33,-1,35,-1,37,39,41,43,45,-1,-1,-1,-1,-1,-1,-1,-1,-1,-1,-1,-1,-1,-1,-1,-1,-1,-1,-1],"loss_changes":[5.9525337E-4,2.3345073E-4,2.1752165E-4,7.196487E-5,1.15377305E-4,4.995925E-5,1.6338288E-4,3.2102398E-5,9.8514865E-6,1.5075767E-4,0E0,3.0407948E-5,3.3635726E-5,5.354719E-5,9.646546E-5,0E0,3.582635E-5,0E0,1.6663274E-5,1.1376443E-4,0E0,2.2052598E-5,0E0,6.8469208E-6,4.4505774E-5,2.032681E-6,4.0691215E-5,1.2309442E-4,0E0,0E0,0E0,0E0,0E0,0E0,0E0,0E0,0E0,0E0,0E0,0E0,0E0,0E0,0E0,0E0,0E0,0E0,0E0],"parents":[2147483647,0,0,1,1,2,2,3,3,4,4,5,5,6,6,7,7,8,8,9,9,11,11,12,12,13,13,14,14,16,16,18,18,19,19,21,21,23,23,24,24,25,25,26,26,27,27],"right_children":[2,4,6,8,10,12,14,16,18,20,-1,22,24,26,28,-1,30,-1,32,34,-1,36,-1,38,40,42,44,46,-1,-1,-1,-1,-1,-1,-1,-1,-1,-1,-1,-1,-1,-1,-1,-1,-1,-1,-1],"split_conditions":[-1.6300291E-3,1.2736351E9,1.8753938E-3,9.6261376E-1,1E0,-9.1541145E1,1E0,-3.0975688E-1,-8.4165873E-7,1E0,-0E0,-1.7718296E-1,1.7323296E-3,4.31215E1,1.15686E-2,-0E0,1E0,-0E0,5.8933395E-1,9.45131E0,-0E0,1.7526747E0,-0E0,1.9398801E-1,2E-2,4.1236725E-2,3.3340595E1,7.517153E8,-0E0,2.1684013E-5,-0E0,-1.4819428E-5,-0E0,8.147589E-5,-0E0,2.404431E-5,-0E0,-3.363928E-6,2.4389685E-6,-2.5135887E-5,-0E0,1.0456806E-6,-3.1623615E-6,-2.3494833E-5,-0E0,-0E0,-8.493929E-5],"split_indices":[63,70,63,10,37,20,35,67,31,34,0,67,27,16,64,0,37,0,43,24,0,44,0,21,51,74,11,70,0,0,0,0,0,0,0,0,0,0,0,0,0,0,0,0,0,0,0],"split_type":[0,0,0,0,0,0,0,0,0,0,0,0,0,0,0,0,0,0,0,0,0,0,0,0,0,0,0,0,0,0,0,0,0,0,0,0,0,0,0,0,0,0,0,0,0,0,0],"sum_hessian":[7.93E3,2.414E3,5.516E3,1.82E3,5.94E2,3.187E3,2.329E3,1.349E3,4.71E2,4.95E2,9.9E1,6.76E2,2.511E3,1.941E3,3.88E2,1.45E2,1.204E3,1.44E2,3.27E2,3.96E2,9.9E1,4.04E2,2.72E2,1.949E3,5.62E2,8.17E2,1.124E3,3.56E2,3.2E1,1.011E3,1.93E2,2.97E2,3E1,3.64E2,3.2E1,3.78E2,2.6E1,1.013E3,9.36E2,3.59E2,2.03E2,3.53E2,4.64E2,8.61E2,2.63E2,1.25E2,2.31E2],"tree_param":{"num_deleted":"0","num_feature":"76","num_nodes":"47","size_leaf_vector":"1"}},{"base_weights":[-0E0,3.960257E-4,-1.7173497E-4,1.4073633E-4,9.1099157E-4,-0E0,-3.9389255E-4,2.4463516E-4,-0E0,1.1068868E-3,-0E0,2.1692144E-4,-7.016176E-5,-2.1227566E-4,-1.0337323E-3,-0E0,3.0551033E-4,-1.5389668E-4,-0E0,-0E0,1.2330052E-3,3.8105543E-4,-0E0,5.7473433E-5,-1.4493652E-4,-0E0,-3.4721944E-4,-1.3282868E-3,-0E0,-0E0,1.8832463E-5,-1.6225413E-5,-0E0,7.085172E-5,-0E0,2.2857788E-5,-0E0,9.667689E-6,-0E0,-0E0,-1.0820536E-5,9.941275E-7,-3.0059286E-6,-2.0412115E-5,-0E0,-0E0,-7.4716074E-5],"categories":[],"categories_nodes":[],"categories_segments":[],"categories_sizes":[],"default_left":[0,0,0,0,0,0,0,0,0,0,0,1,0,0,0,0,1,0,0,0,0,0,0,0,0,0,0,0,0,0,0,0,0,0,0,0,0,0,0,0,0,0,0,0,0,0,0],"id":13,"left_children":[1,3,5,7,9,11,13,15,17,19,-1,21,23,25,27,-1,29,31,-1,-1,33,35,-1,37,39,41,43,45,-1,-1,-1,-1,-1,-1,-1,-1,-1,-1,-1,-1,-1,-1,-1,-1,-1,-1,-1],"loss_changes":[5.422174E-4,2.1220071E-4,1.9929296E-4,4.7028945E-5,1.2924435E-4,4.4429842E-5,1.455262E-4,3.2960525E-5,6.631572E-6,5.8836828E-5,0E0,2.7343729E-5,3.2800388E-5,4.8425158E-5,9.52282E-5,0E0,3.609148E-5,1.7694018E-5,0E0,0E0,7.431046E-5,2.065557E-5,0E0,1.1859199E-5,3.101069E-5,1.8366028E-6,3.80478E-5,9.6652075E-5,0E0,0E0,0E0,0E0,0E0,0E0,0E0,0E0,0E0,0E0,0E0,0E0,0E0,0E0,0E0,0E0,0E0,0E0,0E0],"parents":[2147483647,0,0,1,1,2,2,3,3,4,4,5,5,6,6,7,7,8,8,9,9,11,11,12,12,13,13,14,14,16,16,17,17,20,20,21,21,23,23,24,24,25,25,26,26,27,27],"right_children":[2,4,6,8,10,12,14,16,18,20,-1,22,24,26,28,-1,30,32,-1,-1,34,36,-1,38,40,42,44,46,-1,-1,-1,-1,-1,-1,-1,-1,-1,-1,-1,-1,-1,-1,-1,-1,-1,-1,-1],"split_conditions":[-1.6300291E-3,3.4170815E-1,1.8753938E-3,8.6013126E-1,1E0,-9.1541145E1,1E0,3.964532E-1,1.2887083E-1,-1.2883394E-5,-0E0,-1.7718296E-1,-3.5453672E-3,4.31215E1,6E-2,-0E0,-1E-2,1.7772926E2,-0E0,-0E0,1.0486019E0,1.7526747E0,-0E0,8.853159E-1,2.0574129E-3,4.1236725E-2,8.038191E0,7.665638E-1,-0E0,-0E0,1.8832463E-5,-1.6225413E-5,-0E0,7.085172E-5,-0E0,2.2857788E-5,-0E0,9.667689E-6,-0E0,-0E0,-1.0820536E-5,9.941275E-7,-3.0059286E-6,-2.0412115E-5,-0E0,-0E0,-7.4716074E-5],"split_indices":[63,74,63,23,37,20,35,44,74,31,0,67,64,16,51,0,51,20,0,0,23,44,0,23,29,74,8,22,0,0,0,0,0,0,0,0,0,0,0,0,0,0,0,0,0,0,0],"split_type":[0,0,0,0,0,0,0,0,0,0,0,0,0,0,0,0,0,0,0,0,0,0,0,0,0,0,0,0,0,0,0,0,0,0,0,0,0,0,0,0,0,0,0,0,0,0,0],"sum_hessian":[7.93E3,2.414E3,5.516E3,1.748E3,6.66E2,3.187E3,2.329E3,1.361E3,3.87E2,5.55E2,1.11E2,6.76E2,2.511E3,1.941E3,3.88E2,1.37E2,1.224E3,2.75E2,1.12E2,7E1,4.85E2,4.04E2,2.72E2,4.34E2,2.077E3,8.17E2,1.124E3,2.87E2,1.01E2,1.66E2,1.058E3,2.26E2,4.9E1,4.03E2,8.2E1,3.78E2,2.6E1,3.51E2,8.3E1,4.86E2,1.591E3,3.53E2,4.64E2,1.04E3,8.4E1,1.8E1,2.69E2],"tree_param":{"num_deleted":"0","num_feature":"76","num_nodes":"47","size_leaf_vector":"1"}},{"base_weights":[-0E0,3.0812644E-4,-2.0128014E-4,1.5339334E-4,8.8365487E-4,-8.9584595E-5,-6.618877E-4,-0E0,2.7012406E-4,-0E0,1.4552763E-3,-0E0,-3.6076427E-4,-0E0,-1.0457197E-3,5.0139737E-5,-0E0,5.8153742E-5,7.4657926E-4,3.199325E-4,-0E0,-0E0,1.5831775E-3,6.1065824E-5,-7.1124625E-5,-0E0,-5.208431E-4,-0E0,-2.6166014E-4,-1.333878E-3,-0E0,-0E0,5.803852E-6,-7.7321265E-6,-0E0,8.986148E-6,-0E0,7.239974E-5,-0E0,-0E0,2.9976285E-5,8.781075E-5,-0E0,-0E0,1.58155E-5,-0E0,-2.0677007E-5,4.8713955E-6,-0E0,-0E0,-5.194641E-5,-2.586976E-5,-0E0,-0E0,-8.395526E-5],"categories":[],"categories_nodes":[],"categories_segments":[],"categories_sizes":[],"default_left":[0,0,0,0,0,0,0,0,0,0,0,0,0,0,0,0,0,0,0,0,0,0,1,0,0,0,0,0,0,0,0,0,0,0,0,0,0,0,0,0,0,0,0,0,0,0,0,0,0,0,0,0,0,0,0],"id":14,"left_children":[1,3,5,7,9,11,13,15,17,19,21,23,25,27,29,31,33,35,37,39,-1,-1,41,43,45,47,49,-1,51,53,-1,-1,-1,-1,-1,-1,-1,-1,-1,-1,-1,-1,-1,-1,-1,-1,-1,-1,-1,-1,-1,-1,-1,-1,-1],"loss_changes":[4.9378077E-4,1.7720397E-4,1.7037393E-4,3.9350904E-5,1.627573E-4,6.63441E-5,1.1561549E-4,1.2393986E-6,5.9590777E-5,1.6479446E-5,8.854864E-5,1.5114494E-5,7.279303E-5,1.2734679E-5,1.6480169E-4,4.527422E-6,7.724323E-6,2.3113256E-5,1.2167827E-4,3.1684314E-5,0E0,0E0,8.5851E-5,3.5903955E-5,3.6886686E-5,1.1865247E-6,9.731615E-5,0E0,2.8758477E-5,1.3226474E-4,0E0,0E0,0E0,0E0,0E0,0E0,0E0,0E0,0E0,0E0,0E0,0E0,0E0,0E0,0E0,0E0,0E0,0E0,0E0,0E0,0E0,0E0,0E0,0E0,0E0],"parents":[2147483647,0,0,1,1,2,2,3,3,4,4,5,5,6,6,7,7,8,8,9,9,10,10,11,11,12,12,13,13,14,14,15,15,16,16,17,17,18,18,19,19,22,22,23,23,24,24,25,25,26,26,28,28,29,29],"right_children":[2,4,6,8,10,12,14,16,18,20,22,24,26,28,30,32,34,36,38,40,-1,-1,42,44,46,48,50,-1,52,54,-1,-1,-1,-1,-1,-1,-1,-1,-1,-1,-1,-1,-1,-1,-1,-1,-1,-1,-1,-1,-1,-1,-1,-1,-1],"split_conditions":[-6.675296E-4,1E0,1E0,-7.247917E-2,-5.2018337E-2,1E0,-4.8224144E-2,4.3807777E1,1E0,6.2834286E1,-2.294915E-2,4.229949E1,1.6585715E0,4.833115E1,8.040962E1,1.7701623E-3,5.529198E-4,2.3812262E1,-3.742599E-3,-4.467145E0,-0E0,-0E0,-7.123998E-2,3.0469603E-3,4.217485E-3,1.7008717E2,9.7384966E8,-0E0,4.2998306E-3,7.3794125E8,-0E0,-0E0,5.803852E-6,-7.7321265E-6,-0E0,8.986148E-6,-0E0,7.239974E-5,-0E0,-0E0,2.9976285E-5,8.781075E-5,-0E0,-0E0,1.58155E-5,-0E0,-2.0677007E-5,4.8713955E-6,-0E0,-0E0,-5.194641E-5,-2.586976E-5,-0E0,-0E0,-8.395526E-5],"split_indices":[63,35,35,74,74,36,74,18,36,17,45,16,52,16,18,29,64,13,63,9,0,0,67,42,38,20,70,0,41,70,0,0,0,0,0,0,0,0,0,0,0,0,0,0,0,0,0,0,0,0,0,0,0,0,0],"split_type":[0,0,0,0,0,0,0,0,0,0,0,0,0,0,0,0,0,0,0,0,0,0,0,0,0,0,0,0,0,0,0,0,0,0,0,0,0,0,0,0,0,0,0,0,0,0,0,0,0,0,0,0,0,0,0],"sum_hessian":[7.93E3,3.157E3,4.773E3,2.63E3,5.27E2,4.021E3,7.52E2,1.246E3,1.384E3,2.59E2,2.68E2,3.268E3,7.53E2,3.48E2,4.04E2,4.88E2,7.58E2,1.107E3,2.77E2,1.56E2,1.03E2,7E0,2.61E2,1.099E3,2.169E3,1.26E2,6.27E2,1.67E2,1.81E2,3.39E2,6.5E1,6.5E1,4.23E2,3.18E2,4.4E2,8.27E2,2.8E2,1.28E2,1.49E2,2.7E1,1.29E2,2.39E2,2.2E1,7.04E2,3.95E2,1.894E3,2.75E2,1.2E2,6E0,3.83E2,2.44E2,1.5E2,3.1E1,8E1,2.59E2],"tree_param":{"num_deleted":"0","num_feature":"76","num_nodes":"55","size_leaf_vector":"1"}},{"base_weights":[-0E0,1.6961517E-4,-3.4920636E-4,6.393076E-4,6.7840534E-5,-1.8798398E-4,-9.138222E-4,8.7178516E-4,-0E0,3.2290496E-4,-0E0,-2.7170585E-4,-0E0,-1.0674123E-3,-0E0,1.0373429E-3,-0E0,-0E0,6.20321E-4,1.2058919E-4,-5.695406E-5,-0E0,-3.6353566E-4,-0E0,-1.4550522E-3,6.105695E-5,-0E0,4.5207653E-6,-0E0,3.6939327E-5,-0E0,-0E0,1.1743686E-5,-0E0,-1.1761268E-5,-2.3407698E-5,-0E0,-8.1224374E-5,-0E0],"categories":[],"categories_nodes":[],"categories_segments":[],"categories_sizes":[],"default_left":[0,0,0,0,0,0,0,0,0,0,0,0,0,0,0,0,0,0,0,0,0,0,0,0,0,0,0,0,0,0,0,0,0,0,0,0,0,0,0],"id":15,"left_children":[1,3,5,7,9,11,13,15,-1,17,19,21,-1,23,-1,25,-1,27,29,31,33,-1,35,-1,37,-1,-1,-1,-1,-1,-1,-1,-1,-1,-1,-1,-1,-1,-1],"loss_changes":[4.6882176E-4,1.8529122E-4,1.2381453E-4,1.13296934E-4,6.908515E-5,5.1039242E-5,8.990869E-5,7.514859E-5,0E0,4.7951064E-5,2.7648519E-5,5.8366684E-5,0E0,9.390211E-5,0E0,7.472647E-5,0E0,2.5260526E-6,4.470232E-5,3.38874E-5,4.049887E-5,0E0,6.81596E-5,0E0,9.767449E-5,0E0,0E0,0E0,0E0,0E0,0E0,0E0,0E0,0E0,0E0,0E0,0E0,0E0,0E0],"parents":[2147483647,0,0,1,1,2,2,3,3,4,4,5,5,6,6,7,7,9,9,10,10,11,11,13,13,15,15,17,17,18,18,19,19,20,20,22,22,24,24],"right_children":[2,4,6,8,10,12,14,16,-1,18,20,22,-1,24,-1,26,-1,28,30,32,34,-1,36,-1,38,-1,-1,-1,-1,-1,-1,-1,-1,-1,-1,-1,-1,-1,-1],"split_conditions":[1.5492825E-3,-5.0094277E-3,1E0,3.7482982E-3,-9.041249E1,1E0,1.15686E-2,1E0,-0E0,3.830174E-3,-1.6647972E-3,5.874983E8,-0E0,7.517153E8,-0E0,1E0,-0E0,6.7503E0,5.075373E-3,-2.6394868E-1,8.0669695E-4,-0E0,1.894E1,-0E0,2.8084744E-2,6.105695E-5,-0E0,4.5207653E-6,-0E0,3.6939327E-5,-0E0,-0E0,1.1743686E-5,-0E0,-1.1761268E-5,-2.3407698E-5,-0E0,-8.1224374E-5,-0E0],"split_indices":[63,63,35,40,20,37,64,32,0,29,63,70,0,70,0,37,0,68,39,74,30,0,59,0,65,0,0,0,0,0,0,0,0,0,0,0,0,0,0],"split_type":[0,0,0,0,0,0,0,0,0,0,0,0,0,0,0,0,0,0,0,0,0,0,0,0,0,0,0,0,0,0,0,0,0,0,0,0,0,0,0],"sum_hessian":[7.93E3,5.355E3,2.575E3,7.74E2,4.581E3,2.146E3,4.29E2,5.63E2,2.11E2,8.6E2,3.721E3,1.716E3,4.3E2,3.92E2,3.7E1,4.66E2,9.7E1,5.06E2,3.54E2,1.371E3,2.35E3,3.18E2,1.398E3,1.39E2,2.53E2,3.85E2,8.1E1,3.04E2,2.02E2,3.3E2,2.4E1,3.99E2,9.72E2,1.485E3,8.65E2,1.152E3,2.46E2,2.39E2,1.4E1],"tree_param":{"num_deleted":"0","num_feature":"76","num_nodes":"39","size_leaf_vector":"1"}},{"base_weights":[-0E0,1.624673E-4,-3.3123026E-4,6.091318E-4,6.461209E-5,-1.7544764E-4,-8.6909265E-4,8.3039975E-4,-0E0,3.072237E-4,-0E0,-2.5603725E-4,-0E0,-1.018514E-3,-0E0,9.874344E-4,-0E0,4.073399E-4,-0E0,3.282534E-5,-2.8966166E-4,-3.60407E-4,-0E0,-0E0,-1.2907657E-3,-0E0,5.905974E-5,-0E0,2.6514292E-5,-1.4475084E-7,8.939404E-6,-0E0,-2.7068409E-5,-2.1991544E-5,-0E0,-7.237948E-5,-0E0],"categories":[],"categories_nodes":[],"categories_segments":[],"categories_sizes":[],"default_left":[0,0,0,0,0,0,0,0,0,0,0,0,0,0,0,0,0,0,0,0,0,0,0,0,0,0,0,0,0,0,0,0,0,0,0,0,0],"id":16,"left_children":[1,3,5,7,9,11,13,15,-1,17,19,21,-1,23,-1,25,-1,27,-1,29,31,33,-1,-1,35,-1,-1,-1,-1,-1,-1,-1,-1,-1,-1,-1,-1],"loss_changes":[4.245414E-4,1.6670613E-4,1.109608E-4,1.0263079E-4,6.249896E-5,4.660846E-5,8.4026426E-5,6.7565445E-5,0E0,4.3297863E-5,2.7625681E-5,5.513164E-5,0E0,8.798661E-5,0E0,7.513203E-5,0E0,3.618725E-5,0E0,3.555879E-5,2.7376303E-5,6.535019E-5,0E0,0E0,8.901709E-5,0E0,0E0,0E0,0E0,0E0,0E0,0E0,0E0,0E0,0E0,0E0,0E0],"parents":[2147483647,0,0,1,1,2,2,3,3,4,4,5,5,6,6,7,7,9,9,10,10,11,11,13,13,15,15,17,17,19,19,20,20,21,21,24,24],"right_children":[2,4,6,8,10,12,14,16,-1,18,20,22,-1,24,-1,26,-1,28,-1,30,32,34,-1,-1,36,-1,-1,-1,-1,-1,-1,-1,-1,-1,-1,-1,-1],"split_conditions":[1.5492825E-3,-5.0094277E-3,1E0,3.7482982E-3,-9.041249E1,1E0,1.15686E-2,1E0,-0E0,1.2E0,1.0056492E0,1E0,-0E0,-2.3901203E-1,-0E0,6.345857E8,-0E0,1.202E1,-0E0,8.455954E-3,1.0380785E0,7.0538597E0,-0E0,-0E0,2.2459306E-2,-0E0,5.905974E-5,-0E0,2.6514292E-5,-1.4475084E-7,8.939404E-6,-0E0,-2.7068409E-5,-2.1991544E-5,-0E0,-7.237948E-5,-0E0],"split_indices":[63,63,35,40,20,37,64,32,0,53,23,33,0,74,0,70,0,59,0,74,10,9,0,0,65,0,0,0,0,0,0,0,0,0,0,0,0],"split_type":[0,0,0,0,0,0,0,0,0,0,0,0,0,0,0,0,0,0,0,0,0,0,0,0,0,0,0,0,0,0,0,0,0,0,0,0,0],"sum_hessian":[7.93E3,5.355E3,2.575E3,7.74E2,4.581E3,2.146E3,4.29E2,5.63E2,2.11E2,8.6E2,3.721E3,1.716E3,4.3E2,3.92E2,3.7E1,4.66E2,9.7E1,7.48E2,1.12E2,3.441E3,2.8E2,1.288E3,4.28E2,9.7E1,2.95E2,8.8E1,3.78E2,1.8E2,5.68E2,2.218E3,1.223E3,1.1E2,1.7E2,1.201E3,8.7E1,2.76E2,1.9E1],"tree_param":{"num_deleted":"0","num_feature":"76","num_nodes":"37","size_leaf_vector":"1"}},{"base_weights":[-0E0,3.3845857E-4,-1.4219659E-4,1.0538225E-4,8.748467E-4,-0E0,-3.3102612E-4,2.3636955E-4,-5.531126E-5,1.112887E-3,-0E0,3.0029906E-4,-3.6375564E-5,-4.2187987E-4,-0E0,-0E0,2.909269E-4,-0E0,-2.168751E-4,1.420353E-3,-0E0,4.6078692E-4,-0E0,2.1381671E-5,-2.00564E-4,-5.420249E-4,-0E0,-0E0,1.7386908E-5,-0E0,-2.1521413E-5,8.199424E-5,-0E0,-0E0,3.756059E-5,1.0176605E-5,-0E0,-0E0,-1.4378276E-5,-9.260953E-6,-5.002954E-5],"categories":[],"categories_nodes":[],"categories_segments":[],"categories_sizes":[],"default_left":[0,0,0,0,0,0,0,1,0,0,0,0,0,0,0,0,0,0,0,0,0,0,0,0,0,0,0,0,0,0,0,0,0,0,0,0,0,0,0,0,0],"id":17,"left_children":[1,3,5,7,9,11,13,15,17,19,-1,21,23,25,-1,-1,27,-1,29,31,-1,33,-1,35,37,39,-1,-1,-1,-1,-1,-1,-1,-1,-1,-1,-1,-1,-1,-1,-1],"loss_changes":[3.859105E-4,2.0018744E-4,1.4351524E-4,5.6080105E-5,1.022378E-4,3.0837953E-5,9.042051E-5,2.6669164E-5,1.4036563E-5,1.3183989E-4,0E0,2.4631196E-5,4.5706103E-5,1.1155009E-4,0E0,0E0,2.904149E-5,0E0,1.7688608E-5,8.925091E-5,0E0,3.2488675E-5,0E0,1.7565075E-5,3.4313347E-5,1.3541072E-4,0E0,0E0,0E0,0E0,0E0,0E0,0E0,0E0,0E0,0E0,0E0,0E0,0E0,0E0,0E0],"parents":[2147483647,0,0,1,1,2,2,3,3,4,4,5,5,6,6,7,7,8,8,9,9,11,11,12,12,13,13,16,16,18,18,19,19,21,21,23,23,24,24,25,25],"right_children":[2,4,6,8,10,12,14,16,18,20,-1,22,24,26,-1,-1,28,-1,30,32,-1,34,-1,36,38,40,-1,-1,-1,-1,-1,-1,-1,-1,-1,-1,-1,-1,-1,-1,-1],"split_conditions":[-1.6647972E-3,1.2736351E9,1.8753938E-3,9.6261376E-1,1.8458604E0,-6.6166064E-3,1E0,-3.0975688E-1,-8.4165873E-7,1.3006916E0,-0E0,2.8073502E1,3.782765E-4,1E0,-0E0,-0E0,4.0670344E-1,-0E0,5.4072104E0,8.4318876E-1,-0E0,2.5452245E-3,-0E0,-9.2745224E1,2.1092517E-3,1.9796935E-1,-0E0,-0E0,1.7386908E-5,-0E0,-2.1521413E-5,8.199424E-5,-0E0,-0E0,3.756059E-5,1.0176605E-5,-0E0,-0E0,-1.4378276E-5,-9.260953E-6,-5.002954E-5],"split_indices":[63,70,63,10,10,64,37,67,31,44,0,12,30,33,0,0,44,0,24,43,0,42,0,20,29,74,0,0,0,0,0,0,0,0,0,0,0,0,0,0,0],"split_type":[0,0,0,0,0,0,0,0,0,0,0,0,0,0,0,0,0,0,0,0,0,0,0,0,0,0,0,0,0,0,0,0,0,0,0,0,0,0,0,0,0],"sum_hessian":[7.93E3,2.384E3,5.546E3,1.796E3,5.88E2,3.217E3,2.329E3,1.331E3,4.65E2,4.44E2,1.44E2,2.94E2,2.923E3,1.94E3,3.89E2,1.39E2,1.192E3,1.41E2,3.24E2,3.36E2,1.08E2,2.38E2,5.6E1,1.715E3,1.208E3,1.553E3,3.87E2,1.19E2,1.073E3,1.5E2,1.74E2,2.84E2,5.2E1,9.4E1,1.44E2,4.38E2,1.277E3,2.08E2,1E3,1E3,5.53E2],"tree_param":{"num_deleted":"0","num_feature":"76","num_nodes":"41","size_leaf_vector":"1"}},{"base_weights":[-0E0,2.6120027E-4,-1.6815179E-4,1.1582409E-4,7.9082476E-4,-6.845022E-5,-5.6518975E-4,-0E0,1.730763E-4,3.2975854E-4,2.6465075E-3,-0E0,-3.1403123E-4,-1.2751279E-4,-1.3289914E-3,-0E0,-1.2220042E-4,7.556477E-6,3.851833E-4,6.0216704E-4,-0E0,-0E0,3.2354384E-3,6.3441155E-5,-4.9486644E-5,-0E0,-4.6947596E-4,-0E0,-5.032445E-4,-1.7699834E-3,-0E0,-1.2330905E-5,-0E0,-0E0,9.876766E-6,2.4553494E-5,-0E0,-0E0,4.133739E-5,1.7943216E-4,-0E0,-0E0,1.5317031E-5,-0E0,-1.8914383E-5,5.892001E-6,-0E0,-0E0,-4.7525373E-5,9.026671E-6,-0E0,-3.445308E-5,-0E0,-0E0,-1.0289312E-4],"categories":[],"categories_nodes":[],"categories_segments":[],"categories_sizes":[],"default_left":[0,0,0,0,0,0,0,0,0,0,0,0,0,0,0,0,1,0,0,0,0,0,0,0,0,0,0,0,0,0,0,0,0,0,0,0,0,0,0,0,0,0,0,0,0,0,0,0,0,0,0,0,0,0,0],"id":18,"left_children":[1,3,5,7,9,11,13,15,17,19,21,23,25,27,29,-1,31,33,35,37,-1,-1,39,41,43,45,47,49,51,53,-1,-1,-1,-1,-1,-1,-1,-1,-1,-1,-1,-1,-1,-1,-1,-1,-1,-1,-1,-1,-1,-1,-1,-1,-1],"loss_changes":[3.5082735E-4,1.5233466E-4,1.2558114E-4,3.0253235E-5,1.5318507E-4,5.588708E-5,1.06566134E-4,3.3897782E-6,3.7597805E-5,6.98209E-5,1.20559154E-4,9.7673255E-6,6.454702E-5,7.379974E-5,1.402109E-4,0E0,6.8280638E-6,1.1308247E-5,4.953322E-5,9.315E-5,0E0,0E0,1.0198902E-4,3.3094475E-5,3.4744466E-5,1.7357837E-6,8.566496E-5,6.4532787E-6,4.18063E-5,1.09312066E-4,0E0,0E0,0E0,0E0,0E0,0E0,0E0,0E0,0E0,0E0,0E0,0E0,0E0,0E0,0E0,0E0,0E0,0E0,0E0,0E0,0E0,0E0,0E0,0E0,0E0],"parents":[2147483647,0,0,1,1,2,2,3,3,4,4,5,5,6,6,7,7,8,8,9,9,10,10,11,11,12,12,13,13,14,14,16,16,17,17,18,18,19,19,22,22,23,23,24,24,25,25,26,26,27,27,28,28,29,29],"right_children":[2,4,6,8,10,12,14,16,18,20,22,24,26,28,30,-1,32,34,36,38,-1,-1,40,42,44,46,48,50,52,54,-1,-1,-1,-1,-1,-1,-1,-1,-1,-1,-1,-1,-1,-1,-1,-1,-1,-1,-1,-1,-1,-1,-1,-1,-1],"split_conditions":[-6.675296E-4,1E0,1E0,1.6418182E0,8.1482774E-1,1E0,5E-2,3.212867E-3,3.201601E-3,7.931706E1,1.6243761E1,4.229949E1,1.6585715E0,3.313E0,9.270213E-1,-0E0,-1.08759865E-1,1E0,9.021054E1,-6.601403E0,-0E0,-0E0,-1.9860804E-2,3.0469603E-3,4.217485E-3,1.7008717E2,9.7384966E8,1.7323296E-3,1.937E1,1.5671428E0,-0E0,-1.2330905E-5,-0E0,-0E0,9.876766E-6,2.4553494E-5,-0E0,-0E0,4.133739E-5,1.7943216E-4,-0E0,-0E0,1.5317031E-5,-0E0,-1.8914383E-5,5.892001E-6,-0E0,-0E0,-4.7525373E-5,9.026671E-6,-0E0,-3.445308E-5,-0E0,-0E0,-1.0289312E-4],"split_indices":[63,35,35,52,74,36,53,41,38,17,11,16,52,68,44,0,67,36,18,8,0,0,67,42,38,20,70,30,59,52,0,0,0,0,0,0,0,0,0,0,0,0,0,0,0,0,0,0,0,0,0,0,0,0,0],"split_type":[0,0,0,0,0,0,0,0,0,0,0,0,0,0,0,0,0,0,0,0,0,0,0,0,0,0,0,0,0,0,0,0,0,0,0,0,0,0,0,0,0,0,0,0,0,0,0,0,0,0,0,0,0,0,0],"sum_hessian":[7.93E3,3.157E3,4.773E3,2.63E3,5.27E2,4.021E3,7.52E2,4.45E2,2.185E3,4.7E2,5.7E1,3.268E3,7.53E2,5.65E2,1.87E2,2.23E2,2.22E2,1.495E3,6.9E2,3.3E2,1.4E2,9E0,4.8E1,1.099E3,2.169E3,1.26E2,6.27E2,2.42E2,3.23E2,1.48E2,3.9E1,1.63E2,5.9E1,1.208E3,2.87E2,6.28E2,6.2E1,2.1E1,3.09E2,4.6E1,2E0,7.04E2,3.95E2,1.894E3,2.75E2,1.2E2,6E0,3.83E2,2.44E2,1.93E2,4.9E1,2.58E2,6.5E1,1.4E1,1.34E2],"tree_param":{"num_deleted":"0","num_feature":"76","num_nodes":"55","size_leaf_vector":"1"}},{"base_weights":[-0E0,1.4347518E-4,-2.9179748E-4,5.205363E-4,4.766826E-5,-3.7932952E-4,-0E0,-0E0,7.7894377E-4,2.812468E-4,-0E0,-4.880671E-4,-0E0,9.4279036E-4,-0E0,3.796616E-4,-0E0,3.8071812E-5,-1.4360236E-4,-1.7918606E-4,-8.904026E-4,5.7436813E-5,-0E0,-0E0,2.4934236E-5,-0E0,7.271473E-6,-0E0,-2.3971737E-5,-1.4763218E-5,-0E0,-5.5646415E-5,-0E0],"categories":[],"categories_nodes":[],"categories_segments":[],"categories_sizes":[],"default_left":[0,0,0,0,0,0,0,0,0,0,0,0,0,0,0,0,0,0,0,0,0,0,0,0,0,0,0,0,0,0,0,0,0],"id":19,"left_children":[1,3,5,7,9,11,-1,-1,13,15,17,19,-1,21,-1,23,-1,25,27,29,31,-1,-1,-1,-1,-1,-1,-1,-1,-1,-1,-1,-1],"loss_changes":[3.3001235E-4,1.3668583E-4,8.96893E-5,1.0478479E-4,5.782106E-5,1.00831356E-4,0E0,0E0,7.615908E-5,3.9793114E-5,2.283921E-5,1.06242864E-4,0E0,7.9726015E-5,0E0,3.4181037E-5,0E0,2.3164164E-5,7.05252E-5,5.0055023E-5,8.435885E-5,0E0,0E0,0E0,0E0,0E0,0E0,0E0,0E0,0E0,0E0,0E0,0E0],"parents":[2147483647,0,0,1,1,2,2,3,3,4,4,5,5,8,8,9,9,10,10,11,11,13,13,15,15,17,17,18,18,19,19,20,20],"right_children":[2,4,6,8,10,12,-1,-1,14,16,18,20,-1,22,-1,24,-1,26,28,30,32,-1,-1,-1,-1,-1,-1,-1,-1,-1,-1,-1,-1],"split_conditions":[1.5492825E-3,-4.673917E-3,1E0,-5.2018337E-2,-9.041249E1,1E0,-0E0,-0E0,1E0,1.2E0,1.6917085E-3,1.9796935E-1,-0E0,1E0,-0E0,1.202E1,-0E0,9.671E1,8.553958E-1,7.889855E-3,1E0,5.7436813E-5,-0E0,-0E0,2.4934236E-5,-0E0,7.271473E-6,-0E0,-2.3971737E-5,-1.4763218E-5,-0E0,-5.5646415E-5,-0E0],"split_indices":[63,63,37,74,20,33,0,0,37,53,27,74,0,34,0,59,0,62,23,29,34,0,0,0,0,0,0,0,0,0,0,0,0],"split_type":[0,0,0,0,0,0,0,0,0,0,0,0,0,0,0,0,0,0,0,0,0,0,0,0,0,0,0,0,0,0,0,0,0],"sum_hessian":[7.93E3,5.355E3,2.575E3,8.69E2,4.486E3,2.145E3,4.3E2,3.11E2,5.58E2,8.55E2,3.631E3,1.717E3,4.28E2,4.65E2,9.3E1,7.43E2,1.12E2,2.72E3,9.11E2,1.116E3,6.01E2,3.72E2,9.3E1,1.77E2,5.66E2,1.443E3,1.277E3,5.27E2,3.84E2,9.82E2,1.34E2,4.51E2,1.5E2],"tree_param":{"num_deleted":"0","num_feature":"76","num_nodes":"33","size_leaf_vector":"1"}},{"base_weights":[-0E0,3.0074705E-4,-1.2579013E-4,7.905321E-5,8.028834E-4,-0E0,-2.9251754E-4,2.0368981E-4,-6.3308E-5,9.81442E-4,-0E0,-3.492049E-4,2.2114531E-5,-3.7535073E-4,-0E0,-0E0,3.175407E-4,-0E0,-2.1929639E-4,1.2331088E-3,-0E0,-0E0,-9.073946E-4,-0E0,3.038901E-4,-9.050957E-5,-6.8966876E-4,-0E0,1.9455407E-5,-0E0,-1.7198674E-5,6.901802E-5,-0E0,-0E0,-5.494122E-5,3.0597644E-6,-4.786306E-6,2.7220993E-5,-0E0,-0E0,-1.8548786E-5,-4.100094E-5,-0E0],"categories":[],"categories_nodes":[],"categories_segments":[],"categories_sizes":[],"default_left":[0,0,0,0,0,0,0,1,0,0,0,0,0,0,0,0,0,0,0,0,0,0,0,0,0,0,0,0,0,0,0,0,0,0,0,0,0,0,0,0,0,0,0],"id":20,"left_children":[1,3,5,7,9,11,13,15,17,19,-1,21,23,25,-1,-1,27,-1,29,31,-1,-1,33,35,37,39,41,-1,-1,-1,-1,-1,-1,-1,-1,-1,-1,-1,-1,-1,-1,-1,-1],"loss_changes":[3.0391652E-4,1.7743373E-4,1.1187786E-4,4.6058547E-5,9.453742E-5,2.9998644E-5,7.431528E-5,2.3723172E-5,1.39381955E-5,1.268631E-4,0E0,4.2274485E-5,4.0555147E-5,9.580731E-5,0E0,0E0,3.000989E-5,0E0,1.7070428E-5,9.180786E-5,0E0,0E0,2.2161585E-5,1.7415174E-5,6.40898E-5,5.98642E-5,9.853611E-5,0E0,0E0,0E0,0E0,0E0,0E0,0E0,0E0,0E0,0E0,0E0,0E0,0E0,0E0,0E0,0E0],"parents":[2147483647,0,0,1,1,2,2,3,3,4,4,5,5,6,6,7,7,8,8,9,9,11,11,12,12,13,13,16,16,18,18,19,19,22,22,23,23,24,24,25,25,26,26],"right_children":[2,4,6,8,10,12,14,16,18,20,-1,22,24,26,-1,-1,28,-1,30,32,-1,-1,34,36,38,40,42,-1,-1,-1,-1,-1,-1,-1,-1,-1,-1,-1,-1,-1,-1,-1,-1],"split_conditions":[-1.6647972E-3,1.2736351E9,1.8753938E-3,9.6261376E-1,1E0,-4.2836913E-5,1E0,-6.290948E-2,-8.4165873E-7,1E0,-0E0,3.3773307E-3,1.871E1,9.993767E8,-0E0,-0E0,4.0183097E-1,-0E0,-3.996083E-1,9.45131E0,-0E0,-0E0,-4.125245E-1,-2.807422E-4,3.0392767E1,-1.1321649E1,1.3533671E-2,-0E0,1.9455407E-5,-0E0,-1.7198674E-5,6.901802E-5,-0E0,-0E0,-5.494122E-5,3.0597644E-6,-4.786306E-6,2.7220993E-5,-0E0,-0E0,-1.8548786E-5,-4.100094E-5,-0E0],"split_indices":[63,70,63,10,34,31,37,66,31,37,0,29,59,70,0,0,44,0,74,24,0,0,74,27,12,20,64,0,0,0,0,0,0,0,0,0,0,0,0,0,0,0,0],"split_type":[0,0,0,0,0,0,0,0,0,0,0,0,0,0,0,0,0,0,0,0,0,0,0,0,0,0,0,0,0,0,0,0,0,0,0,0,0,0,0,0,0,0,0],"sum_hessian":[7.93E3,2.384E3,5.546E3,1.796E3,5.88E2,3.217E3,2.329E3,1.331E3,4.65E2,4.9E2,9.8E1,2.29E2,2.988E3,1.94E3,3.89E2,5.51E2,7.8E2,1.41E2,3.24E2,3.92E2,9.8E1,1.48E2,8.1E1,2.538E3,4.5E2,1.188E3,7.52E2,6.4E1,7.16E2,5.1E1,2.73E2,3.6E2,3.2E1,9E0,7.2E1,1.09E3,1.448E3,3.53E2,9.7E1,6.87E2,5.01E2,6.77E2,7.5E1],"tree_param":{"num_deleted":"0","num_feature":"76","num_nodes":"43","size_leaf_vector":"1"}},{"base_weights":[-0E0,2.864811E-4,-1.1948627E-4,5.820343E-5,7.274732E-4,-0E0,-2.7664323E-4,1.3560588E-4,-1.961909E-4,9.766245E-4,-0E0,-3.322999E-4,2.0105317E-5,-1.2843314E-4,-7.5255585E-4,3.704599E-4,-0E0,-0E0,-3.0130232E-4,1.1653237E-3,-0E0,-0E0,-8.613973E-4,-0E0,2.827714E-4,-0E0,-2.495E-4,-5.9186637E-5,-1.7641189E-3,-0E0,3.2855387E-5,3.8912526E-6,-0E0,-2.039573E-5,-0E0,-0E0,8.082769E-5,-0E0,-5.2372543E-5,-0E0,-1.3954996E-5,2.5878951E-5,-0E0,-1.7253797E-5,-0E0,-1.6047263E-5,-0E0,-0E0,-1.0310773E-4],"categories":[],"categories_nodes":[],"categories_segments":[],"categories_sizes":[],"default_left":[0,0,0,0,0,0,0,0,0,0,0,0,0,0,0,0,0,0,0,0,0,0,0,0,0,0,0,0,0,0,0,0,0,0,0,0,0,0,0,0,0,0,0,0,0,0,0,0,0],"id":21,"left_children":[1,3,5,7,9,11,13,15,17,19,-1,21,23,25,27,29,31,-1,33,35,-1,-1,37,39,41,-1,43,45,47,-1,-1,-1,-1,-1,-1,-1,-1,-1,-1,-1,-1,-1,-1,-1,-1,-1,-1,-1,-1],"loss_changes":[2.753201E-4,1.6171804E-4,9.937303E-5,2.8119817E-5,1.0303105E-4,2.7048876E-5,7.6046665E-5,3.2058724E-5,5.0752597E-6,6.242958E-5,0E0,3.797342E-5,3.51718E-5,3.8181133E-5,9.2792354E-5,2.9938674E-5,3.3796596E-6,0E0,6.2299687E-6,1.0717567E-4,0E0,0E0,2.0668347E-5,1.6981496E-5,5.952228E-5,0E0,3.2840493E-5,1.2762377E-5,1.06672E-4,0E0,0E0,0E0,0E0,0E0,0E0,0E0,0E0,0E0,0E0,0E0,0E0,0E0,0E0,0E0,0E0,0E0,0E0,0E0,0E0],"parents":[2147483647,0,0,1,1,2,2,3,3,4,4,5,5,6,6,7,7,8,8,9,9,11,11,12,12,13,13,14,14,15,15,16,16,18,18,19,19,22,22,23,23,24,24,26,26,27,27,28,28],"right_children":[2,4,6,8,10,12,14,16,18,20,-1,22,24,26,28,30,32,-1,34,36,-1,-1,38,40,42,-1,44,46,48,-1,-1,-1,-1,-1,-1,-1,-1,-1,-1,-1,-1,-1,-1,-1,-1,-1,-1,-1,-1],"split_conditions":[-1.6647972E-3,3.4170815E-1,1.8753938E-3,4.739032E-3,1.245249E0,-4.2836913E-5,1E0,-4.7135054E-6,4.1505054E1,1E0,-0E0,3.3773307E-3,1.871E1,4.31215E1,3.9492163E-1,8.455023E8,5.621778E-2,-0E0,1.7311072E0,2.1832376E-3,-0E0,-0E0,-4.125245E-1,4.2296406E-3,3.0392767E1,-0E0,3.3340595E1,2.1656626E1,1.0672153E3,-0E0,3.2855387E-5,3.8912526E-6,-0E0,-2.039573E-5,-0E0,-0E0,8.082769E-5,-0E0,-5.2372543E-5,-0E0,-1.3954996E-5,2.5878951E-5,-0E0,-1.7253797E-5,-0E0,-1.6047263E-5,-0E0,-0E0,-1.0310773E-4],"split_indices":[63,74,63,30,44,31,35,31,16,32,0,29,59,16,74,70,75,0,44,41,0,0,74,39,12,0,11,13,6,0,0,0,0,0,0,0,0,0,0,0,0,0,0,0,0,0,0,0,0],"split_type":[0,0,0,0,0,0,0,0,0,0,0,0,0,0,0,0,0,0,0,0,0,0,0,0,0,0,0,0,0,0,0,0,0,0,0,0,0,0,0,0,0,0,0,0,0,0,0,0,0],"sum_hessian":[7.93E3,2.384E3,5.546E3,1.724E3,6.6E2,3.217E3,2.329E3,1.625E3,9.9E1,4.72E2,1.88E2,2.29E2,2.988E3,1.941E3,3.88E2,4.47E2,1.178E3,4E0,9.5E1,3.76E2,9.6E1,1.48E2,8.1E1,2.538E3,4.5E2,8.17E2,1.124E3,2.92E2,9.6E1,2.39E2,2.08E2,5.53E2,6.25E2,8.7E1,8E0,1.42E2,2.34E2,9E0,7.2E1,2.325E3,2.13E2,3.53E2,9.7E1,8.61E2,2.63E2,1.29E2,1.63E2,2E0,9.4E1],"tree_param":{"num_deleted":"0","num_feature":"76","num_nodes":"49","size_leaf_vector":"1"}},{"base_weights":[-0E0,2.7554555E-4,-1.15122064E-4,6.489796E-5,7.443459E-4,-0E0,-2.5237235E-4,1.8479471E-4,-6.383938E-5,9.6434826E-4,-0E0,2.1752086E-4,-5.143586E-5,-1.1488927E-4,-7.0044666E-4,-0E0,2.9225624E-4,-0E0,-2.1677342E-4,1.2457689E-3,-0E0,4.1697186E-4,-0E0,-0E0,-2.869798E-4,-0E0,-2.2286903E-4,-8.448296E-4,-0E0,-0E0,1.810975E-5,-0E0,-1.6511933E-5,7.56696E-5,-0E0,-0E0,2.5747173E-5,3.3644435E-6,-2.9167156E-6,-0E0,-2.0889696E-5,-1.5783125E-5,-0E0,-0E0,-5.975187E-5],"categories":[],"categories_nodes":[],"categories_segments":[],"categories_sizes":[],"default_left":[0,0,0,0,0,0,0,1,0,0,0,0,0,0,0,0,0,0,0,0,0,0,0,0,0,0,0,0,0,0,0,0,0,0,0,0,0,0,0,0,0,0,0,0,0],"id":22,"left_children":[1,3,5,7,9,11,13,15,17,19,-1,21,23,25,27,-1,29,-1,31,33,-1,35,-1,37,39,-1,41,43,-1,-1,-1,-1,-1,-1,-1,-1,-1,-1,-1,-1,-1,-1,-1,-1,-1],"loss_changes":[2.5495357E-4,1.5475182E-4,9.0756956E-5,3.9953295E-5,8.90033E-5,3.5358527E-5,7.6998826E-5,2.1426582E-5,1.307457E-5,1.11656176E-4,0E0,3.2623335E-5,3.977819E-5,3.4590106E-5,6.899466E-5,0E0,2.7534777E-5,0E0,1.5437025E-5,9.605539E-5,0E0,1.83581E-5,0E0,7.4789396E-6,3.6001533E-5,0E0,3.4169418E-5,8.652735E-5,0E0,0E0,0E0,0E0,0E0,0E0,0E0,0E0,0E0,0E0,0E0,0E0,0E0,0E0,0E0,0E0,0E0],"parents":[2147483647,0,0,1,1,2,2,3,3,4,4,5,5,6,6,7,7,8,8,9,9,11,11,12,12,13,13,14,14,16,16,18,18,19,19,21,21,23,23,24,24,26,26,27,27],"right_children":[2,4,6,8,10,12,14,16,18,20,-1,22,24,26,28,-1,30,-1,32,34,-1,36,-1,38,40,-1,42,44,-1,-1,-1,-1,-1,-1,-1,-1,-1,-1,-1,-1,-1,-1,-1,-1,-1],"split_conditions":[-1.6647972E-3,1.2736351E9,1.5492825E-3,9.6261376E-1,1.8458604E0,-9.1541145E1,1E0,-6.290948E-2,2.050954E-3,1.3006916E0,-0E0,6.7503E0,6.134588E0,4.31215E1,2.3920221E-2,-0E0,4.0183097E-1,-0E0,-4.0829214E-1,1E0,-0E0,2.0341866E-3,-0E0,7.505385E-4,-6.7868833E-3,-0E0,3.3340595E1,7.517153E8,-0E0,-0E0,1.810975E-5,-0E0,-1.6511933E-5,7.56696E-5,-0E0,-0E0,2.5747173E-5,3.3644435E-6,-2.9167156E-6,-0E0,-2.0889696E-5,-1.5783125E-5,-0E0,-0E0,-5.975187E-5],"split_indices":[63,70,63,10,10,20,35,66,40,44,0,68,24,16,65,0,44,0,74,32,0,42,0,27,64,0,11,70,0,0,0,0,0,0,0,0,0,0,0,0,0,0,0,0,0],"split_type":[0,0,0,0,0,0,0,0,0,0,0,0,0,0,0,0,0,0,0,0,0,0,0,0,0,0,0,0,0,0,0,0,0,0,0,0,0,0,0,0,0,0,0,0,0],"sum_hessian":[7.93E3,2.384E3,5.546E3,1.796E3,5.88E2,2.971E3,2.575E3,1.331E3,4.65E2,4.44E2,1.44E2,6.1E2,2.361E3,2.146E3,4.29E2,5.51E2,7.8E2,1.51E2,3.14E2,3.36E2,1.08E2,3.5E2,2.6E2,1.807E3,5.54E2,8.83E2,1.263E3,3.9E2,3.9E1,6.4E1,7.16E2,4E1,2.74E2,2.68E2,6.8E1,5.3E1,2.97E2,1.147E3,6.6E2,8.9E1,4.65E2,9.7E2,2.93E2,1.37E2,2.53E2],"tree_param":{"num_deleted":"0","num_feature":"76","num_nodes":"45","size_leaf_vector":"1"}},{"base_weights":[-0E0,2.6352305E-4,-1.0961681E-4,4.353715E-5,6.8312907E-4,-0E0,-2.5355406E-4,1.195833E-4,-1.8889472E-4,9.151094E-4,-0E0,1.996707E-4,-4.1403382E-5,-3.3105747E-4,-0E0,3.4366274E-4,-0E0,-0E0,-2.9317103E-4,1.0884736E-3,-0E0,3.449737E-4,-0E0,1.1486524E-5,-2.0425428E-4,-6.1242055E-5,-6.219881E-4,-0E0,3.041035E-5,3.1850293E-6,-0E0,-1.9934127E-5,-0E0,-0E0,6.219476E-5,-0E0,2.830622E-5,-0E0,7.625325E-6,-0E0,-1.4145058E-5,-0E0,-1.6217216E-5,-0E0,-4.2571683E-5],"categories":[],"categories_nodes":[],"categories_segments":[],"categories_sizes":[],"default_left":[0,0,0,0,0,0,0,0,0,0,0,0,0,0,0,0,0,0,0,0,0,0,0,0,0,0,1,0,0,0,0,0,0,0,0,0,0,0,0,0,0,0,0,0,0],"id":23,"left_children":[1,3,5,7,9,11,13,15,17,19,-1,21,23,25,-1,27,29,-1,31,33,-1,35,-1,37,39,41,43,-1,-1,-1,-1,-1,-1,-1,-1,-1,-1,-1,-1,-1,-1,-1,-1,-1,-1],"loss_changes":[2.3260263E-4,1.4770705E-4,8.335209E-5,2.3742827E-5,8.911942E-5,2.4036613E-5,6.31181E-5,3.007377E-5,4.8840784E-6,6.497983E-5,0E0,2.5529409E-5,4.2905813E-5,8.4164276E-5,0E0,2.5409016E-5,2.264233E-6,0E0,6.028269E-6,7.402009E-5,0E0,3.269466E-5,0E0,1.7719543E-5,3.0158342E-5,4.875636E-5,9.280772E-5,0E0,0E0,0E0,0E0,0E0,0E0,0E0,0E0,0E0,0E0,0E0,0E0,0E0,0E0,0E0,0E0,0E0,0E0],"parents":[2147483647,0,0,1,1,2,2,3,3,4,4,5,5,6,6,7,7,8,8,9,9,11,11,12,12,13,13,15,15,16,16,18,18,19,19,21,21,23,23,24,24,25,25,26,26],"right_children":[2,4,6,8,10,12,14,16,18,20,-1,22,24,26,-1,28,30,-1,32,34,-1,36,-1,38,40,42,44,-1,-1,-1,-1,-1,-1,-1,-1,-1,-1,-1,-1,-1,-1,-1,-1,-1,-1],"split_conditions":[-1.6647972E-3,3.4170815E-1,1.8753938E-3,4.739032E-3,1.245249E0,-4.089656E-3,1E0,-4.7135054E-6,4.1505054E1,1.0200206E0,-0E0,2.8177965E1,3.782765E-4,9.993767E8,-0E0,8.455023E8,5.621778E-2,-0E0,1.7311072E0,-1.2883394E-5,-0E0,2.965656E-3,-0E0,9.671E1,2.0001053E-3,-1.1321649E1,-1.6378196E-1,-0E0,3.041035E-5,3.1850293E-6,-0E0,-1.9934127E-5,-0E0,-0E0,6.219476E-5,-0E0,2.830622E-5,-0E0,7.625325E-6,-0E0,-1.4145058E-5,-0E0,-1.6217216E-5,-0E0,-4.2571683E-5],"split_indices":[63,74,63,30,44,64,37,31,16,23,0,12,30,70,0,70,75,0,44,31,0,29,0,62,29,20,66,0,0,0,0,0,0,0,0,0,0,0,0,0,0,0,0,0,0],"split_type":[0,0,0,0,0,0,0,0,0,0,0,0,0,0,0,0,0,0,0,0,0,0,0,0,0,0,0,0,0,0,0,0,0,0,0,0,0,0,0,0,0,0,0,0,0],"sum_hessian":[7.93E3,2.384E3,5.546E3,1.724E3,6.6E2,3.217E3,2.329E3,1.625E3,9.9E1,4.72E2,1.88E2,4.8E2,2.737E3,1.94E3,3.89E2,4.47E2,1.178E3,4E0,9.5E1,3.87E2,8.5E1,3.72E2,1.08E2,1.606E3,1.131E3,1.188E3,7.52E2,2.39E2,2.08E2,5.53E2,6.25E2,8.7E1,8E0,4.4E1,3.43E2,1.35E2,2.37E2,8.4E2,7.66E2,1.67E2,9.64E2,6.87E2,5.01E2,2.25E2,5.27E2],"tree_param":{"num_deleted":"0","num_feature":"76","num_nodes":"45","size_leaf_vector":"1"}},{"base_weights":[-0E0,2.0385996E-4,-1.2967149E-4,8.915114E-5,8.321074E-4,-4.0589843E-5,-4.704831E-4,1.7772542E-4,-4.3715067E-5,1.154307E-3,-0E0,-0E0,-2.621701E-4,-5.7000783E-5,-1.1649232E-3,2.56973E-4,-0E0,-0E0,-1.7781032E-4,-0E0,1.3947212E-3,-2.7235452E-5,7.1879935E-5,-0E0,-4.1312276E-4,1.5436264E-5,-4.1555855E-4,-1.5805941E-3,-0E0,-0E0,1.6598306E-5,-0E0,-5.214682E-6,-0E0,-2.0637062E-5,7.927004E-5,-0E0,-0E0,-4.547769E-6,-0E0,7.457963E-6,7.1399277E-6,-0E0,-0E0,-4.203129E-5,1.1226116E-5,-0E0,-2.953586E-5,-0E0,-0E0,-9.299453E-5],"categories":[],"categories_nodes":[],"categories_segments":[],"categories_sizes":[],"default_left":[0,0,0,0,0,0,0,0,0,0,0,0,0,0,0,0,0,0,0,0,0,0,0,0,0,0,0,0,0,0,0,0,0,0,0,0,0,0,0,0,0,0,0,0,0,0,0,0,0,0,0],"id":24,"left_children":[1,3,5,7,9,11,13,15,17,19,-1,21,23,25,27,29,31,-1,33,-1,35,37,39,41,43,45,47,49,-1,-1,-1,-1,-1,-1,-1,-1,-1,-1,-1,-1,-1,-1,-1,-1,-1,-1,-1,-1,-1,-1,-1],"loss_changes":[2.1174981E-4,1.3537444E-4,9.38576E-5,4.6556524E-5,1.18001364E-4,4.546676E-5,9.483959E-5,4.9453956E-5,1.3848644E-5,9.082304E-5,0E0,7.993691E-6,5.576397E-5,5.484883E-5,1.2168364E-4,5.4283075E-5,2.5996417E-6,0E0,2.7444523E-5,0E0,7.961839E-5,1.1911223E-5,1.4463498E-5,2.5489285E-6,6.8092566E-5,1.012402E-5,3.513105E-5,9.859141E-5,0E0,0E0,0E0,0E0,0E0,0E0,0E0,0E0,0E0,0E0,0E0,0E0,0E0,0E0,0E0,0E0,0E0,0E0,0E0,0E0,0E0,0E0,0E0],"parents":[2147483647,0,0,1,1,2,2,3,3,4,4,5,5,6,6,7,7,8,8,9,9,11,11,12,12,13,13,14,14,15,15,16,16,18,18,20,20,21,21,22,22,23,23,24,24,25,25,26,26,27,27],"right_children":[2,4,6,8,10,12,14,16,18,20,-1,22,24,26,28,30,32,-1,34,-1,36,38,40,42,44,46,48,50,-1,-1,-1,-1,-1,-1,-1,-1,-1,-1,-1,-1,-1,-1,-1,-1,-1,-1,-1,-1,-1,-1,-1],"split_conditions":[-6.675296E-4,1.6624305E9,1E0,9.6261376E-1,1.9212425E0,1E0,5E-2,1E0,-8.4165873E-7,-2.532079E-3,-0E0,8.748272E-4,1.6585715E0,3.313E0,9.270213E-1,-1E-2,1.3643827E0,-0E0,5.291738E0,-0E0,1.05517395E-2,-1.5701713E-2,-2.453127E0,1.7008717E2,9.7384966E8,1.7781132E-3,1.937E1,1.5671428E0,-0E0,-0E0,1.6598306E-5,-0E0,-5.214682E-6,-0E0,-2.0637062E-5,7.927004E-5,-0E0,-0E0,-4.547769E-6,-0E0,7.457963E-6,7.1399277E-6,-0E0,-0E0,-4.203129E-5,1.1226116E-5,-0E0,-2.953586E-5,-0E0,-0E0,-9.299453E-5],"split_indices":[63,70,35,10,21,36,53,32,31,27,0,60,52,68,44,51,22,0,24,0,29,45,9,20,70,30,59,52,0,0,0,0,0,0,0,0,0,0,0,0,0,0,0,0,0,0,0,0,0,0,0],"split_type":[0,0,0,0,0,0,0,0,0,0,0,0,0,0,0,0,0,0,0,0,0,0,0,0,0,0,0,0,0,0,0,0,0,0,0,0,0,0,0,0,0,0,0,0,0,0,0,0,0,0,0],"sum_hessian":[7.93E3,3.157E3,4.773E3,2.809E3,3.48E2,4.021E3,7.52E2,2.136E3,6.73E2,2.67E2,8.1E1,3.268E3,7.53E2,5.65E2,1.87E2,1.768E3,3.68E2,1.99E2,4.74E2,3.9E1,2.28E2,2.016E3,1.252E3,1.26E2,6.27E2,2.42E2,3.23E2,1.48E2,3.9E1,2.18E2,1.55E3,1.34E2,2.34E2,2.29E2,2.45E2,2.07E2,2.1E1,4E2,1.616E3,3.15E2,9.37E2,1.2E2,6E0,3.83E2,2.44E2,1.97E2,4.5E1,2.58E2,6.5E1,1.4E1,1.34E2],"tree_param":{"num_deleted":"0","num_feature":"76","num_nodes":"51","size_leaf_vector":"1"}},{"base_weights":[-0E0,2.4088596E-4,-1.0064345E-4,7.477348E-5,8.104282E-4,-0E0,-2.2261996E-4,1.9925361E-4,-0E0,-0E0,1.155222E-3,2.0383498E-4,-4.635284E-5,-2.985786E-4,-0E0,-0E0,2.9574046E-4,-0E0,-1.3678851E-4,1.3866313E-3,-0E0,3.9198235E-4,-0E0,-0E0,-2.7006015E-4,-3.9765917E-4,-0E0,2.3039776E-5,-0E0,-0E0,4.380987E-6,-1.0692037E-5,-0E0,7.48555E-5,-0E0,2.5014893E-5,-0E0,3.1024945E-6,-2.269825E-6,-0E0,-1.9623434E-5,-5.6870967E-6,-3.7728085E-5],"categories":[],"categories_nodes":[],"categories_segments":[],"categories_sizes":[],"default_left":[0,0,0,0,0,0,0,0,0,0,0,0,0,0,0,0,0,0,1,0,0,0,0,0,0,0,0,0,0,0,0,0,0,0,0,0,0,0,0,0,0,0,0],"id":25,"left_children":[1,3,5,7,9,11,13,15,17,-1,19,21,23,25,-1,-1,27,29,31,33,-1,35,-1,37,39,41,-1,-1,-1,-1,-1,-1,-1,-1,-1,-1,-1,-1,-1,-1,-1,-1,-1],"loss_changes":[1.9485087E-4,1.3719554E-4,7.163722E-5,3.166693E-5,1.2633164E-4,3.0636E-5,6.380686E-5,3.3206095E-5,6.810839E-6,0E0,7.62078E-5,2.8993358E-5,3.5685705E-5,8.063398E-5,0E0,0E0,4.948368E-5,3.815577E-6,8.553723E-6,5.5004493E-5,0E0,1.754001E-5,0E0,5.8058786E-6,3.1625616E-5,8.7232125E-5,0E0,0E0,0E0,0E0,0E0,0E0,0E0,0E0,0E0,0E0,0E0,0E0,0E0,0E0,0E0,0E0,0E0],"parents":[2147483647,0,0,1,1,2,2,3,3,4,4,5,5,6,6,7,7,8,8,10,10,11,11,12,12,13,13,16,16,17,17,18,18,19,19,21,21,23,23,24,24,25,25],"right_children":[2,4,6,8,10,12,14,16,18,-1,20,22,24,26,-1,-1,28,30,32,34,-1,36,-1,38,40,42,-1,-1,-1,-1,-1,-1,-1,-1,-1,-1,-1,-1,-1,-1,-1,-1,-1],"split_conditions":[-1.6647972E-3,1E0,1.5492825E-3,3.0818182E-1,6.549869E8,-9.1541145E1,1E0,1.9399826E1,5.1339974E0,-0E0,9.827E1,6.7503E0,6.134588E0,1E0,-0E0,-0E0,1.1680397E0,3.964532E-1,5.574013E-2,1.4426124E-2,-0E0,1E0,-0E0,7.505385E-4,-6.7868833E-3,1.9796935E-1,-0E0,2.3039776E-5,-0E0,-0E0,4.380987E-6,-1.0692037E-5,-0E0,7.48555E-5,-0E0,2.5014893E-5,-0E0,3.1024945E-6,-2.269825E-6,-0E0,-1.9623434E-5,-5.6870967E-6,-3.7728085E-5],"split_indices":[63,35,63,49,70,20,37,11,24,0,62,68,24,33,0,0,10,44,75,64,0,34,0,27,64,74,0,0,0,0,0,0,0,0,0,0,0,0,0,0,0,0,0],"split_type":[0,0,0,0,0,0,0,0,0,0,0,0,0,0,0,0,0,0,0,0,0,0,0,0,0,0,0,0,0,0,0,0,0,0,0,0,0,0,0,0,0,0,0],"sum_hessian":[7.93E3,2.384E3,5.546E3,1.986E3,3.98E2,2.971E3,2.575E3,1.073E3,9.13E2,1.1E2,2.88E2,6.1E2,2.361E3,2.145E3,4.3E2,2.09E2,8.64E2,5.54E2,3.59E2,2.38E2,5E1,3.5E2,2.6E2,1.807E3,5.54E2,1.717E3,4.28E2,5.86E2,2.78E2,6.2E1,4.92E2,3.31E2,2.8E1,2.28E2,1E1,2.83E2,6.7E1,1.147E3,6.6E2,8.9E1,4.65E2,1.116E3,6.01E2],"tree_param":{"num_deleted":"0","num_feature":"76","num_nodes":"43","size_leaf_vector":"1"}},{"base_weights":[-0E0,2.224339E-4,-9.8280776E-5,3.4342687E-5,6.295371E-4,-1.5134139E-4,1.1100668E-4,1.5609739E-4,-2.6377182E-5,-0E0,8.7105954E-4,-3.612621E-5,-5.0150056E-4,4.7396764E-4,-0E0,2.2849403E-4,-0E0,-2.0222222E-4,-0E0,1.0258985E-3,-0E0,7.56566E-5,-1.9687082E-4,-0E0,-6.3526374E-4,7.3782186E-4,-0E0,-9.3705654E-5,-0E0,-0E0,1.5389878E-5,-1.9072128E-5,-0E0,5.204754E-6,-0E0,6.12833E-5,-0E0,7.5853927E-6,-0E0,-1.6233527E-5,-0E0,-1.4309137E-5,-8.431218E-5,6.052515E-5,-0E0,-0E0,-1.6506156E-5],"categories":[],"categories_nodes":[],"categories_segments":[],"categories_sizes":[],"default_left":[0,0,0,0,0,0,0,0,1,0,0,0,0,0,0,0,0,1,0,0,0,0,0,0,0,0,0,0,0,0,0,0,0,0,0,0,0,0,0,0,0,0,0,0,0,0,0],"id":26,"left_children":[1,3,5,7,9,11,13,15,17,-1,19,21,23,25,27,29,-1,31,33,35,-1,37,39,-1,41,43,-1,45,-1,-1,-1,-1,-1,-1,-1,-1,-1,-1,-1,-1,-1,-1,-1,-1,-1,-1,-1],"loss_changes":[1.756404E-4,1.2378668E-4,6.469482E-5,2.6839567E-5,7.338647E-5,1.3717392E-4,5.958302E-5,2.4487457E-5,1.5620964E-5,0E0,8.518109E-5,8.017068E-5,9.3459545E-5,5.7779587E-5,2.625444E-6,3.0136267E-5,0E0,2.0844433E-5,1.9504416E-6,7.762713E-5,0E0,2.2311615E-5,3.5317214E-5,0E0,1.0411872E-4,5.9798927E-5,0E0,1.9715717E-5,0E0,0E0,0E0,0E0,0E0,0E0,0E0,0E0,0E0,0E0,0E0,0E0,0E0,0E0,0E0,0E0,0E0,0E0,0E0],"parents":[2147483647,0,0,1,1,2,2,3,3,4,4,5,5,6,6,7,7,8,8,10,10,11,11,12,12,13,13,14,14,15,15,17,17,18,18,19,19,21,21,22,22,24,24,25,25,27,27],"right_children":[2,4,6,8,10,12,14,16,18,-1,20,22,24,26,28,30,-1,32,34,36,-1,38,40,-1,42,44,-1,46,-1,-1,-1,-1,-1,-1,-1,-1,-1,-1,-1,-1,-1,-1,-1,-1,-1,-1,-1],"split_conditions":[-1.5442593E-3,1.2773292E9,1.951E1,2.575619E-3,1.3767612E-1,1.2345375E9,1.62976E1,9.1689914E-1,-1.19359875E-2,-0E0,1.5047E4,4.7977844E1,-3.139259E-1,3.1962513E1,5.375601E-2,4.3757728E8,-0E0,5.6642678E-2,7.6650596E-1,1E0,-0E0,4.181929E-3,-1.6480906E-2,-0E0,1E0,7.2E-1,-0E0,2.247E1,-0E0,-0E0,1.5389878E-5,-1.9072128E-5,-0E0,5.204754E-6,-0E0,6.12833E-5,-0E0,7.5853927E-6,-0E0,-1.6233527E-5,-0E0,-1.4309137E-5,-8.431218E-5,6.052515E-5,-0E0,-0E0,-1.6506156E-5],"split_indices":[63,70,59,40,74,70,68,23,66,0,73,16,67,12,60,70,0,75,10,37,0,63,74,0,35,72,0,59,0,0,0,0,0,0,0,0,0,0,0,0,0,0,0,0,0,0,0],"split_type":[0,0,0,0,0,0,0,0,0,0,0,0,0,0,0,0,0,0,0,0,0,0,0,0,0,0,0,0,0,0,0,0,0,0,0,0,0,0,0,0,0,0,0,0,0,0,0],"sum_hessian":[7.93E3,2.48E3,5.45E3,1.868E3,6.12E2,4.73E3,7.2E2,1.167E3,7.01E2,1.98E2,4.14E2,3.778E3,9.52E2,3E2,4.2E2,1.011E3,1.56E2,3.89E2,3.12E2,3.78E2,3.6E1,1.863E3,1.915E3,1.29E2,8.23E2,2.27E2,7.3E1,2.94E2,1.26E2,1.38E2,8.73E2,2.49E2,1.4E2,1.75E2,1.37E2,3.15E2,6.3E1,1.429E3,4.34E2,1.036E3,8.79E2,6.94E2,1.29E2,1.22E2,1.05E2,9.4E1,2E2],"tree_param":{"num_deleted":"0","num_feature":"76","num_nodes":"47","size_leaf_vector":"1"}},{"base_weights":[-0E0,1.00995734E-4,-2.0577891E-4,3.969975E-4,2.1011203E-5,-2.8094178E-4,-0E0,-0E0,6.076762E-4,9.066174E-5,-1.2431192E-4,-0E0,-4.1836337E-4,1.3662333E-4,-0E0,7.474273E-4,-0E0,1.7962868E-5,4.1964347E-4,-0E0,-4.0461327E-4,3.3215707E-5,-1.5216653E-4,-0E0,-4.9113034E-4,3.7196357E-4,-0E0,4.66629E-5,-0E0,-0E0,4.3382884E-6,3.209245E-5,-0E0,-0E0,-3.3143657E-5,-0E0,9.434693E-6,-1.1071464E-5,-0E0,-2.9080431E-5,-0E0,2.434907E-5,-0E0],"categories":[],"categories_nodes":[],"categories_segments":[],"categories_sizes":[],"default_left":[0,0,0,0,0,0,0,0,0,0,0,0,0,0,0,0,0,0,0,0,0,0,0,0,0,1,0,0,0,0,0,0,0,0,0,0,0,0,0,0,0,0,0],"id":27,"left_children":[1,3,5,7,9,11,13,-1,15,17,19,21,23,25,-1,27,-1,29,31,-1,33,35,37,-1,39,41,-1,-1,-1,-1,-1,-1,-1,-1,-1,-1,-1,-1,-1,-1,-1,-1,-1],"loss_changes":[1.6392273E-4,8.505843E-5,5.870941E-5,7.458194E-5,4.214849E-5,7.655457E-5,2.501235E-6,0E0,5.5820376E-5,4.000544E-5,4.1641913E-5,5.3380636E-6,6.0856633E-5,1.4101593E-5,0E0,6.7172776E-5,0E0,1.1707292E-5,4.384514E-5,0E0,5.3317846E-5,9.235722E-6,4.961419E-6,0E0,5.6238525E-5,8.298017E-6,0E0,0E0,0E0,0E0,0E0,0E0,0E0,0E0,0E0,0E0,0E0,0E0,0E0,0E0,0E0,0E0,0E0],"parents":[2147483647,0,0,1,1,2,2,3,3,4,4,5,5,6,6,8,8,9,9,10,10,11,11,12,12,13,13,15,15,17,17,18,18,20,20,21,21,22,22,24,24,25,25],"right_children":[2,4,6,8,10,12,14,-1,16,18,20,22,24,26,-1,28,-1,30,32,-1,34,36,38,-1,40,42,-1,-1,-1,-1,-1,-1,-1,-1,-1,-1,-1,-1,-1,-1,-1,-1,-1],"split_conditions":[1.5492825E-3,-4.673917E-3,1.886E1,-8.0255456E-2,2.8177965E1,7.4090656E8,5.9E-1,-0E0,1E0,6.650769E-3,1.7323296E-3,6.116158E1,-4.612313E-3,1.5079684E2,-0E0,1E0,-0E0,-1.424779E0,-6.503945E-3,-0E0,1.8888154E-3,-4.383259E-3,4.2931312E-1,-0E0,1E0,-1.0147731E-1,-0E0,4.66629E-5,-0E0,-0E0,4.3382884E-6,3.209245E-5,-0E0,-0E0,-3.3143657E-5,-0E0,9.434693E-6,-1.1071464E-5,-0E0,-2.9080431E-5,-0E0,2.434907E-5,-0E0],"split_indices":[63,63,59,74,12,70,72,0,37,29,30,17,30,20,0,34,0,8,45,0,40,60,74,0,37,67,0,0,0,0,0,0,0,0,0,0,0,0,0,0,0,0,0],"split_type":[0,0,0,0,0,0,0,0,0,0,0,0,0,0,0,0,0,0,0,0,0,0,0,0,0,0,0,0,0,0,0,0,0,0,0,0,0,0,0,0,0,0,0],"sum_hessian":[7.93E3,5.355E3,2.575E3,8.69E2,4.486E3,2.123E3,4.52E2,2.99E2,5.7E2,3.499E3,9.87E2,7.31E2,1.392E3,1.29E2,3.23E2,4.75E2,9.5E1,3.119E3,3.8E2,6.44E2,3.43E2,5.31E2,2E2,1.31E2,1.261E3,1.15E2,1.4E1,3.8E2,9.5E1,1.435E3,1.684E3,2.66E2,1.14E2,9.7E1,2.46E2,2.6E2,2.71E2,1.93E2,7E0,1.064E3,1.97E2,1E2,1.5E1],"tree_param":{"num_deleted":"0","num_feature":"76","num_nodes":"43","size_leaf_vector":"1"}},{"base_weights":[-0E0,9.625304E-5,-1.9489261E-4,-0E0,2.9027526E-4,-7.032709E-5,-5.796068E-4,1.9558084E-4,-7.119083E-5,3.9292977E-4,-3.342149E-5,-0E0,-2.0439767E-4,-0E0,-1.4195759E-3,2.6389645E-4,-0E0,-0E0,-3.5916013E-4,1.6532447E-4,1.0844732E-3,-0E0,-3.0616403E-4,5.2799092E-5,-0E0,-0E0,-3.3683373E-4,-2.1211673E-4,-0E0,-2.2591904E-3,-0E0,1.602234E-5,-0E0,-2.686602E-6,-0E0,-0E0,-2.5595333E-5,1.4399843E-5,-0E0,8.2290986E-5,-0E0,-0E0,-3.434106E-5,5.076419E-6,-0E0,-0E0,-7.660969E-6,-0E0,-2.0656973E-5,-0E0,-2.5637306E-5,-0E0,-1.3036409E-4],"categories":[],"categories_nodes":[],"categories_segments":[],"categories_sizes":[],"default_left":[0,0,0,0,1,0,0,0,0,0,0,0,0,0,0,0,0,0,0,0,0,0,0,0,0,0,0,0,0,0,0,0,0,0,0,0,0,0,0,0,0,0,0,0,0,0,0,0,0,0,0,0,0],"id":28,"left_children":[1,3,5,7,9,11,13,15,17,19,21,23,25,27,29,31,-1,33,35,37,39,-1,41,43,45,-1,47,49,-1,51,-1,-1,-1,-1,-1,-1,-1,-1,-1,-1,-1,-1,-1,-1,-1,-1,-1,-1,-1,-1,-1,-1,-1],"loss_changes":[1.4765498E-4,7.8753306E-5,5.8441874E-5,6.269727E-5,8.665738E-5,2.8424181E-5,6.9826216E-5,2.2065924E-5,3.341623E-5,9.3223105E-5,9.6892945E-6,1.984874E-6,3.9562867E-5,6.839013E-6,1.467539E-4,2.6503498E-5,0E0,2.7398887E-6,2.4967598E-5,4.454683E-5,1.3534652E-4,0E0,3.025416E-5,4.2102406E-6,9.742613E-6,0E0,3.2148382E-5,2.2343838E-5,0E0,7.948486E-5,0E0,0E0,0E0,0E0,0E0,0E0,0E0,0E0,0E0,0E0,0E0,0E0,0E0,0E0,0E0,0E0,0E0,0E0,0E0,0E0,0E0,0E0,0E0],"parents":[2147483647,0,0,1,1,2,2,3,3,4,4,5,5,6,6,7,7,8,8,9,9,10,10,11,11,12,12,13,13,14,14,15,15,17,17,18,18,19,19,20,20,22,22,23,23,24,24,26,26,27,27,29,29],"right_children":[2,4,6,8,10,12,14,16,18,20,22,24,26,28,30,32,-1,34,36,38,40,-1,42,44,46,-1,48,50,-1,52,-1,-1,-1,-1,-1,-1,-1,-1,-1,-1,-1,-1,-1,-1,-1,-1,-1,-1,-1,-1,-1,-1,-1],"split_conditions":[1.5492825E-3,2.3062244E-1,1E0,-5.744476E-4,-8.348868E-2,-2.3284376E1,3.9492163E-1,7.17519E1,3.9754887E-3,1E0,3.4363422E1,9.4951066E8,2.5E-1,2.1656626E1,5.185871E1,6.540909E-1,-0E0,6.507389E8,5.574013E-2,1.3983151E0,1.2858395E3,-0E0,1.7780962E1,2.88E0,-2.5872955E0,-0E0,-1.4830674E-2,9.49E1,-0E0,1.520048E-3,-0E0,1.602234E-5,-0E0,-2.686602E-6,-0E0,-0E0,-2.5595333E-5,1.4399843E-5,-0E0,8.2290986E-5,-0E0,-0E0,-3.434106E-5,5.076419E-6,-0E0,-0E0,-7.660969E-6,-0E0,-2.0656973E-5,-0E0,-2.5637306E-5,-0E0,-1.3036409E-4],"split_indices":[63,74,35,30,67,20,74,17,39,35,16,70,72,13,17,49,0,70,75,10,5,0,13,46,10,0,64,62,0,41,0,0,0,0,0,0,0,0,0,0,0,0,0,0,0,0,0,0,0,0,0,0,0],"split_type":[0,0,0,0,0,0,0,0,0,0,0,0,0,0,0,0,0,0,0,0,0,0,0,0,0,0,0,0,0,0,0,0,0,0,0,0,0,0,0,0,0,0,0,0,0,0,0,0,0,0,0,0,0],"sum_hessian":[7.93E3,5.355E3,2.575E3,3.836E3,1.519E3,2.146E3,4.29E2,1.297E3,2.539E3,1.387E3,1.32E2,1.216E3,9.3E2,3.27E2,1.02E2,1.027E3,2.7E2,2.185E3,3.54E2,1.157E3,2.3E2,3.2E1,1E2,7.07E2,5.09E2,2.42E2,6.88E2,1.47E2,1.8E2,6.6E1,3.6E1,9.53E2,7.4E1,9.44E2,1.241E3,8.7E1,2.67E2,9.15E2,2.42E2,1.47E2,8.3E1,2E1,8E1,5.96E2,1.11E2,9.9E1,4.1E2,4.4E1,6.44E2,4.1E1,1.06E2,6E0,6E1],"tree_param":{"num_deleted":"0","num_feature":"76","num_nodes":"53","size_leaf_vector":"1"}},{"base_weights":[-0E0,2.027505E-4,-8.570422E-5,4.7107336E-5,7.2104274E-4,-1.2865101E-4,1.9394963E-4,-0E0,2.7892133E-4,-0E0,1.0397775E-3,-4.2888136E-5,-3.4585266E-4,-0E0,4.2697717E-4,-9.2800496E-5,1.3391384E-4,7.33277E-4,-0E0,1.2587941E-3,-0E0,5.0806753E-5,-1.8047144E-4,-5.319968E-4,-0E0,6.5682724E-4,-0E0,-0E0,-8.686105E-6,-0E0,1.5263055E-5,5.269714E-5,-0E0,-0E0,8.118514E-5,6.1317464E-6,-0E0,-1.5633184E-5,-0E0,-3.3271554E-5,-0E0,1.1276872E-5,-0E0,-0E0,4.074882E-5],"categories":[],"categories_nodes":[],"categories_segments":[],"categories_sizes":[],"default_left":[0,0,0,0,0,0,0,0,0,0,0,0,0,0,0,0,0,0,0,0,0,0,0,0,0,1,0,0,0,0,0,0,0,0,0,0,0,0,0,0,0,0,0,0,0],"id":29,"left_children":[1,3,5,7,9,11,13,15,17,-1,19,21,23,-1,25,27,29,31,-1,33,-1,35,37,39,41,43,-1,-1,-1,-1,-1,-1,-1,-1,-1,-1,-1,-1,-1,-1,-1,-1,-1,-1,-1],"loss_changes":[1.3897973E-4,1.1573255E-4,6.026371E-5,2.6934005E-5,1.0725249E-4,5.651942E-5,2.7176971E-5,1.909347E-5,7.7262186E-5,0E0,6.827546E-5,6.470464E-5,1.1254317E-4,0E0,4.3326167E-5,1.6514823E-5,2.9066161E-5,6.466968E-5,0E0,5.523194E-5,0E0,1.7717883E-5,4.314496E-5,7.9831516E-5,9.7156235E-6,3.549447E-5,0E0,0E0,0E0,0E0,0E0,0E0,0E0,0E0,0E0,0E0,0E0,0E0,0E0,0E0,0E0,0E0,0E0,0E0,0E0],"parents":[2147483647,0,0,1,1,2,2,3,3,4,4,5,5,6,6,7,7,8,8,10,10,11,11,12,12,14,14,15,15,16,16,17,17,19,19,21,21,22,22,23,23,24,24,25,25],"right_children":[2,4,6,8,10,12,14,16,18,-1,20,22,24,-1,26,28,30,32,-1,34,-1,36,38,40,42,44,-1,-1,-1,-1,-1,-1,-1,-1,-1,-1,-1,-1,-1,-1,-1,-1,-1,-1,-1],"split_conditions":[-1.6647972E-3,1E0,8.6515956E-2,1E0,6.549869E8,1.2345375E9,2.6980343E-3,4.026415E-1,-3.742599E-3,-0E0,9.827E1,4.7977844E1,1.886E1,-0E0,8.3151746E-1,2.1161884E-3,1.6409091E0,3.8813213E-3,-0E0,-2.6173514E-1,-0E0,4.181929E-3,-2.5094835E-2,1E0,3.404821E1,-3.507711E-1,-0E0,-0E0,-8.686105E-6,-0E0,1.5263055E-5,5.269714E-5,-0E0,-0E0,8.118514E-5,6.1317464E-6,-0E0,-1.5633184E-5,-0E0,-3.3271554E-5,-0E0,1.1276872E-5,-0E0,-0E0,4.074882E-5],"split_indices":[63,35,60,36,70,70,42,43,63,0,62,16,59,0,23,42,52,41,0,67,0,63,74,37,12,67,0,0,0,0,0,0,0,0,0,0,0,0,0,0,0,0,0,0,0],"split_type":[0,0,0,0,0,0,0,0,0,0,0,0,0,0,0,0,0,0,0,0,0,0,0,0,0,0,0,0,0,0,0,0,0,0,0,0,0,0,0,0,0,0,0,0,0],"sum_hessian":[7.93E3,2.384E3,5.546E3,1.986E3,3.98E2,5.12E3,4.26E2,1.588E3,3.98E2,1.1E2,2.88E2,4.005E3,1.115E3,1.93E2,2.33E2,1.021E3,5.67E2,1.97E2,2.01E2,2.38E2,5E1,1.952E3,2.053E3,8.66E2,2.49E2,1.96E2,3.7E1,1.86E2,8.35E2,1.5E2,4.17E2,1.51E2,4.6E1,7.6E1,1.62E2,1.509E3,4.43E2,1.122E3,9.31E2,7.32E2,1.34E2,1.86E2,6.3E1,1.7E1,1.79E2],"tree_param":{"num_deleted":"0","num_feature":"76","num_nodes":"45","size_leaf_vector":"1"}},{"base_weights":[-0E0,1.5765587E-4,-1.0189436E-4,5.1392042E-5,7.192369E-4,-2.0356872E-5,-4.0276683E-4,2.1051426E-4,-0E0,1.0229744E-3,-0E0,-0E0,-2.2909607E-4,-9.974403E-6,-1.0375472E-3,-0E0,4.8481114E-4,2.3771543E-5,-1.3199415E-4,-0E0,1.2499416E-3,-4.8847473E-6,8.08036E-5,-0E0,-3.7516598E-4,4.1612966E-5,-3.535482E-4,-1.4144981E-3,-0E0,-0E0,-7.5385783E-6,3.338322E-5,-0E0,7.4747013E-6,-0E0,-0E0,-1.4165277E-5,7.1680784E-5,-0E0,-0E0,-3.2708278E-6,-0E0,7.9114525E-6,7.431088E-6,-0E0,-0E0,-3.795588E-5,1.263186E-5,-0E0,-2.429957E-5,-0E0,-0E0,-8.387014E-5],"categories":[],"categories_nodes":[],"categories_segments":[],"categories_sizes":[],"default_left":[0,0,0,0,0,0,0,0,0,0,0,0,0,0,0,0,0,0,0,0,0,0,0,0,0,0,0,0,0,0,0,0,0,0,0,0,0,0,0,0,0,0,0,0,0,0,0,0,0,0,0,0,0],"id":30,"left_children":[1,3,5,7,9,11,13,15,17,19,-1,21,23,25,27,29,31,33,35,-1,37,39,41,43,45,47,49,51,-1,-1,-1,-1,-1,-1,-1,-1,-1,-1,-1,-1,-1,-1,-1,-1,-1,-1,-1,-1,-1,-1,-1,-1,-1],"loss_changes":[1.2820007E-4,1.1144702E-4,7.486237E-5,3.746019E-5,1.020341E-4,3.8115253E-5,8.394416E-5,7.6859316E-5,1.3110104E-5,7.9386926E-5,0E0,8.255454E-6,4.9170045E-5,4.1369804E-5,1.07437474E-4,3.9326474E-6,7.082345E-5,1.4310569E-5,1.2389327E-5,0E0,7.168527E-5,6.888564E-6,1.5377085E-5,2.761053E-6,5.453494E-5,1.2465049E-5,2.9857489E-5,8.822995E-5,0E0,0E0,0E0,0E0,0E0,0E0,0E0,0E0,0E0,0E0,0E0,0E0,0E0,0E0,0E0,0E0,0E0,0E0,0E0,0E0,0E0,0E0,0E0,0E0,0E0],"parents":[2147483647,0,0,1,1,2,2,3,3,4,4,5,5,6,6,7,7,8,8,9,9,11,11,12,12,13,13,14,14,15,15,16,16,17,17,18,18,20,20,21,21,22,22,23,23,24,24,25,25,26,26,27,27],"right_children":[2,4,6,8,10,12,14,16,18,20,-1,22,24,26,28,30,32,34,36,-1,38,40,42,44,46,48,50,52,-1,-1,-1,-1,-1,-1,-1,-1,-1,-1,-1,-1,-1,-1,-1,-1,-1,-1,-1,-1,-1,-1,-1,-1,-1],"split_conditions":[-6.675296E-4,1.6624305E9,1E0,4.3807777E1,1.9212425E0,1E0,5E-2,3.3621092E-3,1.277246E3,-2.532079E-3,-0E0,8.748272E-4,1.6585715E0,3.313E0,9.50015E-1,2.0234299E0,1E0,8.481882E-1,4.742128E-2,-0E0,1.05517395E-2,-1.5701713E-2,-2.453127E0,1.7008717E2,9.7384966E8,1.7781132E-3,2.8970161E-2,1.5671428E0,-0E0,-0E0,-7.5385783E-6,3.338322E-5,-0E0,7.4747013E-6,-0E0,-0E0,-1.4165277E-5,7.1680784E-5,-0E0,-0E0,-3.2708278E-6,-0E0,7.9114525E-6,7.431088E-6,-0E0,-0E0,-3.795588E-5,1.263186E-5,-0E0,-2.429957E-5,-0E0,-0E0,-8.387014E-5],"split_indices":[63,70,35,18,21,36,53,29,7,27,0,60,52,68,44,22,32,23,75,0,29,45,9,20,70,30,65,52,0,0,0,0,0,0,0,0,0,0,0,0,0,0,0,0,0,0,0,0,0,0,0,0,0],"split_type":[0,0,0,0,0,0,0,0,0,0,0,0,0,0,0,0,0,0,0,0,0,0,0,0,0,0,0,0,0,0,0,0,0,0,0,0,0,0,0,0,0,0,0,0,0,0,0,0,0,0,0,0,0],"sum_hessian":[7.93E3,3.157E3,4.773E3,2.809E3,3.48E2,4.021E3,7.52E2,1.008E3,1.801E3,2.67E2,8.1E1,3.268E3,7.53E2,5.65E2,1.87E2,4.95E2,5.13E2,1.089E3,7.12E2,3.9E1,2.28E2,2.016E3,1.252E3,1.26E2,6.27E2,2.42E2,3.23E2,1.52E2,3.5E1,3.27E2,1.68E2,4.27E2,8.6E1,6.63E2,4.26E2,4.07E2,3.05E2,2.07E2,2.1E1,4E2,1.616E3,3.15E2,9.37E2,1.2E2,6E0,3.83E2,2.44E2,1.97E2,4.5E1,2.95E2,2.8E1,1.4E1,1.38E2],"tree_param":{"num_deleted":"0","num_feature":"76","num_nodes":"53","size_leaf_vector":"1"}},{"base_weights":[-0E0,8.568723E-5,-1.7581094E-4,-0E0,2.6396973E-4,-2.459051E-4,-0E0,1.8167484E-4,-7.057664E-5,3.6266245E-4,-1.8512856E-5,-0E0,-3.703099E-4,1.2347149E-4,-0E0,2.2619058E-4,-0E0,-0E0,-3.487546E-4,4.896243E-4,-0E0,-0E0,-2.8376386E-4,3.433071E-5,-1.18850774E-4,-0E0,-4.4093092E-4,3.5736253E-4,-0E0,1.7517596E-5,-0E0,-2.6373716E-6,-0E0,-0E0,-2.4824334E-5,4.9573166E-5,8.328414E-6,-0E0,-3.284268E-5,7.897521E-6,-0E0,-9.362708E-6,-0E0,-2.613889E-5,-0E0,2.3486693E-5,-0E0],"categories":[],"categories_nodes":[],"categories_segments":[],"categories_sizes":[],"default_left":[0,0,0,0,1,0,0,0,0,0,0,0,0,0,0,0,0,0,0,0,0,0,0,0,0,0,0,1,0,0,0,0,0,0,0,0,0,0,0,0,0,0,0,0,0,0,0],"id":31,"left_children":[1,3,5,7,9,11,13,15,17,19,21,23,25,27,-1,29,-1,31,33,35,-1,-1,37,39,41,-1,43,45,-1,-1,-1,-1,-1,-1,-1,-1,-1,-1,-1,-1,-1,-1,-1,-1,-1,-1,-1],"loss_changes":[1.1910123E-4,6.6837616E-5,4.8932226E-5,5.5645305E-5,7.693609E-5,6.2891064E-5,2.0428581E-6,1.9290881E-5,3.0993266E-5,8.517856E-5,8.407849E-6,3.5274572E-6,5.456606E-5,1.3282099E-5,0E0,2.6358583E-5,0E0,2.640395E-6,2.3382643E-5,6.478577E-5,0E0,0E0,2.821901E-5,8.424517E-6,4.0469663E-6,0E0,4.601825E-5,7.843282E-6,0E0,0E0,0E0,0E0,0E0,0E0,0E0,0E0,0E0,0E0,0E0,0E0,0E0,0E0,0E0,0E0,0E0,0E0,0E0],"parents":[2147483647,0,0,1,1,2,2,3,3,4,4,5,5,6,6,7,7,8,8,9,9,10,10,11,11,12,12,13,13,15,15,17,17,18,18,19,19,22,22,23,23,24,24,26,26,27,27],"right_children":[2,4,6,8,10,12,14,16,18,20,22,24,26,28,-1,30,-1,32,34,36,-1,-1,38,40,42,-1,44,46,-1,-1,-1,-1,-1,-1,-1,-1,-1,-1,-1,-1,-1,-1,-1,-1,-1,-1,-1],"split_conditions":[1.5492825E-3,2.3062244E-1,1.886E1,-5.744476E-4,-8.348868E-2,7.4090656E8,5.9E-1,6.540909E-1,3.9754887E-3,1.0056492E0,3.4363422E1,6.116158E1,-4.612313E-3,1.5079684E2,-0E0,-5.750462E-3,-0E0,6.507389E8,5.574013E-2,1.788E0,-0E0,-0E0,1.7780962E1,4.54596E-3,4.2931312E-1,-0E0,1E0,-1.0147731E-1,-0E0,1.7517596E-5,-0E0,-2.6373716E-6,-0E0,-0E0,-2.4824334E-5,4.9573166E-5,8.328414E-6,-0E0,-3.284268E-5,7.897521E-6,-0E0,-9.362708E-6,-0E0,-2.613889E-5,-0E0,2.3486693E-5,-0E0],"split_indices":[63,74,59,30,67,70,72,49,39,23,16,17,30,20,0,45,0,70,75,52,0,0,13,63,74,0,37,67,0,0,0,0,0,0,0,0,0,0,0,0,0,0,0,0,0,0,0],"split_type":[0,0,0,0,0,0,0,0,0,0,0,0,0,0,0,0,0,0,0,0,0,0,0,0,0,0,0,0,0,0,0,0,0,0,0,0,0,0,0,0,0,0,0,0,0,0,0],"sum_hessian":[7.93E3,5.355E3,2.575E3,3.836E3,1.519E3,2.123E3,4.52E2,1.297E3,2.539E3,1.387E3,1.32E2,7.31E2,1.392E3,1.29E2,3.23E2,1.212E3,8.5E1,2.185E3,3.54E2,1.114E3,2.73E2,3.2E1,1E2,5.31E2,2E2,1.31E2,1.261E3,1.15E2,1.4E1,7.17E2,4.95E2,9.44E2,1.241E3,8.7E1,2.67E2,3.11E2,8.03E2,2E1,8E1,3.58E2,1.73E2,1.93E2,7E0,1.064E3,1.97E2,1E2,1.5E1],"tree_param":{"num_deleted":"0","num_feature":"76","num_nodes":"47","size_leaf_vector":"1"}},{"base_weights":[-0E0,3.3816323E-4,-4.0806746E-5,-0E0,5.264722E-4,-2.2191173E-6,-5.1913253E-4,6.3019944E-4,-0E0,5.1045725E-5,-1.3099253E-4,-0E0,-1.1529535E-3,7.630023E-4,-0E0,-0E0,2.9659382E-4,-1.5206969E-5,-4.6575893E-4,-0E0,-1.3085523E-3,4.7524085E-5,-0E0,6.7496544E-6,-1.9900399E-7,3.0001649E-5,-0E0,2.762806E-7,-5.787351E-6,-3.187389E-5,-0E0,-0E0,-7.54326E-5],"categories":[],"categories_nodes":[],"categories_segments":[],"categories_sizes":[],"default_left":[0,0,0,0,0,0,0,0,0,0,0,0,0,0,0,0,0,0,0,0,0,0,0,0,0,0,0,0,0,0,0,0,0],"id":32,"left_children":[1,3,5,-1,7,9,11,13,-1,15,17,-1,19,21,-1,23,25,27,29,-1,31,-1,-1,-1,-1,-1,-1,-1,-1,-1,-1,-1,-1],"loss_changes":[1.1171196E-4,5.9428756E-5,7.8279474E-5,0E0,4.7144218E-5,5.423784E-5,7.48209E-5,4.2651154E-5,0E0,3.0700874E-5,4.9623523E-5,0E0,3.3794437E-5,5.6184566E-5,0E0,1.1821409E-5,6.523497E-5,1.5404778E-5,6.607463E-5,0E0,2.6699185E-5,0E0,0E0,0E0,0E0,0E0,0E0,0E0,0E0,0E0,0E0,0E0,0E0],"parents":[2147483647,0,0,1,1,2,2,4,4,5,5,6,6,7,7,9,9,10,10,12,12,13,13,15,15,16,16,17,17,18,18,20,20],"right_children":[2,4,6,-1,8,10,12,14,-1,16,18,-1,20,22,-1,24,26,28,30,-1,32,-1,-1,-1,-1,-1,-1,-1,-1,-1,-1,-1,-1],"split_conditions":[-4.673917E-3,-8.0255456E-2,1.0056492E0,-0E0,1.05517395E-2,1.5492825E-3,1.3066067E0,1E0,-0E0,6.650769E-3,1E0,-0E0,7.931706E1,1E0,-0E0,-3.5453672E-3,-6.503945E-3,-5.2912837E-5,1.15686E-2,-0E0,4.6609616E0,4.7524085E-5,-0E0,6.7496544E-6,-1.9900399E-7,3.0001649E-5,-0E0,2.762806E-7,-5.787351E-6,-3.187389E-5,-0E0,-0E0,-7.54326E-5],"split_indices":[63,74,23,0,29,63,21,32,0,29,35,0,17,34,0,64,45,64,64,0,24,0,0,0,0,0,0,0,0,0,0,0,0],"split_type":[0,0,0,0,0,0,0,0,0,0,0,0,0,0,0,0,0,0,0,0,0,0,0,0,0,0,0,0,0,0,0,0,0],"sum_hessian":[7.93E3,8.69E2,7.061E3,2.99E2,5.7E2,6.732E3,3.29E2,5.15E2,5.5E1,4.215E3,2.517E3,2.1E2,1.19E2,4.23E2,9.2E1,3.746E3,4.69E2,2.096E3,4.21E2,8E0,1.11E2,3.33E2,9E1,6.41E2,3.105E3,2.92E2,1.77E2,9.17E2,1.179E3,3.85E2,3.6E1,1.7E1,9.4E1],"tree_param":{"num_deleted":"0","num_feature":"76","num_nodes":"33","size_leaf_vector":"1"}},{"base_weights":[-0E0,1.727613E-4,-7.347777E-5,-0E0,5.459296E-4,-1.723125E-5,-3.7678768E-4,1.1728933E-4,-6.414939E-5,7.179398E-4,-0E0,-6.3443666E-5,2.2957685E-4,-5.129186E-4,-0E0,2.377438E-4,-0E0,-2.5158524E-4,-0E0,9.316798E-4,-0E0,-0E0,-2.0550955E-4,-0E0,4.550786E-4,-6.2822946E-5,-1.5237688E-3,1.9178136E-5,-0E0,-1.8156934E-5,-0E0,5.333236E-5,-0E0,-8.237759E-8,1.1157062E-5,-0E0,-1.4887518E-5,2.9119105E-5,-0E0,-0E0,-1.3047987E-5,-0E0,-9.712432E-5],"categories":[],"categories_nodes":[],"categories_segments":[],"categories_sizes":[],"default_left":[0,0,0,0,0,0,0,0,1,0,0,0,0,0,0,0,0,0,0,0,0,0,0,0,0,0,0,0,0,0,0,0,0,0,0,0,0,0,0,0,0,0,0],"id":33,"left_children":[1,3,5,7,9,11,13,15,17,19,-1,21,23,25,-1,27,-1,29,-1,31,-1,33,35,-1,37,39,41,-1,-1,-1,-1,-1,-1,-1,-1,-1,-1,-1,-1,-1,-1,-1,-1],"loss_changes":[1.0127297E-4,1.05433974E-4,5.526642E-5,1.8317365E-5,7.8404424E-5,4.0099712E-5,5.1727322E-5,2.883845E-5,2.0633248E-5,8.9465204E-5,0E0,5.7669167E-5,3.3188808E-5,7.5176504E-5,0E0,3.4045293E-5,0E0,1.8515366E-5,0E0,7.0666836E-5,0E0,1.917632E-5,3.9179715E-5,0E0,2.7915696E-5,6.611106E-6,8.911856E-5,0E0,0E0,0E0,0E0,0E0,0E0,0E0,0E0,0E0,0E0,0E0,0E0,0E0,0E0,0E0,0E0],"parents":[2147483647,0,0,1,1,2,2,3,3,4,4,5,5,6,6,7,7,8,8,9,9,11,11,12,12,13,13,15,15,17,17,19,19,21,21,22,22,24,24,25,25,26,26],"right_children":[2,4,6,8,10,12,14,16,18,20,-1,22,24,26,-1,28,-1,30,-1,32,-1,34,36,-1,38,40,42,-1,-1,-1,-1,-1,-1,-1,-1,-1,-1,-1,-1,-1,-1,-1,-1],"split_conditions":[-1.6647972E-3,1.2736351E9,7.2906506E-1,2.575619E-3,1E0,7.786255E-2,1.943E1,2.8443122E-2,-1.19359875E-2,1E0,-0E0,2.2505713E1,2.594375E-3,1E0,-0E0,7.85127E-1,-0E0,8.658112E-3,-0E0,1.5047E4,-0E0,6.3915323E-3,1.0952381E-2,-0E0,1.1089928E0,3.393202E-1,7.560731E-1,1.9178136E-5,-0E0,-1.8156934E-5,-0E0,5.333236E-5,-0E0,-8.237759E-8,1.1157062E-5,-0E0,-1.4887518E-5,2.9119105E-5,-0E0,-0E0,-1.3047987E-5,-0E0,-9.712432E-5],"split_indices":[63,70,74,40,34,60,59,60,66,37,0,12,42,35,0,23,0,29,0,73,0,29,49,0,21,10,22,0,0,0,0,0,0,0,0,0,0,0,0,0,0,0,0],"split_type":[0,0,0,0,0,0,0,0,0,0,0,0,0,0,0,0,0,0,0,0,0,0,0,0,0,0,0,0,0,0,0,0,0,0,0,0,0,0,0,0,0,0,0],"sum_hessian":[7.93E3,2.384E3,5.546E3,1.796E3,5.88E2,4.961E3,5.85E2,1.124E3,6.72E2,4.9E2,9.8E1,4.523E3,4.38E2,5.1E2,7.5E1,7.8E2,3.44E2,3.65E2,3.07E2,3.92E2,9.8E1,2.731E3,1.792E3,1.7E2,2.68E2,4.25E2,8.5E1,5.28E2,2.52E2,3.13E2,5.2E1,3.6E2,3.2E1,2.351E3,3.8E2,4.99E2,1.293E3,2.44E2,2.4E1,3.08E2,1.17E2,1.1E1,7.4E1],"tree_param":{"num_deleted":"0","num_feature":"76","num_nodes":"43","size_leaf_vector":"1"}},{"base_weights":[-0E0,3.0730988E-4,-3.8291466E-5,-0E0,6.4767984E-4,-6.984706E-7,-4.965925E-4,9.363071E-5,-0E0,-0E0,8.558567E-4,-5.158371E-5,1.8146688E-4,-0E0,-1.0970344E-3,1.7293837E-4,-0E0,-7.930313E-5,-0E0,1.0470256E-3,-0E0,4.4603153E-6,-1.9403339E-4,4.7010387E-4,-0E0,-0E0,-1.2621813E-3,-0E0,1.2447458E-5,-0E0,-1.4540844E-5,6.543348E-5,-0E0,-0E0,1.2668529E-5,-0E0,-2.1586282E-5,-0E0,3.1864005E-5,-0E0,-7.284145E-5],"categories":[],"categories_nodes":[],"categories_segments":[],"categories_sizes":[],"default_left":[0,0,0,0,0,0,0,0,0,0,0,0,0,0,0,0,0,0,0,0,0,0,0,0,0,0,0,0,0,0,0,0,0,0,0,0,0,0,0,0,0],"id":34,"left_children":[1,3,5,7,9,11,13,15,17,-1,19,21,23,-1,25,27,-1,29,-1,31,-1,33,35,37,-1,-1,39,-1,-1,-1,-1,-1,-1,-1,-1,-1,-1,-1,-1,-1,-1],"loss_changes":[9.290044E-5,5.5471937E-5,7.200864E-5,2.7527472E-6,5.9028025E-5,4.9507293E-5,6.68663E-5,5.1129723E-6,1.1131506E-6,0E0,5.4004136E-5,6.445934E-5,6.952267E-5,0E0,3.2381533E-5,5.397077E-6,0E0,1.2080466E-5,0E0,6.0652004E-5,0E0,1.7646837E-5,6.676159E-5,4.477318E-5,0E0,0E0,2.425442E-5,0E0,0E0,0E0,0E0,0E0,0E0,0E0,0E0,0E0,0E0,0E0,0E0,0E0,0E0],"parents":[2147483647,0,0,1,1,2,2,3,3,4,4,5,5,6,6,7,7,8,8,10,10,11,11,12,12,14,14,15,15,17,17,19,19,21,21,22,22,23,23,26,26],"right_children":[2,4,6,8,10,12,14,16,18,-1,20,22,24,-1,26,28,-1,30,-1,32,-1,34,36,38,-1,-1,40,-1,-1,-1,-1,-1,-1,-1,-1,-1,-1,-1,-1,-1,-1],"split_conditions":[-4.673917E-3,3.669877E-1,1.0056492E0,3.1337333E-3,-2.7488753E-1,1.904E1,1.3066067E0,1E0,8.228714E-6,-0E0,1E0,1.5492825E-3,1.62976E1,-0E0,-7.003132E-4,2.2706517E-3,-0E0,-1.049035E0,-0E0,1E0,-0E0,7.506761E-3,9.8949E8,6.471389E8,-0E0,-0E0,4.6609616E0,-0E0,1.2447458E-5,-0E0,-1.4540844E-5,6.543348E-5,-0E0,-0E0,1.2668529E-5,-0E0,-2.1586282E-5,-0E0,3.1864005E-5,-0E0,-7.284145E-5],"split_indices":[63,74,23,42,67,59,21,34,31,0,37,63,68,0,27,29,0,21,0,34,0,29,70,70,0,0,24,0,0,0,0,0,0,0,0,0,0,0,0,0,0],"split_type":[0,0,0,0,0,0,0,0,0,0,0,0,0,0,0,0,0,0,0,0,0,0,0,0,0,0,0,0,0,0,0,0,0,0,0,0,0,0,0,0,0],"sum_hessian":[7.93E3,8.69E2,7.061E3,5.45E2,3.24E2,6.732E3,3.29E2,3.09E2,2.36E2,6E1,2.64E2,5.694E3,1.038E3,2.1E2,1.19E2,2.58E2,5.1E1,1.72E2,6.4E1,2.24E2,4E1,3.586E3,2.108E3,4.65E2,5.73E2,1E1,1.09E2,4.9E1,2.09E2,2.1E1,1.51E2,1.77E2,4.7E1,3.315E3,2.71E2,1.328E3,7.8E2,1.04E2,3.61E2,1.7E1,9.2E1],"tree_param":{"num_deleted":"0","num_feature":"76","num_nodes":"41","size_leaf_vector":"1"}},{"base_weights":[-0E0,1.5341131E-4,-7.086905E-5,1.2527816E-5,6.092649E-4,-1.7649116E-5,-3.5021294E-4,1.2185126E-4,-1.2844514E-5,-0E0,8.9066604E-4,-6.170637E-5,2.0664724E-4,-4.8691596E-4,-0E0,-0E0,2.8532062E-4,-1.3617736E-4,-0E0,-0E0,1.3580169E-3,-0E0,-1.9457338E-4,-0E0,4.191863E-4,-6.8244047E-4,-0E0,2.0852245E-5,-0E0,-0E0,-9.684188E-6,-0E0,7.340861E-5,-2.3130659E-7,1.0679053E-5,-0E0,-1.3073544E-5,2.7286931E-5,-0E0,-0E0,-6.063778E-5],"categories":[],"categories_nodes":[],"categories_segments":[],"categories_sizes":[],"default_left":[0,0,0,0,0,0,0,0,0,0,0,0,0,0,0,0,0,0,0,0,0,0,1,0,0,0,0,0,0,0,0,0,0,0,0,0,0,0,0,0,0],"id":35,"left_children":[1,3,5,7,9,11,13,15,17,-1,19,21,23,25,-1,-1,27,29,-1,-1,31,33,35,-1,37,39,-1,-1,-1,-1,-1,-1,-1,-1,-1,-1,-1,-1,-1,-1,-1],"loss_changes":[8.588186E-5,9.7374854E-5,4.4280536E-5,1.6653023E-5,8.483131E-5,3.387231E-5,4.7677036E-5,2.689354E-5,9.951052E-6,0E0,9.343632E-5,5.024737E-5,2.8511453E-5,6.193753E-5,0E0,0E0,3.4376957E-5,8.424988E-6,0E0,0E0,4.55713E-5,1.733838E-5,3.6749007E-5,0E0,2.5456364E-5,7.320364E-5,0E0,0E0,0E0,0E0,0E0,0E0,0E0,0E0,0E0,0E0,0E0,0E0,0E0,0E0,0E0],"parents":[2147483647,0,0,1,1,2,2,3,3,4,4,5,5,6,6,7,7,8,8,10,10,11,11,12,12,13,13,16,16,17,17,20,20,21,21,22,22,24,24,25,25],"right_children":[2,4,6,8,10,12,14,16,18,-1,20,22,24,26,-1,-1,28,30,-1,-1,32,34,36,-1,38,40,-1,-1,-1,-1,-1,-1,-1,-1,-1,-1,-1,-1,-1,-1,-1],"split_conditions":[-1.5442593E-3,1E0,7.2906506E-1,3.0818182E-1,6.549869E8,7.786255E-2,1.943E1,3.2055555E-3,4.247452E-3,-0E0,-1.8397836E-2,2.2505713E1,2.594375E-3,4.0512434E-3,-0E0,-0E0,1.793147E0,-1.8317223E-1,-0E0,-0E0,-2.8390074E-1,6.3915323E-3,-2E-2,-0E0,1.1089928E0,1.245182E9,-0E0,2.0852245E-5,-0E0,-0E0,-9.684188E-6,-0E0,7.340861E-5,-2.3130659E-7,1.0679053E-5,-0E0,-1.3073544E-5,2.7286931E-5,-0E0,-0E0,-6.063778E-5],"split_indices":[63,35,74,49,70,60,59,39,65,0,60,12,42,40,0,0,21,66,0,0,66,29,51,0,21,70,0,0,0,0,0,0,0,0,0,0,0,0,0,0,0],"split_type":[0,0,0,0,0,0,0,0,0,0,0,0,0,0,0,0,0,0,0,0,0,0,0,0,0,0,0,0,0,0,0,0,0,0,0,0,0,0,0,0,0],"sum_hessian":[7.93E3,2.48E3,5.45E3,2.066E3,4.14E2,4.883E3,5.67E2,1.128E3,9.38E2,1.16E2,2.98E2,4.457E3,4.26E2,4.92E2,7.5E1,5.96E2,5.32E2,5.4E2,3.98E2,1.22E2,1.76E2,2.686E3,1.771E3,1.64E2,2.62E2,3.81E2,1.11E2,4.44E2,8.8E1,5.1E1,4.89E2,5E0,1.71E2,2.312E3,3.74E2,2.55E2,1.516E3,2.38E2,2.4E1,2.14E2,1.67E2],"tree_param":{"num_deleted":"0","num_feature":"76","num_nodes":"41","size_leaf_vector":"1"}},{"base_weights":[-0E0,6.975169E-5,-1.4585884E-4,1.4732125E-5,4.266374E-4,-3.500927E-5,-4.6315868E-4,8.306088E-5,-1.644914E-4,-0E0,1.8036446E-3,-0E0,-2.3315698E-4,-0E0,-1.1818717E-3,-0E0,1.6313235E-4,-0E0,-3.8445904E-4,6.282245E-5,-0E0,-0E0,2.440127E-3,3.561255E-5,-1.0899182E-5,-0E0,-4.8554086E-4,-0E0,-1.5942621E-4,-1.955244E-3,-0E0,-5.7511447E-6,-0E0,1.3675263E-5,-0E0,-2.3571323E-5,-0E0,-0E0,1.4884329E-5,-0E0,1.5291569E-4,6.4454034E-6,-0E0,-0E0,-3.9685838E-6,-0E0,-3.815157E-5,-0E0,-2.0254613E-5,-0E0,-1.13651506E-4],"categories":[],"categories_nodes":[],"categories_segments":[],"categories_sizes":[],"default_left":[0,0,0,0,0,0,0,0,0,0,0,0,0,1,0,0,0,0,0,0,0,0,0,0,0,0,0,0,0,0,0,0,0,0,0,0,0,0,0,0,0,0,0,0,0,0,0,0,0,0,0],"id":36,"left_children":[1,3,5,7,9,11,13,15,17,19,21,23,25,27,29,31,33,-1,35,37,-1,-1,39,41,43,-1,45,-1,47,49,-1,-1,-1,-1,-1,-1,-1,-1,-1,-1,-1,-1,-1,-1,-1,-1,-1,-1,-1,-1,-1],"loss_changes":[8.096699E-5,6.107894E-5,4.0847306E-5,5.1833285E-5,1.839149E-4,2.1011176E-5,5.9153565E-5,3.154169E-5,4.8697373E-5,1.069545E-6,1.3487684E-4,1.3154151E-6,4.1183688E-5,2.694172E-6,1.2682402E-4,3.4266388E-6,4.4145578E-5,0E0,2.6550471E-5,1.04507035E-5,0E0,0E0,8.148368E-5,8.977882E-6,4.168425E-6,0E0,4.520778E-5,0E0,1.3551698E-5,6.708913E-5,0E0,0E0,0E0,0E0,0E0,0E0,0E0,0E0,0E0,0E0,0E0,0E0,0E0,0E0,0E0,0E0,0E0,0E0,0E0,0E0,0E0],"parents":[2147483647,0,0,1,1,2,2,3,3,4,4,5,5,6,6,7,7,8,8,9,9,10,10,11,11,12,12,13,13,14,14,15,15,16,16,18,18,19,19,22,22,23,23,24,24,26,26,28,28,29,29],"right_children":[2,4,6,8,10,12,14,16,18,20,22,24,26,28,30,32,34,-1,36,38,-1,-1,40,42,44,-1,46,-1,48,50,-1,-1,-1,-1,-1,-1,-1,-1,-1,-1,-1,-1,-1,-1,-1,-1,-1,-1,-1,-1,-1],"split_conditions":[1.5492825E-3,8.3121467E-1,1E0,8.6013126E-1,1E0,1E0,3.9063448E-1,2.9850558E-3,3.5996265E-3,1.1680397E0,-1.8431086E-3,4.1630223E-1,2.9414725E-3,-1.686155E-1,5.185871E1,1.85E0,-4.1758968E-4,-0E0,2.2535857E2,3.1267485E1,-0E0,-0E0,4E-4,2.4E0,-3.0881863E-2,-0E0,-3.6520518E-3,-0E0,-4.8888773E-3,1.520048E-3,-0E0,-5.7511447E-6,-0E0,1.3675263E-5,-0E0,-2.3571323E-5,-0E0,-0E0,1.4884329E-5,-0E0,1.5291569E-4,6.4454034E-6,-0E0,-0E0,-3.9685838E-6,-0E0,-3.815157E-5,-0E0,-2.0254613E-5,-0E0,-1.13651506E-4],"split_indices":[63,74,35,23,35,36,74,29,29,10,27,23,63,67,17,46,63,0,20,20,0,0,68,46,65,0,30,0,27,