{"learner":{"attributes":{"scikit_learn":"{\"_estimator_type\": \"regressor\"}"},"feature_names":[],"feature_types":[],"gradient_booster":{"model":{"cats":{"enc":[],"feature_segments":[],"sorted_idx":[]},"gbtree_model_param":{"num_parallel_tree":"1","num_trees":"300"},"iteration_indptr":[0,1,2,3,4,5,6,7,8,9,10,11,12,13,14,15,16,17,18,19,20,21,22,23,24,25,26,27,28,29,30,31,32,33,34,35,36,37,38,39,40,41,42,43,44,45,46,47,48,49,50,51,52,53,54,55,56,57,58,59,60,61,62,63,64,65,66,67,68,69,70,71,72,73,74,75,76,77,78,79,80,81,82,83,84,85,86,87,88,89,90,91,92,93,94,95,96,97,98,99,100,101,102,103,104,105,106,107,108,109,110,111,112,113,114,115,116,117,118,119,120,121,122,123,124,125,126,127,128,129,130,131,132,133,134,135,136,137,138,139,140,141,142,143,144,145,146,147,148,149,150,151,152,153,154,155,156,157,158,159,160,161,162,163,164,165,166,167,168,169,170,171,172,173,174,175,176,177,178,179,180,181,182,183,184,185,186,187,188,189,190,191,192,193,194,195,196,197,198,199,200,201,202,203,204,205,206,207,208,209,210,211,212,213,214,215,216,217,218,219,220,221,222,223,224,225,226,227,228,229,230,231,232,233,234,235,236,237,238,239,240,241,242,243,244,245,246,247,248,249,250,251,252,253,254,255,256,257,258,259,260,261,262,263,264,265,266,267,268,269,270,271,272,273,274,275,276,277,278,279,280,281,282,283,284,285,286,287,288,289,290,291,292,293,294,295,296,297,298,299,300],"tree_info":[0,0,0,0,0,0,0,0,0,0,0,0,0,0,0,0,0,0,0,0,0,0,0,0,0,0,0,0,0,0,0,0,0,0,0,0,0,0,0,0,0,0,0,0,0,0,0,0,0,0,0,0,0,0,0,0,0,0,0,0,0,0,0,0,0,0,0,0,0,0,0,0,0,0,0,0,0,0,0,0,0,0,0,0,0,0,0,0,0,0,0,0,0,0,0,0,0,0,0,0,0,0,0,0,0,0,0,0,0,0,0,0,0,0,0,0,0,0,0,0,0,0,0,0,0,0,0,0,0,0,0,0,0,0,0,0,0,0,0,0,0,0,0,0,0,0,0,0,0,0,0,0,0,0,0,0,0,0,0,0,0,0,0,0,0,0,0,0,0,0,0,0,0,0,0,0,0,0,0,0,0,0,0,0,0,0,0,0,0,0,0,0,0,0,0,0,0,0,0,0,0,0,0,0,0,0,0,0,0,0,0,0,0,0,0,0,0,0,0,0,0,0,0,0,0,0,0,0,0,0,0,0,0,0,0,0,0,0,0,0,0,0,0,0,0,0,0,0,0,0,0,0,0,0,0,0,0,0,0,0,0,0,0,0,0,0,0,0,0,0,0,0,0,0,0,0,0,0,0,0,0,0,0,0,0,0,0,0,0,0,0,0,0,0,0,0,0,0,0,0],"trees":[{"base_weights":[-0E0,-2.8426117E-5,3.64491E-5,-0E0,-4.650116E-5,8.533944E-5,-0E0,-5.5792503E-7,-0E0,1.194112E-6,-0E0],"categories":[],"categories_nodes":[],"categories_segments":[],"categories_sizes":[],"default_left":[0,0,0,0,0,0,0,0,0,0,0],"id":0,"left_children":[1,3,5,-1,7,9,-1,-1,-1,-1,-1],"loss_changes":[1.3128503E-5,9.221862E-6,2.5207299E-5,0E0,5.626205E-6,2.06599E-5,0E0,0E0,0E0,0E0,0E0],"parents":[2147483647,0,0,1,1,2,2,4,4,5,5],"right_children":[2,4,6,-1,8,10,-1,-1,-1,-1,-1],"split_conditions":[1.6728693E-3,-5.683029E-3,1E0,-0E0,1.6812265E2,3.627303E-3,-0E0,-5.5792503E-7,-0E0,1.194112E-6,-0E0],"split_indices":[64,30,33,0,20,63,0,0,0,0,0],"split_type":[0,0,0,0,0,0,0,0,0,0,0],"sum_hessian":[1.2669E4,7.118E3,5.551E3,1.94E2,6.924E3,4.473E3,1.078E3,6.617E3,3.07E2,3.733E3,7.4E2],"tree_param":{"num_deleted":"0","num_feature":"70","num_nodes":"11","size_leaf_vector":"1"}},{"base_weights":[-0E0,-2.7907528E-5,3.56462E-5,-0E0,-4.5968045E-5,8.434308E-5,-0E0,-5.5234653E-7,-0E0,1.1821738E-6,-0E0],"categories":[],"categories_nodes":[],"categories_segments":[],"categories_sizes":[],"default_left":[0,0,0,0,0,0,0,0,0,0,0],"id":1,"left_children":[1,3,5,-1,7,9,-1,-1,-1,-1,-1],"loss_changes":[1.259915E-5,9.088456E-6,2.477228E-5,0E0,5.557693E-6,2.035702E-5,0E0,0E0,0E0,0E0,0E0],"parents":[2147483647,0,0,1,1,2,2,4,4,5,5],"right_children":[2,4,6,-1,8,10,-1,-1,-1,-1,-1],"split_conditions":[1.6728693E-3,-5.683029E-3,1E0,-0E0,1.6812265E2,3.627303E-3,-0E0,-5.5234653E-7,-0E0,1.1821738E-6,-0E0],"split_indices":[64,30,33,0,20,63,0,0,0,0,0],"split_type":[0,0,0,0,0,0,0,0,0,0,0],"sum_hessian":[1.2669E4,7.118E3,5.551E3,1.94E2,6.924E3,4.473E3,1.078E3,6.617E3,3.07E2,3.733E3,7.4E2],"tree_param":{"num_deleted":"0","num_feature":"70","num_nodes":"11","size_leaf_vector":"1"}},{"base_weights":[-0E0,-2.7394146E-5,3.4851364E-5,-0E0,-4.544028E-5,8.3356725E-5,-0E0,-5.468241E-7,-0E0,1.1703556E-6,-0E0],"categories":[],"categories_nodes":[],"categories_segments":[],"categories_sizes":[],"default_left":[0,0,0,0,0,0,0,0,0,0,0],"id":2,"left_children":[1,3,5,-1,7,9,-1,-1,-1,-1,-1],"loss_changes":[1.2085933E-5,8.956495E-6,2.4343333E-5,0E0,5.4900474E-6,2.005891E-5,0E0,0E0,0E0,0E0,0E0],"parents":[2147483647,0,0,1,1,2,2,4,4,5,5],"right_children":[2,4,6,-1,8,10,-1,-1,-1,-1,-1],"split_conditions":[1.6728693E-3,-5.683029E-3,1E0,-0E0,1.6812265E2,3.627303E-3,-0E0,-5.468241E-7,-0E0,1.1703556E-6,-0E0],"split_indices":[64,30,33,0,20,63,0,0,0,0,0],"split_type":[0,0,0,0,0,0,0,0,0,0,0],"sum_hessian":[1.2669E4,7.118E3,5.551E3,1.94E2,6.924E3,4.473E3,1.078E3,6.617E3,3.07E2,3.733E3,7.4E2],"tree_param":{"num_deleted":"0","num_feature":"70","num_nodes":"11","size_leaf_vector":"1"}},{"base_weights":[-0E0,-2.6885866E-5,3.4064436E-5,-0E0,-4.491776E-5,8.238019E-5,-0E0,-0E0,-6.075802E-7,1.1586549E-6,-0E0],"categories":[],"categories_nodes":[],"categories_segments":[],"categories_sizes":[],"default_left":[0,0,0,0,0,0,0,0,0,0,0],"id":3,"left_children":[1,3,5,-1,7,9,-1,-1,-1,-1,-1],"loss_changes":[1.1588429E-5,8.825948E-6,2.392032E-5,0E0,5.456647E-6,1.9765466E-5,0E0,0E0,0E0,0E0,0E0],"parents":[2147483647,0,0,1,1,2,2,4,4,5,5],"right_children":[2,4,6,-1,8,10,-1,-1,-1,-1,-1],"split_conditions":[1.6728693E-3,-5.683029E-3,1E0,-0E0,-2.374541E-3,3.627303E-3,-0E0,-0E0,-6.075802E-7,1.1586549E-6,-0E0],"split_indices":[64,30,33,0,63,63,0,0,0,0,0],"split_type":[0,0,0,0,0,0,0,0,0,0,0],"sum_hessian":[1.2669E4,7.118E3,5.551E3,1.94E2,6.924E3,4.473E3,1.078E3,1.662E3,5.262E3,3.733E3,7.4E2],"tree_param":{"num_deleted":"0","num_feature":"70","num_nodes":"11","size_leaf_vector":"1"}},{"base_weights":[-0E0,-2.6436759E-5,3.328542E-5,-0E0,-4.4456072E-5,8.141348E-5,-0E0,-5.3672835E-7,-0E0,1.1470719E-6,-0E0],"categories":[],"categories_nodes":[],"categories_segments":[],"categories_sizes":[],"default_left":[0,0,0,0,0,0,0,0,0,0,0],"id":4,"left_children":[1,3,5,-1,7,9,-1,-1,-1,-1,-1],"loss_changes":[1.1126653E-5,8.7106855E-6,2.3503193E-5,0E0,5.378786E-6,1.9476638E-5,0E0,0E0,0E0,0E0,0E0],"parents":[2147483647,0,0,1,1,2,2,4,4,5,5],"right_children":[2,4,6,-1,8,10,-1,-1,-1,-1,-1],"split_conditions":[1.6728693E-3,-5.683029E-3,1E0,-0E0,1.6812265E2,3.627303E-3,-0E0,-5.3672835E-7,-0E0,1.1470719E-6,-0E0],"split_indices":[64,30,33,0,20,63,0,0,0,0,0],"split_type":[0,0,0,0,0,0,0,0,0,0,0],"sum_hessian":[1.2669E4,7.118E3,5.551E3,1.94E2,6.924E3,4.473E3,1.078E3,6.617E3,3.07E2,3.733E3,7.4E2],"tree_param":{"num_deleted":"0","num_feature":"70","num_nodes":"11","size_leaf_vector":"1"}},{"base_weights":[-0E0,-2.5937894E-5,3.251415E-5,-0E0,-4.394323E-5,8.045636E-5,-0E0,-0E0,-5.963647E-7,1.135604E-6,-0E0],"categories":[],"categories_nodes":[],"categories_segments":[],"categories_sizes":[],"default_left":[0,0,0,0,0,0,0,0,0,0,0],"id":5,"left_children":[1,3,5,-1,7,9,-1,-1,-1,-1,-1],"loss_changes":[1.0658887E-5,8.582747E-6,2.309181E-5,0E0,5.3456806E-6,1.9192315E-5,0E0,0E0,0E0,0E0,0E0],"parents":[2147483647,0,0,1,1,2,2,4,4,5,5],"right_children":[2,4,6,-1,8,10,-1,-1,-1,-1,-1],"split_conditions":[1.6728693E-3,-5.683029E-3,1E0,-0E0,-2.374541E-3,3.627303E-3,-0E0,-0E0,-5.963647E-7,1.135604E-6,-0E0],"split_indices":[64,30,33,0,63,63,0,0,0,0,0],"split_type":[0,0,0,0,0,0,0,0,0,0,0],"sum_hessian":[1.2669E4,7.118E3,5.551E3,1.94E2,6.924E3,4.473E3,1.078E3,1.662E3,5.262E3,3.733E3,7.4E2],"tree_param":{"num_deleted":"0","num_feature":"70","num_nodes":"11","size_leaf_vector":"1"}},{"base_weights":[-0E0,-2.5497098E-5,3.175062E-5,-0E0,-4.3490087E-5,7.950886E-5,-0E0,-5.268196E-7,-0E0,1.1242513E-6,-0E0],"categories":[],"categories_nodes":[],"categories_segments":[],"categories_sizes":[],"default_left":[0,0,0,0,0,0,0,0,0,0,0],"id":6,"left_children":[1,3,5,-1,7,9,-1,-1,-1,-1,-1],"loss_changes":[1.0225057E-5,8.469784E-6,2.2686125E-5,0E0,5.2696605E-6,1.8912451E-5,0E0,0E0,0E0,0E0,0E0],"parents":[2147483647,0,0,1,1,2,2,4,4,5,5],"right_children":[2,4,6,-1,8,10,-1,-1,-1,-1,-1],"split_conditions":[1.6728693E-3,-5.683029E-3,1E0,-0E0,1.6812265E2,3.627303E-3,-0E0,-5.268196E-7,-0E0,1.1242513E-6,-0E0],"split_indices":[64,30,33,0,20,63,0,0,0,0,0],"split_type":[0,0,0,0,0,0,0,0,0,0,0],"sum_hessian":[1.2669E4,7.118E3,5.551E3,1.94E2,6.924E3,4.473E3,1.078E3,6.617E3,3.07E2,3.733E3,7.4E2],"tree_param":{"num_deleted":"0","num_feature":"70","num_nodes":"11","size_leaf_vector":"1"}},{"base_weights":[-0E0,-2.500742E-5,3.099469E-5,-0E0,-4.2986692E-5,7.85708E-5,-0E0,-0E0,-5.853562E-7,1.1130115E-6,-0E0],"categories":[],"categories_nodes":[],"categories_segments":[],"categories_sizes":[],"default_left":[0,0,0,0,0,0,0,0,0,0,0],"id":7,"left_children":[1,3,5,-1,7,9,-1,-1,-1,-1,-1],"loss_changes":[9.785662E-6,8.344384E-6,2.2286014E-5,0E0,5.2368423E-6,1.8636942E-5,0E0,0E0,0E0,0E0,0E0],"parents":[2147483647,0,0,1,1,2,2,4,4,5,5],"right_children":[2,4,6,-1,8,10,-1,-1,-1,-1,-1],"split_conditions":[1.6728693E-3,-5.683029E-3,1E0,-0E0,-2.374541E-3,3.627303E-3,-0E0,-0E0,-5.853562E-7,1.1130115E-6,-0E0],"split_indices":[64,30,33,0,63,63,0,0,0,0,0],"split_type":[0,0,0,0,0,0,0,0,0,0,0],"sum_hessian":[1.2669E4,7.118E3,5.551E3,1.94E2,6.924E3,4.473E3,1.078E3,1.662E3,5.262E3,3.733E3,7.4E2],"tree_param":{"num_deleted":"0","num_feature":"70","num_nodes":"11","size_leaf_vector":"1"}},{"base_weights":[-0E0,-2.457476E-5,3.0246334E-5,-0E0,-4.254191E-5,7.764213E-5,-0E0,-5.1709344E-7,-0E0,1.1018844E-6,-0E0],"categories":[],"categories_nodes":[],"categories_segments":[],"categories_sizes":[],"default_left":[0,0,0,0,0,0,0,0,0,0,0],"id":8,"left_children":[1,3,5,-1,7,9,-1,-1,-1,-1,-1],"loss_changes":[9.378495E-6,8.233665E-6,2.1891417E-5,0E0,5.1626166E-6,1.8365721E-5,0E0,0E0,0E0,0E0,0E0],"parents":[2147483647,0,0,1,1,2,2,4,4,5,5],"right_children":[2,4,6,-1,8,10,-1,-1,-1,-1,-1],"split_conditions":[1.6728693E-3,-5.683029E-3,1E0,-0E0,1.6812265E2,3.627303E-3,-0E0,-5.1709344E-7,-0E0,1.1018844E-6,-0E0],"split_indices":[64,30,33,0,20,63,0,0,0,0,0],"split_type":[0,0,0,0,0,0,0,0,0,0,0],"sum_hessian":[1.2669E4,7.118E3,5.551E3,1.94E2,6.924E3,4.473E3,1.078E3,6.617E3,3.07E2,3.733E3,7.4E2],"tree_param":{"num_deleted":"0","num_feature":"70","num_nodes":"11","size_leaf_vector":"1"}},{"base_weights":[-0E0,-2.4094112E-5,2.9505458E-5,-0E0,-4.20478E-5,7.672274E-5,-0E0,-0E0,-5.7455077E-7,1.0908685E-6,-0E0],"categories":[],"categories_nodes":[],"categories_segments":[],"categories_sizes":[],"default_left":[0,0,0,0,0,0,0,0,0,0,0],"id":9,"left_children":[1,3,5,-1,7,9,-1,-1,-1,-1,-1],"loss_changes":[8.966183E-6,8.110754E-6,2.1502241E-5,0E0,5.130096E-6,1.8098724E-5,0E0,0E0,0E0,0E0,0E0],"parents":[2147483647,0,0,1,1,2,2,4,4,5,5],"right_children":[2,4,6,-1,8,10,-1,-1,-1,-1,-1],"split_conditions":[1.6728693E-3,-5.683029E-3,1E0,-0E0,-2.374541E-3,3.627303E-3,-0E0,-0E0,-5.7455077E-7,1.0908685E-6,-0E0],"split_indices":[64,30,33,0,63,63,0,0,0,0,0],"split_type":[0,0,0,0,0,0,0,0,0,0,0],"sum_hessian":[1.2669E4,7.118E3,5.551E3,1.94E2,6.924E3,4.473E3,1.078E3,1.662E3,5.262E3,3.733E3,7.4E2],"tree_param":{"num_deleted":"0","num_feature":"70","num_nodes":"11","size_leaf_vector":"1"}},{"base_weights":[-0E0,-2.3669423E-5,2.8772001E-5,-0E0,-4.1611213E-5,7.581255E-5,-0E0,-5.075466E-7,-0E0,1.0799629E-6,-0E0],"categories":[],"categories_nodes":[],"categories_segments":[],"categories_sizes":[],"default_left":[0,0,0,0,0,0,0,0,0,0,0],"id":10,"left_children":[1,3,5,-1,7,9,-1,-1,-1,-1,-1],"loss_changes":[8.584462E-6,8.002229E-6,2.1118409E-5,0E0,5.057611E-6,1.7835877E-5,0E0,0E0,0E0,0E0,0E0],"parents":[2147483647,0,0,1,1,2,2,4,4,5,5],"right_children":[2,4,6,-1,8,10,-1,-1,-1,-1,-1],"split_conditions":[1.6728693E-3,-5.683029E-3,1E0,-0E0,1.6812265E2,3.627303E-3,-0E0,-5.075466E-7,-0E0,1.0799629E-6,-0E0],"split_indices":[64,30,33,0,20,63,0,0,0,0,0],"split_type":[0,0,0,0,0,0,0,0,0,0,0],"sum_hessian":[1.2669E4,7.118E3,5.551E3,1.94E2,6.924E3,4.473E3,1.078E3,6.617E3,3.07E2,3.733E3,7.4E2],"tree_param":{"num_deleted":"0","num_feature":"70","num_nodes":"11","size_leaf_vector":"1"}},{"base_weights":[-0E0,-2.3197686E-5,2.8045855E-5,-0E0,-4.112626E-5,7.491145E-5,-0E0,-0E0,-5.6394515E-7,1.069166E-6,-0E0],"categories":[],"categories_nodes":[],"categories_segments":[],"categories_sizes":[],"default_left":[0,0,0,0,0,0,0,0,0,0,0],"id":11,"left_children":[1,3,5,-1,7,9,-1,-1,-1,-1,-1],"loss_changes":[8.198003E-6,7.881765E-6,2.073982E-5,0E0,5.0254057E-6,1.7577097E-5,0E0,0E0,0E0,0E0,0E0],"parents":[2147483647,0,0,1,1,2,2,4,4,5,5],"right_children":[2,4,6,-1,8,10,-1,-1,-1,-1,-1],"split_conditions":[1.6728693E-3,-5.683029E-3,1E0,-0E0,-2.374541E-3,3.627303E-3,-0E0,-0E0,-5.6394515E-7,1.069166E-6,-0E0],"split_indices":[64,30,33,0,63,63,0,0,0,0,0],"split_type":[0,0,0,0,0,0,0,0,0,0,0],"sum_hessian":[1.2669E4,7.118E3,5.551E3,1.94E2,6.924E3,4.473E3,1.078E3,1.662E3,5.262E3,3.733E3,7.4E2],"tree_param":{"num_deleted":"0","num_feature":"70","num_nodes":"11","size_leaf_vector":"1"}},{"base_weights":[-0E0,-2.2780832E-5,2.7326985E-5,-0E0,-4.0697727E-5,7.4019365E-5,-0E0,-4.9817623E-7,-0E0,1.0584772E-6,-0E0],"categories":[],"categories_nodes":[],"categories_segments":[],"categories_sizes":[],"default_left":[0,0,0,0,0,0,0,0,0,0,0],"id":12,"left_children":[1,3,5,-1,7,9,-1,-1,-1,-1,-1],"loss_changes":[7.840556E-6,7.77539E-6,2.0366415E-5,0E0,4.954615E-6,1.7322322E-5,0E0,0E0,0E0,0E0,0E0],"parents":[2147483647,0,0,1,1,2,2,4,4,5,5],"right_children":[2,4,6,-1,8,10,-1,-1,-1,-1,-1],"split_conditions":[1.6728693E-3,-5.683029E-3,1E0,-0E0,1.6812265E2,3.627303E-3,-0E0,-4.9817623E-7,-0E0,1.0584772E-6,-0E0],"split_indices":[64,30,33,0,20,63,0,0,0,0,0],"split_type":[0,0,0,0,0,0,0,0,0,0,0],"sum_hessian":[1.2669E4,7.118E3,5.551E3,1.94E2,6.924E3,4.473E3,1.078E3,6.617E3,3.07E2,3.733E3,7.4E2],"tree_param":{"num_deleted":"0","num_feature":"70","num_nodes":"11","size_leaf_vector":"1"}},{"base_weights":[-0E0,-2.2317812E-5,2.6615271E-5,-0E0,-4.0221734E-5,7.3136165E-5,-0E0,-0E0,-5.535352E-7,1.047895E-6,-0E0],"categories":[],"categories_nodes":[],"categories_segments":[],"categories_sizes":[],"default_left":[0,0,0,0,0,0,0,0,0,0,0],"id":13,"left_children":[1,3,5,-1,7,9,-1,-1,-1,-1,-1],"loss_changes":[7.4787504E-6,7.657316E-6,1.999809E-5,0E0,4.9227165E-6,1.7071477E-5,0E0,0E0,0E0,0E0,0E0],"parents":[2147483647,0,0,1,1,2,2,4,4,5,5],"right_children":[2,4,6,-1,8,10,-1,-1,-1,-1,-1],"split_conditions":[1.6728693E-3,-5.683029E-3,1E0,-0E0,-2.374541E-3,3.627303E-3,-0E0,-0E0,-5.535352E-7,1.047895E-6,-0E0],"split_indices":[64,30,33,0,63,63,0,0,0,0,0],"split_type":[0,0,0,0,0,0,0,0,0,0,0],"sum_hessian":[1.2669E4,7.118E3,5.551E3,1.94E2,6.924E3,4.473E3,1.078E3,1.662E3,5.262E3,3.733E3,7.4E2],"tree_param":{"num_deleted":"0","num_feature":"70","num_nodes":"11","size_leaf_vector":"1"}},{"base_weights":[-0E0,-2.9938217E-5,1.853536E-5,-0E0,-4.8093618E-5,5.2359424E-5,-0E0,-6.8766866E-7,-0E0,-0E0,7.935087E-7],"categories":[],"categories_nodes":[],"categories_segments":[],"categories_sizes":[],"default_left":[0,0,0,0,0,0,0,0,0,0,0],"id":14,"left_children":[1,3,5,-1,7,9,-1,-1,-1,-1,-1],"loss_changes":[7.16944E-6,6.841064E-6,1.41423325E-5,0E0,7.276117E-6,1.8314116E-5,0E0,0E0,0E0,0E0,0E0],"parents":[2147483647,0,0,1,1,2,2,4,4,5,5],"right_children":[2,4,6,-1,8,10,-1,-1,-1,-1,-1],"split_conditions":[-7.706705E-4,-5.683029E-3,1E0,-0E0,1E0,-1.5E-1,-0E0,-6.8766866E-7,-0E0,-0E0,7.935087E-7],"split_indices":[64,30,33,0,33,53,0,0,0,0,0],"split_type":[0,0,0,0,0,0,0,0,0,0,0],"sum_hessian":[1.2669E4,5.094E3,7.575E3,1.63E2,4.931E3,6.107E3,1.468E3,3.95E3,9.81E2,5.4E2,5.567E3],"tree_param":{"num_deleted":"0","num_feature":"70","num_nodes":"11","size_leaf_vector":"1"}},{"base_weights":[-0E0,-2.1691401E-5,2.5325746E-5,-0E0,-3.9575254E-5,7.1535935E-5,-0E0,-4.8670955E-7,-0E0,1.030177E-6,-0E0],"categories":[],"categories_nodes":[],"categories_segments":[],"categories_sizes":[],"default_left":[0,0,0,0,0,0,0,0,0,0,0],"id":15,"left_children":[1,3,5,-1,7,9,-1,-1,-1,-1,-1],"loss_changes":[6.9106254E-6,7.496331E-6,1.9334186E-5,0E0,4.8311867E-6,1.6732421E-5,0E0,0E0,0E0,0E0,0E0],"parents":[2147483647,0,0,1,1,2,2,4,4,5,5],"right_children":[2,4,6,-1,8,10,-1,-1,-1,-1,-1],"split_conditions":[1.6728693E-3,-5.683029E-3,1E0,-0E0,1.6812265E2,3.627303E-3,-0E0,-4.8670955E-7,-0E0,1.030177E-6,-0E0],"split_indices":[64,30,33,0,20,63,0,0,0,0,0],"split_type":[0,0,0,0,0,0,0,0,0,0,0],"sum_hessian":[1.2669E4,7.118E3,5.551E3,1.94E2,6.924E3,4.473E3,1.078E3,6.617E3,3.07E2,3.733E3,7.4E2],"tree_param":{"num_deleted":"0","num_feature":"70","num_nodes":"11","size_leaf_vector":"1"}},{"base_weights":[-0E0,-2.8953524E-5,1.7566075E-5,-0E0,-4.707638E-5,5.112794E-5,-0E0,-6.76147E-7,-0E0,-0E0,7.8047236E-7],"categories":[],"categories_nodes":[],"categories_segments":[],"categories_sizes":[],"default_left":[0,0,0,0,0,0,0,0,0,0,0],"id":16,"left_children":[1,3,5,-1,7,9,-1,-1,-1,-1,-1],"loss_changes":[6.608876E-6,6.659056E-6,1.3629011E-5,0E0,7.1327495E-6,1.7950042E-5,0E0,0E0,0E0,0E0,0E0],"parents":[2147483647,0,0,1,1,2,2,4,4,5,5],"right_children":[2,4,6,-1,8,10,-1,-1,-1,-1,-1],"split_conditions":[-7.706705E-4,-5.683029E-3,1E0,-0E0,1E0,-1.5E-1,-0E0,-6.76147E-7,-0E0,-0E0,7.8047236E-7],"split_indices":[64,30,33,0,33,53,0,0,0,0,0],"split_type":[0,0,0,0,0,0,0,0,0,0,0],"sum_hessian":[1.2669E4,5.094E3,7.575E3,1.63E2,4.931E3,6.107E3,1.468E3,3.95E3,9.81E2,5.4E2,5.567E3],"tree_param":{"num_deleted":"0","num_feature":"70","num_nodes":"11","size_leaf_vector":"1"}},{"base_weights":[-0E0,-2.102544E-5,2.4057716E-5,-0E0,-3.888816E-5,6.996237E-5,-0E0,-0E0,-5.3874703E-7,1.0127548E-6,-0E0],"categories":[],"categories_nodes":[],"categories_segments":[],"categories_sizes":[],"default_left":[0,0,0,0,0,0,0,0,0,0,0],"id":17,"left_children":[1,3,5,-1,7,9,-1,-1,-1,-1,-1],"loss_changes":[6.360442E-6,7.32551E-6,1.8685687E-5,0E0,4.8031707E-6,1.6399561E-5,0E0,0E0,0E0,0E0,0E0],"parents":[2147483647,0,0,1,1,2,2,4,4,5,5],"right_children":[2,4,6,-1,8,10,-1,-1,-1,-1,-1],"split_conditions":[1.6728693E-3,-5.683029E-3,1E0,-0E0,-2.374541E-3,3.627303E-3,-0E0,-0E0,-5.3874703E-7,1.0127548E-6,-0E0],"split_indices":[64,30,33,0,63,63,0,0,0,0,0],"split_type":[0,0,0,0,0,0,0,0,0,0,0],"sum_hessian":[1.2669E4,7.118E3,5.551E3,1.94E2,6.924E3,4.473E3,1.078E3,1.662E3,5.262E3,3.733E3,7.4E2],"tree_param":{"num_deleted":"0","num_feature":"70","num_nodes":"11","size_leaf_vector":"1"}},{"base_weights":[-0E0,-2.8031247E-5,1.66E-5,-0E0,-4.6123623E-5,4.9904185E-5,-0E0,-6.652765E-7,-0E0,-0E0,7.6751235E-7],"categories":[],"categories_nodes":[],"categories_segments":[],"categories_sizes":[],"default_left":[0,0,0,0,0,0,0,0,0,0,0],"id":18,"left_children":[1,3,5,-1,7,9,-1,-1,-1,-1,-1],"loss_changes":[6.0910425E-6,6.48888E-6,1.312389E-5,0E0,6.9945618E-6,1.7588183E-5,0E0,0E0,0E0,0E0,0E0],"parents":[2147483647,0,0,1,1,2,2,4,4,5,5],"right_children":[2,4,6,-1,8,10,-1,-1,-1,-1,-1],"split_conditions":[-7.706705E-4,-5.683029E-3,1E0,-0E0,1E0,-1.5E-1,-0E0,-6.652765E-7,-0E0,-0E0,7.6751235E-7],"split_indices":[64,30,33,0,33,53,0,0,0,0,0],"split_type":[0,0,0,0,0,0,0,0,0,0,0],"sum_hessian":[1.2669E4,5.094E3,7.575E3,1.63E2,4.931E3,6.107E3,1.468E3,3.95E3,9.81E2,5.4E2,5.567E3],"tree_param":{"num_deleted":"0","num_feature":"70","num_nodes":"11","size_leaf_vector":"1"}},{"base_weights":[-0E0,-2.041701E-5,2.2810933E-5,-0E0,-3.8260245E-5,6.841518E-5,-0E0,-0E0,-5.3112007E-7,9.956245E-7,-0E0],"categories":[],"categories_nodes":[],"categories_segments":[],"categories_sizes":[],"default_left":[0,0,0,0,0,0,0,0,0,0,0],"id":19,"left_children":[1,3,5,-1,7,9,-1,-1,-1,-1,-1],"loss_changes":[5.856506E-6,7.1695495E-6,1.805225E-5,0E0,4.7091835E-6,1.6072787E-5,0E0,0E0,0E0,0E0,0E0],"parents":[2147483647,0,0,1,1,2,2,4,4,5,5],"right_children":[2,4,6,-1,8,10,-1,-1,-1,-1,-1],"split_conditions":[1.6728693E-3,-5.683029E-3,1E0,-0E0,-2.374541E-3,3.627303E-3,-0E0,-0E0,-5.3112007E-7,9.956245E-7,-0E0],"split_indices":[64,30,33,0,63,63,0,0,0,0,0],"split_type":[0,0,0,0,0,0,0,0,0,0,0],"sum_hessian":[1.2669E4,7.118E3,5.551E3,1.94E2,6.924E3,4.473E3,1.078E3,1.662E3,5.262E3,3.733E3,7.4E2],"tree_param":{"num_deleted":"0","num_feature":"70","num_nodes":"11","size_leaf_vector":"1"}},{"base_weights":[-0E0,-2.7122982E-5,1.5650374E-5,-0E0,-4.518534E-5,4.8701197E-5,-0E0,-6.545722E-7,-0E0,-0E0,7.54772E-7],"categories":[],"categories_nodes":[],"categories_segments":[],"categories_sizes":[],"default_left":[0,0,0,0,0,0,0,0,0,0,0],"id":20,"left_children":[1,3,5,-1,7,9,-1,-1,-1,-1,-1],"loss_changes":[5.6037898E-6,6.32157E-6,1.2631373E-5,0E0,6.858905E-6,1.7232835E-5,0E0,0E0,0E0,0E0,0E0],"parents":[2147483647,0,0,1,1,2,2,4,4,5,5],"right_children":[2,4,6,-1,8,10,-1,-1,-1,-1,-1],"split_conditions":[-7.706705E-4,-5.683029E-3,1E0,-0E0,1E0,-1.5E-1,-0E0,-6.545722E-7,-0E0,-0E0,7.54772E-7],"split_indices":[64,30,33,0,33,53,0,0,0,0,0],"split_type":[0,0,0,0,0,0,0,0,0,0,0],"sum_hessian":[1.2669E4,5.094E3,7.575E3,1.63E2,4.931E3,6.107E3,1.468E3,3.95E3,9.81E2,5.4E2,5.567E3],"tree_param":{"num_deleted":"0","num_feature":"70","num_nodes":"11","size_leaf_vector":"1"}},{"base_weights":[-0E0,-1.9817524E-5,2.1585081E-5,-0E0,-3.7641566E-5,6.689397E-5,-0E0,-4.671053E-7,-0E0,9.787823E-7,-0E0],"categories":[],"categories_nodes":[],"categories_segments":[],"categories_sizes":[],"default_left":[0,0,0,0,0,0,0,0,0,0,0],"id":21,"left_children":[1,3,5,-1,7,9,-1,-1,-1,-1,-1],"loss_changes":[5.3826398E-6,7.016071E-6,1.7433502E-5,0E0,4.6276946E-6,1.5752E-5,0E0,0E0,0E0,0E0,0E0],"parents":[2147483647,0,0,1,1,2,2,4,4,5,5],"right_children":[2,4,6,-1,8,10,-1,-1,-1,-1,-1],"split_conditions":[1.6728693E-3,-5.683029E-3,1E0,-0E0,1.6812265E2,3.627303E-3,-0E0,-4.671053E-7,-0E0,9.787823E-7,-0E0],"split_indices":[64,30,33,0,20,63,0,0,0,0,0],"split_type":[0,0,0,0,0,0,0,0,0,0,0],"sum_hessian":[1.2669E4,7.118E3,5.551E3,1.94E2,6.924E3,4.473E3,1.078E3,6.617E3,3.07E2,3.733E3,7.4E2],"tree_param":{"num_deleted":"0","num_feature":"70","num_nodes":"11","size_leaf_vector":"1"}},{"base_weights":[-0E0,-2.6182133E-5,1.4730008E-5,-0E0,-4.4213397E-5,4.753156E-5,-0E0,-6.4356857E-7,-0E0,-0E0,7.423893E-7],"categories":[],"categories_nodes":[],"categories_segments":[],"categories_sizes":[],"default_left":[0,0,0,0,0,0,0,0,0,0,0],"id":22,"left_children":[1,3,5,-1,7,9,-1,-1,-1,-1,-1],"loss_changes":[5.1364323E-6,6.1485516E-6,1.2155706E-5,0E0,6.7230776E-6,1.6888087E-5,0E0,0E0,0E0,0E0,0E0],"parents":[2147483647,0,0,1,1,2,2,4,4,5,5],"right_children":[2,4,6,-1,8,10,-1,-1,-1,-1,-1],"split_conditions":[-7.706705E-4,-5.683029E-3,1E0,-0E0,1E0,-1.5E-1,-0E0,-6.4356857E-7,-0E0,-0E0,7.423893E-7],"split_indices":[64,30,33,0,33,53,0,0,0,0,0],"split_type":[0,0,0,0,0,0,0,0,0,0,0],"sum_hessian":[1.2669E4,5.094E3,7.575E3,1.63E2,4.931E3,6.107E3,1.468E3,3.95E3,9.81E2,5.4E2,5.567E3],"tree_param":{"num_deleted":"0","num_feature":"70","num_nodes":"11","size_leaf_vector":"1"}},{"base_weights":[-0E0,-1.917998E-5,2.0379688E-5,-0E0,-3.6983805E-5,6.539813E-5,-0E0,-0E0,-5.16963E-7,9.622214E-7,-0E0],"categories":[],"categories_nodes":[],"categories_segments":[],"categories_sizes":[],"default_left":[0,0,0,0,0,0,0,0,0,0,0],"id":23,"left_children":[1,3,5,-1,7,9,-1,-1,-1,-1,-1],"loss_changes":[4.9248E-6,6.8531494E-6,1.6829E-5,0E0,4.5933803E-6,1.543707E-5,0E0,0E0,0E0,0E0,0E0],"parents":[2147483647,0,0,1,1,2,2,4,4,5,5],"right_children":[2,4,6,-1,8,10,-1,-1,-1,-1,-1],"split_conditions":[1.6728693E-3,-5.683029E-3,1E0,-0E0,-2.374541E-3,3.627303E-3,-0E0,-0E0,-5.16963E-7,9.622214E-7,-0E0],"split_indices":[64,30,33,0,63,63,0,0,0,0,0],"split_type":[0,0,0,0,0,0,0,0,0,0,0],"sum_hessian":[1.2669E4,7.118E3,5.551E3,1.94E2,6.924E3,4.473E3,1.078E3,1.662E3,5.262E3,3.733E3,7.4E2],"tree_param":{"num_deleted":"0","num_feature":"70","num_nodes":"11","size_leaf_vector":"1"}},{"base_weights":[-0E0,-2.5301197E-5,1.3812508E-5,-0E0,-4.3303346E-5,4.636909E-5,-0E0,-6.331898E-7,-0E0,-0E0,7.300772E-7],"categories":[],"categories_nodes":[],"categories_segments":[],"categories_sizes":[],"default_left":[0,0,0,0,0,0,0,0,0,0,0],"id":24,"left_children":[1,3,5,-1,7,9,-1,-1,-1,-1,-1],"loss_changes":[4.7069575E-6,5.9868207E-6,1.1687374E-5,0E0,6.5923305E-6,1.6545386E-5,0E0,0E0,0E0,0E0,0E0],"parents":[2147483647,0,0,1,1,2,2,4,4,5,5],"right_children":[2,4,6,-1,8,10,-1,-1,-1,-1,-1],"split_conditions":[-7.706705E-4,-5.683029E-3,1E0,-0E0,1E0,-1.5E-1,-0E0,-6.331898E-7,-0E0,-0E0,7.300772E-7],"split_indices":[64,30,33,0,33,53,0,0,0,0,0],"split_type":[0,0,0,0,0,0,0,0,0,0,0],"sum_hessian":[1.2669E4,5.094E3,7.575E3,1.63E2,4.931E3,6.107E3,1.468E3,3.95E3,9.81E2,5.4E2,5.567E3],"tree_param":{"num_deleted":"0","num_feature":"70","num_nodes":"11","size_leaf_vector":"1"}},{"base_weights":[-0E0,-1.8597715E-5,1.9194476E-5,-0E0,-3.638291E-5,6.392735E-5,-0E0,-0E0,-5.096611E-7,9.4593815E-7,-0E0],"categories":[],"categories_nodes":[],"categories_segments":[],"categories_sizes":[],"default_left":[0,0,0,0,0,0,0,0,0,0,0],"id":25,"left_children":[1,3,5,-1,7,9,-1,-1,-1,-1,-1],"loss_changes":[4.507796E-6,6.7044484E-6,1.6238411E-5,0E0,4.5041443E-6,1.5127871E-5,0E0,0E0,0E0,0E0,0E0],"parents":[2147483647,0,0,1,1,2,2,4,4,5,5],"right_children":[2,4,6,-1,8,10,-1,-1,-1,-1,-1],"split_conditions":[1.6728693E-3,-5.683029E-3,1E0,-0E0,-2.374541E-3,3.627303E-3,-0E0,-0E0,-5.096611E-7,9.4593815E-7,-0E0],"split_indices":[64,30,33,0,63,63,0,0,0,0,0],"split_type":[0,0,0,0,0,0,0,0,0,0,0],"sum_hessian":[1.2669E4,7.118E3,5.551E3,1.94E2,6.924E3,4.473E3,1.078E3,1.662E3,5.262E3,3.733E3,7.4E2],"tree_param":{"num_deleted":"0","num_feature":"70","num_nodes":"11","size_leaf_vector":"1"}},{"base_weights":[-0E0,-2.4433684E-5,1.2910633E-5,-0E0,-4.2407162E-5,4.522634E-5,-0E0,-6.2297033E-7,-0E0,-0E0,7.1797365E-7],"categories":[],"categories_nodes":[],"categories_segments":[],"categories_sizes":[],"default_left":[0,0,0,0,0,0,0,0,0,0,0],"id":26,"left_children":[1,3,5,-1,7,9,-1,-1,-1,-1,-1],"loss_changes":[4.304541E-6,5.8278088E-6,1.1230635E-5,0E0,6.463968E-6,1.6208836E-5,0E0,0E0,0E0,0E0,0E0],"parents":[2147483647,0,0,1,1,2,2,4,4,5,5],"right_children":[2,4,6,-1,8,10,-1,-1,-1,-1,-1],"split_conditions":[-7.706705E-4,-5.683029E-3,1E0,-0E0,1E0,-1.5E-1,-0E0,-6.2297033E-7,-0E0,-0E0,7.1797365E-7],"split_indices":[64,30,33,0,33,53,0,0,0,0,0],"split_type":[0,0,0,0,0,0,0,0,0,0,0],"sum_hessian":[1.2669E4,5.094E3,7.575E3,1.63E2,4.931E3,6.107E3,1.468E3,3.95E3,9.81E2,5.4E2,5.567E3],"tree_param":{"num_deleted":"0","num_feature":"70","num_nodes":"11","size_leaf_vector":"1"}},{"base_weights":[-0E0,-1.802399E-5,1.8029174E-5,-0E0,-3.579083E-5,6.248127E-5,-0E0,-4.4834164E-7,-0E0,9.299286E-7,-0E0],"categories":[],"categories_nodes":[],"categories_segments":[],"categories_sizes":[],"default_left":[0,0,0,0,0,0,0,0,0,0,0],"id":27,"left_children":[1,3,5,-1,7,9,-1,-1,-1,-1,-1],"loss_changes":[4.1173917E-6,6.5581016E-6,1.5661404E-5,0E0,4.432047E-6,1.4824323E-5,0E0,0E0,0E0,0E0,0E0],"parents":[2147483647,0,0,1,1,2,2,4,4,5,5],"right_children":[2,4,6,-1,8,10,-1,-1,-1,-1,-1],"split_conditions":[1.6728693E-3,-5.683029E-3,1E0,-0E0,1.6812265E2,3.627303E-3,-0E0,-4.4834164E-7,-0E0,9.299286E-7,-0E0],"split_indices":[64,30,33,0,20,63,0,0,0,0,0],"split_type":[0,0,0,0,0,0,0,0,0,0,0],"sum_hessian":[1.2669E4,7.118E3,5.551E3,1.94E2,6.924E3,4.473E3,1.078E3,6.617E3,3.07E2,3.733E3,7.4E2],"tree_param":{"num_deleted":"0","num_feature":"70","num_nodes":"11","size_leaf_vector":"1"}},{"base_weights":[-0E0,-2.3534754E-5,1.2036686E-5,-0E0,-4.1478525E-5,4.411541E-5,-0E0,-6.124618E-7,-0E0,-0E0,7.0621144E-7],"categories":[],"categories_nodes":[],"categories_segments":[],"categories_sizes":[],"default_left":[0,0,0,0,0,0,0,0,0,0,0],"id":28,"left_children":[1,3,5,-1,7,9,-1,-1,-1,-1,-1],"loss_changes":[3.9196666E-6,5.663306E-6,1.0789579E-5,0E0,6.335227E-6,1.5882335E-5,0E0,0E0,0E0,0E0,0E0],"parents":[2147483647,0,0,1,1,2,2,4,4,5,5],"right_children":[2,4,6,-1,8,10,-1,-1,-1,-1,-1],"split_conditions":[-7.706705E-4,-5.683029E-3,1E0,-0E0,1E0,-1.5E-1,-0E0,-6.124618E-7,-0E0,-0E0,7.0621144E-7],"split_indices":[64,30,33,0,33,53,0,0,0,0,0],"split_type":[0,0,0,0,0,0,0,0,0,0,0],"sum_hessian":[1.2669E4,5.094E3,7.575E3,1.63E2,4.931E3,6.107E3,1.468E3,3.95E3,9.81E2,5.4E2,5.567E3],"tree_param":{"num_deleted":"0","num_feature":"70","num_nodes":"11","size_leaf_vector":"1"}},{"base_weights":[-0E0,-1.7413666E-5,1.6883292E-5,-0E0,-3.5161163E-5,6.105929E-5,-0E0,-0E0,-4.9610816E-7,9.141862E-7,-0E0],"categories":[],"categories_nodes":[],"categories_segments":[],"categories_sizes":[],"default_left":[0,0,0,0,0,0,0,0,0,0,0],"id":29,"left_children":[1,3,5,-1,7,9,-1,-1,-1,-1,-1],"loss_changes":[3.7413083E-6,6.4026935E-6,1.5097558E-5,0E0,4.392042E-6,1.4526269E-5,0E0,0E0,0E0,0E0,0E0],"parents":[2147483647,0,0,1,1,2,2,4,4,5,5],"right_children":[2,4,6,-1,8,10,-1,-1,-1,-1,-1],"split_conditions":[1.6728693E-3,-5.683029E-3,1E0,-0E0,-2.374541E-3,3.627303E-3,-0E0,-0E0,-4.9610816E-7,9.141862E-7,-0E0],"split_indices":[64,30,33,0,63,63,0,0,0,0,0],"split_type":[0,0,0,0,0,0,0,0,0,0,0],"sum_hessian":[1.2669E4,7.118E3,5.551E3,1.94E2,6.924E3,4.473E3,1.078E3,1.662E3,5.262E3,3.733E3,7.4E2],"tree_param":{"num_deleted":"0","num_feature":"70","num_nodes":"11","size_leaf_vector":"1"}},{"base_weights":[-0E0,-2.269332E-5,1.1165321E-5,-0E0,-4.060928E-5,4.301115E-5,-0E0,-6.0255286E-7,-0E0,-0E0,6.9451465E-7],"categories":[],"categories_nodes":[],"categories_segments":[],"categories_sizes":[],"default_left":[0,0,0,0,0,0,0,0,0,0,0],"id":30,"left_children":[1,3,5,-1,7,9,-1,-1,-1,-1,-1],"loss_changes":[3.5683152E-6,5.5095716E-6,1.0355092E-5,0E0,6.211467E-6,1.5557736E-5,0E0,0E0,0E0,0E0,0E0],"parents":[2147483647,0,0,1,1,2,2,4,4,5,5],"right_children":[2,4,6,-1,8,10,-1,-1,-1,-1,-1],"split_conditions":[-7.706705E-4,-5.683029E-3,1E0,-0E0,1E0,-1.5E-1,-0E0,-6.0255286E-7,-0E0,-0E0,6.9451465E-7],"split_indices":[64,30,33,0,33,53,0,0,0,0,0],"split_type":[0,0,0,0,0,0,0,0,0,0,0],"sum_hessian":[1.2669E4,5.094E3,7.575E3,1.63E2,4.931E3,6.107E3,1.468E3,3.95E3,9.81E2,5.4E2,5.567E3],"tree_param":{"num_deleted":"0","num_feature":"70","num_nodes":"11","size_leaf_vector":"1"}},{"base_weights":[-0E0,-1.6856431E-5,1.5756617E-5,-0E0,-3.458611E-5,5.9661146E-5,-0E0,-0E0,-4.8911727E-7,8.987081E-7,-0E0],"categories":[],"categories_nodes":[],"categories_segments":[],"categories_sizes":[],"default_left":[0,0,0,0,0,0,0,0,0,0,0],"id":31,"left_children":[1,3,5,-1,7,9,-1,-1,-1,-1,-1],"loss_changes":[3.4011878E-6,6.2608915E-6,1.454659E-5,0E0,4.307297E-6,1.4233643E-5,0E0,0E0,0E0,0E0,0E0],"parents":[2147483647,0,0,1,1,2,2,4,4,5,5],"right_children":[2,4,6,-1,8,10,-1,-1,-1,-1,-1],"split_conditions":[1.6728693E-3,-5.683029E-3,1E0,-0E0,-2.374541E-3,3.627303E-3,-0E0,-0E0,-4.8911727E-7,8.987081E-7,-0E0],"split_indices":[64,30,33,0,63,63,0,0,0,0,0],"split_type":[0,0,0,0,0,0,0,0,0,0,0],"sum_hessian":[1.2669E4,7.118E3,5.551E3,1.94E2,6.924E3,4.473E3,1.078E3,1.662E3,5.262E3,3.733E3,7.4E2],"tree_param":{"num_deleted":"0","num_feature":"70","num_nodes":"11","size_leaf_vector":"1"}},{"base_weights":[-0E0,-2.186475E-5,1.0308797E-5,-0E0,-3.9753326E-5,4.1925625E-5,-0E0,-5.8416924E-7,-0E0,-0E0,6.830162E-7],"categories":[],"categories_nodes":[],"categories_segments":[],"categories_sizes":[],"default_left":[0,0,0,0,0,0,0,0,0,0,0],"id":32,"left_children":[1,3,5,-1,7,9,-1,-1,-1,-1,-1],"loss_changes":[3.240864E-6,5.3584195E-6,9.931276E-6,0E0,6.108504E-6,1.5238955E-5,0E0,0E0,0E0,0E0,0E0],"parents":[2147483647,0,0,1,1,2,2,4,4,5,5],"right_children":[2,4,6,-1,8,10,-1,-1,-1,-1,-1],"split_conditions":[-7.706705E-4,-5.683029E-3,1E0,-0E0,1.6983205E-2,-1.5E-1,-0E0,-5.8416924E-7,-0E0,-0E0,6.830162E-7],"split_indices":[64,30,33,0,65,53,0,0,0,0,0],"split_type":[0,0,0,0,0,0,0,0,0,0,0],"sum_hessian":[1.2669E4,5.094E3,7.575E3,1.63E2,4.931E3,6.107E3,1.468E3,4.073E3,8.58E2,5.4E2,5.567E3],"tree_param":{"num_deleted":"0","num_feature":"70","num_nodes":"11","size_leaf_vector":"1"}},{"base_weights":[-0E0,-1.6302098E-5,1.4648831E-5,-0E0,-3.401408E-5,5.828644E-5,-0E0,-4.6997192E-7,-0E0,8.834897E-7,-0E0],"categories":[],"categories_nodes":[],"categories_segments":[],"categories_sizes":[],"default_left":[0,0,0,0,0,0,0,0,0,0,0],"id":33,"left_children":[1,3,5,-1,7,9,-1,-1,-1,-1,-1],"loss_changes":[3.083328E-6,6.1199976E-6,1.40081665E-5,0E0,4.264223E-6,1.3946326E-5,0E0,0E0,0E0,0E0,0E0],"parents":[2147483647,0,0,1,1,2,2,4,4,5,5],"right_children":[2,4,6,-1,8,10,-1,-1,-1,-1,-1],"split_conditions":[1.6728693E-3,-5.683029E-3,1E0,-0E0,1E0,3.627303E-3,-0E0,-4.6997192E-7,-0E0,8.834897E-7,-0E0],"split_indices":[64,30,33,0,33,63,0,0,0,0,0],"split_type":[0,0,0,0,0,0,0,0,0,0,0],"sum_hessian":[1.2669E4,7.118E3,5.551E3,1.94E2,6.924E3,4.473E3,1.078E3,5.557E3,1.367E3,3.733E3,7.4E2],"tree_param":{"num_deleted":"0","num_feature":"70","num_nodes":"11","size_leaf_vector":"1"}},{"base_weights":[-0E0,-2.1033406E-5,9.4712605E-6,-0E0,-3.8894508E-5,4.0886796E-5,-0E0,-5.745649E-7,-0E0,-0E0,6.720052E-7],"categories":[],"categories_nodes":[],"categories_segments":[],"categories_sizes":[],"default_left":[0,0,0,0,0,0,0,0,0,0,0],"id":34,"left_children":[1,3,5,-1,7,9,-1,-1,-1,-1,-1],"loss_changes":[2.9336525E-6,5.2069954E-6,9.5313235E-6,0E0,5.9882414E-6,1.4933664E-5,0E0,0E0,0E0,0E0,0E0],"parents":[2147483647,0,0,1,1,2,2,4,4,5,5],"right_children":[2,4,6,-1,8,10,-1,-1,-1,-1,-1],"split_conditions":[-7.706705E-4,-5.683029E-3,1E0,-0E0,1.6983205E-2,-1.5E-1,-0E0,-5.745649E-7,-0E0,-0E0,6.720052E-7],"split_indices":[64,30,33,0,65,53,0,0,0,0,0],"split_type":[0,0,0,0,0,0,0,0,0,0,0],"sum_hessian":[1.2669E4,5.094E3,7.575E3,1.63E2,4.931E3,6.107E3,1.468E3,4.073E3,8.58E2,5.4E2,5.567E3],"tree_param":{"num_deleted":"0","num_feature":"70","num_nodes":"11","size_leaf_vector":"1"}},{"base_weights":[-0E0,-1.5745658E-5,1.3559363E-5,-0E0,-3.3439916E-5,5.6934467E-5,-0E0,-4.636554E-7,-0E0,8.685234E-7,-0E0],"categories":[],"categories_nodes":[],"categories_segments":[],"categories_sizes":[],"default_left":[0,0,0,0,0,0,0,0,0,0,0],"id":35,"left_children":[1,3,5,-1,7,9,-1,-1,-1,-1,-1],"loss_changes":[2.7857536E-6,5.978745E-6,1.3481851E-5,0E0,4.2046577E-6,1.3664171E-5,0E0,0E0,0E0,0E0,0E0],"parents":[2147483647,0,0,1,1,2,2,4,4,5,5],"right_children":[2,4,6,-1,8,10,-1,-1,-1,-1,-1],"split_conditions":[1.6728693E-3,-5.683029E-3,1E0,-0E0,1E0,3.627303E-3,-0E0,-4.636554E-7,-0E0,8.685234E-7,-0E0],"split_indices":[64,30,33,0,33,63,0,0,0,0,0],"split_type":[0,0,0,0,0,0,0,0,0,0,0],"sum_hessian":[1.2669E4,7.118E3,5.551E3,1.94E2,6.924E3,4.473E3,1.078E3,5.557E3,1.367E3,3.733E3,7.4E2],"tree_param":{"num_deleted":"0","num_feature":"70","num_nodes":"11","size_leaf_vector":"1"}},{"base_weights":[-0E0,-2.0214615E-5,8.647846E-6,-0E0,-3.8048656E-5,3.986548E-5,-0E0,-5.738928E-7,-0E0,-0E0,6.611795E-7],"categories":[],"categories_nodes":[],"categories_segments":[],"categories_sizes":[],"default_left":[0,0,0,0,0,0,0,0,0,0,0],"id":36,"left_children":[1,3,5,-1,7,9,-1,-1,-1,-1,-1],"loss_changes":[2.648546E-6,5.0580843E-6,9.1406055E-6,0E0,5.872679E-6,1.4633799E-5,0E0,0E0,0E0,0E0,0E0],"parents":[2147483647,0,0,1,1,2,2,4,4,5,5],"right_children":[2,4,6,-1,8,10,-1,-1,-1,-1,-1],"split_conditions":[-7.706705E-4,-5.683029E-3,1E0,-0E0,1E0,-1.5E-1,-0E0,-5.738928E-7,-0E0,-0E0,6.611795E-7],"split_indices":[64,30,33,0,33,53,0,0,0,0,0],"split_type":[0,0,0,0,0,0,0,0,0,0,0],"sum_hessian":[1.2669E4,5.094E3,7.575E3,1.63E2,4.931E3,6.107E3,1.468E3,3.95E3,9.81E2,5.4E2,5.567E3],"tree_param":{"num_deleted":"0","num_feature":"70","num_nodes":"11","size_leaf_vector":"1"}},{"base_weights":[-0E0,-1.5202219E-5,1.2487971E-5,-0E0,-3.2879154E-5,5.5604927E-5,-0E0,-0E0,-4.7062562E-7,8.5380606E-7,-0E0],"categories":[],"categories_nodes":[],"categories_segments":[],"categories_sizes":[],"default_left":[0,0,0,0,0,0,0,0,0,0,0],"id":37,"left_children":[1,3,5,-1,7,9,-1,-1,-1,-1,-1],"loss_changes":[2.5110853E-6,5.8409387E-6,1.29673645E-5,0E0,4.1707467E-6,1.3387095E-5,0E0,0E0,0E0,0E0,0E0],"parents":[2147483647,0,0,1,1,2,2,4,4,5,5],"right_children":[2,4,6,-1,8,10,-1,-1,-1,-1,-1],"split_conditions":[1.6728693E-3,-5.683029E-3,1E0,-0E0,-2.374541E-3,3.627303E-3,-0E0,-0E0,-4.7062562E-7,8.5380606E-7,-0E0],"split_indices":[64,30,33,0,63,63,0,0,0,0,0],"split_type":[0,0,0,0,0,0,0,0,0,0,0],"sum_hessian":[1.2669E4,7.118E3,5.551E3,1.94E2,6.924E3,4.473E3,1.078E3,1.662E3,5.262E3,3.733E3,7.4E2],"tree_param":{"num_deleted":"0","num_feature":"70","num_nodes":"11","size_leaf_vector":"1"}},{"base_weights":[-0E0,-1.9421937E-5,7.834299E-6,-0E0,-3.722978E-5,3.8834136E-5,-0E0,-5.5686473E-7,-0E0,-0E0,6.5025347E-7],"categories":[],"categories_nodes":[],"categories_segments":[],"categories_sizes":[],"default_left":[0,0,0,0,0,0,0,0,0,0,0],"id":38,"left_children":[1,3,5,-1,7,9,-1,-1,-1,-1,-1],"loss_changes":[2.3868797E-6,4.9141377E-6,8.746429E-6,0E0,5.797377E-6,1.43317375E-5,0E0,0E0,0E0,0E0,0E0],"parents":[2147483647,0,0,1,1,2,2,4,4,5,5],"right_children":[2,4,6,-1,8,10,-1,-1,-1,-1,-1],"split_conditions":[-7.706705E-4,-5.683029E-3,1E0,-0E0,1.6983205E-2,-1.5E-1,-0E0,-5.5686473E-7,-0E0,-0E0,6.5025347E-7],"split_indices":[64,30,33,0,65,53,0,0,0,0,0],"split_type":[0,0,0,0,0,0,0,0,0,0,0],"sum_hessian":[1.2669E4,5.094E3,7.575E3,1.63E2,4.931E3,6.107E3,1.468E3,4.073E3,8.58E2,5.4E2,5.567E3],"tree_param":{"num_deleted":"0","num_feature":"70","num_nodes":"11","size_leaf_vector":"1"}},{"base_weights":[-0E0,-1.4670385E-5,1.1434537E-5,-0E0,-3.2330354E-5,5.429767E-5,-0E0,-4.5152214E-7,-0E0,8.3933566E-7,-0E0],"categories":[],"categories_nodes":[],"categories_segments":[],"categories_sizes":[],"default_left":[0,0,0,0,0,0,0,0,0,0,0],"id":39,"left_children":[1,3,5,-1,7,9,-1,-1,-1,-1,-1],"loss_changes":[2.258069E-6,5.706216E-6,1.2464496E-5,0E0,4.0928503E-6,1.3115036E-5,0E0,0E0,0E0,0E0,0E0],"parents":[2147483647,0,0,1,1,2,2,4,4,5,5],"right_children":[2,4,6,-1,8,10,-1,-1,-1,-1,-1],"split_conditions":[1.6728693E-3,-5.683029E-3,1E0,-0E0,1E0,3.627303E-3,-0E0,-4.5152214E-7,-0E0,8.3933566E-7,-0E0],"split_indices":[64,30,33,0,33,63,0,0,0,0,0],"split_type":[0,0,0,0,0,0,0,0,0,0,0],"sum_hessian":[1.2669E4,7.118E3,5.551E3,1.94E2,6.924E3,4.473E3,1.078E3,5.557E3,1.367E3,3.733E3,7.4E2],"tree_param":{"num_deleted":"0","num_feature":"70","num_nodes":"11","size_leaf_vector":"1"}},{"base_weights":[-0E0,-1.8626728E-5,7.038668E-6,-0E0,-3.640829E-5,3.7847283E-5,-0E0,-5.4768117E-7,-0E0,-0E0,6.397921E-7],"categories":[],"categories_nodes":[],"categories_segments":[],"categories_sizes":[],"default_left":[0,0,0,0,0,0,0,0,0,0,0],"id":40,"left_children":[1,3,5,-1,7,9,-1,-1,-1,-1,-1],"loss_changes":[2.1430724E-6,4.769944E-6,8.373866E-6,0E0,5.682474E-6,1.4042511E-5,0E0,0E0,0E0,0E0,0E0],"parents":[2147483647,0,0,1,1,2,2,4,4,5,5],"right_children":[2,4,6,-1,8,10,-1,-1,-1,-1,-1],"split_conditions":[-7.706705E-4,-5.683029E-3,1E0,-0E0,1.6983205E-2,-1.5E-1,-0E0,-5.4768117E-7,-0E0,-0E0,6.397921E-7],"split_indices":[64,30,33,0,65,53,0,0,0,0,0],"split_type":[0,0,0,0,0,0,0,0,0,0,0],"sum_hessian":[1.2669E4,5.094E3,7.575E3,1.63E2,4.931E3,6.107E3,1.468E3,4.073E3,8.58E2,5.4E2,5.567E3],"tree_param":{"num_deleted":"0","num_feature":"70","num_nodes":"11","size_leaf_vector":"1"}},{"base_weights":[-0E0,-1.4137065E-5,1.03985185E-5,-0E0,-3.178006E-5,5.3012027E-5,-0E0,-0E0,-4.5831374E-7,8.251051E-7,-0E0],"categories":[],"categories_nodes":[],"categories_segments":[],"categories_sizes":[],"default_left":[0,0,0,0,0,0,0,0,0,0,0],"id":41,"left_children":[1,3,5,-1,7,9,-1,-1,-1,-1,-1],"loss_changes":[2.0231123E-6,5.571278E-6,1.1972837E-5,0E0,4.0609516E-6,1.2847842E-5,0E0,0E0,0E0,0E0,0E0],"parents":[2147483647,0,0,1,1,2,2,4,4,5,5],"right_children":[2,4,6,-1,8,10,-1,-1,-1,-1,-1],"split_conditions":[1.6728693E-3,-5.683029E-3,1E0,-0E0,-2.374541E-3,3.627303E-3,-0E0,-0E0,-4.5831374E-7,8.251051E-7,-0E0],"split_indices":[64,30,33,0,63,63,0,0,0,0,0],"split_type":[0,0,0,0,0,0,0,0,0,0,0],"sum_hessian":[1.2669E4,7.118E3,5.551E3,1.94E2,6.924E3,4.473E3,1.078E3,1.662E3,5.262E3,3.733E3,7.4E2],"tree_param":{"num_deleted":"0","num_feature":"70","num_nodes":"11","size_leaf_vector":"1"}},{"base_weights":[-0E0,-1.7850218E-5,6.2525264E-6,-0E0,-3.5606117E-5,3.6850517E-5,-0E0,-5.4743066E-7,-0E0,-0E0,6.292315E-7],"categories":[],"categories_nodes":[],"categories_segments":[],"categories_sizes":[],"default_left":[0,0,0,0,0,0,0,0,0,0,0],"id":42,"left_children":[1,3,5,-1,7,9,-1,-1,-1,-1,-1],"loss_changes":[1.9195982E-6,4.6293467E-6,7.9982465E-6,0E0,5.5876008E-6,1.3751088E-5,0E0,0E0,0E0,0E0,0E0],"parents":[2147483647,0,0,1,1,2,2,4,4,5,5],"right_children":[2,4,6,-1,8,10,-1,-1,-1,-1,-1],"split_conditions":[-7.706705E-4,-5.683029E-3,1E0,-0E0,1E0,-1.5E-1,-0E0,-5.4743066E-7,-0E0,-0E0,6.292315E-7],"split_indices":[64,30,33,0,33,53,0,0,0,0,0],"split_type":[0,0,0,0,0,0,0,0,0,0,0],"sum_hessian":[1.2669E4,5.094E3,7.575E3,1.63E2,4.931E3,6.107E3,1.468E3,3.95E3,9.81E2,5.4E2,5.567E3],"tree_param":{"num_deleted":"0","num_feature":"70","num_nodes":"11","size_leaf_vector":"1"}},{"base_weights":[-0E0,-1.3624841E-5,9.379874E-6,-0E0,-3.1251486E-5,5.1747942E-5,-0E0,-4.397349E-7,-0E0,8.1111335E-7,-0E0],"categories":[],"categories_nodes":[],"categories_segments":[],"categories_sizes":[],"default_left":[0,0,0,0,0,0,0,0,0,0,0],"id":43,"left_children":[1,3,5,-1,7,9,-1,-1,-1,-1,-1],"loss_changes":[1.8100209E-6,5.441794E-6,1.1492222E-5,0E0,3.983987E-6,1.258547E-5,0E0,0E0,0E0,0E0,0E0],"parents":[2147483647,0,0,1,1,2,2,4,4,5,5],"right_children":[2,4,6,-1,8,10,-1,-1,-1,-1,-1],"split_conditions":[1.6728693E-3,-5.683029E-3,1E0,-0E0,1E0,3.627303E-3,-0E0,-4.397349E-7,-0E0,8.1111335E-7,-0E0],"split_indices":[64,30,33,0,33,63,0,0,0,0,0],"split_type":[0,0,0,0,0,0,0,0,0,0,0],"sum_hessian":[1.2669E4,7.118E3,5.551E3,1.94E2,6.924E3,4.473E3,1.078E3,5.557E3,1.367E3,3.733E3,7.4E2],"tree_param":{"num_deleted":"0","num_feature":"70","num_nodes":"11","size_leaf_vector":"1"}},{"base_weights":[-0E0,-1.7084889E-5,5.4837715E-6,-0E0,-3.4815494E-5,3.5897E-5,-0E0,-5.307485E-7,-0E0,-0E0,6.1912255E-7],"categories":[],"categories_nodes":[],"categories_segments":[],"categories_sizes":[],"default_left":[0,0,0,0,0,0,0,0,0,0,0],"id":44,"left_children":[1,3,5,-1,7,9,-1,-1,-1,-1,-1],"loss_changes":[1.7150205E-6,4.490972E-6,7.642911E-6,0E0,5.4980424E-6,1.3472122E-5,0E0,0E0,0E0,0E0,0E0],"parents":[2147483647,0,0,1,1,2,2,4,4,5,5],"right_children":[2,4,6,-1,8,10,-1,-1,-1,-1,-1],"split_conditions":[-7.706705E-4,-5.683029E-3,1E0,-0E0,1.6983205E-2,-1.5E-1,-0E0,-5.307485E-7,-0E0,-0E0,6.1912255E-7],"split_indices":[64,30,33,0,65,53,0,0,0,0,0],"split_type":[0,0,0,0,0,0,0,0,0,0,0],"sum_hessian":[1.2669E4,5.094E3,7.575E3,1.63E2,4.931E3,6.107E3,1.468E3,4.073E3,8.58E2,5.4E2,5.567E3],"tree_param":{"num_deleted":"0","num_feature":"70","num_nodes":"11","size_leaf_vector":"1"}},{"base_weights":[-0E0,-1.3106124E-5,8.378077E-6,-0E0,-3.0716274E-5,5.050476E-5,-0E0,-0E0,-4.4643886E-7,7.973537E-7,-0E0],"categories":[],"categories_nodes":[],"categories_segments":[],"categories_sizes":[],"default_left":[0,0,0,0,0,0,0,0,0,0,0],"id":45,"left_children":[1,3,5,-1,7,9,-1,-1,-1,-1,-1],"loss_changes":[1.612541E-6,5.3108292E-6,1.1022264E-5,0E0,3.955898E-6,1.2327793E-5,0E0,0E0,0E0,0E0,0E0],"parents":[2147483647,0,0,1,1,2,2,4,4,5,5],"right_children":[2,4,6,-1,8,10,-1,-1,-1,-1,-1],"split_conditions":[1.6728693E-3,-5.683029E-3,1E0,-0E0,-2.374541E-3,3.627303E-3,-0E0,-0E0,-4.4643886E-7,7.973537E-7,-0E0],"split_indices":[64,30,33,0,63,63,0,0,0,0,0],"split_type":[0,0,0,0,0,0,0,0,0,0,0],"sum_hessian":[1.2669E4,7.118E3,5.551E3,1.94E2,6.924E3,4.473E3,1.078E3,1.662E3,5.262E3,3.733E3,7.4E2],"tree_param":{"num_deleted":"0","num_feature":"70","num_nodes":"11","size_leaf_vector":"1"}},{"base_weights":[-0E0,-1.6330707E-5,4.7241615E-6,-0E0,-3.4036388E-5,3.49337E-5,-0E0,-5.2198396E-7,-0E0,-0E0,6.0891574E-7],"categories":[],"categories_nodes":[],"categories_segments":[],"categories_sizes":[],"default_left":[0,0,0,0,0,0,0,0,0,0,0],"id":46,"left_children":[1,3,5,-1,7,9,-1,-1,-1,-1,-1],"loss_changes":[1.5278746E-6,4.354806E-6,7.2849E-6,0E0,5.3867147E-6,1.3190964E-5,0E0,0E0,0E0,0E0,0E0],"parents":[2147483647,0,0,1,1,2,2,4,4,5,5],"right_children":[2,4,6,-1,8,10,-1,-1,-1,-1,-1],"split_conditions":[-7.706705E-4,-5.683029E-3,1E0,-0E0,1.6983205E-2,-1.5E-1,-0E0,-5.2198396E-7,-0E0,-0E0,6.0891574E-7],"split_indices":[64,30,33,0,65,53,0,0,0,0,0],"split_type":[0,0,0,0,0,0,0,0,0,0,0],"sum_hessian":[1.2669E4,5.094E3,7.575E3,1.63E2,4.931E3,6.107E3,1.468E3,4.073E3,8.58E2,5.4E2,5.567E3],"tree_param":{"num_deleted":"0","num_feature":"70","num_nodes":"11","size_leaf_vector":"1"}},{"base_weights":[-0E0,-1.2603563E-5,7.3930637E-6,-0E0,-3.0197698E-5,4.9282415E-5,-0E0,-4.2897398E-7,-0E0,7.8382476E-7,-0E0],"categories":[],"categories_nodes":[],"categories_segments":[],"categories_sizes":[],"default_left":[0,0,0,0,0,0,0,0,0,0,0],"id":47,"left_children":[1,3,5,-1,7,9,-1,-1,-1,-1,-1],"loss_changes":[1.4343095E-6,5.1840625E-6,1.0562798E-5,0E0,3.912845E-6,1.20747445E-5,0E0,0E0,0E0,0E0,0E0],"parents":[2147483647,0,0,1,1,2,2,4,4,5,5],"right_children":[2,4,6,-1,8,10,-1,-1,-1,-1,-1],"split_conditions":[1.6728693E-3,-5.683029E-3,1E0,-0E0,1E0,3.627303E-3,-0E0,-4.2897398E-7,-0E0,7.8382476E-7,-0E0],"split_indices":[64,30,33,0,33,63,0,0,0,0,0],"split_type":[0,0,0,0,0,0,0,0,0,0,0],"sum_hessian":[1.2669E4,7.118E3,5.551E3,1.94E2,6.924E3,4.473E3,1.078E3,5.557E3,1.367E3,3.733E3,7.4E2],"tree_param":{"num_deleted":"0","num_feature":"70","num_nodes":"11","size_leaf_vector":"1"}},{"base_weights":[-0E0,-1.5580863E-5,3.981488E-6,-0E0,-3.326176E-5,3.401253E-5,-0E0,-5.1332967E-7,-0E0,-0E0,5.991488E-7],"categories":[],"categories_nodes":[],"categories_segments":[],"categories_sizes":[],"default_left":[0,0,0,0,0,0,0,0,0,0,0],"id":48,"left_children":[1,3,5,-1,7,9,-1,-1,-1,-1,-1],"loss_changes":[1.3569755E-6,4.2196134E-6,6.945957E-6,0E0,5.278797E-6,1.2921913E-5,0E0,0E0,0E0,0E0,0E0],"parents":[2147483647,0,0,1,1,2,2,4,4,5,5],"right_children":[2,4,6,-1,8,10,-1,-1,-1,-1,-1],"split_conditions":[-7.706705E-4,-5.683029E-3,1E0,-0E0,1.6983205E-2,-1.5E-1,-0E0,-5.1332967E-7,-0E0,-0E0,5.991488E-7],"split_indices":[64,30,33,0,65,53,0,0,0,0,0],"split_type":[0,0,0,0,0,0,0,0,0,0,0],"sum_hessian":[1.2669E4,5.094E3,7.575E3,1.63E2,4.931E3,6.107E3,1.468E3,4.073E3,8.58E2,5.4E2,5.567E3],"tree_param":{"num_deleted":"0","num_feature":"70","num_nodes":"11","size_leaf_vector":"1"}},{"base_weights":[-0E0,-1.2099069E-5,6.4243327E-6,-0E0,-2.9677167E-5,4.808027E-5,-0E0,-4.2323654E-7,-0E0,7.705201E-7,-0E0],"categories":[],"categories_nodes":[],"categories_segments":[],"categories_sizes":[],"default_left":[0,0,0,0,0,0,0,0,0,0,0],"id":49,"left_children":[1,3,5,-1,7,9,-1,-1,-1,-1,-1],"loss_changes":[1.2712748E-6,5.0569524E-6,1.0113458E-5,0E0,3.8569156E-6,1.1826205E-5,0E0,0E0,0E0,0E0,0E0],"parents":[2147483647,0,0,1,1,2,2,4,4,5,5],"right_children":[2,4,6,-1,8,10,-1,-1,-1,-1,-1],"split_conditions":[1.6728693E-3,-5.683029E-3,1E0,-0E0,1E0,3.627303E-3,-0E0,-4.2323654E-7,-0E0,7.705201E-7,-0E0],"split_indices":[64,30,33,0,33,63,0,0,0,0,0],"split_type":[0,0,0,0,0,0,0,0,0,0,0],"sum_hessian":[1.2669E4,7.118E3,5.551E3,1.94E2,6.924E3,4.473E3,1.078E3,5.557E3,1.367E3,3.733E3,7.4E2],"tree_param":{"num_deleted":"0","num_feature":"70","num_nodes":"11","size_leaf_vector":"1"}},{"base_weights":[-0E0,-1.4842376E-5,3.2513208E-6,-0E0,-3.249887E-5,3.3106877E-5,-0E0,-5.127012E-7,-0E0,-0E0,5.8954583E-7],"categories":[],"categories_nodes":[],"categories_segments":[],"categories_sizes":[],"default_left":[0,0,0,0,0,0,0,0,0,0,0],"id":50,"left_children":[1,3,5,-1,7,9,-1,-1,-1,-1,-1],"loss_changes":[1.2024954E-6,4.0866535E-6,6.61468E-6,0E0,5.176636E-6,1.2657612E-5,0E0,0E0,0E0,0E0,0E0],"parents":[2147483647,0,0,1,1,2,2,4,4,5,5],"right_children":[2,4,6,-1,8,10,-1,-1,-1,-1,-1],"split_conditions":[-7.706705E-4,-5.683029E-3,1E0,-0E0,1E0,-1.5E-1,-0E0,-5.127012E-7,-0E0,-0E0,5.8954583E-7],"split_indices":[64,30,33,0,33,53,0,0,0,0,0],"split_type":[0,0,0,0,0,0,0,0,0,0,0],"sum_hessian":[1.2669E4,5.094E3,7.575E3,1.63E2,4.931E3,6.107E3,1.468E3,3.95E3,9.81E2,5.4E2,5.567E3],"tree_param":{"num_deleted":"0","num_feature":"70","num_nodes":"11","size_leaf_vector":"1"}},{"base_weights":[-0E0,-1.1606293E-5,5.4716434E-6,-0E0,-2.9168714E-5,4.6898032E-5,-0E0,-0E0,-4.2967028E-7,7.574363E-7,-0E0],"categories":[],"categories_nodes":[],"categories_segments":[],"categories_sizes":[],"default_left":[0,0,0,0,0,0,0,0,0,0,0],"id":51,"left_children":[1,3,5,-1,7,9,-1,-1,-1,-1,-1],"loss_changes":[1.125193E-6,4.9329137E-6,9.674008E-6,0E0,3.8244834E-6,1.1582093E-5,0E0,0E0,0E0,0E0,0E0],"parents":[2147483647,0,0,1,1,2,2,4,4,5,5],"right_children":[2,4,6,-1,8,10,-1,-1,-1,-1,-1],"split_conditions":[1.6728693E-3,-5.683029E-3,1E0,-0E0,-2.374541E-3,3.627303E-3,-0E0,-0E0,-4.2967028E-7,7.574363E-7,-0E0],"split_indices":[64,30,33,0,63,63,0,0,0,0,0],"split_type":[0,0,0,0,0,0,0,0,0,0,0],"sum_hessian":[1.2669E4,7.118E3,5.551E3,1.94E2,6.924E3,4.473E3,1.078E3,1.662E3,5.262E3,3.733E3,7.4E2],"tree_param":{"num_deleted":"0","num_feature":"70","num_nodes":"11","size_leaf_vector":"1"}},{"base_weights":[-0E0,-1.412739E-5,2.5298045E-6,-0E0,-3.1760253E-5,3.219162E-5,-0E0,-4.973729E-7,-0E0,-0E0,5.7984664E-7],"categories":[],"categories_nodes":[],"categories_segments":[],"categories_sizes":[],"default_left":[0,0,0,0,0,0,0,0,0,0,0],"id":52,"left_children":[1,3,5,-1,7,9,-1,-1,-1,-1,-1],"loss_changes":[1.0653621E-6,3.958099E-6,6.281237E-6,0E0,5.103279E-6,1.2391125E-5,0E0,0E0,0E0,0E0,0E0],"parents":[2147483647,0,0,1,1,2,2,4,4,5,5],"right_children":[2,4,6,-1,8,10,-1,-1,-1,-1,-1],"split_conditions":[-7.706705E-4,-5.683029E-3,1E0,-0E0,1.6983205E-2,-1.5E-1,-0E0,-4.973729E-7,-0E0,-0E0,5.7984664E-7],"split_indices":[64,30,33,0,65,53,0,0,0,0,0],"split_type":[0,0,0,0,0,0,0,0,0,0,0],"sum_hessian":[1.2669E4,5.094E3,7.575E3,1.63E2,4.931E3,6.107E3,1.468E3,4.073E3,8.58E2,5.4E2,5.567E3],"tree_param":{"num_deleted":"0","num_feature":"70","num_nodes":"11","size_leaf_vector":"1"}},{"base_weights":[-0E0],"categories":[],"categories_nodes":[],"categories_segments":[],"categories_sizes":[],"default_left":[0],"id":53,"left_children":[-1],"loss_changes":[0E0],"parents":[2147483647],"right_children":[-1],"split_conditions":[-0E0],"split_indices":[0],"split_type":[0],"sum_hessian":[1.2669E4],"tree_param":{"num_deleted":"0","num_feature":"70","num_nodes":"1","size_leaf_vector":"1"}},{"base_weights":[-0E0],"categories":[],"categories_nodes":[],"categories_segments":[],"categories_sizes":[],"default_left":[0],"id":54,"left_children":[-1],"loss_changes":[0E0],"parents":[2147483647],"right_children":[-1],"split_conditions":[-0E0],"split_indices":[0],"split_type":[0],"sum_hessian":[1.2669E4],"tree_param":{"num_deleted":"0","num_feature":"70","num_nodes":"1","size_leaf_vector":"1"}},{"base_weights":[-0E0],"categories":[],"categories_nodes":[],"categories_segments":[],"categories_sizes":[],"default_left":[0],"id":55,"left_children":[-1],"loss_changes":[0E0],"parents":[2147483647],"right_children":[-1],"split_conditions":[-0E0],"split_indices":[0],"split_type":[0],"sum_hessian":[1.2669E4],"tree_param":{"num_deleted":"0","num_feature":"70","num_nodes":"1","size_leaf_vector":"1"}},{"base_weights":[-0E0],"categories":[],"categories_nodes":[],"categories_segments":[],"categories_sizes":[],"default_left":[0],"id":56,"left_children":[-1],"loss_changes":[0E0],"parents":[2147483647],"right_children":[-1],"split_conditions":[-0E0],"split_indices":[0],"split_type":[0],"sum_hessian":[1.2669E4],"tree_param":{"num_deleted":"0","num_feature":"70","num_nodes":"1","size_leaf_vector":"1"}},{"base_weights":[-0E0],"categories":[],"categories_nodes":[],"categories_segments":[],"categories_sizes":[],"default_left":[0],"id":57,"left_children":[-1],"loss_changes":[0E0],"parents":[2147483647],"right_children":[-1],"split_conditions":[-0E0],"split_indices":[0],"split_type":[0],"sum_hessian":[1.2669E4],"tree_param":{"num_deleted":"0","num_feature":"70","num_nodes":"1","size_leaf_vector":"1"}},{"base_weights":[-0E0],"categories":[],"categories_nodes":[],"categories_segments":[],"categories_sizes":[],"default_left":[0],"id":58,"left_children":[-1],"loss_changes":[0E0],"parents":[2147483647],"right_children":[-1],"split_conditions":[-0E0],"split_indices":[0],"split_type":[0],"sum_hessian":[1.2669E4],"tree_param":{"num_deleted":"0","num_feature":"70","num_nodes":"1","size_leaf_vector":"1"}},{"base_weights":[-0E0],"categories":[],"categories_nodes":[],"categories_segments":[],"categories_sizes":[],"default_left":[0],"id":59,"left_children":[-1],"loss_changes":[0E0],"parents":[2147483647],"right_children":[-1],"split_conditions":[-0E0],"split_indices":[0],"split_type":[0],"sum_hessian":[1.2669E4],"tree_param":{"num_deleted":"0","num_feature":"70","num_nodes":"1","size_leaf_vector":"1"}},{"base_weights":[-0E0],"categories":[],"categories_nodes":[],"categories_segments":[],"categories_sizes":[],"default_left":[0],"id":60,"left_children":[-1],"loss_changes":[0E0],"parents":[2147483647],"right_children":[-1],"split_conditions":[-0E0],"split_indices":[0],"split_type":[0],"sum_hessian":[1.2669E4],"tree_param":{"num_deleted":"0","num_feature":"70","num_nodes":"1","size_leaf_vector":"1"}},{"base_weights":[-0E0],"categories":[],"categories_nodes":[],"categories_segments":[],"categories_sizes":[],"default_left":[0],"id":61,"left_children":[-1],"loss_changes":[0E0],"parents":[2147483647],"right_children":[-1],"split_conditions":[-0E0],"split_indices":[0],"split_type":[0],"sum_hessian":[1.2669E4],"tree_param":{"num_deleted":"0","num_feature":"70","num_nodes":"1","size_leaf_vector":"1"}},{"base_weights":[-0E0],"categories":[],"categories_nodes":[],"categories_segments":[],"categories_sizes":[],"default_left":[0],"id":62,"left_children":[-1],"loss_changes":[0E0],"parents":[2147483647],"right_children":[-1],"split_conditions":[-0E0],"split_indices":[0],"split_type":[0],"sum_hessian":[1.2669E4],"tree_param":{"num_deleted":"0","num_feature":"70","num_nodes":"1","size_leaf_vector":"1"}},{"base_weights":[-0E0],"categories":[],"categories_nodes":[],"categories_segments":[],"categories_sizes":[],"default_left":[0],"id":63,"left_children":[-1],"loss_changes":[0E0],"parents":[2147483647],"right_children":[-1],"split_conditions":[-0E0],"split_indices":[0],"split_type":[0],"sum_hessian":[1.2669E4],"tree_param":{"num_deleted":"0","num_feature":"70","num_nodes":"1","size_leaf_vector":"1"}},{"base_weights":[-0E0],"categories":[],"categories_nodes":[],"categories_segments":[],"categories_sizes":[],"default_left":[0],"id":64,"left_children":[-1],"loss_changes":[0E0],"parents":[2147483647],"right_children":[-1],"split_conditions":[-0E0],"split_indices":[0],"split_type":[0],"sum_hessian":[1.2669E4],"tree_param":{"num_deleted":"0","num_feature":"70","num_nodes":"1","size_leaf_vector":"1"}},{"base_weights":[-0E0],"categories":[],"categories_nodes":[],"categories_segments":[],"categories_sizes":[],"default_left":[0],"id":65,"left_children":[-1],"loss_changes":[0E0],"parents":[2147483647],"right_children":[-1],"split_conditions":[-0E0],"split_indices":[0],"split_type":[0],"sum_hessian":[1.2669E4],"tree_param":{"num_deleted":"0","num_feature":"70","num_nodes":"1","size_leaf_vector":"1"}},{"base_weights":[-0E0],"categories":[],"categories_nodes":[],"categories_segments":[],"categories_sizes":[],"default_left":[0],"id":66,"left_children":[-1],"loss_changes":[0E0],"parents":[2147483647],"right_children":[-1],"split_conditions":[-0E0],"split_indices":[0],"split_type":[0],"sum_hessian":[1.2669E4],"tree_param":{"num_deleted":"0","num_feature":"70","num_nodes":"1","size_leaf_vector":"1"}},{"base_weights":[-0E0],"categories":[],"categories_nodes":[],"categories_segments":[],"categories_sizes":[],"default_left":[0],"id":67,"left_children":[-1],"loss_changes":[0E0],"parents":[2147483647],"right_children":[-1],"split_conditions":[-0E0],"split_indices":[0],"split_type":[0],"sum_hessian":[1.2669E4],"tree_param":{"num_deleted":"0","num_feature":"70","num_nodes":"1","size_leaf_vector":"1"}},{"base_weights":[-0E0],"categories":[],"categories_nodes":[],"categories_segments":[],"categories_sizes":[],"default_left":[0],"id":68,"left_children":[-1],"loss_changes":[0E0],"parents":[2147483647],"right_children":[-1],"split_conditions":[-0E0],"split_indices":[0],"split_type":[0],"sum_hessian":[1.2669E4],"tree_param":{"num_deleted":"0","num_feature":"70","num_nodes":"1","size_leaf_vector":"1"}},{"base_weights":[-0E0],"categories":[],"categories_nodes":[],"categories_segments":[],"categories_sizes":[],"default_left":[0],"id":69,"left_children":[-1],"loss_changes":[0E0],"parents":[2147483647],"right_children":[-1],"split_conditions":[-0E0],"split_indices":[0],"split_type":[0],"sum_hessian":[1.2669E4],"tree_param":{"num_deleted":"0","num_feature":"70","num_nodes":"1","size_leaf_vector":"1"}},{"base_weights":[-0E0],"categories":[],"categories_nodes":[],"categories_segments":[],"categories_sizes":[],"default_left":[0],"id":70,"left_children":[-1],"loss_changes":[0E0],"parents":[2147483647],"right_children":[-1],"split_conditions":[-0E0],"split_indices":[0],"split_type":[0],"sum_hessian":[1.2669E4],"tree_param":{"num_deleted":"0","num_feature":"70","num_nodes":"1","size_leaf_vector":"1"}},{"base_weights":[-0E0],"categories":[],"categories_nodes":[],"categories_segments":[],"categories_sizes":[],"default_left":[0],"id":71,"left_children":[-1],"loss_changes":[0E0],"parents":[2147483647],"right_children":[-1],"split_conditions":[-0E0],"split_indices":[0],"split_type":[0],"sum_hessian":[1.2669E4],"tree_param":{"num_deleted":"0","num_feature":"70","num_nodes":"1","size_leaf_vector":"1"}},{"base_weights":[-0E0],"categories":[],"categories_nodes":[],"categories_segments":[],"categories_sizes":[],"default_left":[0],"id":72,"left_children":[-1],"loss_changes":[0E0],"parents":[2147483647],"right_children":[-1],"split_conditions":[-0E0],"split_indices":[0],"split_type":[0],"sum_hessian":[1.2669E4],"tree_param":{"num_deleted":"0","num_feature":"70","num_nodes":"1","size_leaf_vector":"1"}},{"base_weights":[-0E0],"categories":[],"categories_nodes":[],"categories_segments":[],"categories_sizes":[],"default_left":[0],"id":73,"left_children":[-1],"loss_changes":[0E0],"parents":[2147483647],"right_children":[-1],"split_conditions":[-0E0],"split_indices":[0],"split_type":[0],"sum_hessian":[1.2669E4],"tree_param":{"num_deleted":"0","num_feature":"70","num_nodes":"1","size_leaf_vector":"1"}},{"base_weights":[-0E0],"categories":[],"categories_nodes":[],"categories_segments":[],"categories_sizes":[],"default_left":[0],"id":74,"left_children":[-1],"loss_changes":[0E0],"parents":[2147483647],"right_children":[-1],"split_conditions":[-0E0],"split_indices":[0],"split_type":[0],"sum_hessian":[1.2669E4],"tree_param":{"num_deleted":"0","num_feature":"70","num_nodes":"1","size_leaf_vector":"1"}},{"base_weights":[-0E0],"categories":[],"categories_nodes":[],"categories_segments":[],"categories_sizes":[],"default_left":[0],"id":75,"left_children":[-1],"loss_changes":[0E0],"parents":[2147483647],"right_children":[-1],"split_conditions":[-0E0],"split_indices":[0],"split_type":[0],"sum_hessian":[1.2669E4],"tree_param":{"num_deleted":"0","num_feature":"70","num_nodes":"1","size_leaf_vector":"1"}},{"base_weights":[-0E0],"categories":[],"categories_nodes":[],"categories_segments":[],"categories_sizes":[],"default_left":[0],"id":76,"left_children":[-1],"loss_changes":[0E0],"parents":[2147483647],"right_children":[-1],"split_conditions":[-0E0],"split_indices":[0],"split_type":[0],"sum_hessian":[1.2669E4],"tree_param":{"num_deleted":"0","num_feature":"70","num_nodes":"1","size_leaf_vector":"1"}},{"base_weights":[-0E0],"categories":[],"categories_nodes":[],"categories_segments":[],"categories_sizes":[],"default_left":[0],"id":77,"left_children":[-1],"loss_changes":[0E0],"parents":[2147483647],"right_children":[-1],"split_conditions":[-0E0],"split_indices":[0],"split_type":[0],"sum_hessian":[1.2669E4],"tree_param":{"num_deleted":"0","num_feature":"70","num_nodes":"1","size_leaf_vector":"1"}},{"base_weights":[-0E0],"categories":[],"categories_nodes":[],"categories_segments":[],"categories_sizes":[],"default_left":[0],"id":78,"left_children":[-1],"loss_changes":[0E0],"parents":[2147483647],"right_children":[-1],"split_conditions":[-0E0],"split_indices":[0],"split_type":[0],"sum_hessian":[1.2669E4],"tree_param":{"num_deleted":"0","num_feature":"70","num_nodes":"1","size_leaf_vector":"1"}},{"base_weights":[-0E0],"categories":[],"categories_nodes":[],"categories_segments":[],"categories_sizes":[],"default_left":[0],"id":79,"left_children":[-1],"loss_changes":[0E0],"parents":[2147483647],"right_children":[-1],"split_conditions":[-0E0],"split_indices":[0],"split_type":[0],"sum_hessian":[1.2669E4],"tree_param":{"num_deleted":"0","num_feature":"70","num_nodes":"1","size_leaf_vector":"1"}},{"base_weights":[-0E0],"categories":[],"categories_nodes":[],"categories_segments":[],"categories_sizes":[],"default_left":[0],"id":80,"left_children":[-1],"loss_changes":[0E0],"parents":[2147483647],"right_children":[-1],"split_conditions":[-0E0],"split_indices":[0],"split_type":[0],"sum_hessian":[1.2669E4],"tree_param":{"num_deleted":"0","num_feature":"70","num_nodes":"1","size_leaf_vector":"1"}},{"base_weights":[-0E0],"categories":[],"categories_nodes":[],"categories_segments":[],"categories_sizes":[],"default_left":[0],"id":81,"left_children":[-1],"loss_changes":[0E0],"parents":[2147483647],"right_children":[-1],"split_conditions":[-0E0],"split_indices":[0],"split_type":[0],"sum_hessian":[1.2669E4],"tree_param":{"num_deleted":"0","num_feature":"70","num_nodes":"1","size_leaf_vector":"1"}},{"base_weights":[-0E0],"categories":[],"categories_nodes":[],"categories_segments":[],"categories_sizes":[],"default_left":[0],"id":82,"left_children":[-1],"loss_changes":[0E0],"parents":[2147483647],"right_children":[-1],"split_conditions":[-0E0],"split_indices":[0],"split_type":[0],"sum_hessian":[1.2669E4],"tree_param":{"num_deleted":"0","num_feature":"70","num_nodes":"1","size_leaf_vector":"1"}},{"base_weights":[-0E0],"categories":[],"categories_nodes":[],"categories_segments":[],"categories_sizes":[],"default_left":[0],"id":83,"left_children":[-1],"loss_changes":[0E0],"parents":[2147483647],"right_children":[-1],"split_conditions":[-0E0],"split_indices":[0],"split_type":[0],"sum_hessian":[1.2669E4],"tree_param":{"num_deleted":"0","num_feature":"70","num_nodes":"1","size_leaf_vector":"1"}},{"base_weights":[-0E0],"categories":[],"categories_nodes":[],"categories_segments":[],"categories_sizes":[],"default_left":[0],"id":84,"left_children":[-1],"loss_changes":[0E0],"parents":[2147483647],"right_children":[-1],"split_conditions":[-0E0],"split_indices":[0],"split_type":[0],"sum_hessian":[1.2669E4],"tree_param":{"num_deleted":"0","num_feature":"70","num_nodes":"1","size_leaf_vector":"1"}},{"base_weights":[-0E0],"categories":[],"categories_nodes":[],"categories_segments":[],"categories_sizes":[],"default_left":[0],"id":85,"left_children":[-1],"loss_changes":[0E0],"parents":[2147483647],"right_children":[-1],"split_conditions":[-0E0],"split_indices":[0],"split_type":[0],"sum_hessian":[1.2669E4],"tree_param":{"num_deleted":"0","num_feature":"70","num_nodes":"1","size_leaf_vector":"1"}},{"base_weights":[-0E0],"categories":[],"categories_nodes":[],"categories_segments":[],"categories_sizes":[],"default_left":[0],"id":86,"left_children":[-1],"loss_changes":[0E0],"parents":[2147483647],"right_children":[-1],"split_conditions":[-0E0],"split_indices":[0],"split_type":[0],"sum_hessian":[1.2669E4],"tree_param":{"num_deleted":"0","num_feature":"70","num_nodes":"1","size_leaf_vector":"1"}},{"base_weights":[-0E0],"categories":[],"categories_nodes":[],"categories_segments":[],"categories_sizes":[],"default_left":[0],"id":87,"left_children":[-1],"loss_changes":[0E0],"parents":[2147483647],"right_children":[-1],"split_conditions":[-0E0],"split_indices":[0],"split_type":[0],"sum_hessian":[1.2669E4],"tree_param":{"num_deleted":"0","num_feature":"70","num_nodes":"1","size_leaf_vector":"1"}},{"base_weights":[-0E0],"categories":[],"categories_nodes":[],"categories_segments":[],"categories_sizes":[],"default_left":[0],"id":88,"left_children":[-1],"loss_changes":[0E0],"parents":[2147483647],"right_children":[-1],"split_conditions":[-0E0],"split_indices":[0],"split_type":[0],"sum_hessian":[1.2669E4],"tree_param":{"num_deleted":"0","num_feature":"70","num_nodes":"1","size_leaf_vector":"1"}},{"base_weights":[-0E0],"categories":[],"categories_nodes":[],"categories_segments":[],"categories_sizes":[],"default_left":[0],"id":89,"left_children":[-1],"loss_changes":[0E0],"parents":[2147483647],"right_children":[-1],"split_conditions":[-0E0],"split_indices":[0],"split_type":[0],"sum_hessian":[1.2669E4],"tree_param":{"num_deleted":"0","num_feature":"70","num_nodes":"1","size_leaf_vector":"1"}},{"base_weights":[-0E0],"categories":[],"categories_nodes":[],"categories_segments":[],"categories_sizes":[],"default_left":[0],"id":90,"left_children":[-1],"loss_changes":[0E0],"parents":[2147483647],"right_children":[-1],"split_conditions":[-0E0],"split_indices":[0],"split_type":[0],"sum_hessian":[1.2669E4],"tree_param":{"num_deleted":"0","num_feature":"70","num_nodes":"1","size_leaf_vector":"1"}},{"base_weights":[-0E0],"categories":[],"categories_nodes":[],"categories_segments":[],"categories_sizes":[],"default_left":[0],"id":91,"left_children":[-1],"loss_changes":[0E0],"parents":[2147483647],"right_children":[-1],"split_conditions":[-0E0],"split_indices":[0],"split_type":[0],"sum_hessian":[1.2669E4],"tree_param":{"num_deleted":"0","num_feature":"70","num_nodes":"1","size_leaf_vector":"1"}},{"base_weights":[-0E0],"categories":[],"categories_nodes":[],"categories_segments":[],"categories_sizes":[],"default_left":[0],"id":92,"left_children":[-1],"loss_changes":[0E0],"parents":[2147483647],"right_children":[-1],"split_conditions":[-0E0],"split_indices":[0],"split_type":[0],"sum_hessian":[1.2669E4],"tree_param":{"num_deleted":"0","num_feature":"70","num_nodes":"1","size_leaf_vector":"1"}},{"base_weights":[-0E0],"categories":[],"categories_nodes":[],"categories_segments":[],"categories_sizes":[],"default_left":[0],"id":93,"left_children":[-1],"loss_changes":[0E0],"parents":[2147483647],"right_children":[-1],"split_conditions":[-0E0],"split_indices":[0],"split_type":[0],"sum_hessian":[1.2669E4],"tree_param":{"num_deleted":"0","num_feature":"70","num_nodes":"1","size_leaf_vector":"1"}},{"base_weights":[-0E0],"categories":[],"categories_nodes":[],"categories_segments":[],"categories_sizes":[],"default_left":[0],"id":94,"left_children":[-1],"loss_changes":[0E0],"parents":[2147483647],"right_children":[-1],"split_conditions":[-0E0],"split_indices":[0],"split_type":[0],"sum_hessian":[1.2669E4],"tree_param":{"num_deleted":"0","num_feature":"70","num_nodes":"1","size_leaf_vector":"1"}},{"base_weights":[-0E0],"categories":[],"categories_nodes":[],"categories_segments":[],"categories_sizes":[],"default_left":[0],"id":95,"left_children":[-1],"loss_changes":[0E0],"parents":[2147483647],"right_children":[-1],"split_conditions":[-0E0],"split_indices":[0],"split_type":[0],"sum_hessian":[1.2669E4],"tree_param":{"num_deleted":"0","num_feature":"70","num_nodes":"1","size_leaf_vector":"1"}},{"base_weights":[-0E0],"categories":[],"categories_nodes":[],"categories_segments":[],"categories_sizes":[],"default_left":[0],"id":96,"left_children":[-1],"loss_changes":[0E0],"parents":[2147483647],"right_children":[-1],"split_conditions":[-0E0],"split_indices":[0],"split_type":[0],"sum_hessian":[1.2669E4],"tree_param":{"num_deleted":"0","num_feature":"70","num_nodes":"1","size_leaf_vector":"1"}},{"base_weights":[-0E0],"categories":[],"categories_nodes":[],"categories_segments":[],"categories_sizes":[],"default_left":[0],"id":97,"left_children":[-1],"loss_changes":[0E0],"parents":[2147483647],"right_children":[-1],"split_conditions":[-0E0],"split_indices":[0],"split_type":[0],"sum_hessian":[1.2669E4],"tree_param":{"num_deleted":"0","num_feature":"70","num_nodes":"1","size_leaf_vector":"1"}},{"base_weights":[-0E0],"categories":[],"categories_nodes":[],"categories_segments":[],"categories_sizes":[],"default_left":[0],"id":98,"left_children":[-1],"loss_changes":[0E0],"parents":[2147483647],"right_children":[-1],"split_conditions":[-0E0],"split_indices":[0],"split_type":[0],"sum_hessian":[1.2669E4],"tree_param":{"num_deleted":"0","num_feature":"70","num_nodes":"1","size_leaf_vector":"1"}},{"base_weights":[-0E0],"categories":[],"categories_nodes":[],"categories_segments":[],"categories_sizes":[],"default_left":[0],"id":99,"left_children":[-1],"loss_changes":[0E0],"parents":[2147483647],"right_children":[-1],"split_conditions":[-0E0],"split_indices":[0],"split_type":[0],"sum_hessian":[1.2669E4],"tree_param":{"num_deleted":"0","num_feature":"70","num_nodes":"1","size_leaf_vector":"1"}},{"base_weights":[-0E0],"categories":[],"categories_nodes":[],"categories_segments":[],"categories_sizes":[],"default_left":[0],"id":100,"left_children":[-1],"loss_changes":[0E0],"parents":[2147483647],"right_children":[-1],"split_conditions":[-0E0],"split_indices":[0],"split_type":[0],"sum_hessian":[1.2669E4],"tree_param":{"num_deleted":"0","num_feature":"70","num_nodes":"1","size_leaf_vector":"1"}},{"base_weights":[-0E0],"categories":[],"categories_nodes":[],"categories_segments":[],"categories_sizes":[],"default_left":[0],"id":101,"left_children":[-1],"loss_changes":[0E0],"parents":[2147483647],"right_children":[-1],"split_conditions":[-0E0],"split_indices":[0],"split_type":[0],"sum_hessian":[1.2669E4],"tree_param":{"num_deleted":"0","num_feature":"70","num_nodes":"1","size_leaf_vector":"1"}},{"base_weights":[-0E0],"categories":[],"categories_nodes":[],"categories_segments":[],"categories_sizes":[],"default_left":[0],"id":102,"left_children":[-1],"loss_changes":[0E0],"parents":[2147483647],"right_children":[-1],"split_conditions":[-0E0],"split_indices":[0],"split_type":[0],"sum_hessian":[1.2669E4],"tree_param":{"num_deleted":"0","num_feature":"70","num_nodes":"1","size_leaf_vector":"1"}},{"base_weights":[-0E0],"categories":[],"categories_nodes":[],"categories_segments":[],"categories_sizes":[],"default_left":[0],"id":103,"left_children":[-1],"loss_changes":[0E0],"parents":[2147483647],"right_children":[-1],"split_conditions":[-0E0],"split_indices":[0],"split_type":[0],"sum_hessian":[1.2669E4],"tree_param":{"num_deleted":"0","num_feature":"70","num_nodes":"1","size_leaf_vector":"1"}},{"base_weights":[-0E0],"categories":[],"categories_nodes":[],"categories_segments":[],"categories_sizes":[],"default_left":[0],"id":104,"left_children":[-1],"loss_changes":[0E0],"parents":[2147483647],"right_children":[-1],"split_conditions":[-0E0],"split_indices":[0],"split_type":[0],"sum_hessian":[1.2669E4],"tree_param":{"num_deleted":"0","num_feature":"70","num_nodes":"1","size_leaf_vector":"1"}},{"base_weights":[-0E0],"categories":[],"categories_nodes":[],"categories_segments":[],"categories_sizes":[],"default_left":[0],"id":105,"left_children":[-1],"loss_changes":[0E0],"parents":[2147483647],"right_children":[-1],"split_conditions":[-0E0],"split_indices":[0],"split_type":[0],"sum_hessian":[1.2669E4],"tree_param":{"num_deleted":"0","num_feature":"70","num_nodes":"1","size_leaf_vector":"1"}},{"base_weights":[-0E0],"categories":[],"categories_nodes":[],"categories_segments":[],"categories_sizes":[],"default_left":[0],"id":106,"left_children":[-1],"loss_changes":[0E0],"parents":[2147483647],"right_children":[-1],"split_conditions":[-0E0],"split_indices":[0],"split_type":[0],"sum_hessian":[1.2669E4],"tree_param":{"num_deleted":"0","num_feature":"70","num_nodes":"1","size_leaf_vector":"1"}},{"base_weights":[-0E0],"categories":[],"categories_nodes":[],"categories_segments":[],"categories_sizes":[],"default_left":[0],"id":107,"left_children":[-1],"loss_changes":[0E0],"parents":[2147483647],"right_children":[-1],"split_conditions":[-0E0],"split_indices":[0],"split_type":[0],"sum_hessian":[1.2669E4],"tree_param":{"num_deleted":"0","num_feature":"70","num_nodes":"1","size_leaf_vector":"1"}},{"base_weights":[-0E0],"categories":[],"categories_nodes":[],"categories_segments":[],"categories_sizes":[],"default_left":[0],"id":108,"left_children":[-1],"loss_changes":[0E0],"parents":[2147483647],"right_children":[-1],"split_conditions":[-0E0],"split_indices":[0],"split_type":[0],"sum_hessian":[1.2669E4],"tree_param":{"num_deleted":"0","num_feature":"70","num_nodes":"1","size_leaf_vector":"1"}},{"base_weights":[-0E0],"categories":[],"categories_nodes":[],"categories_segments":[],"categories_sizes":[],"default_left":[0],"id":109,"left_children":[-1],"loss_changes":[0E0],"parents":[2147483647],"right_children":[-1],"split_conditions":[-0E0],"split_indices":[0],"split_type":[0],"sum_hessian":[1.2669E4],"tree_param":{"num_deleted":"0","num_feature":"70","num_nodes":"1","size_leaf_vector":"1"}},{"base_weights":[-0E0],"categories":[],"categories_nodes":[],"categories_segments":[],"categories_sizes":[],"default_left":[0],"id":110,"left_children":[-1],"loss_changes":[0E0],"parents":[2147483647],"right_children":[-1],"split_conditions":[-0E0],"split_indices":[0],"split_type":[0],"sum_hessian":[1.2669E4],"tree_param":{"num_deleted":"0","num_feature":"70","num_nodes":"1","size_leaf_vector":"1"}},{"base_weights":[-0E0],"categories":[],"categories_nodes":[],"categories_segments":[],"categories_sizes":[],"default_left":[0],"id":111,"left_children":[-1],"loss_changes":[0E0],"parents":[2147483647],"right_children":[-1],"split_conditions":[-0E0],"split_indices":[0],"split_type":[0],"sum_hessian":[1.2669E4],"tree_param":{"num_deleted":"0","num_feature":"70","num_nodes":"1","size_leaf_vector":"1"}},{"base_weights":[-0E0],"categories":[],"categories_nodes":[],"categories_segments":[],"categories_sizes":[],"default_left":[0],"id":112,"left_children":[-1],"loss_changes":[0E0],"parents":[2147483647],"right_children":[-1],"split_conditions":[-0E0],"split_indices":[0],"split_type":[0],"sum_hessian":[1.2669E4],"tree_param":{"num_deleted":"0","num_feature":"70","num_nodes":"1","size_leaf_vector":"1"}},{"base_weights":[-0E0],"categories":[],"categories_nodes":[],"categories_segments":[],"categories_sizes":[],"default_left":[0],"id":113,"left_children":[-1],"loss_changes":[0E0],"parents":[2147483647],"right_children":[-1],"split_conditions":[-0E0],"split_indices":[0],"split_type":[0],"sum_hessian":[1.2669E4],"tree_param":{"num_deleted":"0","num_feature":"70","num_nodes":"1","size_leaf_vector":"1"}},{"base_weights":[-0E0],"categories":[],"categories_nodes":[],"categories_segments":[],"categories_sizes":[],"default_left":[0],"id":114,"left_children":[-1],"loss_changes":[0E0],"parents":[2147483647],"right_children":[-1],"split_conditions":[-0E0],"split_indices":[0],"split_type":[0],"sum_hessian":[1.2669E4],"tree_param":{"num_deleted":"0","num_feature":"70","num_nodes":"1","size_leaf_vector":"1"}},{"base_weights":[-0E0],"categories":[],"categories_nodes":[],"categories_segments":[],"categories_sizes":[],"default_left":[0],"id":115,"left_children":[-1],"loss_changes":[0E0],"parents":[2147483647],"right_children":[-1],"split_conditions":[-0E0],"split_indices":[0],"split_type":[0],"sum_hessian":[1.2669E4],"tree_param":{"num_deleted":"0","num_feature":"70","num_nodes":"1","size_leaf_vector":"1"}},{"base_weights":[-0E0],"categories":[],"categories_nodes":[],"categories_segments":[],"categories_sizes":[],"default_left":[0],"id":116,"left_children":[-1],"loss_changes":[0E0],"parents":[2147483647],"right_children":[-1],"split_conditions":[-0E0],"split_indices":[0],"split_type":[0],"sum_hessian":[1.2669E4],"tree_param":{"num_deleted":"0","num_feature":"70","num_nodes":"1","size_leaf_vector":"1"}},{"base_weights":[-0E0],"categories":[],"categories_nodes":[],"categories_segments":[],"categories_sizes":[],"default_left":[0],"id":117,"left_children":[-1],"loss_changes":[0E0],"parents":[2147483647],"right_children":[-1],"split_conditions":[-0E0],"split_indices":[0],"split_type":[0],"sum_hessian":[1.2669E4],"tree_param":{"num_deleted":"0","num_feature":"70","num_nodes":"1","size_leaf_vector":"1"}},{"base_weights":[-0E0],"categories":[],"categories_nodes":[],"categories_segments":[],"categories_sizes":[],"default_left":[0],"id":118,"left_children":[-1],"loss_changes":[0E0],"parents":[2147483647],"right_children":[-1],"split_conditions":[-0E0],"split_indices":[0],"split_type":[0],"sum_hessian":[1.2669E4],"tree_param":{"num_deleted":"0","num_feature":"70","num_nodes":"1","size_leaf_vector":"1"}},{"base_weights":[-0E0],"categories":[],"categories_nodes":[],"categories_segments":[],"categories_sizes":[],"default_left":[0],"id":119,"left_children":[-1],"loss_changes":[0E0],"parents":[2147483647],"right_children":[-1],"split_conditions":[-0E0],"split_indices":[0],"split_type":[0],"sum_hessian":[1.2669E4],"tree_param":{"num_deleted":"0","num_feature":"70","num_nodes":"1","size_leaf_vector":"1"}},{"base_weights":[-0E0],"categories":[],"categories_nodes":[],"categories_segments":[],"categories_sizes":[],"default_left":[0],"id":120,"left_children":[-1],"loss_changes":[0E0],"parents":[2147483647],"right_children":[-1],"split_conditions":[-0E0],"split_indices":[0],"split_type":[0],"sum_hessian":[1.2669E4],"tree_param":{"num_deleted":"0","num_feature":"70","num_nodes":"1","size_leaf_vector":"1"}},{"base_weights":[-0E0],"categories":[],"categories_nodes":[],"categories_segments":[],"categories_sizes":[],"default_left":[0],"id":121,"left_children":[-1],"loss_changes":[0E0],"parents":[2147483647],"right_children":[-1],"split_conditions":[-0E0],"split_indices":[0],"split_type":[0],"sum_hessian":[1.2669E4],"tree_param":{"num_deleted":"0","num_feature":"70","num_nodes":"1","size_leaf_vector":"1"}},{"base_weights":[-0E0],"categories":[],"categories_nodes":[],"categories_segments":[],"categories_sizes":[],"default_left":[0],"id":122,"left_children":[-1],"loss_changes":[0E0],"parents":[2147483647],"right_children":[-1],"split_conditions":[-0E0],"split_indices":[0],"split_type":[0],"sum_hessian":[1.2669E4],"tree_param":{"num_deleted":"0","num_feature":"70","num_nodes":"1","size_leaf_vector":"1"}},{"base_weights":[-0E0],"categories":[],"categories_nodes":[],"categories_segments":[],"categories_sizes":[],"default_left":[0],"id":123,"left_children":[-1],"loss_changes":[0E0],"parents":[2147483647],"right_children":[-1],"split_conditions":[-0E0],"split_indices":[0],"split_type":[0],"sum_hessian":[1.2669E4],"tree_param":{"num_deleted":"0","num_feature":"70","num_nodes":"1","size_leaf_vector":"1"}},{"base_weights":[-0E0],"categories":[],"categories_nodes":[],"categories_segments":[],"categories_sizes":[],"default_left":[0],"id":124,"left_children":[-1],"loss_changes":[0E0],"parents":[2147483647],"right_children":[-1],"split_conditions":[-0E0],"split_indices":[0],"split_type":[0],"sum_hessian":[1.2669E4],"tree_param":{"num_deleted":"0","num_feature":"70","num_nodes":"1","size_leaf_vector":"1"}},{"base_weights":[-0E0],"categories":[],"categories_nodes":[],"categories_segments":[],"categories_sizes":[],"default_left":[0],"id":125,"left_children":[-1],"loss_changes":[0E0],"parents":[2147483647],"right_children":[-1],"split_conditions":[-0E0],"split_indices":[0],"split_type":[0],"sum_hessian":[1.2669E4],"tree_param":{"num_deleted":"0","num_feature":"70","num_nodes":"1","size_leaf_vector":"1"}},{"base_weights":[-0E0],"categories":[],"categories_nodes":[],"categories_segments":[],"categories_sizes":[],"default_left":[0],"id":126,"left_children":[-1],"loss_changes":[0E0],"parents":[2147483647],"right_children":[-1],"split_conditions":[-0E0],"split_indices":[0],"split_type":[0],"sum_hessian":[1.2669E4],"tree_param":{"num_deleted":"0","num_feature":"70","num_nodes":"1","size_leaf_vector":"1"}},{"base_weights":[-0E0],"categories":[],"categories_nodes":[],"categories_segments":[],"categories_sizes":[],"default_left":[0],"id":127,"left_children":[-1],"loss_changes":[0E0],"parents":[2147483647],"right_children":[-1],"split_conditions":[-0E0],"split_indices":[0],"split_type":[0],"sum_hessian":[1.2669E4],"tree_param":{"num_deleted":"0","num_feature":"70","num_nodes":"1","size_leaf_vector":"1"}},{"base_weights":[-0E0],"categories":[],"categories_nodes":[],"categories_segments":[],"categories_sizes":[],"default_left":[0],"id":128,"left_children":[-1],"loss_changes":[0E0],"parents":[2147483647],"right_children":[-1],"split_conditions":[-0E0],"split_indices":[0],"split_type":[0],"sum_hessian":[1.2669E4],"tree_param":{"num_deleted":"0","num_feature":"70","num_nodes":"1","size_leaf_vector":"1"}},{"base_weights":[-0E0],"categories":[],"categories_nodes":[],"categories_segments":[],"categories_sizes":[],"default_left":[0],"id":129,"left_children":[-1],"loss_changes":[0E0],"parents":[2147483647],"right_children":[-1],"split_conditions":[-0E0],"split_indices":[0],"split_type":[0],"sum_hessian":[1.2669E4],"tree_param":{"num_deleted":"0","num_feature":"70","num_nodes":"1","size_leaf_vector":"1"}},{"base_weights":[-0E0],"categories":[],"categories_nodes":[],"categories_segments":[],"categories_sizes":[],"default_left":[0],"id":130,"left_children":[-1],"loss_changes":[0E0],"parents":[2147483647],"right_children":[-1],"split_conditions":[-0E0],"split_indices":[0],"split_type":[0],"sum_hessian":[1.2669E4],"tree_param":{"num_deleted":"0","num_feature":"70","num_nodes":"1","size_leaf_vector":"1"}},{"base_weights":[-0E0],"categories":[],"categories_nodes":[],"categories_segments":[],"categories_sizes":[],"default_left":[0],"id":131,"left_children":[-1],"loss_changes":[0E0],"parents":[2147483647],"right_children":[-1],"split_conditions":[-0E0],"split_indices":[0],"split_type":[0],"sum_hessian":[1.2669E4],"tree_param":{"num_deleted":"0","num_feature":"70","num_nodes":"1","size_leaf_vector":"1"}},{"base_weights":[-0E0],"categories":[],"categories_nodes":[],"categories_segments":[],"categories_sizes":[],"default_left":[0],"id":132,"left_children":[-1],"loss_changes":[0E0],"parents":[2147483647],"right_children":[-1],"split_conditions":[-0E0],"split_indices":[0],"split_type":[0],"sum_hessian":[1.2669E4],"tree_param":{"num_deleted":"0","num_feature":"70","num_nodes":"1","size_leaf_vector":"1"}},{"base_weights":[-0E0],"categories":[],"categories_nodes":[],"categories_segments":[],"categories_sizes":[],"default_left":[0],"id":133,"left_children":[-1],"loss_changes":[0E0],"parents":[2147483647],"right_children":[-1],"split_conditions":[-0E0],"split_indices":[0],"split_type":[0],"sum_hessian":[1.2669E4],"tree_param":{"num_deleted":"0","num_feature":"70","num_nodes":"1","size_leaf_vector":"1"}},{"base_weights":[-0E0],"categories":[],"categories_nodes":[],"categories_segments":[],"categories_sizes":[],"default_left":[0],"id":134,"left_children":[-1],"loss_changes":[0E0],"parents":[2147483647],"right_children":[-1],"split_conditions":[-0E0],"split_indices":[0],"split_type":[0],"sum_hessian":[1.2669E4],"tree_param":{"num_deleted":"0","num_feature":"70","num_nodes":"1","size_leaf_vector":"1"}},{"base_weights":[-0E0],"categories":[],"categories_nodes":[],"categories_segments":[],"categories_sizes":[],"default_left":[0],"id":135,"left_children":[-1],"loss_changes":[0E0],"parents":[2147483647],"right_children":[-1],"split_conditions":[-0E0],"split_indices":[0],"split_type":[0],"sum_hessian":[1.2669E4],"tree_param":{"num_deleted":"0","num_feature":"70","num_nodes":"1","size_leaf_vector":"1"}},{"base_weights":[-0E0],"categories":[],"categories_nodes":[],"categories_segments":[],"categories_sizes":[],"default_left":[0],"id":136,"left_children":[-1],"loss_changes":[0E0],"parents":[2147483647],"right_children":[-1],"split_conditions":[-0E0],"split_indices":[0],"split_type":[0],"sum_hessian":[1.2669E4],"tree_param":{"num_deleted":"0","num_feature":"70","num_nodes":"1","size_leaf_vector":"1"}},{"base_weights":[-0E0],"categories":[],"categories_nodes":[],"categories_segments":[],"categories_sizes":[],"default_left":[0],"id":137,"left_children":[-1],"loss_changes":[0E0],"parents":[2147483647],"right_children":[-1],"split_conditions":[-0E0],"split_indices":[0],"split_type":[0],"sum_hessian":[1.2669E4],"tree_param":{"num_deleted":"0","num_feature":"70","num_nodes":"1","size_leaf_vector":"1"}},{"base_weights":[-0E0],"categories":[],"categories_nodes":[],"categories_segments":[],"categories_sizes":[],"default_left":[0],"id":138,"left_children":[-1],"loss_changes":[0E0],"parents":[2147483647],"right_children":[-1],"split_conditions":[-0E0],"split_indices":[0],"split_type":[0],"sum_hessian":[1.2669E4],"tree_param":{"num_deleted":"0","num_feature":"70","num_nodes":"1","size_leaf_vector":"1"}},{"base_weights":[-0E0],"categories":[],"categories_nodes":[],"categories_segments":[],"categories_sizes":[],"default_left":[0],"id":139,"left_children":[-1],"loss_changes":[0E0],"parents":[2147483647],"right_children":[-1],"split_conditions":[-0E0],"split_indices":[0],"split_type":[0],"sum_hessian":[1.2669E4],"tree_param":{"num_deleted":"0","num_feature":"70","num_nodes":"1","size_leaf_vector":"1"}},{"base_weights":[-0E0],"categories":[],"categories_nodes":[],"categories_segments":[],"categories_sizes":[],"default_left":[0],"id":140,"left_children":[-1],"loss_changes":[0E0],"parents":[2147483647],"right_children":[-1],"split_conditions":[-0E0],"split_indices":[0],"split_type":[0],"sum_hessian":[1.2669E4],"tree_param":{"num_deleted":"0","num_feature":"70","num_nodes":"1","size_leaf_vector":"1"}},{"base_weights":[-0E0],"categories":[],"categories_nodes":[],"categories_segments":[],"categories_sizes":[],"default_left":[0],"id":141,"left_children":[-1],"loss_changes":[0E0],"parents":[2147483647],"right_children":[-1],"split_conditions":[-0E0],"split_indices":[0],"split_type":[0],"sum_hessian":[1.2669E4],"tree_param":{"num_deleted":"0","num_feature":"70","num_nodes":"1","size_leaf_vector":"1"}},{"base_weights":[-0E0],"categories":[],"categories_nodes":[],"categories_segments":[],"categories_sizes":[],"default_left":[0],"id":142,"left_children":[-1],"loss_changes":[0E0],"parents":[2147483647],"right_children":[-1],"split_conditions":[-0E0],"split_indices":[0],"split_type":[0],"sum_hessian":[1.2669E4],"tree_param":{"num_deleted":"0","num_feature":"70","num_nodes":"1","size_leaf_vector":"1"}},{"base_weights":[-0E0],"categories":[],"categories_nodes":[],"categories_segments":[],"categories_sizes":[],"default_left":[0],"id":143,"left_children":[-1],"loss_changes":[0E0],"parents":[2147483647],"right_children":[-1],"split_conditions":[-0E0],"split_indices":[0],"split_type":[0],"sum_hessian":[1.2669E4],"tree_param":{"num_deleted":"0","num_feature":"70","num_nodes":"1","size_leaf_vector":"1"}},{"base_weights":[-0E0],"categories":[],"categories_nodes":[],"categories_segments":[],"categories_sizes":[],"default_left":[0],"id":144,"left_children":[-1],"loss_changes":[0E0],"parents":[2147483647],"right_children":[-1],"split_conditions":[-0E0],"split_indices":[0],"split_type":[0],"sum_hessian":[1.2669E4],"tree_param":{"num_deleted":"0","num_feature":"70","num_nodes":"1","size_leaf_vector":"1"}},{"base_weights":[-0E0],"categories":[],"categories_nodes":[],"categories_segments":[],"categories_sizes":[],"default_left":[0],"id":145,"left_children":[-1],"loss_changes":[0E0],"parents":[2147483647],"right_children":[-1],"split_conditions":[-0E0],"split_indices":[0],"split_type":[0],"sum_hessian":[1.2669E4],"tree_param":{"num_deleted":"0","num_feature":"70","num_nodes":"1","size_leaf_vector":"1"}},{"base_weights":[-0E0],"categories":[],"categories_nodes":[],"categories_segments":[],"categories_sizes":[],"default_left":[0],"id":146,"left_children":[-1],"loss_changes":[0E0],"parents":[2147483647],"right_children":[-1],"split_conditions":[-0E0],"split_indices":[0],"split_type":[0],"sum_hessian":[1.2669E4],"tree_param":{"num_deleted":"0","num_feature":"70","num_nodes":"1","size_leaf_vector":"1"}},{"base_weights":[-0E0],"categories":[],"categories_nodes":[],"categories_segments":[],"categories_sizes":[],"default_left":[0],"id":147,"left_children":[-1],"loss_changes":[0E0],"parents":[2147483647],"right_children":[-1],"split_conditions":[-0E0],"split_indices":[0],"split_type":[0],"sum_hessian":[1.2669E4],"tree_param":{"num_deleted":"0","num_feature":"70","num_nodes":"1","size_leaf_vector":"1"}},{"base_weights":[-0E0],"categories":[],"categories_nodes":[],"categories_segments":[],"categories_sizes":[],"default_left":[0],"id":148,"left_children":[-1],"loss_changes":[0E0],"parents":[2147483647],"right_children":[-1],"split_conditions":[-0E0],"split_indices":[0],"split_type":[0],"sum_hessian":[1.2669E4],"tree_param":{"num_deleted":"0","num_feature":"70","num_nodes":"1","size_leaf_vector":"1"}},{"base_weights":[-0E0],"categories":[],"categories_nodes":[],"categories_segments":[],"categories_sizes":[],"default_left":[0],"id":149,"left_children":[-1],"loss_changes":[0E0],"parents":[2147483647],"right_children":[-1],"split_conditions":[-0E0],"split_indices":[0],"split_type":[0],"sum_hessian":[1.2669E4],"tree_param":{"num_deleted":"0","num_feature":"70","num_nodes":"1","size_leaf_vector":"1"}},{"base_weights":[-0E0],"categories":[],"categories_nodes":[],"categories_segments":[],"categories_sizes":[],"default_left":[0],"id":150,"left_children":[-1],"loss_changes":[0E0],"parents":[2147483647],"right_children":[-1],"split_conditions":[-0E0],"split_indices":[0],"split_type":[0],"sum_hessian":[1.2669E4],"tree_param":{"num_deleted":"0","num_feature":"70","num_nodes":"1","size_leaf_vector":"1"}},{"base_weights":[-0E0],"categories":[],"categories_nodes":[],"categories_segments":[],"categories_sizes":[],"default_left":[0],"id":151,"left_children":[-1],"loss_changes":[0E0],"parents":[2147483647],"right_children":[-1],"split_conditions":[-0E0],"split_indices":[0],"split_type":[0],"sum_hessian":[1.2669E4],"tree_param":{"num_deleted":"0","num_feature":"70","num_nodes":"1","size_leaf_vector":"1"}},{"base_weights":[-0E0],"categories":[],"categories_nodes":[],"categories_segments":[],"categories_sizes":[],"default_left":[0],"id":152,"left_children":[-1],"loss_changes":[0E0],"parents":[2147483647],"right_children":[-1],"split_conditions":[-0E0],"split_indices":[0],"split_type":[0],"sum_hessian":[1.2669E4],"tree_param":{"num_deleted":"0","num_feature":"70","num_nodes":"1","size_leaf_vector":"1"}},{"base_weights":[-0E0],"categories":[],"categories_nodes":[],"categories_segments":[],"categories_sizes":[],"default_left":[0],"id":153,"left_children":[-1],"loss_changes":[0E0],"parents":[2147483647],"right_children":[-1],"split_conditions":[-0E0],"split_indices":[0],"split_type":[0],"sum_hessian":[1.2669E4],"tree_param":{"num_deleted":"0","num_feature":"70","num_nodes":"1","size_leaf_vector":"1"}},{"base_weights":[-0E0],"categories":[],"categories_nodes":[],"categories_segments":[],"categories_sizes":[],"default_left":[0],"id":154,"left_children":[-1],"loss_changes":[0E0],"parents":[2147483647],"right_children":[-1],"split_conditions":[-0E0],"split_indices":[0],"split_type":[0],"sum_hessian":[1.2669E4],"tree_param":{"num_deleted":"0","num_feature":"70","num_nodes":"1","size_leaf_vector":"1"}},{"base_weights":[-0E0],"categories":[],"categories_nodes":[],"categories_segments":[],"categories_sizes":[],"default_left":[0],"id":155,"left_children":[-1],"loss_changes":[0E0],"parents":[2147483647],"right_children":[-1],"split_conditions":[-0E0],"split_indices":[0],"split_type":[0],"sum_hessian":[1.2669E4],"tree_param":{"num_deleted":"0","num_feature":"70","num_nodes":"1","size_leaf_vector":"1"}},{"base_weights":[-0E0],"categories":[],"categories_nodes":[],"categories_segments":[],"categories_sizes":[],"default_left":[0],"id":156,"left_children":[-1],"loss_changes":[0E0],"parents":[2147483647],"right_children":[-1],"split_conditions":[-0E0],"split_indices":[0],"split_type":[0],"sum_hessian":[1.2669E4],"tree_param":{"num_deleted":"0","num_feature":"70","num_nodes":"1","size_leaf_vector":"1"}},{"base_weights":[-0E0],"categories":[],"categories_nodes":[],"categories_segments":[],"categories_sizes":[],"default_left":[0],"id":157,"left_children":[-1],"loss_changes":[0E0],"parents":[2147483647],"right_children":[-1],"split_conditions":[-0E0],"split_indices":[0],"split_type":[0],"sum_hessian":[1.2669E4],"tree_param":{"num_deleted":"0","num_feature":"70","num_nodes":"1","size_leaf_vector":"1"}},{"base_weights":[-0E0],"categories":[],"categories_nodes":[],"categories_segments":[],"categories_sizes":[],"default_left":[0],"id":158,"left_children":[-1],"loss_changes":[0E0],"parents":[2147483647],"right_children":[-1],"split_conditions":[-0E0],"split_indices":[0],"split_type":[0],"sum_hessian":[1.2669E4],"tree_param":{"num_deleted":"0","num_feature":"70","num_nodes":"1","size_leaf_vector":"1"}},{"base_weights":[-0E0],"categories":[],"categories_nodes":[],"categories_segments":[],"categories_sizes":[],"default_left":[0],"id":159,"left_children":[-1],"loss_changes":[0E0],"parents":[2147483647],"right_children":[-1],"split_conditions":[-0E0],"split_indices":[0],"split_type":[0],"sum_hessian":[1.2669E4],"tree_param":{"num_deleted":"0","num_feature":"70","num_nodes":"1","size_leaf_vector":"1"}},{"base_weights":[-0E0],"categories":[],"categories_nodes":[],"categories_segments":[],"categories_sizes":[],"default_left":[0],"id":160,"left_children":[-1],"loss_changes":[0E0],"parents":[2147483647],"right_children":[-1],"split_conditions":[-0E0],"split_indices":[0],"split_type":[0],"sum_hessian":[1.2669E4],"tree_param":{"num_deleted":"0","num_feature":"70","num_nodes":"1","size_leaf_vector":"1"}},{"base_weights":[-0E0],"categories":[],"categories_nodes":[],"categories_segments":[],"categories_sizes":[],"default_left":[0],"id":161,"left_children":[-1],"loss_changes":[0E0],"parents":[2147483647],"right_children":[-1],"split_conditions":[-0E0],"split_indices":[0],"split_type":[0],"sum_hessian":[1.2669E4],"tree_param":{"num_deleted":"0","num_feature":"70","num_nodes":"1","size_leaf_vector":"1"}},{"base_weights":[-0E0],"categories":[],"categories_nodes":[],"categories_segments":[],"categories_sizes":[],"default_left":[0],"id":162,"left_children":[-1],"loss_changes":[0E0],"parents":[2147483647],"right_children":[-1],"split_conditions":[-0E0],"split_indices":[0],"split_type":[0],"sum_hessian":[1.2669E4],"tree_param":{"num_deleted":"0","num_feature":"70","num_nodes":"1","size_leaf_vector":"1"}},{"base_weights":[-0E0],"categories":[],"categories_nodes":[],"categories_segments":[],"categories_sizes":[],"default_left":[0],"id":163,"left_children":[-1],"loss_changes":[0E0],"parents":[2147483647],"right_children":[-1],"split_conditions":[-0E0],"split_indices":[0],"split_type":[0],"sum_hessian":[1.2669E4],"tree_param":{"num_deleted":"0","num_feature":"70","num_nodes":"1","size_leaf_vector":"1"}},{"base_weights":[-0E0],"categories":[],"categories_nodes":[],"categories_segments":[],"categories_sizes":[],"default_left":[0],"id":164,"left_children":[-1],"loss_changes":[0E0],"parents":[2147483647],"right_children":[-1],"split_conditions":[-0E0],"split_indices":[0],"split_type":[0],"sum_hessian":[1.2669E4],"tree_param":{"num_deleted":"0","num_feature":"70","num_nodes":"1","size_leaf_vector":"1"}},{"base_weights":[-0E0],"categories":[],"categories_nodes":[],"categories_segments":[],"categories_sizes":[],"default_left":[0],"id":165,"left_children":[-1],"loss_changes":[0E0],"parents":[2147483647],"right_children":[-1],"split_conditions":[-0E0],"split_indices":[0],"split_type":[0],"sum_hessian":[1.2669E4],"tree_param":{"num_deleted":"0","num_feature":"70","num_nodes":"1","size_leaf_vector":"1"}},{"base_weights":[-0E0],"categories":[],"categories_nodes":[],"categories_segments":[],"categories_sizes":[],"default_left":[0],"id":166,"left_children":[-1],"loss_changes":[0E0],"parents":[2147483647],"right_children":[-1],"split_conditions":[-0E0],"split_indices":[0],"split_type":[0],"sum_hessian":[1.2669E4],"tree_param":{"num_deleted":"0","num_feature":"70","num_nodes":"1","size_leaf_vector":"1"}},{"base_weights":[-0E0],"categories":[],"categories_nodes":[],"categories_segments":[],"categories_sizes":[],"default_left":[0],"id":167,"left_children":[-1],"loss_changes":[0E0],"parents":[2147483647],"right_children":[-1],"split_conditions":[-0E0],"split_indices":[0],"split_type":[0],"sum_hessian":[1.2669E4],"tree_param":{"num_deleted":"0","num_feature":"70","num_nodes":"1","size_leaf_vector":"1"}},{"base_weights":[-0E0],"categories":[],"categories_nodes":[],"categories_segments":[],"categories_sizes":[],"default_left":[0],"id":168,"left_children":[-1],"loss_changes":[0E0],"parents":[2147483647],"right_children":[-1],"split_conditions":[-0E0],"split_indices":[0],"split_type":[0],"sum_hessian":[1.2669E4],"tree_param":{"num_deleted":"0","num_feature":"70","num_nodes":"1","size_leaf_vector":"1"}},{"base_weights":[-0E0],"categories":[],"categories_nodes":[],"categories_segments":[],"categories_sizes":[],"default_left":[0],"id":169,"left_children":[-1],"loss_changes":[0E0],"parents":[2147483647],"right_children":[-1],"split_conditions":[-0E0],"split_indices":[0],"split_type":[0],"sum_hessian":[1.2669E4],"tree_param":{"num_deleted":"0","num_feature":"70","num_nodes":"1","size_leaf_vector":"1"}},{"base_weights":[-0E0],"categories":[],"categories_nodes":[],"categories_segments":[],"categories_sizes":[],"default_left":[0],"id":170,"left_children":[-1],"loss_changes":[0E0],"parents":[2147483647],"right_children":[-1],"split_conditions":[-0E0],"split_indices":[0],"split_type":[0],"sum_hessian":[1.2669E4],"tree_param":{"num_deleted":"0","num_feature":"70","num_nodes":"1","size_leaf_vector":"1"}},{"base_weights":[-0E0],"categories":[],"categories_nodes":[],"categories_segments":[],"categories_sizes":[],"default_left":[0],"id":171,"left_children":[-1],"loss_changes":[0E0],"parents":[2147483647],"right_children":[-1],"split_conditions":[-0E0],"split_indices":[0],"split_type":[0],"sum_hessian":[1.2669E4],"tree_param":{"num_deleted":"0","num_feature":"70","num_nodes":"1","size_leaf_vector":"1"}},{"base_weights":[-0E0],"categories":[],"categories_nodes":[],"categories_segments":[],"categories_sizes":[],"default_left":[0],"id":172,"left_children":[-1],"loss_changes":[0E0],"parents":[2147483647],"right_children":[-1],"split_conditions":[-0E0],"split_indices":[0],"split_type":[0],"sum_hessian":[1.2669E4],"tree_param":{"num_deleted":"0","num_feature":"70","num_nodes":"1","size_leaf_vector":"1"}},{"base_weights":[-0E0],"categories":[],"categories_nodes":[],"categories_segments":[],"categories_sizes":[],"default_left":[0],"id":173,"left_children":[-1],"loss_changes":[0E0],"parents":[2147483647],"right_children":[-1],"split_conditions":[-0E0],"split_indices":[0],"split_type":[0],"sum_hessian":[1.2669E4],"tree_param":{"num_deleted":"0","num_feature":"70","num_nodes":"1","size_leaf_vector":"1"}},{"base_weights":[-0E0],"categories":[],"categories_nodes":[],"categories_segments":[],"categories_sizes":[],"default_left":[0],"id":174,"left_children":[-1],"loss_changes":[0E0],"parents":[2147483647],"right_children":[-1],"split_conditions":[-0E0],"split_indices":[0],"split_type":[0],"sum_hessian":[1.2669E4],"tree_param":{"num_deleted":"0","num_feature":"70","num_nodes":"1","size_leaf_vector":"1"}},{"base_weights":[-0E0],"categories":[],"categories_nodes":[],"categories_segments":[],"categories_sizes":[],"default_left":[0],"id":175,"left_children":[-1],"loss_changes":[0E0],"parents":[2147483647],"right_children":[-1],"split_conditions":[-0E0],"split_indices":[0],"split_type":[0],"sum_hessian":[1.2669E4],"tree_param":{"num_deleted":"0","num_feature":"70","num_nodes":"1","size_leaf_vector":"1"}},{"base_weights":[-0E0],"categories":[],"categories_nodes":[],"categories_segments":[],"categories_sizes":[],"default_left":[0],"id":176,"left_children":[-1],"loss_changes":[0E0],"parents":[2147483647],"right_children":[-1],"split_conditions":[-0E0],"split_indices":[0],"split_type":[0],"sum_hessian":[1.2669E4],"tree_param":{"num_deleted":"0","num_feature":"70","num_nodes":"1","size_leaf_vector":"1"}},{"base_weights":[-0E0],"categories":[],"categories_nodes":[],"categories_segments":[],"categories_sizes":[],"default_left":[0],"id":177,"left_children":[-1],"loss_changes":[0E0],"parents":[2147483647],"right_children":[-1],"split_conditions":[-0E0],"split_indices":[0],"split_type":[0],"sum_hessian":[1.2669E4],"tree_param":{"num_deleted":"0","num_feature":"70","num_nodes":"1","size_leaf_vector":"1"}},{"base_weights":[-0E0],"categories":[],"categories_nodes":[],"categories_segments":[],"categories_sizes":[],"default_left":[0],"id":178,"left_children":[-1],"loss_changes":[0E0],"parents":[2147483647],"right_children":[-1],"split_conditions":[-0E0],"split_indices":[0],"split_type":[0],"sum_hessian":[1.2669E4],"tree_param":{"num_deleted":"0","num_feature":"70","num_nodes":"1","size_leaf_vector":"1"}},{"base_weights":[-0E0],"categories":[],"categories_nodes":[],"categories_segments":[],"categories_sizes":[],"default_left":[0],"id":179,"left_children":[-1],"loss_changes":[0E0],"parents":[2147483647],